{"learner":{"attributes":{"best_iteration":"23","best_score":"0.2861001483851672"},"feature_names":[],"feature_types":[],"gradient_booster":{"model":{"gbtree_model_param":{"num_parallel_tree":"1","num_trees":"74"},"iteration_indptr":[0,1,2,3,4,5,6,7,8,9,10,11,12,13,14,15,16,17,18,19,20,21,22,23,24,25,26,27,28,29,30,31,32,33,34,35,36,37,38,39,40,41,42,43,44,45,46,47,48,49,50,51,52,53,54,55,56,57,58,59,60,61,62,63,64,65,66,67,68,69,70,71,72,73,74],"tree_info":[0,0,0,0,0,0,0,0,0,0,0,0,0,0,0,0,0,0,0,0,0,0,0,0,0,0,0,0,0,0,0,0,0,0,0,0,0,0,0,0,0,0,0,0,0,0,0,0,0,0,0,0,0,0,0,0,0,0,0,0,0,0,0,0,0,0,0,0,0,0,0,0,0,0],"trees":[{"base_weights":[-3.401352E-9,-1.8164992E-1,3.8843378E-1,1.6259009E-1,2.2117394E-1,2.95746E-1,-3.3303016E-1,3.5511917E-1,-2.6801917E-1,-5.115788E-1,-5.2165806E-2,-4.7610145E-2,3.860542E-1,-7.340445E-2,2.9700924E-2,-8.3585784E-2,-2.1246001E-2,-2.4014463E-4,-1.3005431E-2,4.689681E-1,1.220556E-1,-6.4921756E-3,6.438143E-3,5.500349E-1,5.090722E-2,-5.3674582E-2,2.1886645E-1,3.7691915E-1,1.2265351E-1,3.7764184E-2,-6.2246587E-2,-1.7363055E-2,5.603017E-3,3.962075E-2,1.2832274E-2,-5.8886004E-3,6.179288E-2,-2.4792587E-2,1.8514903E-2,4.375293E-3,-3.114614E-3],"categories":[],"categories_nodes":[],"categories_segments":[],"categories_sizes":[],"default_left":[0,0,0,0,0,0,0,0,0,0,0,0,0,0,0,0,0,0,0,0,0,0,0,0,0,0,0,0,0,0,0,0,0,0,0,0,0,0,0,0,0],"id":0,"left_children":[1,-1,3,5,-1,7,9,11,13,15,17,-1,19,-1,-1,-1,-1,21,-1,23,25,-1,-1,27,29,31,33,35,-1,-1,37,-1,39,-1,-1,-1,-1,-1,-1,-1,-1],"loss_changes":[3.2927517E1,0E0,1.2760082E1,3.0682569E0,0E0,1.3001897E0,4.7479248E-1,8.090801E-1,5.095042E-1,2.2420645E-2,8.945977E-3,0E0,6.432128E-1,0E0,0E0,0E0,0E0,7.4307616E-3,0E0,7.853799E-1,1.6486084E-1,0E0,0E0,6.185031E-1,1.2930825E-1,1.5368171E-2,1.3616711E-2,2.2029316E-1,0E0,0E0,9.6929014E-2,0E0,2.46973E-3,0E0,0E0,0E0,0E0,0E0,0E0,0E0,0E0],"parents":[2147483647,0,0,2,2,3,3,5,5,6,6,7,7,8,8,9,9,10,10,12,12,17,17,19,19,20,20,23,23,24,24,25,25,26,26,27,27,30,30,32,32],"right_children":[2,-1,4,6,-1,8,10,12,14,16,18,-1,20,-1,-1,-1,-1,22,-1,24,26,-1,-1,28,30,32,34,36,-1,-1,38,-1,40,-1,-1,-1,-1,-1,-1,-1,-1],"split_conditions":[2E0,-1.8164992E-1,8E0,1.7E1,2.2117394E-1,2.015E3,1.44E2,2E0,3E0,3E0,3E0,-4.7610145E-2,1E0,-7.340445E-2,2.9700924E-2,-8.3585784E-2,-2.1246001E-2,1E0,-1.3005431E-2,2.2E1,1.16E2,-6.4921756E-3,6.438143E-3,7E0,2E0,2.009E3,3E0,2.01E3,1.2265351E-1,3.7764184E-2,1.1E1,-1.7363055E-2,1.3E1,3.962075E-2,1.2832274E-2,-5.8886004E-3,6.179288E-2,-2.4792587E-2,1.8514903E-2,4.375293E-3,-3.114614E-3],"split_indices":[4,0,4,1,0,0,3,2,1,6,2,0,80,0,0,0,0,2,0,2,3,0,0,2,1,0,6,0,0,0,1,0,1,0,0,0,0,0,0,0,0],"split_type":[0,0,0,0,0,0,0,0,0,0,0,0,0,0,0,0,0,0,0,0,0,0,0,0,0,0,0,0,0,0,0,0,0,0,0,0,0,0,0,0,0],"sum_hessian":[6.8E1,1.6E1,5.2E1,4.4E1,8E0,3.5E1,9E0,3.2E1,3E0,5E0,4E0,1E0,3.1E1,2E0,1E0,4E0,1E0,2E0,2E0,2.3E1,8E0,1E0,1E0,1.9E1,4E0,3E0,5E0,1.3E1,6E0,1E0,3E0,1E0,2E0,3E0,2E0,1E0,1.2E1,2E0,1E0,1E0,1E0],"tree_param":{"num_deleted":"0","num_feature":"82","num_nodes":"41","size_leaf_vector":"1"}},{"base_weights":[1.1117948E-3,-1.5600523E-1,3.3504352E-1,1.3902803E-1,1.916841E-1,2.5569192E-1,-2.9486474E-1,3.0787507E-1,-2.3874219E-1,-4.073151E-1,-2.4360474E-2,3.3584592E-1,-4.4039384E-2,-6.606401E-2,2.7473355E-2,-1.0299167E-2,-4.523139E-1,-8.6858723E-4,-6.0052616E-3,4.073747E-1,1.07786216E-1,-7.3555484E-2,-1.9652551E-2,2.7456778E-1,6.386676E-1,-8.4185965E-2,1.7466198E-1,3.3325106E-1,-1.6555676E-2,1.13415234E-1,4.983125E-2,-1.6060825E-2,-2.8810177E-3,3.5163414E-2,1.0685358E-2,5.557013E-2,-1.4083433E-2],"categories":[],"categories_nodes":[],"categories_segments":[],"categories_sizes":[],"default_left":[0,0,0,0,0,0,0,0,0,0,0,0,0,0,0,0,0,0,0,0,0,0,0,0,0,0,0,0,0,0,0,0,0,0,0,0,0],"id":1,"left_children":[1,-1,3,5,-1,7,9,11,13,15,17,19,-1,-1,-1,-1,21,-1,-1,23,25,-1,-1,27,29,31,33,35,-1,-1,-1,-1,-1,-1,-1,-1,-1],"loss_changes":[2.4337816E1,0E0,9.61744E0,2.3532772E0,0E0,1.0023437E0,2.9426044E-1,6.537833E-1,4.2102772E-1,7.5616956E-2,9.3247625E-4,4.7810125E-1,0E0,0E0,0E0,0E0,9.116888E-3,0E0,0E0,5.6185746E-1,1.3024864E-1,0E0,0E0,4.2080247E-1,3.6726475E-2,2.4048686E-3,2.6566565E-2,2.7323282E-1,0E0,0E0,0E0,0E0,0E0,0E0,0E0,0E0,0E0],"parents":[2147483647,0,0,2,2,3,3,5,5,6,6,7,7,8,8,9,9,10,10,11,11,16,16,19,19,20,20,23,23,24,24,25,25,26,26,27,27],"right_children":[2,-1,4,6,-1,8,10,12,14,16,18,20,-1,-1,-1,-1,22,-1,-1,24,26,-1,-1,28,30,32,34,36,-1,-1,-1,-1,-1,-1,-1,-1,-1],"split_conditions":[2E0,-1.5600523E-1,8E0,1.7E1,1.916841E-1,2.015E3,2.2E1,1E0,3E0,1E0,2E0,1E0,-4.4039384E-2,-6.606401E-2,2.7473355E-2,-1.0299167E-2,3E0,-8.6858723E-4,-6.0052616E-3,1.5E1,1E0,-7.3555484E-2,-1.9652551E-2,6E0,1E0,2.009E3,3E0,1E0,-1.6555676E-2,1.13415234E-1,4.983125E-2,-1.6060825E-2,-2.8810177E-3,3.5163414E-2,1.0685358E-2,5.557013E-2,-1.4083433E-2],"split_indices":[4,0,4,1,0,0,1,15,1,31,6,80,0,0,0,0,6,0,0,5,52,0,0,5,35,0,6,18,0,0,0,0,0,0,0,0,0],"split_type":[0,0,0,0,0,0,0,0,0,0,0,0,0,0,0,0,0,0,0,0,0,0,0,0,0,0,0,0,0,0,0,0,0,0,0,0,0],"sum_hessian":[6.8E1,1.6E1,5.2E1,4.4E1,8E0,3.5E1,9E0,3.2E1,3E0,6E0,3E0,3.1E1,1E0,2E0,1E0,1E0,5E0,2E0,1E0,2.3E1,8E0,4E0,1E0,1.6E1,7E0,2E0,6E0,1.4E1,2E0,4E0,3E0,1E0,1E0,3E0,3E0,1.3E1,1E0],"tree_param":{"num_deleted":"0","num_feature":"82","num_nodes":"37","size_leaf_vector":"1"}},{"base_weights":[1.7820209E-3,-8.9320636E-1,2.8882015E-1,-1.8741314E-1,-1.0914455E-1,1.1866433E-1,1.1075081E0,2.210174E-1,-2.6167315E-1,4.6235688E-2,1.7533308E-1,2.66877E-1,-2.1257852E-1,-4.000015E-1,-4.3344505E-2,-4.073643E-2,2.921904E-1,-5.9457608E-2,2.5412854E-2,-6.4728834E-2,-1.817861E-2,2.0691503E-3,-1.1146499E-2,3.5410923E-1,9.460794E-2,-5.5548674E-3,6.0204263E-3,4.1945627E-1,2.1899188E-2,-4.7584865E-2,1.7363515E-1,2.7833536E-1,6.417758E-1,2.6425729E-2,-6.071177E-2,-1.4856262E-2,2.581343E-3,3.120753E-2,1.0480512E-2,-4.205279E-3,4.5608833E-2,1.1183927E-1,3.8222764E-2,-2.0781372E-2,1.2958526E-2,3.2457437E-3,-2.6649416E-3],"categories":[],"categories_nodes":[],"categories_segments":[],"categories_sizes":[],"default_left":[0,0,0,0,0,0,0,0,0,0,0,0,0,0,0,0,0,0,0,0,0,0,0,0,0,0,0,0,0,0,0,0,0,0,0,0,0,0,0,0,0,0,0,0,0,0,0],"id":2,"left_children":[1,3,5,-1,-1,7,9,11,13,-1,-1,15,17,19,21,-1,23,-1,-1,-1,-1,25,-1,27,29,-1,-1,31,33,35,37,39,41,-1,43,-1,45,-1,-1,-1,-1,-1,-1,-1,-1,-1,-1],"loss_changes":[1.7983786E1,9.355259E-2,7.251716E0,0E0,0E0,1.8096263E0,8.123112E-2,7.7257514E-1,2.8467256E-1,0E0,0E0,5.29145E-1,3.48008E-1,4.3857098E-4,7.185038E-3,0E0,3.5798883E-1,0E0,0E0,0E0,0E0,5.951785E-3,0E0,5.1182866E-1,1.0939633E-1,0E0,0E0,4.4884992E-1,7.4418604E-2,1.05812475E-2,6.889984E-3,1.18857265E-1,9.122419E-2,0E0,5.7764895E-2,0E0,1.5477225E-3,0E0,0E0,0E0,0E0,0E0,0E0,0E0,0E0,0E0,0E0],"parents":[2147483647,0,0,1,1,2,2,5,5,6,6,7,7,8,8,11,11,12,12,13,13,14,14,16,16,21,21,23,23,24,24,27,27,28,28,29,29,30,30,31,31,32,32,34,34,36,36],"right_children":[2,4,6,-1,-1,8,10,12,14,-1,-1,16,18,20,22,-1,24,-1,-1,-1,-1,26,-1,28,30,-1,-1,32,34,36,38,40,42,-1,44,-1,46,-1,-1,-1,-1,-1,-1,-1,-1,-1,-1],"split_conditions":[2E0,1.1E1,8E0,-1.8741314E-1,-1.0914455E-1,1.7E1,7.2E1,2.015E3,1.44E2,4.6235688E-2,1.7533308E-1,2E0,3E0,3E0,3E0,-4.073643E-2,1E0,-5.9457608E-2,2.5412854E-2,-6.4728834E-2,-1.817861E-2,1E0,-1.1146499E-2,2.2E1,1.16E2,-5.5548674E-3,6.0204263E-3,7E0,2E0,2.009E3,3E0,2.01E3,1E0,2.6425729E-2,1.1E1,-1.4856262E-2,1.3E1,3.120753E-2,1.0480512E-2,-4.205279E-3,4.5608833E-2,1.1183927E-1,3.8222764E-2,-2.0781372E-2,1.2958526E-2,3.2457437E-3,-2.6649416E-3],"split_indices":[4,3,4,0,0,1,3,0,3,0,0,2,1,6,2,0,80,0,0,0,0,2,0,2,3,0,0,2,1,0,6,0,23,0,1,0,1,0,0,0,0,0,0,0,0,0,0],"split_type":[0,0,0,0,0,0,0,0,0,0,0,0,0,0,0,0,0,0,0,0,0,0,0,0,0,0,0,0,0,0,0,0,0,0,0,0,0,0,0,0,0,0,0,0,0,0,0],"sum_hessian":[6.8E1,1.6E1,5.2E1,3E0,1.3E1,4.4E1,8E0,3.5E1,9E0,1E0,7E0,3.2E1,3E0,5E0,4E0,1E0,3.1E1,2E0,1E0,4E0,1E0,2E0,2E0,2.3E1,8E0,1E0,1E0,1.9E1,4E0,3E0,5E0,1.3E1,6E0,1E0,3E0,1E0,2E0,3E0,2E0,1E0,1.2E1,4E0,2E0,2E0,1E0,1E0,1E0],"tree_param":{"num_deleted":"0","num_feature":"82","num_nodes":"47","size_leaf_vector":"1"}},{"base_weights":[1.4295203E-3,-7.7667E-1,2.5098163E-1,-1.6632915E-1,-9.3942285E-2,1.024005E-1,9.6600056E-1,1.9238423E-1,-2.3178102E-1,1.7918716E-1,8.163299E-2,2.5083742E-1,-8.561283E-2,-5.307288E-2,-3.8979016E-2,2.7681166E-1,-3.76812E-2,6.9539234E-2,-2.5441325E-1,-1.003185E-2,1.9139647E-3,6.922703E-2,2.1910238E-1,-2.949229E-1,-3.8898832E-3,5.568894E-3,-5.138252E-3,2.3527701E-1,-1.1468573E-2,-2.021888E-2,-5.3511843E-2,2.878106E-1,1.21579155E-1,5.574498E-2,1.5020682E-2,2.6952E-2,5.8743726E-3],"categories":[],"categories_nodes":[],"categories_segments":[],"categories_sizes":[],"default_left":[0,0,0,0,0,0,0,0,0,0,0,0,0,0,0,0,0,0,0,0,0,0,0,0,0,0,0,0,0,0,0,0,0,0,0,0,0],"id":3,"left_children":[1,3,5,-1,-1,7,9,11,13,-1,-1,15,17,-1,19,21,-1,-1,23,-1,25,-1,27,29,-1,-1,-1,31,-1,-1,-1,33,35,-1,-1,-1,-1],"loss_changes":[1.3593101E1,1.5481949E-1,5.5317116E0,0E0,0E0,1.3977816E0,2.175827E-1,6.064681E-1,2.2150052E-1,0E0,0E0,4.6074498E-1,7.668901E-1,0E0,5.83257E-3,2.0799279E-1,0E0,0E0,4.7885865E-2,0E0,5.092496E-3,0E0,1.3272226E-1,1.4118552E-3,0E0,0E0,0E0,1.0238612E-1,0E0,0E0,0E0,1.987536E-1,3.6059573E-2,0E0,0E0,0E0,0E0],"parents":[2147483647,0,0,1,1,2,2,5,5,6,6,7,7,8,8,11,11,12,12,14,14,15,15,18,18,20,20,22,22,23,23,27,27,31,31,32,32],"right_children":[2,4,6,-1,-1,8,10,12,14,-1,-1,16,18,-1,20,22,-1,-1,24,-1,26,-1,28,30,-1,-1,-1,32,-1,-1,-1,34,36,-1,-1,-1,-1],"split_conditions":[2E0,1.1E1,8E0,-1.6632915E-1,-9.3942285E-2,1.7E1,1E0,1E0,1.44E2,1.7918716E-1,8.163299E-2,1E0,1E0,-5.307288E-2,2.57E2,1E0,-3.76812E-2,6.9539234E-2,1.09E2,-1.003185E-2,3.99E2,6.922703E-2,1E0,2.013E3,-3.8898832E-3,5.568894E-3,-5.138252E-3,1E0,-1.1468573E-2,-2.021888E-2,-5.3511843E-2,1E0,3E0,5.574498E-2,1.5020682E-2,2.6952E-2,5.8743726E-3],"split_indices":[4,3,4,0,0,1,65,75,3,0,0,15,30,0,3,31,0,0,3,0,3,0,18,0,0,0,0,11,0,0,0,48,6,0,0,0,0],"split_type":[0,0,0,0,0,0,0,0,0,0,0,0,0,0,0,0,0,0,0,0,0,0,0,0,0,0,0,0,0,0,0,0,0,0,0,0,0],"sum_hessian":[6.8E1,1.6E1,5.2E1,3E0,1.3E1,4.4E1,8E0,3.5E1,9E0,4E0,4E0,2.9E1,6E0,5E0,4E0,2.8E1,1E0,1E0,5E0,2E0,2E0,5E0,2.3E1,4E0,1E0,1E0,1E0,2.2E1,1E0,2E0,2E0,1.4E1,8E0,9E0,5E0,4E0,4E0],"tree_param":{"num_deleted":"0","num_feature":"82","num_nodes":"37","size_leaf_vector":"1"}},{"base_weights":[1.9899122E-3,2.5825393E-1,-5.2176654E-1,3.7317502E-1,-7.101474E-2,-6.3236487E-1,1.6166672E-1,2.6100636E-1,7.191185E-1,-2.1439272E-1,3.051839E-1,-1.800153E-1,-5.393207E-1,6.432379E-2,-1.0549178E-2,2.0141803E-1,1.4024186E-1,1.3008481E-1,2.7477782E-2,-5.4816585E-2,-5.2784625E-2,5.439329E-2,9.965236E-3,-8.648303E-2,-3.8333897E-2,2.3733412E-1,-2.475331E-2,1.7704169E-3,-1.2075714E-2,1.7561992E-1,6.052387E-2,-4.7528837E-3,5.151227E-3,2.3927838E-1,1.22936256E-1,2.65227E-1,4.322846E-3,1.0328375E-2,2.1370722E-2,6.3599525E-3,4.4294745E-2,-2.905649E-3,5.229533E-3],"categories":[],"categories_nodes":[],"categories_segments":[],"categories_sizes":[],"default_left":[0,0,0,0,0,0,0,0,0,0,0,0,0,0,0,0,0,0,0,0,0,0,0,0,0,0,0,0,0,0,0,0,0,0,0,0,0,0,0,0,0,0,0],"id":4,"left_children":[1,3,5,7,9,11,13,15,17,19,21,-1,23,-1,-1,25,-1,-1,-1,-1,27,-1,-1,-1,-1,29,-1,31,-1,33,-1,-1,-1,35,37,39,-1,41,-1,-1,-1,-1,-1],"loss_changes":[9.395924E0,1.8049774E0,1.8407235E0,1.1704459E0,7.66631E-1,4.0925312E-1,2.7807564E-1,9.3613493E-1,4.7616816E-1,2.2482115E-1,3.0762285E-2,0E0,5.339575E-2,0E0,0E0,3.9451492E-1,0E0,0E0,0E0,0E0,9.216161E-3,0E0,0E0,0E0,0E0,1.8549693E-1,0E0,4.357267E-3,0E0,3.7659228E-2,0E0,0E0,0E0,3.604549E-2,2.7126148E-2,3.438434E-2,0E0,2.8613794E-3,0E0,0E0,0E0,0E0,0E0],"parents":[2147483647,0,0,1,1,2,2,3,3,4,4,5,5,6,6,7,7,8,8,9,9,10,10,12,12,15,15,20,20,25,25,27,27,29,29,33,33,34,34,35,35,37,37],"right_children":[2,4,6,8,10,12,14,16,18,20,22,-1,24,-1,-1,26,-1,-1,-1,-1,28,-1,-1,-1,-1,30,-1,32,-1,34,-1,-1,-1,36,38,40,-1,42,-1,-1,-1,-1,-1],"split_conditions":[1E0,1E0,5E0,1.68E2,6.95E2,4E0,1E1,2.7E1,1E0,1.55E2,1.5E1,-1.800153E-1,5.9E1,6.432379E-2,-1.0549178E-2,1.7E1,1.4024186E-1,1.3008481E-1,2.7477782E-2,-5.4816585E-2,3E0,5.439329E-2,9.965236E-3,-8.648303E-2,-3.8333897E-2,1E0,-2.475331E-2,1E0,-1.2075714E-2,5.7E1,6.052387E-2,-4.7528837E-3,5.151227E-3,1E0,8.2E1,5E0,4.322846E-3,1.4E1,2.1370722E-2,6.3599525E-3,4.4294745E-2,-2.905649E-3,5.229533E-3],"split_indices":[75,40,1,3,3,3,1,2,23,3,2,0,3,0,0,1,0,0,0,0,2,0,0,0,0,38,0,2,0,3,0,0,0,48,3,3,0,1,0,0,0,0,0],"split_type":[0,0,0,0,0,0,0,0,0,0,0,0,0,0,0,0,0,0,0,0,0,0,0,0,0,0,0,0,0,0,0,0,0,0,0,0,0,0,0,0,0,0,0],"sum_hessian":[6.8E1,4.6E1,2.2E1,3.4E1,1.2E1,1.9E1,3E0,2.7E1,7E0,9E0,3E0,1E0,1.8E1,1E0,2E0,2.6E1,1E0,5E0,2E0,4E0,5E0,2E0,1E0,1.5E1,3E0,2.4E1,2E0,2E0,3E0,1.9E1,5E0,1E0,1E0,7E0,1.2E1,6E0,1E0,2E0,1E1,1E0,5E0,1E0,1E0],"tree_param":{"num_deleted":"0","num_feature":"82","num_nodes":"43","size_leaf_vector":"1"}},{"base_weights":[3.9965627E-3,-5.9141415E-1,1.9490196E-1,-1.6651416E-1,-4.8961577E-1,7.82496E-2,7.5650793E-1,-7.583033E-2,-1.8811442E-2,1.4767599E-1,-1.7951034E-1,6.117979E-2,1.4307737E-1,6.9753304E-2,2.9770857E-1,-2.739324E-1,-3.0301787E-2,1.3796599E-1,-2.3069061E-1,7.7892445E-2,1.6615234E-1,-4.4916533E-2,-1.0978251E-2,1.6376363E-3,-7.821092E-3,-3.0743865E-2,1.653602E-1,-1.5752839E-2,-4.1919816E-2,-1.0972869E-2,3.8481563E-2,-4.396417E-3,4.764885E-3,3.192502E-2,2.0771025E-1,-8.339803E-3,9.217843E-3,-7.6835304E-3,8.047527E-3,2.6635945E-1,1.1301482E-2,9.589308E-4,-2.6877252E-3,5.8829566E-3,4.308592E-2],"categories":[],"categories_nodes":[],"categories_segments":[],"categories_sizes":[],"default_left":[0,0,0,0,0,0,0,0,0,0,0,0,0,0,0,0,0,0,0,0,0,0,0,0,0,0,0,0,0,0,0,0,0,0,0,0,0,0,0,0,0,0,0,0,0],"id":5,"left_children":[1,3,5,-1,7,9,11,-1,-1,13,15,-1,-1,17,19,21,23,25,27,-1,29,-1,-1,31,-1,-1,33,-1,-1,35,-1,-1,-1,37,39,-1,-1,41,-1,43,-1,-1,-1,-1,-1],"loss_changes":[7.958299E0,3.540945E-1,3.4129748E0,0E0,2.937007E-2,8.3179975E-1,2.3017168E-1,0E0,0E0,4.0010762E-1,1.3258517E-1,0E0,0E0,5.4417956E-1,2.6351392E-1,8.811504E-3,3.572986E-3,2.3116946E-1,1.2988746E-3,0E0,1.4691044E-1,0E0,0E0,3.7281865E-3,0E0,0E0,1.0638857E-1,0E0,0E0,1.6344793E-2,0E0,0E0,0E0,5.5752336E-3,9.6379936E-2,0E0,0E0,5.467492E-4,0E0,3.6161363E-2,0E0,0E0,0E0,0E0,0E0],"parents":[2147483647,0,0,1,1,2,2,4,4,5,5,6,6,9,9,10,10,13,13,14,14,15,15,16,16,17,17,18,18,20,20,23,23,26,26,29,29,33,33,34,34,37,37,39,39],"right_children":[2,4,6,-1,8,10,12,-1,-1,14,16,-1,-1,18,20,22,24,26,28,-1,30,-1,-1,32,-1,-1,34,-1,-1,36,-1,-1,-1,38,40,-1,-1,42,-1,44,-1,-1,-1,-1,-1],"split_conditions":[2E0,4E0,8E0,-1.6651416E-1,4.5E1,1.7E1,1.1E1,-7.583033E-2,-1.8811442E-2,1.57E2,1.44E2,6.117979E-2,1.4307737E-1,1E0,1E1,3E0,3E0,2E0,2.013E3,7.7892445E-2,1.2E1,-4.4916533E-2,-1.0978251E-2,1E0,-7.821092E-3,-3.0743865E-2,2.01E3,-1.5752839E-2,-4.1919816E-2,2.4E1,3.8481563E-2,-4.396417E-3,4.764885E-3,1.16E2,1E0,-8.339803E-3,9.217843E-3,1.3E1,8.047527E-3,5E0,1.1301482E-2,9.589308E-4,-2.6877252E-3,5.8829566E-3,4.308592E-2],"split_indices":[4,3,4,0,3,1,4,0,0,3,3,0,0,75,1,6,2,2,0,0,1,0,0,2,0,0,0,0,0,2,0,0,0,3,48,0,0,1,0,3,0,0,0,0,0],"split_type":[0,0,0,0,0,0,0,0,0,0,0,0,0,0,0,0,0,0,0,0,0,0,0,0,0,0,0,0,0,0,0,0,0,0,0,0,0,0,0,0,0,0,0,0,0],"sum_hessian":[6.8E1,1.6E1,5.2E1,1E0,1.5E1,4.4E1,8E0,1.4E1,1E0,3.5E1,9E0,4E0,4E0,2.4E1,1.1E1,5E0,4E0,2E1,4E0,3E0,8E0,4E0,1E0,2E0,2E0,1E0,1.9E1,2E0,2E0,3E0,5E0,1E0,1E0,5E0,1.4E1,2E0,1E0,2E0,3E0,9E0,5E0,1E0,1E0,1E0,8E0],"tree_param":{"num_deleted":"0","num_feature":"82","num_nodes":"45","size_leaf_vector":"1"}},{"base_weights":[3.037344E-3,-5.1806414E-1,1.701258E-1,-1.5402558E-1,-4.220885E-1,6.722499E-2,6.6572696E-1,-6.521409E-2,-1.7400581E-2,1.2817527E-1,-1.5891853E-1,5.9306677E-2,1.3572285E-1,5.841721E-2,2.6282328E-1,-2.4215834E-1,-2.7247045E-2,1.18977994E-1,-2.0762154E-1,6.912955E-2,1.4560278E-1,-3.952655E-2,-1.01548815E-2,1.5148135E-3,-7.0389835E-3,-2.8438075E-2,1.4388561E-1,-1.4177555E-2,-3.7727833E-2,-9.107429E-3,3.3671368E-2,-4.0666857E-3,4.407519E-3,2.8189387E-2,1.8057173E-1,-5.003882E-2,8.526506E-3,-7.1072653E-3,7.1421796E-3,2.3130241E-1,9.888796E-3,-2.1814683E-3,-9.077266E-3,8.87011E-4,-2.4861458E-3,5.441734E-3,3.734113E-2],"categories":[],"categories_nodes":[],"categories_segments":[],"categories_sizes":[],"default_left":[0,0,0,0,0,0,0,0,0,0,0,0,0,0,0,0,0,0,0,0,0,0,0,0,0,0,0,0,0,0,0,0,0,0,0,0,0,0,0,0,0,0,0,0,0,0,0],"id":6,"left_children":[1,3,5,-1,7,9,11,-1,-1,13,15,-1,-1,17,19,21,23,25,27,-1,29,-1,-1,31,-1,-1,33,-1,-1,35,-1,-1,-1,37,39,41,-1,43,-1,45,-1,-1,-1,-1,-1,-1,-1],"loss_changes":[6.0959687E0,3.9669085E-1,2.658128E0,0E0,1.1625528E-2,6.4062744E-1,2.239995E-1,0E0,0E0,3.227868E-1,1.0300496E-1,0E0,0E0,4.2749032E-1,2.1146965E-1,4.5108497E-3,2.9011816E-3,1.8867692E-1,1.0521263E-3,0E0,1.11866534E-1,0E0,0E0,3.1899298E-3,0E0,0E0,7.97987E-2,0E0,0E0,1.3642206E-2,0E0,0E0,0E0,4.4522635E-3,7.1992666E-2,2.3551099E-4,0E0,4.678122E-4,0E0,2.5368035E-2,0E0,0E0,0E0,0E0,0E0,0E0,0E0],"parents":[2147483647,0,0,1,1,2,2,4,4,5,5,6,6,9,9,10,10,13,13,14,14,15,15,16,16,17,17,18,18,20,20,23,23,26,26,29,29,33,33,34,34,35,35,37,37,39,39],"right_children":[2,4,6,-1,8,10,12,-1,-1,14,16,-1,-1,18,20,22,24,26,28,-1,30,-1,-1,32,-1,-1,34,-1,-1,36,-1,-1,-1,38,40,42,-1,44,-1,46,-1,-1,-1,-1,-1,-1,-1],"split_conditions":[2E0,4E0,8E0,-1.5402558E-1,4.5E1,1.7E1,2.2E1,-6.521409E-2,-1.7400581E-2,1.57E2,1.44E2,5.9306677E-2,1.3572285E-1,1E0,1E1,3E0,3E0,2E0,2.013E3,6.912955E-2,1.2E1,-3.952655E-2,-1.01548815E-2,1E0,-7.0389835E-3,-2.8438075E-2,2.01E3,-1.4177555E-2,-3.7727833E-2,2.4E1,3.3671368E-2,-4.0666857E-3,4.407519E-3,1.16E2,1E0,2.01E3,8.526506E-3,1.3E1,7.1421796E-3,5E0,9.888796E-3,-2.1814683E-3,-9.077266E-3,8.87011E-4,-2.4861458E-3,5.441734E-3,3.734113E-2],"split_indices":[4,3,4,0,3,1,4,0,0,3,3,0,0,75,1,6,2,2,0,0,1,0,0,2,0,0,0,0,0,2,0,0,0,3,48,0,0,1,0,3,0,0,0,0,0,0,0],"split_type":[0,0,0,0,0,0,0,0,0,0,0,0,0,0,0,0,0,0,0,0,0,0,0,0,0,0,0,0,0,0,0,0,0,0,0,0,0,0,0,0,0,0,0,0,0,0,0],"sum_hessian":[6.8E1,1.6E1,5.2E1,1E0,1.5E1,4.4E1,8E0,1.4E1,1E0,3.5E1,9E0,5E0,3E0,2.4E1,1.1E1,5E0,4E0,2E1,4E0,3E0,8E0,4E0,1E0,2E0,2E0,1E0,1.9E1,2E0,2E0,3E0,5E0,1E0,1E0,5E0,1.4E1,2E0,1E0,2E0,3E0,9E0,5E0,1E0,1E0,1E0,1E0,1E0,8E0],"tree_param":{"num_deleted":"0","num_feature":"82","num_nodes":"47","size_leaf_vector":"1"}},{"base_weights":[2.291159E-3,-4.5427454E-1,1.4869353E-1,-1.4247367E-1,-3.6393863E-1,5.7620358E-2,5.875379E-1,-6.0514376E-2,-1.9637369E-1,1.1111398E-1,-1.407187E-1,1.13063194E-1,4.5572035E-2,-8.905721E-3,-3.2367207E-2,4.8769478E-2,2.3173885E-1,-2.1411481E-1,-2.4499618E-2,1.0254923E-1,-1.8685938E-1,6.1352473E-2,1.2720004E-1,-3.4783363E-2,-9.3932655E-3,2.1888725E-3,-6.453236E-3,-2.6305221E-2,1.252135E-1,-3.395505E-2,-1.27598E-2,-8.4243715E-3,2.946245E-2,4.076955E-3,-3.5844587E-3,1.5699741E-1,2.488482E-2,-4.628591E-2,7.887018E-3,2.0088534E-1,5.768464E-2,-6.5742205E-3,6.3386844E-3,-8.396471E-3,-2.0178584E-3,1.0003656E-2,3.3914633E-2,2.4093613E-3,9.4194915E-3,8.2048523E-4,-2.2996848E-3],"categories":[],"categories_nodes":[],"categories_segments":[],"categories_sizes":[],"default_left":[0,0,0,0,0,0,0,0,0,0,0,0,0,0,0,0,0,0,0,0,0,0,0,0,0,0,0,0,0,0,0,0,0,0,0,0,0,0,0,0,0,0,0,0,0,0,0,0,0,0,0],"id":7,"left_children":[1,3,5,-1,7,9,11,-1,13,15,17,-1,-1,-1,-1,19,21,23,25,27,29,-1,31,-1,-1,33,-1,-1,35,-1,-1,37,-1,-1,-1,39,41,43,-1,45,47,49,-1,-1,-1,-1,-1,-1,-1,-1,-1],"loss_changes":[4.6796665E0,4.1534305E-1,2.084394E0,0E0,2.6652813E-2,4.9308014E-1,1.9543672E-1,0E0,4.8322976E-4,2.594289E-1,8.005455E-2,0E0,0E0,0E0,0E0,3.3596385E-1,1.7036176E-1,1.6347468E-3,2.5657832E-3,1.5423317E-1,8.522123E-4,0E0,8.614142E-2,0E0,0E0,2.6051735E-3,0E0,0E0,5.9869915E-2,0E0,0E0,1.1672613E-2,0E0,0E0,0E0,5.3791463E-2,3.5570539E-3,2.015084E-4,0E0,1.8754661E-2,2.67962E-4,4.0027185E-4,0E0,0E0,0E0,0E0,0E0,0E0,0E0,0E0,0E0],"parents":[2147483647,0,0,1,1,2,2,4,4,5,5,6,6,8,8,9,9,10,10,15,15,16,16,17,17,18,18,19,19,20,20,22,22,25,25,28,28,31,31,35,35,36,36,37,37,39,39,40,40,41,41],"right_children":[2,4,6,-1,8,10,12,-1,14,16,18,-1,-1,-1,-1,20,22,24,26,28,30,-1,32,-1,-1,34,-1,-1,36,-1,-1,38,-1,-1,-1,40,42,44,-1,46,48,50,-1,-1,-1,-1,-1,-1,-1,-1,-1],"split_conditions":[2E0,4E0,8E0,-1.4247367E-1,2.1E1,1.7E1,1E0,-6.0514376E-2,2.3E1,1.57E2,1.44E2,1.13063194E-1,4.5572035E-2,-8.905721E-3,-3.2367207E-2,1E0,1E1,3E0,2E0,2E0,3E0,6.1352473E-2,1.2E1,-3.4783363E-2,-9.3932655E-3,3E0,-6.453236E-3,-2.6305221E-2,1E0,-3.395505E-2,-1.27598E-2,2.4E1,2.946245E-2,4.076955E-3,-3.5844587E-3,1E0,1.16E2,1.1E1,7.887018E-3,1E1,5.1E1,1.3E1,6.3386844E-3,-8.396471E-3,-2.0178584E-3,1.0003656E-2,3.3914633E-2,2.4093613E-3,9.4194915E-3,8.2048523E-4,-2.2996848E-3],"split_indices":[4,3,4,0,3,1,65,0,3,3,3,0,0,0,0,75,1,6,6,2,1,0,1,0,0,2,0,0,11,0,0,2,0,0,0,48,3,1,0,3,3,1,0,0,0,0,0,0,0,0,0],"split_type":[0,0,0,0,0,0,0,0,0,0,0,0,0,0,0,0,0,0,0,0,0,0,0,0,0,0,0,0,0,0,0,0,0,0,0,0,0,0,0,0,0,0,0,0,0,0,0,0,0,0,0],"sum_hessian":[6.8E1,1.6E1,5.2E1,1E0,1.5E1,4.4E1,8E0,1.1E1,4E0,3.5E1,9E0,4E0,4E0,1E0,3E0,2.4E1,1.1E1,5E0,4E0,2E1,4E0,3E0,8E0,4E0,1E0,2E0,2E0,1E0,1.9E1,2E0,2E0,3E0,5E0,1E0,1E0,1.4E1,5E0,2E0,1E0,9E0,5E0,2E0,3E0,1E0,1E0,2E0,7E0,1E0,4E0,1E0,1E0],"tree_param":{"num_deleted":"0","num_feature":"82","num_nodes":"51","size_leaf_vector":"1"}},{"base_weights":[1.0795314E-3,-4.0050164E-1,1.2986821E-1,-4.548616E-2,-1.129956E-1,4.9549233E-2,5.1703334E-1,9.6554495E-2,-1.2462463E-1,4.450956E-2,1.0773442E-1,4.3870315E-2,2.1230306E-1,-1.726597E-1,-9.407109E-3,8.0938615E-2,-1.8023996E-1,3.3803108E-1,-6.1767744E-3,-2.8404055E-2,-5.4341764E-3,2.193297E-3,-3.3156245E-3,-2.4332328E-2,9.9364504E-2,-8.232674E-3,-3.0559545E-2,6.224545E-2,1.4568464E-2,2.225588E-2,-8.993055E-3,-3.2776918E-3,3.7711835E-3,4.631363E-2,1.2637118E-1,-7.766736E-3,9.629E-3,-2.6624848E-3,6.715319E-2,1.625751E-1,7.6505137E-3,1.3831907E-2,3.7958075E-3,2.7495218E-2,9.003291E-3],"categories":[],"categories_nodes":[],"categories_segments":[],"categories_sizes":[],"default_left":[0,0,0,0,0,0,0,0,0,0,0,0,0,0,0,0,0,0,0,0,0,0,0,0,0,0,0,0,0,0,0,0,0,0,0,0,0,0,0,0,0,0,0,0,0],"id":8,"left_children":[1,3,5,-1,-1,7,9,11,13,-1,-1,15,17,19,21,23,25,27,29,-1,-1,31,-1,-1,33,-1,-1,-1,-1,35,-1,-1,-1,37,39,-1,-1,-1,41,43,-1,-1,-1,-1,-1],"loss_changes":[3.620631E0,3.5490155E-1,1.6225071E0,0E0,0E0,3.8045204E-1,1.8579626E-1,2.1021843E-1,5.3720593E-2,0E0,0E0,2.3058043E-1,3.0424732E-1,9.08941E-3,6.376449E-4,1.1916609E-1,5.969256E-4,8.944261E-2,8.979426E-3,0E0,0E0,2.204687E-3,0E0,0E0,2.5667325E-2,0E0,0E0,0E0,0E0,1.5743027E-2,0E0,0E0,0E0,1.3207467E-2,2.9908627E-2,0E0,0E0,0E0,5.007323E-3,8.127883E-3,0E0,0E0,0E0,0E0,0E0],"parents":[2147483647,0,0,1,1,2,2,5,5,6,6,7,7,8,8,11,11,12,12,13,13,14,14,15,15,16,16,17,17,18,18,21,21,24,24,29,29,33,33,34,34,38,38,39,39],"right_children":[2,4,6,-1,-1,8,10,12,14,-1,-1,16,18,20,22,24,26,28,30,-1,-1,32,-1,-1,34,-1,-1,-1,-1,36,-1,-1,-1,38,40,-1,-1,-1,42,44,-1,-1,-1,-1,-1],"split_conditions":[2E0,1E0,8E0,-4.548616E-2,-1.129956E-1,1.7E1,2.2E1,1.4E1,2.2E1,4.450956E-2,1.0773442E-1,1.2E1,2.2E1,2.3E1,3E0,2E0,2.009E3,1E0,2.011E3,-2.8404055E-2,-5.4341764E-3,1E0,-3.3156245E-3,-2.4332328E-2,2.01E3,-8.232674E-3,-3.0559545E-2,6.224545E-2,1.4568464E-2,2.4E1,-8.993055E-3,-3.2776918E-3,3.7711835E-3,1E0,1E0,-7.766736E-3,9.629E-3,-2.6624848E-3,3E0,1E0,7.6505137E-3,1.3831907E-2,3.7958075E-3,2.7495218E-2,9.003291E-3],"split_indices":[4,56,4,0,0,1,4,2,1,0,0,2,2,2,2,2,0,23,0,0,0,2,0,0,0,0,0,0,0,2,0,0,0,52,48,0,0,0,6,56,0,0,0,0,0],"split_type":[0,0,0,0,0,0,0,0,0,0,0,0,0,0,0,0,0,0,0,0,0,0,0,0,0,0,0,0,0,0,0,0,0,0,0,0,0,0,0,0,0,0,0,0,0],"sum_hessian":[6.8E1,1.6E1,5.2E1,1.4E1,2E0,4.4E1,8E0,3.5E1,9E0,5E0,3E0,2.5E1,1E1,6E0,3E0,2.2E1,3E0,6E0,4E0,5E0,1E0,2E0,1E0,1E0,2.1E1,1E0,2E0,4E0,2E0,3E0,1E0,1E0,1E0,8E0,1.3E1,1E0,2E0,2E0,6E0,8E0,5E0,3E0,3E0,6E0,2E0],"tree_param":{"num_deleted":"0","num_feature":"82","num_nodes":"45","size_leaf_vector":"1"}},{"base_weights":[1.2476709E-3,-3.4974885E-1,1.1380792E-1,-1.2331347E-1,-2.6884693E-1,6.2323134E-2,8.9339584E-2,-4.6142414E-2,-2.2944348E-2,2.252286E-2,2.6348418E-1,6.1876662E-2,-1.09596975E-1,6.4258333E-3,4.3332763E-2,1.0095274E-1,-1.3079114E-1,-1.6569032E-1,-2.036556E-2,-2.2507405E-2,1.158065E-1,-1.6668326E-3,-2.2875674E-2,-2.7200872E-2,-6.5584662E-3,2.0288005E-3,-5.39571E-3,8.013937E-2,2.2728488E-1,-3.0318648E-3,3.4883448E-3,8.851695E-2,-7.1842307E-3,2.5521302E-1,6.5733166E-3,1.5542638E-2,5.024366E-3,4.2935587E-2,9.833712E-3],"categories":[],"categories_nodes":[],"categories_segments":[],"categories_sizes":[],"default_left":[0,0,0,0,0,0,0,0,0,0,0,0,0,0,0,0,0,0,0,0,0,0,0,0,0,0,0,0,0,0,0,0,0,0,0,0,0,0,0],"id":9,"left_children":[1,3,5,-1,7,9,-1,-1,-1,11,13,15,17,-1,-1,19,21,23,25,-1,27,-1,-1,-1,-1,29,-1,31,33,-1,-1,35,-1,37,-1,-1,-1,-1,-1],"loss_changes":[2.7658734E0,4.2860985E-1,1.2775357E0,0E0,2.4830341E-2,3.8637257E-1,0E0,0E0,0E0,2.2515704E-1,3.2461226E-2,2.6165092E-1,4.6678513E-2,0E0,0E0,1.21769786E-1,1.3897106E-2,3.5231411E-3,1.8203931E-3,0E0,8.9140564E-2,0E0,0E0,0E0,0E0,1.8863854E-3,0E0,2.7837098E-2,1.9558638E-2,0E0,0E0,1.397717E-2,0E0,1.065433E-2,0E0,0E0,0E0,0E0,0E0],"parents":[2147483647,0,0,1,1,2,2,4,4,5,5,9,9,10,10,11,11,12,12,15,15,16,16,17,17,18,18,20,20,25,25,27,27,28,28,31,31,33,33],"right_children":[2,4,6,-1,8,10,-1,-1,-1,12,14,16,18,-1,-1,20,22,24,26,-1,28,-1,-1,-1,-1,30,-1,32,34,-1,-1,36,-1,38,-1,-1,-1,-1,-1],"split_conditions":[2E0,4E0,1.1E1,-1.2331347E-1,1.9E1,1E0,8.9339584E-2,-4.6142414E-2,-2.2944348E-2,1.7E1,2E0,1E0,1.44E2,6.4258333E-3,4.3332763E-2,2E0,7E0,3E0,3E0,-2.2507405E-2,4.56E2,-1.6668326E-3,-2.2875674E-2,-2.7200872E-2,-6.5584662E-3,1E0,-5.39571E-3,1.6E1,2.1E1,-3.0318648E-3,3.4883448E-3,3E0,-7.1842307E-3,1.5E1,6.5733166E-3,1.5542638E-2,5.024366E-3,4.2935587E-2,9.833712E-3],"split_indices":[4,3,4,0,3,38,0,0,0,1,1,75,3,0,0,2,2,6,2,0,3,0,0,0,0,2,0,2,2,0,0,6,0,1,0,0,0,0,0],"split_type":[0,0,0,0,0,0,0,0,0,0,0,0,0,0,0,0,0,0,0,0,0,0,0,0,0,0,0,0,0,0,0,0,0,0,0,0,0,0,0],"sum_hessian":[6.8E1,1.6E1,5.2E1,1E0,1.5E1,4.8E1,4E0,1E1,5E0,4.1E1,7E0,3.2E1,9E0,1E0,6E0,2.7E1,5E0,5E0,4E0,1E0,2.6E1,1E0,4E0,4E0,1E0,2E0,2E0,2.1E1,5E0,1E0,1E0,2E1,1E0,4E0,1E0,1.5E1,5E0,3E0,1E0],"tree_param":{"num_deleted":"0","num_feature":"82","num_nodes":"39","size_leaf_vector":"1"}},{"base_weights":[9.928282E-5,-3.0860418E-1,9.91155E-2,-1.1406497E-1,-2.3283781E-1,5.3724367E-2,7.861883E-2,-3.9040823E-2,-1.20427825E-1,1.8834358E-2,2.3018138E-1,-3.1055065E-3,-2.1027464E-2,5.3373206E-2,-9.702728E-2,5.9438962E-3,3.776141E-2,8.760333E-2,-1.1526289E-1,-1.4646333E-1,-1.8298572E-2,5.3669468E-2,2.0308256E-1,-4.681422E-2,-2.5216023E-2,-2.3936767E-2,-6.0665817E-3,2.508644E-3,-4.9509397E-3,7.621879E-2,-1.8309843E-2,2.274849E-1,6.080318E-3,-8.3349645E-3,-1.5418201E-3,-2.662274E-3,3.226719E-3,8.904636E-2,2.93088E-2,3.810533E-2,9.096183E-3,1.6786704E-2,6.5491786E-3,1.3210905E-3,9.886234E-3],"categories":[],"categories_nodes":[],"categories_segments":[],"categories_sizes":[],"default_left":[0,0,0,0,0,0,0,0,0,0,0,0,0,0,0,0,0,0,0,0,0,0,0,0,0,0,0,0,0,0,0,0,0,0,0,0,0,0,0,0,0,0,0,0,0],"id":10,"left_children":[1,3,5,-1,7,9,-1,-1,11,13,15,-1,-1,17,19,-1,-1,21,23,25,27,29,31,33,-1,-1,-1,35,-1,37,-1,39,-1,-1,-1,-1,-1,41,43,-1,-1,-1,-1,-1,-1],"loss_changes":[2.1396863E0,4.049108E-1,9.94301E-1,0E0,1.7998278E-2,2.973374E-1,0E0,0E0,6.9481507E-3,1.7325121E-1,2.2893548E-2,0E0,0E0,2.0058775E-1,3.6240295E-2,0E0,0E0,9.8823026E-2,1.3832793E-2,1.8887818E-3,1.6129314E-3,1.0044595E-1,1.4577955E-2,7.0790667E-4,0E0,0E0,0E0,1.5366239E-3,0E0,1.0026716E-2,0E0,6.7439973E-3,0E0,0E0,0E0,0E0,0E0,1.1717513E-2,3.9215935E-3,0E0,0E0,0E0,0E0,0E0,0E0],"parents":[2147483647,0,0,1,1,2,2,4,4,5,5,8,8,9,9,10,10,13,13,14,14,17,17,18,18,19,19,20,20,21,21,22,22,23,23,27,27,29,29,31,31,37,37,38,38],"right_children":[2,4,6,-1,8,10,-1,-1,12,14,16,-1,-1,18,20,-1,-1,22,24,26,28,30,32,34,-1,-1,-1,36,-1,38,-1,40,-1,-1,-1,-1,-1,42,44,-1,-1,-1,-1,-1,-1],"split_conditions":[2E0,4E0,1.1E1,-1.1406497E-1,2.1E1,1E0,7.861883E-2,-3.9040823E-2,2.3E1,1.7E1,2E0,-3.1055065E-3,-2.1027464E-2,1E0,1.44E2,5.9438962E-3,3.776141E-2,4.56E2,2.013E3,3E0,2E0,1E0,1E0,8E1,-2.5216023E-2,-2.3936767E-2,-6.0665817E-3,2.04E2,-4.9509397E-3,3E0,-1.8309843E-2,1.5E1,6.080318E-3,-8.3349645E-3,-1.5418201E-3,-2.662274E-3,3.226719E-3,1E0,2.01E3,3.810533E-2,9.096183E-3,1.6786704E-2,6.5491786E-3,1.3210905E-3,9.886234E-3],"split_indices":[4,3,4,0,3,38,0,0,3,1,1,0,0,75,3,0,0,3,0,6,6,40,11,3,0,0,0,3,0,6,0,1,0,0,0,0,0,48,0,0,0,0,0,0,0],"split_type":[0,0,0,0,0,0,0,0,0,0,0,0,0,0,0,0,0,0,0,0,0,0,0,0,0,0,0,0,0,0,0,0,0,0,0,0,0,0,0,0,0,0,0,0,0],"sum_hessian":[6.8E1,1.6E1,5.2E1,1E0,1.5E1,4.8E1,4E0,1.1E1,4E0,4.1E1,7E0,1E0,3E0,3.2E1,9E0,1E0,6E0,2.7E1,5E0,5E0,4E0,2.2E1,5E0,3E0,2E0,4E0,1E0,2E0,2E0,2E1,2E0,4E0,1E0,2E0,1E0,1E0,1E0,1.5E1,5E0,3E0,1E0,9E0,6E0,4E0,1E0],"tree_param":{"num_deleted":"0","num_feature":"82","num_nodes":"45","size_leaf_vector":"1"}},{"base_weights":[-7.1100774E-4,-2.7273938E-1,8.655679E-2,-1.0551009E-1,-2.0186052E-1,5.0833423E-2,7.6718956E-2,-3.452652E-2,-1.744559E-2,1.600998E-2,2.0769466E-1,-1.3945598E-2,1.2739661E-1,1.0486451E-2,2.3707472E-1,3.9232228E-2,-9.271622E-2,1.9804116E-2,1.7789218E-1,1.0639689E-2,3.7941515E-2,6.385325E-2,-1.9466747E-2,-1.1755299E-1,3.7536263E-2,9.800573E-3,-2.572892E-3,1.9847248E-1,5.6242943E-3,9.2204906E-2,3.9631035E-2,-2.7093682E-2,-7.645974E-2,-2.4034316E-3,1.0849091E-2,3.8557593E-2,1.106053E-2,1.0538088E-1,-2.0150096E-6,3.1091052E-4,4.2856995E-2,-1.2286932E-2,-2.4626039E-3,1.183384E-3,1.8047193E-2,8.732085E-3,4.4732136E-3],"categories":[],"categories_nodes":[],"categories_segments":[],"categories_sizes":[],"default_left":[0,0,0,0,0,0,0,0,0,0,0,0,0,0,0,0,0,0,0,0,0,0,0,0,0,0,0,0,0,0,0,0,0,0,0,0,0,0,0,0,0,0,0,0,0,0,0],"id":11,"left_children":[1,3,5,-1,7,9,-1,-1,-1,11,13,15,17,-1,19,21,23,25,27,-1,-1,29,-1,31,33,-1,-1,35,-1,37,39,-1,41,-1,-1,-1,-1,43,-1,-1,45,-1,-1,-1,-1,-1,-1],"loss_changes":[1.6616203E0,3.7693262E-1,7.784858E-1,0E0,1.19918585E-2,2.6979727E-1,0E0,0E0,0E0,1.4191596E-1,1.9859344E-2,1.4605837E-1,4.53735E-2,0E0,5.1379204E-4,9.567221E-2,4.9703203E-2,7.8517115E-3,9.894684E-3,0E0,0E0,9.393886E-3,0E0,1.7291278E-2,6.7490204E-3,0E0,0E0,1.7579794E-2,0E0,9.721942E-3,1.3651084E-3,0E0,1.6019791E-3,0E0,0E0,0E0,0E0,9.242207E-3,0E0,0E0,4.660245E-4,0E0,0E0,0E0,0E0,0E0,0E0],"parents":[2147483647,0,0,1,1,2,2,4,4,5,5,9,9,10,10,11,11,12,12,14,14,15,15,16,16,17,17,18,18,21,21,23,23,24,24,27,27,29,29,30,30,32,32,37,37,40,40],"right_children":[2,4,6,-1,8,10,-1,-1,-1,12,14,16,18,-1,20,22,24,26,28,-1,-1,30,-1,32,34,-1,-1,36,-1,38,40,-1,42,-1,-1,-1,-1,44,-1,-1,46,-1,-1,-1,-1,-1,-1],"split_conditions":[2E0,4E0,2.2E1,-1.0551009E-1,1.9E1,1E0,7.6718956E-2,-3.452652E-2,-1.744559E-2,3.99E2,7.2E1,1E1,7E0,1.0486451E-2,6E0,1E0,4E0,4E0,2.1E1,1.0639689E-2,3.7941515E-2,5.7E1,-1.9466747E-2,1.3E1,8.2E1,9.800573E-3,-2.572892E-3,1.5E1,5.6242943E-3,1E0,8E1,-2.7093682E-2,2.2E1,-2.4034316E-3,1.0849091E-2,3.8557593E-2,1.106053E-2,5E0,-2.0150096E-6,3.1091052E-4,1.14E2,-1.2286932E-2,-2.4626039E-3,1.183384E-3,1.8047193E-2,8.732085E-3,4.4732136E-3],"split_indices":[4,3,4,0,3,38,0,0,0,3,3,2,2,0,2,15,4,1,2,0,0,3,0,2,3,0,0,1,0,48,3,0,1,0,0,0,0,3,0,0,3,0,0,0,0,0,0],"split_type":[0,0,0,0,0,0,0,0,0,0,0,0,0,0,0,0,0,0,0,0,0,0,0,0,0,0,0,0,0,0,0,0,0,0,0,0,0,0,0,0,0,0,0,0,0,0,0],"sum_hessian":[6.8E1,1.6E1,5.2E1,1E0,1.5E1,4.9E1,3E0,1E1,5E0,4.1E1,8E0,3.3E1,8E0,2E0,6E0,2E1,1.3E1,3E0,5E0,1E0,5E0,1.8E1,2E0,1.1E1,2E0,1E0,2E0,4E0,1E0,7E0,1.1E1,3E0,8E0,1E0,1E0,2E0,2E0,6E0,1E0,1E0,1E1,7E0,1E0,1E0,5E0,3E0,7E0],"tree_param":{"num_deleted":"0","num_feature":"82","num_nodes":"47","size_leaf_vector":"1"}},{"base_weights":[-3.0500637E-4,-2.4109215E-1,7.693436E-2,-9.759684E-2,-1.748297E-1,4.523678E-2,6.808808E-2,-2.9818358E-2,-1.5264895E-2,1.4616834E-2,1.8310355E-1,-1.2445505E-2,1.1522824E-1,9.437808E-3,3.1268053E-2,3.397968E-2,-8.119432E-2,1.8640423E-2,1.6041541E-1,5.599867E-2,-1.7520072E-2,-1.03406966E-1,3.4721047E-2,9.065531E-3,-2.315603E-3,1.7862524E-1,5.202472E-3,8.077775E-2,3.4812734E-2,-1.3008726E-1,-6.0055656E-3,-2.2231739E-3,1.003541E-2,3.4701835E-2,9.954477E-3,9.232097E-2,-1.8641354E-6,2.8759206E-4,3.762893E-2,-2.495992E-2,-7.826279E-3,1.0946296E-3,1.5791295E-2,3.6314398E-3,7.333532E-3],"categories":[],"categories_nodes":[],"categories_segments":[],"categories_sizes":[],"default_left":[0,0,0,0,0,0,0,0,0,0,0,0,0,0,0,0,0,0,0,0,0,0,0,0,0,0,0,0,0,0,0,0,0,0,0,0,0,0,0,0,0,0,0,0,0],"id":12,"left_children":[1,3,5,-1,7,9,-1,-1,-1,11,13,15,17,-1,-1,19,21,23,25,27,-1,29,31,-1,-1,33,-1,35,37,39,-1,-1,-1,-1,-1,41,-1,-1,43,-1,-1,-1,-1,-1,-1],"loss_changes":[1.3018272E0,3.475939E-1,6.127921E-1,0E0,7.7789724E-3,2.0839727E-1,0E0,0E0,0E0,1.1579084E-1,1.4304668E-2,1.11275956E-1,3.6290564E-2,0E0,0E0,7.626124E-2,3.9637417E-2,6.6303057E-3,7.5420886E-3,7.162299E-3,0E0,1.5080392E-2,5.7746302E-3,0E0,0E0,1.4239624E-2,0E0,7.4617825E-3,1.0395367E-3,1.3951361E-2,0E0,0E0,0E0,0E0,0E0,6.9416948E-3,0E0,0E0,4.7869422E-4,0E0,0E0,0E0,0E0,0E0,0E0],"parents":[2147483647,0,0,1,1,2,2,4,4,5,5,9,9,10,10,11,11,12,12,15,15,16,16,17,17,18,18,19,19,21,21,22,22,25,25,27,27,28,28,29,29,35,35,38,38],"right_children":[2,4,6,-1,8,10,-1,-1,-1,12,14,16,18,-1,-1,20,22,24,26,28,-1,30,32,-1,-1,34,-1,36,38,40,-1,-1,-1,-1,-1,42,-1,-1,44,-1,-1,-1,-1,-1,-1],"split_conditions":[2E0,4E0,2.2E1,-9.759684E-2,1.9E1,1E0,6.808808E-2,-2.9818358E-2,-1.5264895E-2,3.99E2,7.2E1,1E1,7E0,9.437808E-3,3.1268053E-2,1E0,4E0,4E0,2.1E1,5.7E1,-1.7520072E-2,2.3E1,8.2E1,9.065531E-3,-2.315603E-3,1.5E1,5.202472E-3,1E0,8E1,1.1E1,-6.0055656E-3,-2.2231739E-3,1.003541E-2,3.4701835E-2,9.954477E-3,5E0,-1.8641354E-6,2.8759206E-4,2.011E3,-2.495992E-2,-7.826279E-3,1.0946296E-3,1.5791295E-2,3.6314398E-3,7.333532E-3],"split_indices":[4,3,4,0,3,38,0,0,0,3,3,2,2,0,0,15,4,1,2,3,0,2,3,0,0,1,0,48,3,5,0,0,0,0,0,3,0,0,0,0,0,0,0,0,0],"split_type":[0,0,0,0,0,0,0,0,0,0,0,0,0,0,0,0,0,0,0,0,0,0,0,0,0,0,0,0,0,0,0,0,0,0,0,0,0,0,0,0,0,0,0,0,0],"sum_hessian":[6.8E1,1.6E1,5.2E1,1E0,1.5E1,4.9E1,3E0,1E1,5E0,4.1E1,8E0,3.3E1,8E0,2E0,6E0,2E1,1.3E1,3E0,5E0,1.8E1,2E0,1.1E1,2E0,1E0,2E0,4E0,1E0,7E0,1.1E1,7E0,4E0,1E0,1E0,2E0,2E0,6E0,1E0,1E0,1E1,4E0,3E0,1E0,5E0,6E0,4E0],"tree_param":{"num_deleted":"0","num_feature":"82","num_nodes":"45","size_leaf_vector":"1"}},{"base_weights":[-2.2505502E-4,-2.1332127E-1,6.8130806E-2,-9.027707E-2,-1.5142295E-1,3.99903E-2,6.042817E-2,-2.3626957E-2,-4.5053693E-3,1.3287301E-2,1.6016091E-1,-1.1177593E-2,1.0423386E-1,4.003785E-3,1.7350805E-1,2.9388275E-2,-7.1228E-2,1.7531846E-2,1.446629E-1,7.4966135E-3,2.760235E-2,4.907974E-2,-1.5768064E-2,-9.112857E-2,3.2116972E-2,8.385618E-3,-2.0840429E-3,1.6076271E-1,4.8122867E-3,6.286486E-2,2.2267085E-2,-1.14672445E-1,-5.284898E-3,-2.056436E-3,9.282755E-3,3.1231651E-2,8.959028E-3,8.400753E-2,1.6463619E-2,-6.0949544E-4,2.660904E-2,-8.564757E-3,-2.369579E-2,3.064205E-3,1.5269405E-2,3.6025264E-3,-1.0311954E-3,1.5439506E-3,4.6615284E-3],"categories":[],"categories_nodes":[],"categories_segments":[],"categories_sizes":[],"default_left":[0,0,0,0,0,0,0,0,0,0,0,0,0,0,0,0,0,0,0,0,0,0,0,0,0,0,0,0,0,0,0,0,0,0,0,0,0,0,0,0,0,0,0,0,0,0,0,0,0],"id":13,"left_children":[1,3,5,-1,7,9,-1,-1,-1,11,13,15,17,-1,19,21,23,25,27,-1,-1,29,-1,31,33,-1,-1,35,-1,37,39,41,-1,-1,-1,-1,-1,43,45,-1,47,-1,-1,-1,-1,-1,-1,-1,-1],"loss_changes":[1.0196136E0,3.1770122E-1,4.8311228E-1,0E0,7.0970953E-3,1.5831769E-1,0E0,0E0,0E0,9.4615E-2,1.1401594E-2,8.491715E-2,2.901131E-2,0E0,1.1874437E-3,6.0781427E-2,3.171952E-2,5.6001763E-3,5.7176203E-3,0E0,0E0,5.622886E-3,0E0,1.175186E-2,4.9409186E-3,0E0,0E0,1.153411E-2,0E0,1.0389484E-2,1.0227235E-3,1.0923475E-2,0E0,0E0,0E0,0E0,0E0,6.9683753E-3,1.0465023E-3,0E0,1.9040518E-4,0E0,0E0,0E0,0E0,0E0,0E0,0E0,0E0],"parents":[2147483647,0,0,1,1,2,2,4,4,5,5,9,9,10,10,11,11,12,12,14,14,15,15,16,16,17,17,18,18,21,21,23,23,24,24,27,27,29,29,30,30,31,31,37,37,38,38,40,40],"right_children":[2,4,6,-1,8,10,-1,-1,-1,12,14,16,18,-1,20,22,24,26,28,-1,-1,30,-1,32,34,-1,-1,36,-1,38,40,42,-1,-1,-1,-1,-1,44,46,-1,48,-1,-1,-1,-1,-1,-1,-1,-1],"split_conditions":[2E0,4E0,2.2E1,-9.027707E-2,4.5E1,1E0,6.042817E-2,-2.3626957E-2,-4.5053693E-3,3.99E2,2E0,1E1,7E0,4.003785E-3,6E0,1E0,4E0,4E0,2.1E1,7.4966135E-3,2.760235E-2,1.14E2,-1.5768064E-2,2.3E1,8.2E1,8.385618E-3,-2.0840429E-3,1.5E1,4.8122867E-3,1E0,1.16E2,8.5E1,-5.284898E-3,-2.056436E-3,9.282755E-3,3.1231651E-2,8.959028E-3,1E1,8.9E1,-6.0949544E-4,1.38E2,-8.564757E-3,-2.369579E-2,3.064205E-3,1.5269405E-2,3.6025264E-3,-1.0311954E-3,1.5439506E-3,4.6615284E-3],"split_indices":[4,3,4,0,3,38,0,0,0,3,1,2,2,0,2,15,4,1,2,0,0,3,0,2,3,0,0,1,0,48,3,3,0,0,0,0,0,3,3,0,3,0,0,0,0,0,0,0,0],"split_type":[0,0,0,0,0,0,0,0,0,0,0,0,0,0,0,0,0,0,0,0,0,0,0,0,0,0,0,0,0,0,0,0,0,0,0,0,0,0,0,0,0,0,0,0,0,0,0,0,0],"sum_hessian":[6.8E1,1.6E1,5.2E1,1E0,1.5E1,4.9E1,3E0,1.4E1,1E0,4.1E1,8E0,3.3E1,8E0,1E0,7E0,2E1,1.3E1,3E0,5E0,1E0,6E0,1.8E1,2E0,1.1E1,2E0,1E0,2E0,4E0,1E0,1.1E1,7E0,7E0,4E0,1E0,1E0,2E0,2E0,7E0,4E0,1E0,6E0,4E0,3E0,2E0,5E0,3E0,1E0,2E0,4E0],"tree_param":{"num_deleted":"0","num_feature":"82","num_nodes":"49","size_leaf_vector":"1"}},{"base_weights":[-5.2144887E-6,-1.8828835E-1,6.0387585E-2,-8.3506286E-2,-1.3046779E-1,3.5408173E-2,5.363E-2,-2.2530362E-2,-7.254302E-2,-3.0616869E-3,9.833593E-2,-2.9166242E-2,-1.3040977E-2,3.7203867E-2,-4.5652483E-2,1.3958938E-1,2.4163762E-2,-7.915119E-3,1.352714E-3,6.296271E-2,-3.7209902E-2,-1.2224731E-1,2.7504304E-2,6.913719E-3,1.5367982E-1,3.1047482E-3,8.73408E-3,9.002212E-2,1.6389722E-2,-9.0324396E-4,-6.525235E-3,-3.1235768E-3,-2.0064231E-2,-1.622281E-2,1.2932836E-2,1.328377E-2,3.4383338E-2,-1.643991E-3,1.2877077E-2,1.8385222E-2,1.6625531E-2,-1.2270212E-3,2.550485E-2,5.2016723E-4,-3.7086515E-3,2.3275764E-4,2.4202436E-3,7.8271556E-4,3.3539594E-3,-2.7191342E-4,-4.1663648E-6,6.670565E-3,4.3595135E-3,-1.910214E-3,2.0272518E-3,-9.5385616E-4,1.9347467E-3],"categories":[],"categories_nodes":[],"categories_segments":[],"categories_sizes":[],"default_left":[0,0,0,0,0,0,0,0,0,0,0,0,0,0,0,0,0,0,0,0,0,0,0,0,0,0,0,0,0,0,0,0,0,0,0,0,0,0,0,0,0,0,0,0,0,0,0,0,0,0,0,0,0,0,0,0,0],"id":14,"left_children":[1,3,5,-1,7,9,-1,-1,11,13,15,17,-1,19,21,23,25,-1,-1,27,29,31,33,-1,35,37,-1,39,41,-1,-1,-1,-1,43,-1,-1,-1,-1,45,47,-1,49,51,53,-1,-1,-1,-1,-1,-1,-1,-1,55,-1,-1,-1,-1],"loss_changes":[7.959655E-1,2.8950584E-1,3.8073426E-1,0E0,7.393867E-3,1.2134217E-1,0E0,0E0,1.2112185E-3,5.657659E-2,5.47643E-2,3.1794521E-3,0E0,3.492865E-2,9.3017235E-2,8.725792E-3,5.5579585E-3,0E0,0E0,1.4907647E-2,7.1918033E-4,6.557077E-3,2.4505492E-2,0E0,2.8894678E-2,9.658005E-4,0E0,9.891078E-3,9.947682E-4,0E0,0E0,0E0,0E0,8.6690637E-4,0E0,0E0,0E0,0E0,1.2254977E-4,4.0323124E-5,0E0,2.0569692E-6,1.4102645E-3,6.888475E-4,0E0,0E0,0E0,0E0,0E0,0E0,0E0,0E0,3.565916E-4,0E0,0E0,0E0,0E0],"parents":[2147483647,0,0,1,1,2,2,4,4,5,5,8,8,9,9,10,10,11,11,13,13,14,14,15,15,16,16,19,19,20,20,21,21,22,22,24,24,25,25,27,27,28,28,33,33,38,38,39,39,41,41,42,42,43,43,52,52],"right_children":[2,4,6,-1,8,10,-1,-1,12,14,16,18,-1,20,22,24,26,-1,-1,28,30,32,34,-1,36,38,-1,40,42,-1,-1,-1,-1,44,-1,-1,-1,-1,46,48,-1,50,52,54,-1,-1,-1,-1,-1,-1,-1,-1,56,-1,-1,-1,-1],"split_conditions":[2E0,4E0,2.2E1,-8.3506286E-2,1.9E1,1.6E1,5.363E-2,-2.2530362E-2,2.3E1,1E0,1E0,2.1E1,-1.3040977E-2,1E0,1.55E2,7.2E1,1.57E2,-7.915119E-3,1.352714E-3,1E0,2.01E3,2.009E3,6.95E2,6.913719E-3,1.6E1,1.16E2,8.73408E-3,1E1,8E1,-9.0324396E-4,-6.525235E-3,-3.1235768E-3,-2.0064231E-2,3E0,1.2932836E-2,1.328377E-2,3.4383338E-2,-1.643991E-3,3E0,2.015E3,1.6625531E-2,5.1E1,8.9E1,1E0,-3.7086515E-3,2.3275764E-4,2.4202436E-3,7.8271556E-4,3.3539594E-3,-2.7191342E-4,-4.1663648E-6,6.670565E-3,9.7E1,-1.910214E-3,2.0272518E-3,-9.5385616E-4,1.9347467E-3],"split_indices":[4,3,4,0,3,5,0,0,3,35,11,3,0,44,3,3,3,0,0,48,0,0,3,0,2,3,0,3,3,0,0,0,0,2,0,0,0,0,6,0,0,3,3,2,0,0,0,0,0,0,0,0,3,0,0,0,0],"split_type":[0,0,0,0,0,0,0,0,0,0,0,0,0,0,0,0,0,0,0,0,0,0,0,0,0,0,0,0,0,0,0,0,0,0,0,0,0,0,0,0,0,0,0,0,0,0,0,0,0,0,0,0,0,0,0,0,0],"sum_hessian":[6.8E1,1.6E1,5.2E1,1E0,1.5E1,4.9E1,3E0,1E1,5E0,3.1E1,1.8E1,2E0,3E0,1.6E1,1.5E1,1.1E1,7E0,1E0,1E0,1.2E1,4E0,7E0,8E0,2E0,9E0,5E0,2E0,7E0,5E0,1E0,3E0,1E0,6E0,5E0,3E0,6E0,3E0,2E0,3E0,2E0,5E0,2E0,3E0,2E0,3E0,1E0,2E0,1E0,1E0,1E0,1E0,1E0,2E0,1E0,1E0,1E0,1E0],"tree_param":{"num_deleted":"0","num_feature":"82","num_nodes":"57","size_leaf_vector":"1"}},{"base_weights":[-1.6373433E-5,-1.674357E-1,5.3684477E-2,-7.724331E-2,-1.1353101E-1,3.1520676E-2,4.759663E-2,-2.4190469E-2,-8.417894E-2,1.0732641E-2,1.250292E-1,-1.3194846E-2,-3.1893926E-3,-8.852554E-3,8.3528645E-2,6.222347E-3,1.429737E-1,2.2378733E-2,-5.506716E-2,1.3947623E-2,1.1599455E-1,5.938089E-3,2.3041036E-2,3.7560534E-2,-1.2184837E-2,-7.108123E-2,2.7344832E-2,6.7867357E-3,-1.7349657E-3,1.2990972E-1,3.4814023E-3,5.0721608E-2,2.0643404E-2,-1.6882062E-2,-4.475405E-2,-1.7789038E-3,7.931491E-3,2.5742682E-2,6.73475E-3,6.1192967E-2,1.971633E-2,-8.8231714E-4,2.424425E-2,-7.264002E-3,-1.152975E-3,2.5509493E-3,1.1319954E-2,-1.7024875E-4,6.1702724E-3,5.798357E-3,2.641628E-3],"categories":[],"categories_nodes":[],"categories_segments":[],"categories_sizes":[],"default_left":[0,0,0,0,0,0,0,0,0,0,0,0,0,0,0,0,0,0,0,0,0,0,0,0,0,0,0,0,0,0,0,0,0,0,0,0,0,0,0,0,0,0,0,0,0,0,0,0,0,0,0],"id":15,"left_children":[1,3,5,-1,7,9,-1,-1,11,13,15,-1,-1,17,19,-1,21,23,25,27,29,-1,-1,31,-1,33,35,-1,-1,37,-1,39,41,-1,43,-1,-1,-1,-1,45,47,-1,49,-1,-1,-1,-1,-1,-1,-1,-1],"loss_changes":[6.293374E-1,2.5999665E-1,2.996751E-1,0E0,8.844182E-3,9.585105E-2,0E0,0E0,9.885579E-4,6.0619842E-2,7.5619817E-3,0E0,0E0,5.030595E-2,1.871325E-2,0E0,1.6144067E-3,3.6084145E-2,2.0420216E-2,3.7174053E-3,4.7316104E-3,0E0,0E0,3.1832382E-3,0E0,8.063208E-3,3.6299403E-3,0E0,0E0,1.00229755E-2,0E0,2.0401739E-3,1.0977513E-3,0E0,8.529853E-4,0E0,0E0,0E0,0E0,3.1314474E-3,1.8331305E-3,0E0,1.7961254E-4,0E0,0E0,0E0,0E0,0E0,0E0,0E0,0E0],"parents":[2147483647,0,0,1,1,2,2,4,4,5,5,8,8,9,9,10,10,13,13,14,14,16,16,17,17,18,18,19,19,20,20,23,23,25,25,26,26,29,29,31,31,32,32,34,34,39,39,40,40,42,42],"right_children":[2,4,6,-1,8,10,-1,-1,12,14,16,-1,-1,18,20,-1,22,24,26,28,30,-1,-1,32,-1,34,36,-1,-1,38,-1,40,42,-1,44,-1,-1,-1,-1,46,48,-1,50,-1,-1,-1,-1,-1,-1,-1,-1],"split_conditions":[2E0,4E0,2.2E1,-7.724331E-2,1.3E1,1E0,4.759663E-2,-2.4190469E-2,4.5E1,3.99E2,7.2E1,-1.3194846E-2,-3.1893926E-3,1E1,7E0,6.222347E-3,6E0,1E0,4E0,4E0,2.1E1,5.938089E-3,2.3041036E-2,8.9E1,-1.2184837E-2,1.3E1,8.2E1,6.7867357E-3,-1.7349657E-3,1.5E1,3.4814023E-3,1E0,9.7E1,-1.6882062E-2,2.2E1,-1.7789038E-3,7.931491E-3,2.5742682E-2,6.73475E-3,1E1,8E1,-8.8231714E-4,1E0,-7.264002E-3,-1.152975E-3,2.5509493E-3,1.1319954E-2,-1.7024875E-4,6.1702724E-3,5.798357E-3,2.641628E-3],"split_indices":[4,3,4,0,3,38,0,0,3,3,3,0,0,2,2,0,2,15,4,1,2,0,0,3,0,2,3,0,0,1,0,48,3,0,1,0,0,0,0,3,3,0,1,0,0,0,0,0,0,0,0],"split_type":[0,0,0,0,0,0,0,0,0,0,0,0,0,0,0,0,0,0,0,0,0,0,0,0,0,0,0,0,0,0,0,0,0,0,0,0,0,0,0,0,0,0,0,0,0,0,0,0,0,0,0],"sum_hessian":[6.8E1,1.6E1,5.2E1,1E0,1.5E1,4.9E1,3E0,4E0,1.1E1,4.1E1,8E0,1E1,1E0,3.3E1,8E0,2E0,6E0,2E1,1.3E1,3E0,5E0,1E0,5E0,1.8E1,2E0,1.1E1,2E0,1E0,2E0,4E0,1E0,9E0,9E0,3E0,8E0,1E0,1E0,2E0,2E0,6E0,3E0,1E0,8E0,7E0,1E0,2E0,4E0,2E0,1E0,1E0,7E0],"tree_param":{"num_deleted":"0","num_feature":"82","num_nodes":"51","size_leaf_vector":"1"}},{"base_weights":[1.6342336E-5,-1.4925085E-1,4.789419E-2,-7.145006E-2,-9.9037305E-2,2.8238768E-2,2.816134E-1,-2.1287616E-2,-7.291748E-2,-2.0497767E-3,7.77648E-2,5.667236E-2,1.854111E-2,-1.1395553E-2,-2.9501887E-3,2.9460007E-2,-3.540081E-2,4.4415023E-2,1.4262016E-1,4.9451057E-2,-2.8408717E-2,-9.56157E-2,2.2056954E-2,6.6730626E-2,1.9336993E-2,2.754358E-2,6.061274E-3,6.993623E-2,1.389565E-2,-7.0537854E-4,-4.9739457E-3,-4.3009506E-3,-1.6972665E-2,-1.1925605E-2,1.0127483E-2,1.0771761E-2,2.718296E-3,1.342603E-3,7.332017E-3,1.5305688E-2,1.2839319E-2,-1.0214945E-3,2.1609597E-2,1.7893563E-4,-2.7033915E-3,-1.5227279E-3,1.4441316E-3,5.32689E-4,2.9110909E-3,-2.3875125E-4,8.914993E-6,5.707502E-3,3.446122E-3,-1.6368254E-3,1.6770859E-3,-8.161426E-4,1.59152E-3],"categories":[],"categories_nodes":[],"categories_segments":[],"categories_sizes":[],"default_left":[0,0,0,0,0,0,0,0,0,0,0,0,0,0,0,0,0,0,0,0,0,0,0,0,0,0,0,0,0,0,0,0,0,0,0,0,0,0,0,0,0,0,0,0,0,0,0,0,0,0,0,0,0,0,0,0,0],"id":16,"left_children":[1,3,5,-1,7,9,11,-1,13,15,17,-1,-1,-1,-1,19,21,23,25,27,29,31,33,35,37,-1,-1,39,41,-1,-1,-1,-1,43,-1,-1,-1,45,-1,47,-1,49,51,53,-1,-1,-1,-1,-1,-1,-1,-1,55,-1,-1,-1,-1],"loss_changes":[5.002631E-1,2.3203301E-1,2.3552161E-1,0E0,7.5720847E-3,7.516298E-2,1.4101356E-2,0E0,4.5658648E-4,3.4671195E-2,3.476084E-2,0E0,0E0,0E0,0E0,2.10714E-2,5.7465993E-2,6.544467E-3,1.7726384E-2,8.496851E-3,4.0719705E-4,6.14655E-3,1.4708677E-2,4.275348E-4,4.1872566E-3,0E0,0E0,5.5336803E-3,7.124945E-4,0E0,0E0,0E0,0E0,4.460335E-4,0E0,0E0,0E0,6.691028E-4,0E0,7.571507E-5,0E0,1.9435704E-6,1.0633352E-3,4.880652E-4,0E0,0E0,0E0,0E0,0E0,0E0,0E0,0E0,2.4873047E-4,0E0,0E0,0E0,0E0],"parents":[2147483647,0,0,1,1,2,2,4,4,5,5,6,6,8,8,9,9,10,10,15,15,16,16,17,17,18,18,19,19,20,20,21,21,22,22,23,23,24,24,27,27,28,28,33,33,37,37,39,39,41,41,42,42,43,43,52,52],"right_children":[2,4,6,-1,8,10,12,-1,14,16,18,-1,-1,-1,-1,20,22,24,26,28,30,32,34,36,38,-1,-1,40,42,-1,-1,-1,-1,44,-1,-1,-1,46,-1,48,-1,50,52,54,-1,-1,-1,-1,-1,-1,-1,-1,56,-1,-1,-1,-1],"split_conditions":[2E0,4E0,2.2E1,-7.145006E-2,1.3E1,1.6E1,2.008E3,-2.1287616E-2,4.5E1,1E0,1.68E2,5.667236E-2,1.854111E-2,-1.1395553E-2,-2.9501887E-3,1E0,1.55E2,1E0,1E1,1E0,2.01E3,5.9E1,6.95E2,2E1,1.57E2,2.754358E-2,6.061274E-3,1E1,8E1,-7.0537854E-4,-4.9739457E-3,-4.3009506E-3,-1.6972665E-2,3E0,1.0127483E-2,1.0771761E-2,2.718296E-3,1.16E2,7.332017E-3,2.015E3,1.2839319E-2,5.1E1,8.9E1,1E0,-2.7033915E-3,-1.5227279E-3,1.4441316E-3,5.32689E-4,2.9110909E-3,-2.3875125E-4,8.914993E-6,5.707502E-3,9.7E1,-1.6368254E-3,1.6770859E-3,-8.161426E-4,1.59152E-3],"split_indices":[4,3,4,0,3,5,0,0,3,35,3,0,0,0,0,39,3,11,1,48,0,3,3,2,3,0,0,3,3,0,0,0,0,2,0,0,0,3,0,0,0,3,3,2,0,0,0,0,0,0,0,0,3,0,0,0,0],"split_type":[0,0,0,0,0,0,0,0,0,0,0,0,0,0,0,0,0,0,0,0,0,0,0,0,0,0,0,0,0,0,0,0,0,0,0,0,0,0,0,0,0,0,0,0,0,0,0,0,0,0,0,0,0,0,0,0,0],"sum_hessian":[6.8E1,1.6E1,5.2E1,1E0,1.5E1,4.9E1,3E0,4E0,1.1E1,3.1E1,1.8E1,1E0,2E0,1E1,1E0,1.6E1,1.5E1,1.3E1,5E0,1.2E1,4E0,7E0,8E0,6E0,7E0,3E0,2E0,7E0,5E0,1E0,3E0,2E0,5E0,5E0,3E0,5E0,1E0,5E0,2E0,2E0,5E0,2E0,3E0,2E0,3E0,2E0,3E0,1E0,1E0,1E0,1E0,1E0,2E0,1E0,1E0,1E0,1E0],"tree_param":{"num_deleted":"0","num_feature":"82","num_nodes":"57","size_leaf_vector":"1"}},{"base_weights":[3.838325E-4,-1.3316225E-1,4.3212127E-2,-6.6091314E-2,-8.6408794E-2,2.515087E-2,2.5817478E-1,-1.873311E-2,-6.317531E-2,-1.6470745E-3,6.8960525E-2,5.2421935E-2,1.6687E-2,-5.3871665E-3,-7.2316445E-2,2.6032584E-2,-3.0953769E-2,3.826303E-2,1.2909459E-1,-3.6454886E-2,-8.6542405E-2,4.3766946E-2,-2.5283273E-2,-8.393255E-2,1.9577784E-2,5.189001E-2,1.1445393E-2,4.9256086E-3,2.5352078E-2,-1.0585169E-2,-8.554803E-3,-1.4862239E-2,-2.7289242E-3,6.148118E-2,1.2853473E-2,-6.524753E-4,-4.4143763E-3,-3.8708556E-3,-9.900721E-2,-1.0580618E-2,5.992094E-2,-1.5312814E-3,9.139259E-3,2.4936413E-3,2.9348896E-3,-5.477205E-3,3.095542E-3,1.4157762E-2,1.12344045E-2,-9.4488263E-4,1.9988872E-2,-1.7555354E-2,-6.295026E-3,1.6551465E-4,-2.3992595E-3,1.0343698E-2,2.4607359E-3,-5.244012E-4,5.655527E-3,4.9273745E-4,2.692759E-3,-2.2084528E-4,8.246676E-6,5.279439E-3,3.1876564E-3,-1.5140634E-3,1.5513042E-3,1.363625E-3,-9.1131405E-5,-7.5493235E-4,1.4721551E-3],"categories":[],"categories_nodes":[],"categories_segments":[],"categories_sizes":[],"default_left":[0,0,0,0,0,0,0,0,0,0,0,0,0,0,0,0,0,0,0,0,0,0,0,0,0,0,0,0,0,0,0,0,0,0,0,0,0,0,0,0,0,0,0,0,0,0,0,0,0,0,0,0,0,0,0,0,0,0,0,0,0,0,0,0,0,0,0,0,0,0,0],"id":17,"left_children":[1,3,5,-1,7,9,11,-1,13,15,17,-1,-1,-1,19,21,23,25,27,29,31,33,35,37,39,41,43,-1,-1,45,-1,-1,-1,47,49,-1,-1,-1,51,53,55,-1,-1,57,-1,-1,-1,59,-1,61,63,-1,-1,65,-1,-1,-1,-1,67,-1,-1,-1,-1,-1,69,-1,-1,-1,-1,-1,-1],"loss_changes":[4.0040323E-1,2.062887E-1,1.992789E-1,0E0,6.4140707E-3,5.881402E-2,1.4782518E-2,0E0,3.9313734E-4,2.6764184E-2,3.0133791E-2,0E0,0E0,0E0,9.2642754E-4,1.657749E-2,4.447681E-2,4.522305E-3,1.7505117E-2,1.5256046E-3,2.4826676E-3,6.328663E-3,3.0592782E-4,4.4549927E-3,1.1584166E-2,5.6734253E-3,3.8736773E-4,0E0,0E0,3.1822764E-3,0E0,0E0,0E0,4.018329E-3,6.096278E-4,0E0,0E0,0E0,1.2584887E-3,3.5175344E-4,4.417766E-4,0E0,0E0,9.5526106E-5,0E0,0E0,0E0,6.478367E-5,0E0,1.6629808E-6,9.098167E-4,0E0,0E0,4.1760074E-4,0E0,0E0,0E0,0E0,7.0069764E-5,0E0,0E0,0E0,0E0,0E0,2.1281993E-4,0E0,0E0,0E0,0E0,0E0,0E0],"parents":[2147483647,0,0,1,1,2,2,4,4,5,5,6,6,8,8,9,9,10,10,14,14,15,15,16,16,17,17,18,18,19,19,20,20,21,21,22,22,23,23,24,24,25,25,26,26,29,29,33,33,34,34,38,38,39,39,40,40,43,43,47,47,49,49,50,50,53,53,58,58,64,64],"right_children":[2,4,6,-1,8,10,12,-1,14,16,18,-1,-1,-1,20,22,24,26,28,30,32,34,36,38,40,42,44,-1,-1,46,-1,-1,-1,48,50,-1,-1,-1,52,54,56,-1,-1,58,-1,-1,-1,60,-1,62,64,-1,-1,66,-1,-1,-1,-1,68,-1,-1,-1,-1,-1,70,-1,-1,-1,-1,-1,-1],"split_conditions":[2E0,4E0,2.2E1,-6.6091314E-2,1.3E1,1.6E1,2.008E3,-1.873311E-2,1.6E1,1E0,1.6E1,5.2421935E-2,1.6687E-2,-5.3871665E-3,2.013E3,1E0,1.55E2,1E0,7.2E1,2.3E1,3E1,1E0,2.01E3,5.9E1,6.95E2,8.2E1,1.38E2,4.9256086E-3,2.5352078E-2,2.1E1,-8.554803E-3,-1.4862239E-2,-2.7289242E-3,1E1,8E1,-6.524753E-4,-4.4143763E-3,-3.8708556E-3,1.8E1,3E0,1.5E1,-1.5312814E-3,9.139259E-3,1.16E2,2.9348896E-3,-5.477205E-3,3.095542E-3,2.015E3,1.12344045E-2,5.1E1,8.9E1,-1.7555354E-2,-6.295026E-3,1E0,-2.3992595E-3,1.0343698E-2,2.4607359E-3,-5.244012E-4,1.35E2,4.9273745E-4,2.692759E-3,-2.2084528E-4,8.246676E-6,5.279439E-3,9.7E1,-1.5140634E-3,1.5513042E-3,1.363625E-3,-9.1131405E-5,-7.5493235E-4,1.4721551E-3],"split_indices":[4,3,4,0,3,5,0,0,3,35,2,0,0,0,0,39,3,29,3,3,3,48,0,3,3,3,3,0,0,3,0,0,0,3,3,0,0,0,1,2,2,0,0,3,0,0,0,0,0,3,3,0,0,2,0,0,0,0,3,0,0,0,0,0,3,0,0,0,0,0,0],"split_type":[0,0,0,0,0,0,0,0,0,0,0,0,0,0,0,0,0,0,0,0,0,0,0,0,0,0,0,0,0,0,0,0,0,0,0,0,0,0,0,0,0,0,0,0,0,0,0,0,0,0,0,0,0,0,0,0,0,0,0,0,0,0,0,0,0,0,0,0,0,0,0],"sum_hessian":[6.8E1,1.6E1,5.2E1,1E0,1.5E1,4.9E1,3E0,4E0,1.1E1,3.1E1,1.8E1,1E0,2E0,4E0,7E0,1.6E1,1.5E1,1.3E1,5E0,3E0,4E0,1.2E1,4E0,7E0,8E0,8E0,5E0,2E0,3E0,2E0,1E0,3E0,1E0,7E0,5E0,1E0,3E0,2E0,5E0,5E0,3E0,1E0,7E0,3E0,2E0,1E0,1E0,2E0,5E0,2E0,3E0,3E0,2E0,2E0,3E0,2E0,1E0,1E0,2E0,1E0,1E0,1E0,1E0,1E0,2E0,1E0,1E0,1E0,1E0,1E0,1E0],"tree_param":{"num_deleted":"0","num_feature":"82","num_nodes":"71","size_leaf_vector":"1"}},{"base_weights":[1.7838113E-4,-6.1134465E-2,1.2168154E-2,-1.7515318E-2,1.18217446E-1,-6.3391306E-2,1.60054E-2,6.612906E-2,4.5679197E-2,4.0101036E-3,-7.3247716E-2,3.6698885E-2,-3.3190157E-2,9.066899E-2,8.731371E-3,-8.0071695E-2,4.7423914E-3,1.7586047E-2,2.7708806E-2,-5.103689E-2,-5.136044E-3,5.7958453E-3,1.0001486E-1,-6.035395E-4,1.2926012E-2,-1.6485132E-2,-6.574559E-2,3.2533113E-2,-2.133845E-3,-3.4989987E-3,-1.0645736E-2,3.3384587E-3,-1.78478E-3,1.6169466E-2,3.9994065E-3,-8.429625E-5,2.6414E-3,-4.740705E-3,-1.1173826E-2,-2.2982208E-3,3.604289E-2,-1.267671E-3,1.261353E-3,1.4349562E-3,-6.8380294E-4,-1.7316219E-3,3.95212E-2,7.645488E-3,3.0405226E-3],"categories":[],"categories_nodes":[],"categories_segments":[],"categories_sizes":[],"default_left":[0,0,0,0,0,0,0,0,0,0,0,0,0,0,0,0,0,0,0,0,0,0,0,0,0,0,0,0,0,0,0,0,0,0,0,0,0,0,0,0,0,0,0,0,0,0,0,0,0],"id":18,"left_children":[1,-1,3,5,7,9,11,13,-1,-1,15,17,19,21,23,25,-1,-1,27,29,31,-1,33,-1,35,-1,37,39,41,-1,-1,43,-1,-1,-1,-1,-1,-1,-1,-1,45,-1,-1,-1,-1,-1,47,-1,-1],"loss_changes":[3.422815E-1,0E0,2.1612856E-1,8.405559E-2,1.2543106E-1,2.238939E-2,3.379492E-2,1.7519295E-2,0E0,0E0,1.755888E-2,1.3405105E-2,4.7446154E-3,5.1192194E-4,3.1952158E-4,1.3212264E-3,0E0,0E0,3.2367632E-3,1.6588364E-3,3.262664E-4,0E0,1.1214241E-3,0E0,2.6257028E-4,0E0,2.4235547E-3,3.743453E-3,3.3747533E-4,0E0,0E0,1.9115834E-4,0E0,0E0,0E0,0E0,0E0,0E0,0E0,0E0,3.4356378E-3,0E0,0E0,0E0,0E0,0E0,2.7136318E-3,0E0,0E0],"parents":[2147483647,0,0,2,2,3,3,4,4,5,5,6,6,7,7,10,10,11,11,12,12,13,13,14,14,15,15,18,18,19,19,20,20,22,22,24,24,26,26,27,27,28,28,31,31,40,40,46,46],"right_children":[2,-1,4,6,8,10,12,14,-1,-1,16,18,20,22,24,26,-1,-1,28,30,32,-1,34,-1,36,-1,38,40,42,-1,-1,44,-1,-1,-1,-1,-1,-1,-1,-1,46,-1,-1,-1,-1,-1,48,-1,-1],"split_conditions":[4E0,-6.1134465E-2,5E0,6E0,2E1,2E0,1.7E1,1E0,4.5679197E-2,4.0101036E-3,1.55E2,1E1,1.44E2,9.5E1,1.2E1,1.3E1,4.7423914E-3,1.7586047E-2,3E0,1.17E2,2E0,5.7958453E-3,1E0,-6.035395E-4,1.38E2,-1.6485132E-2,1.6E1,1.1E1,1.16E2,-3.4989987E-3,-1.0645736E-2,3E0,-1.78478E-3,1.6169466E-2,3.9994065E-3,-8.429625E-5,2.6414E-3,-4.740705E-3,-1.1173826E-2,-2.2982208E-3,2.009E3,-1.267671E-3,1.261353E-3,1.4349562E-3,-6.8380294E-4,-1.7316219E-3,1E0,7.645488E-3,3.0405226E-3],"split_indices":[3,0,4,1,2,1,1,11,0,0,3,1,3,3,1,3,0,0,6,3,6,0,49,0,3,0,3,1,3,0,0,2,0,0,0,0,0,0,0,0,0,0,0,0,0,0,48,0,0],"split_type":[0,0,0,0,0,0,0,0,0,0,0,0,0,0,0,0,0,0,0,0,0,0,0,0,0,0,0,0,0,0,0,0,0,0,0,0,0,0,0,0,0,0,0,0,0,0,0,0,0],"sum_hessian":[6.8E1,1E0,6.7E1,5.3E1,1.4E1,2.2E1,3.1E1,1.2E1,2E0,2E0,2E1,2.2E1,9E0,8E0,4E0,1.9E1,1E0,1E0,2.1E1,5E0,4E0,2E0,6E0,1E0,3E0,4E0,1.5E1,1.8E1,3E0,3E0,2E0,2E0,2E0,5E0,1E0,1E0,2E0,4E0,1.1E1,1E0,1.7E1,2E0,1E0,1E0,1E0,1E0,1.6E1,9E0,7E0],"tree_param":{"num_deleted":"0","num_feature":"82","num_nodes":"49","size_leaf_vector":"1"}},{"base_weights":[1.20806384E-4,-5.6549374E-2,1.1210695E-2,-1.6393507E-3,2.1722126E-1,-6.654296E-2,1.9162592E-2,4.506435E-2,1.3401354E-2,-1.4506921E-2,-4.8426945E-2,6.3116527E-3,7.700446E-2,-5.0785497E-2,-1.6862155E-3,-6.270335E-3,5.3142313E-2,1.790861E-2,4.783828E-2,-4.1718185E-3,-5.993998E-2,1.2409507E-2,-3.3842217E-2,8.539295E-3,7.40206E-2,1.8442445E-3,7.7569517E-3,-2.5340408E-2,-1.1933184E-2,2.1445166E-2,-4.8952837E-2,-4.954803E-2,4.3378547E-3,4.386713E-3,-1.2166161E-3,8.428401E-2,1.7027692E-3,-2.342065E-3,-7.075158E-3,2.8254148E-2,1.24916695E-2,-9.643177E-3,-1.3712123E-3,-3.4433538E-3,-1.2554643E-2,5.52787E-3,-1.9505871E-3,1.6833836E-2,4.237166E-3,-4.2283777E-3,3.7014128E-3,-1.17630516E-4,4.735165E-3,-9.2635234E-4,2.2878011E-3],"categories":[],"categories_nodes":[],"categories_segments":[],"categories_sizes":[],"default_left":[0,0,0,0,0,0,0,0,0,0,0,0,0,0,0,0,0,0,0,0,0,0,0,0,0,0,0,0,0,0,0,0,0,0,0,0,0,0,0,0,0,0,0,0,0,0,0,0,0,0,0,0,0,0,0],"id":19,"left_children":[1,-1,3,5,7,9,11,-1,-1,-1,13,15,17,19,-1,21,23,-1,25,-1,27,29,31,33,35,-1,-1,37,-1,39,41,43,45,-1,-1,47,-1,49,-1,51,53,-1,-1,-1,-1,-1,-1,-1,-1,-1,-1,-1,-1,-1,-1],"loss_changes":[2.9279685E-1,0E0,1.8036877E-1,8.903301E-2,1.5721023E-2,4.0614083E-3,3.6680087E-2,0E0,0E0,0E0,4.8154593E-4,2.5080577E-2,5.414769E-3,6.463453E-4,0E0,1.7931271E-2,7.7490285E-3,0E0,3.2823347E-4,0E0,2.7346462E-3,1.2693236E-2,8.610019E-3,1.6161867E-3,2.9023997E-3,0E0,0E0,1.8974983E-3,0E0,8.05377E-4,1.2438423E-3,7.1598347E-3,3.2985301E-3,0E0,0E0,4.658576E-3,0E0,2.7906224E-3,0E0,9.869765E-4,6.094733E-4,0E0,0E0,0E0,0E0,0E0,0E0,0E0,0E0,0E0,0E0,0E0,0E0,0E0,0E0],"parents":[2147483647,0,0,2,2,3,3,4,4,5,5,6,6,10,10,11,11,12,12,13,13,15,15,16,16,18,18,20,20,21,21,22,22,23,23,24,24,27,27,29,29,30,30,31,31,32,32,35,35,37,37,39,39,40,40],"right_children":[2,-1,4,6,8,10,12,-1,-1,-1,14,16,18,20,-1,22,24,-1,26,-1,28,30,32,34,36,-1,-1,38,-1,40,42,44,46,-1,-1,48,-1,50,-1,52,54,-1,-1,-1,-1,-1,-1,-1,-1,-1,-1,-1,-1,-1,-1],"split_conditions":[4E0,-5.6549374E-2,2.2E1,2E0,2.008E3,1.3E1,1E0,4.506435E-2,1.3401354E-2,-1.4506921E-2,4.5E1,3.99E2,1E0,1.6E1,-1.6862155E-3,1E1,7E0,1.790861E-2,2E0,-4.1718185E-3,2.013E3,1E0,1.44E2,4E0,2.1E1,1.8442445E-3,7.7569517E-3,2.3E1,-1.1933184E-2,8.9E1,6E0,8.5E1,2.01E3,4.386713E-3,-1.2166161E-3,1.5E1,1.7027692E-3,2.1E1,-7.075158E-3,5E0,9.7E1,-9.643177E-3,-1.3712123E-3,-3.4433538E-3,-1.2554643E-2,5.52787E-3,-1.9505871E-3,1.6833836E-2,4.237166E-3,-4.2283777E-3,3.7014128E-3,-1.17630516E-4,4.735165E-3,-9.2635234E-4,2.2878011E-3],"split_indices":[3,0,4,4,0,3,38,0,0,0,3,3,77,3,0,2,2,0,1,0,0,15,3,1,2,0,0,3,0,3,1,3,0,0,0,1,0,3,0,3,3,0,0,0,0,0,0,0,0,0,0,0,0,0,0],"split_type":[0,0,0,0,0,0,0,0,0,0,0,0,0,0,0,0,0,0,0,0,0,0,0,0,0,0,0,0,0,0,0,0,0,0,0,0,0,0,0,0,0,0,0,0,0,0,0,0,0,0,0,0,0,0,0],"sum_hessian":[6.8E1,1E0,6.7E1,6.4E1,3E0,1.5E1,4.9E1,1E0,2E0,4E0,1.1E1,4.1E1,8E0,1E1,1E0,3.3E1,8E0,2E0,6E0,4E0,6E0,2E1,1.3E1,3E0,5E0,1E0,5E0,3E0,3E0,1.8E1,2E0,9E0,4E0,1E0,2E0,4E0,1E0,2E0,1E0,9E0,9E0,1E0,1E0,6E0,3E0,1E0,3E0,2E0,2E0,1E0,1E0,1E0,8E0,1E0,8E0],"tree_param":{"num_deleted":"0","num_feature":"82","num_nodes":"55","size_leaf_vector":"1"}},{"base_weights":[7.389907E-5,-5.2308176E-2,1.033149E-2,-1.4534844E-3,1.9925445E-1,-5.9055265E-2,1.7008156E-2,4.1684516E-2,1.2061215E-2,-1.0219763E-2,-2.5460636E-2,-2.1359252E-3,4.835565E-2,3.4238086E-3,-4.323849E-2,1.6903013E-2,-2.2231301E-2,3.0780748E-2,1.06566355E-1,-7.6078656E-3,-1.5597494E-3,2.842692E-2,-1.6439747E-2,-6.0356732E-2,1.4128115E-2,6.085014E-3,7.7096E-3,2.0175988E-2,1.7059252E-3,4.1122846E-2,6.7611956E-3,-4.6702792E-4,-2.8489386E-3,-2.4941608E-3,-7.216177E-2,-7.737659E-3,4.3394748E-2,1.9069613E-4,3.397809E-3,6.4597526E-3,7.7400883E-3,-9.086721E-4,1.4685154E-2,-1.3039904E-2,-2.8413296E-2,-1.9840451E-3,-1.6862638E-3,7.628909E-3,1.5750614E-3,-1.083126E-3,1.1308E-3,-1.08808286E-4,1.5622528E-3,4.3003033E-3,7.016212E-5,-1.2683719E-3,-5.1246197E-3,-1.1754044E-3,4.4635017E-4],"categories":[],"categories_nodes":[],"categories_segments":[],"categories_sizes":[],"default_left":[0,0,0,0,0,0,0,0,0,0,0,0,0,0,0,0,0,0,0,0,0,0,0,0,0,0,0,0,0,0,0,0,0,0,0,0,0,0,0,0,0,0,0,0,0,0,0,0,0,0,0,0,0,0,0,0,0,0,0],"id":20,"left_children":[1,-1,3,5,7,9,11,-1,-1,-1,13,15,17,-1,19,21,23,25,27,-1,-1,29,31,33,35,-1,37,-1,-1,39,41,-1,-1,-1,43,45,47,49,-1,51,-1,-1,53,-1,55,-1,57,-1,-1,-1,-1,-1,-1,-1,-1,-1,-1,-1,-1],"loss_changes":[2.504708E-1,0E0,1.5168837E-1,7.0126936E-2,1.5040249E-2,3.144063E-3,3.010923E-2,0E0,0E0,0E0,5.279045E-3,1.2618803E-2,1.6157713E-2,0E0,4.5526447E-4,6.9993916E-3,2.3032222E-2,3.2996386E-3,9.109195E-3,0E0,0E0,3.2978253E-3,1.1098618E-4,2.9298943E-3,6.095212E-3,0E0,6.697859E-4,0E0,0E0,2.5721993E-3,6.984237E-4,0E0,0E0,0E0,1.4071856E-3,1.7700365E-4,4.4813287E-4,3.2673424E-4,0E0,9.281233E-5,0E0,0E0,7.818286E-4,0E0,5.5431155E-5,0E0,1.3799655E-4,0E0,0E0,0E0,0E0,0E0,0E0,0E0,0E0,0E0,0E0,0E0,0E0],"parents":[2147483647,0,0,2,2,3,3,4,4,5,5,6,6,10,10,11,11,12,12,14,14,15,15,16,16,17,17,18,18,21,21,22,22,23,23,24,24,26,26,29,29,30,30,34,34,35,35,36,36,37,37,39,39,42,42,44,44,46,46],"right_children":[2,-1,4,6,8,10,12,-1,-1,-1,14,16,18,-1,20,22,24,26,28,-1,-1,30,32,34,36,-1,38,-1,-1,40,42,-1,-1,-1,44,46,48,50,-1,52,-1,-1,54,-1,56,-1,58,-1,-1,-1,-1,-1,-1,-1,-1,-1,-1,-1,-1],"split_conditions":[4E0,-5.2308176E-2,2.2E1,2E0,2.008E3,2.1E1,1.6E1,4.1684516E-2,1.2061215E-2,-1.0219763E-2,2.3E1,1E0,2E1,3.4238086E-3,4.5E1,1E0,1.55E2,4E0,2.2E1,-7.6078656E-3,-1.5597494E-3,1E0,2.01E3,5.9E1,6.95E2,6.085014E-3,2.01E3,2.0175988E-2,1.7059252E-3,1E1,8E1,-4.6702792E-4,-2.8489386E-3,-2.4941608E-3,1.8E1,1.8E1,1.5E1,1.16E2,3.397809E-3,2.015E3,7.7400883E-3,-9.086721E-4,8.9E1,-1.3039904E-2,2E1,-1.9840451E-3,1E0,7.628909E-3,1.5750614E-3,-1.083126E-3,1.1308E-3,-1.08808286E-4,1.5622528E-3,4.3003033E-3,7.016212E-5,-1.2683719E-3,-5.1246197E-3,-1.1754044E-3,4.4635017E-4],"split_indices":[3,0,4,4,0,3,5,0,0,0,3,35,2,0,3,39,3,6,2,0,0,48,0,3,3,0,0,0,0,3,3,0,0,0,1,1,2,3,0,0,0,0,3,0,1,0,2,0,0,0,0,0,0,0,0,0,0,0,0],"split_type":[0,0,0,0,0,0,0,0,0,0,0,0,0,0,0,0,0,0,0,0,0,0,0,0,0,0,0,0,0,0,0,0,0,0,0,0,0,0,0,0,0,0,0,0,0,0,0,0,0,0,0,0,0,0,0,0,0,0,0],"sum_hessian":[6.8E1,1E0,6.7E1,6.4E1,3E0,1.5E1,4.9E1,1E0,2E0,1.1E1,4E0,3.1E1,1.8E1,1E0,3E0,1.6E1,1.5E1,1.5E1,3E0,2E0,1E0,1.2E1,4E0,7E0,8E0,1E1,5E0,2E0,1E0,7E0,5E0,1E0,3E0,2E0,5E0,5E0,3E0,4E0,1E0,2E0,5E0,2E0,3E0,3E0,2E0,2E0,3E0,2E0,1E0,2E0,2E0,1E0,1E0,1E0,2E0,1E0,1E0,1E0,2E0],"tree_param":{"num_deleted":"0","num_feature":"82","num_nodes":"59","size_leaf_vector":"1"}},{"base_weights":[2.1918591E-4,-8.613229E-2,2.7912693E-2,-7.3048193E-3,-3.6688354E-2,3.855817E-2,1.8562768E-2,-2.0060642E-3,4.9021807E-2,1.4916934E-2,-1.986137E-2,6.7741625E-2,1.0134397E-2,2.5136366E-2,-1.4636976E-2,-2.7241895E-2,6.813486E-3,6.4545483E-3,8.6305745E-2,2.0054258E-2,1.7162823E-4,3.6103606E-2,9.485979E-4,-4.3200108E-4,-2.5284325E-3,-3.833595E-2,1.2850739E-2,9.718341E-2,1.5779816E-3,9.062499E-4,4.656903E-3,5.2311725E-4,-9.81874E-4,6.7725764E-3,5.9752665E-3,-4.6806566E-2,2.6781012E-3,3.2949809E-3,-1.0872491E-3,1.6280321E-2,3.0317323E-3,-1.0064766E-4,1.4450826E-3,-5.404411E-2,-1.7856405E-3,1.1222732E-3,-5.1970035E-4,-1.1564367E-3,-8.934295E-3],"categories":[],"categories_nodes":[],"categories_segments":[],"categories_sizes":[],"default_left":[0,0,0,0,0,0,0,0,0,0,0,0,0,0,0,0,0,0,0,0,0,0,0,0,0,0,0,0,0,0,0,0,0,0,0,0,0,0,0,0,0,0,0,0,0,0,0,0,0],"id":21,"left_children":[1,3,5,-1,-1,-1,7,9,11,13,15,17,19,21,23,25,-1,-1,27,29,31,33,-1,-1,-1,35,37,39,-1,-1,-1,-1,-1,-1,41,43,45,-1,-1,-1,-1,-1,-1,47,-1,-1,-1,-1,-1],"loss_changes":[1.6740909E-1,8.892582E-2,1.0877867E-1,0E0,0E0,0E0,3.2676697E-2,9.965561E-3,1.4600754E-2,5.502331E-3,8.946768E-3,2.7086437E-3,7.8719243E-4,2.4538403E-3,8.191168E-5,7.164493E-3,0E0,0E0,4.7482513E-3,4.285226E-4,1.3419757E-4,1.9107591E-3,0E0,0E0,0E0,4.2943265E-3,8.920967E-4,3.0490682E-3,0E0,0E0,0E0,0E0,0E0,0E0,7.941246E-5,1.8827133E-3,1.1444648E-4,0E0,0E0,0E0,0E0,0E0,0E0,1.5861411E-3,0E0,0E0,0E0,0E0,0E0],"parents":[2147483647,0,0,1,1,2,2,6,6,7,7,8,8,9,9,10,10,11,11,12,12,13,13,14,14,15,15,18,18,19,19,20,20,21,21,25,25,26,26,27,27,34,34,35,35,36,36,43,43],"right_children":[2,4,6,-1,-1,-1,8,10,12,14,16,18,20,22,24,26,-1,-1,28,30,32,34,-1,-1,-1,36,38,40,-1,-1,-1,-1,-1,-1,42,44,46,-1,-1,-1,-1,-1,-1,48,-1,-1,-1,-1,-1],"split_conditions":[2E0,1E0,2.008E3,-7.3048193E-3,-3.6688354E-2,3.855817E-2,1.6E1,1E0,1E0,1E0,1E0,1.6E1,3E0,1E0,2.01E3,1E0,6.813486E-3,6.4545483E-3,2.2E1,1.3E1,1.3E1,1E0,9.485979E-4,-4.3200108E-4,-2.5284325E-3,2.1E1,1.2E1,1E0,1.5779816E-3,9.062499E-4,4.656903E-3,5.2311725E-4,-9.81874E-4,6.7725764E-3,2.015E3,2.3E1,3E0,3.2949809E-3,-1.0872491E-3,1.6280321E-2,3.0317323E-3,-1.0064766E-4,1.4450826E-3,2.009E3,-1.7856405E-3,1.1222732E-3,-5.1970035E-4,-1.1564367E-3,-8.934295E-3],"split_indices":[4,56,0,0,0,0,5,35,46,39,51,2,6,48,0,53,0,0,2,1,1,56,0,0,0,1,1,28,0,0,0,0,0,0,0,2,2,0,0,0,0,0,0,0,0,0,0,0,0],"split_type":[0,0,0,0,0,0,0,0,0,0,0,0,0,0,0,0,0,0,0,0,0,0,0,0,0,0,0,0,0,0,0,0,0,0,0,0,0,0,0,0,0,0,0,0,0,0,0,0,0],"sum_hessian":[6.8E1,1.6E1,5.2E1,1.4E1,2E0,1E0,5.1E1,3.1E1,2E1,1.6E1,1.5E1,1.3E1,7E0,1.2E1,4E0,1.4E1,1E0,7E0,6E0,3E0,4E0,7E0,5E0,1E0,3E0,1.1E1,3E0,5E0,1E0,2E0,1E0,3E0,1E0,5E0,2E0,9E0,2E0,2E0,1E0,4E0,1E0,1E0,1E0,7E0,2E0,1E0,1E0,1E0,6E0],"tree_param":{"num_deleted":"0","num_feature":"82","num_nodes":"49","size_leaf_vector":"1"}},{"base_weights":[6.3364475E-4,-4.5633443E-2,9.590697E-3,3.56663E-2,2.6360704E-3,-1.5549861E-2,4.61505E-2,3.1090577E-3,-4.18278E-2,8.895561E-2,2.595176E-2,1.2972426E-2,-4.6829592E-2,-9.78163E-3,-3.1906355E-2,1.617185E-2,-3.996011E-4,3.7426982E-2,-4.48408E-3,2.0340726E-2,-2.3868575E-3,-5.03169E-4,-8.528965E-3,-1.0454965E-2,-3.818557E-2,-1.0057054E-3,4.251062E-2,-1.4456691E-3,1.2098082E-3,2.6049288E-2,5.5334815E-3,6.2522436E-3,-2.2123193E-3,-1.9124151E-3,-4.6755075E-3,-1.4109689E-2,-8.005044E-3,4.6739545E-2,2.5594921E-3,-9.309948E-5,4.279538E-3,-9.1266487E-4,1.2863547E-2,4.1234418E-4,2.6588805E-3,3.823221E-4,-1.4343113E-3,4.968802E-3,-2.4891134E-2,2.8510115E-3,5.2816022E-2,3.9066356E-3,-3.1714142E-5,-5.1958E-4,3.3710452E-4,-2.596906E-3,3.7148865E-3,-5.4260734E-3,-1.3608449E-3,8.707948E-3,1.9973405E-3],"categories":[],"categories_nodes":[],"categories_segments":[],"categories_sizes":[],"default_left":[0,0,0,0,0,0,0,0,0,0,0,0,0,0,0,0,0,0,0,0,0,0,0,0,0,0,0,0,0,0,0,0,0,0,0,0,0,0,0,0,0,0,0,0,0,0,0,0,0,0,0,0,0,0,0,0,0,0,0,0,0],"id":22,"left_children":[1,-1,3,-1,5,7,9,11,13,15,17,19,21,-1,23,-1,-1,25,27,29,31,-1,-1,33,35,-1,37,-1,-1,39,41,43,-1,-1,45,47,-1,49,-1,-1,-1,-1,51,53,-1,-1,-1,55,57,-1,59,-1,-1,-1,-1,-1,-1,-1,-1,-1,-1],"loss_changes":[1.9133022E-1,0E0,1.07285045E-1,0E0,5.3738113E-2,2.3665305E-2,1.4983632E-2,1.4891829E-2,2.5592335E-3,1.065309E-2,5.4066954E-3,2.877846E-3,1.9895807E-3,0E0,1.7559379E-3,0E0,0E0,2.7528657E-3,4.0111438E-4,1.2928341E-3,1.0533772E-3,0E0,0E0,6.693823E-6,3.6330707E-3,0E0,2.7862005E-4,0E0,0E0,8.1171375E-4,5.8922777E-4,3.9471977E-4,0E0,0E0,1.3027835E-4,1.3578414E-3,0E0,3.4428202E-4,0E0,0E0,0E0,0E0,6.9485506E-4,4.3349166E-5,0E0,0E0,0E0,1.7520931E-3,3.8573588E-4,0E0,4.6816096E-4,0E0,0E0,0E0,0E0,0E0,0E0,0E0,0E0,0E0,0E0],"parents":[2147483647,0,0,2,2,4,4,5,5,6,6,7,7,8,8,9,9,10,10,11,11,12,12,14,14,17,17,18,18,19,19,20,20,23,23,24,24,26,26,29,29,30,30,31,31,34,34,35,35,37,37,42,42,43,43,47,47,48,48,50,50],"right_children":[2,-1,4,-1,6,8,10,12,14,16,18,20,22,-1,24,-1,-1,26,28,30,32,-1,-1,34,36,-1,38,-1,-1,40,42,44,-1,-1,46,48,-1,50,-1,-1,-1,-1,52,54,-1,-1,-1,56,58,-1,60,-1,-1,-1,-1,-1,-1,-1,-1,-1,-1],"split_conditions":[4E0,-4.5633443E-2,2.008E3,3.56663E-2,1.57E2,1E0,1E0,1E0,1.3E1,1E0,1.7E1,1E0,1.17E2,-9.78163E-3,1.6E1,1.617185E-2,-3.996011E-4,1E0,2.6E1,1E0,1E1,-5.03169E-4,-8.528965E-3,1.4E1,2.013E3,-1.0057054E-3,2.011E3,-1.4456691E-3,1.2098082E-3,5E0,8E1,2.01E3,-2.2123193E-3,-1.9124151E-3,1.5E1,2.3E1,-8.005044E-3,3E0,2.5594921E-3,-9.309948E-5,4.279538E-3,-9.1266487E-4,8.9E1,1.16E2,2.6588805E-3,3.823221E-4,-1.4343113E-3,2.1E1,2E0,2.8510115E-3,1E0,3.9066356E-3,-3.1714142E-5,-5.1958E-4,3.3710452E-4,-2.596906E-3,3.7148865E-3,-5.4260734E-3,-1.3608449E-3,8.707948E-3,1.9973405E-3],"split_indices":[3,0,0,0,3,75,35,40,3,11,2,39,3,0,3,0,0,2,2,48,2,0,0,3,0,0,0,0,0,3,3,0,0,0,3,3,0,2,0,0,0,0,3,3,0,0,0,3,4,0,29,0,0,0,0,0,0,0,0,0,0],"split_type":[0,0,0,0,0,0,0,0,0,0,0,0,0,0,0,0,0,0,0,0,0,0,0,0,0,0,0,0,0,0,0,0,0,0,0,0,0,0,0,0,0,0,0,0,0,0,0,0,0,0,0,0,0,0,0,0,0,0,0,0,0],"sum_hessian":[6.8E1,1E0,6.7E1,1E0,6.6E1,4.7E1,1.9E1,2.8E1,1.9E1,5E0,1.4E1,2.4E1,4E0,4E0,1.5E1,4E0,1E0,1E1,4E0,1.6E1,8E0,1E0,3E0,4E0,1.1E1,1E0,9E0,3E0,1E0,1.1E1,5E0,5E0,3E0,2E0,2E0,5E0,6E0,7E0,2E0,1E0,1E1,2E0,3E0,4E0,1E0,1E0,1E0,2E0,3E0,2E0,5E0,1E0,2E0,1E0,3E0,1E0,1E0,1E0,2E0,4E0,1E0],"tree_param":{"num_deleted":"0","num_feature":"82","num_nodes":"61","size_leaf_vector":"1"}},{"base_weights":[4.319324E-4,-6.839059E-2,2.2498932E-2,-5.576649E-3,-3.0248763E-2,1.4472289E-2,3.2991335E-2,-1.5886747E-3,3.825698E-2,1.1079155E-2,-1.4948952E-2,2.1525169E-2,6.864558E-2,1.902524E-2,-1.1796499E-2,-2.096722E-2,5.6493804E-3,2.966737E-2,4.3673073E-3,8.6445E-2,2.4147034E-3,1.2886968E-2,6.951338E-3,-3.6963078E-4,-2.0270282E-3,-8.80879E-3,-3.360417E-2,3.5135884E-2,5.195542E-3,2.4348592E-4,8.000298E-4,1.4412171E-2,3.592533E-3,1.7637232E-2,7.7957514E-4,4.8415256E-3,-5.6584897E-3,-4.1984726E-2,-1.2652786E-3,5.8754054E-3,2.3035437E-3,1.9113064E-3,-7.423095E-4,3.3319707E-3,4.131645E-3,2.7624406E-3,-4.2716265E-3,-7.569458E-3,-6.053567E-4,1.015737E-3,-8.6116794E-5,8.2427694E-4,-1.2130685E-3],"categories":[],"categories_nodes":[],"categories_segments":[],"categories_sizes":[],"default_left":[0,0,0,0,0,0,0,0,0,0,0,0,0,0,0,0,0,0,0,0,0,0,0,0,0,0,0,0,0,0,0,0,0,0,0,0,0,0,0,0,0,0,0,0,0,0,0,0,0,0,0,0,0],"id":23,"left_children":[1,3,5,-1,-1,7,-1,9,11,13,15,17,19,21,23,25,-1,27,29,31,-1,33,-1,-1,-1,35,37,39,41,-1,-1,-1,-1,43,-1,45,-1,47,-1,-1,-1,-1,-1,-1,49,-1,51,-1,-1,-1,-1,-1,-1],"loss_changes":[1.0632948E-1,6.3217364E-2,8.08117E-2,0E0,0E0,1.9925043E-2,0E0,5.581485E-3,9.199973E-3,3.3145533E-3,5.855759E-3,1.9659745E-3,5.1556155E-3,1.5826193E-3,4.681869E-5,2.0086695E-3,0E0,1.1556959E-3,7.25071E-6,7.0988014E-4,0E0,3.4667924E-4,0E0,0E0,0E0,3.7348636E-3,1.122361E-3,3.670063E-5,2.9271818E-4,0E0,0E0,0E0,0E0,3.408254E-4,0E0,9.446284E-4,0E0,1.4050668E-3,0E0,0E0,0E0,0E0,0E0,0E0,4.115632E-5,0E0,2.3076625E-4,0E0,0E0,0E0,0E0,0E0,0E0],"parents":[2147483647,0,0,1,1,2,2,5,5,7,7,8,8,9,9,10,10,11,11,12,12,13,13,14,14,15,15,17,17,18,18,19,19,21,21,25,25,26,26,27,27,28,28,33,33,35,35,37,37,44,44,46,46],"right_children":[2,4,6,-1,-1,8,-1,10,12,14,16,18,20,22,24,26,-1,28,30,32,-1,34,-1,-1,-1,36,38,40,42,-1,-1,-1,-1,44,-1,46,-1,48,-1,-1,-1,-1,-1,-1,50,-1,52,-1,-1,-1,-1,-1,-1],"split_conditions":[2E0,1E0,2.9E1,-5.576649E-3,-3.0248763E-2,1.6E1,3.2991335E-2,1E0,1.6E1,1E0,1E0,1E0,1E0,5E0,7E0,2E0,5.6493804E-3,1E0,5E0,1E0,2.4147034E-3,1E0,6.951338E-3,-3.6963078E-4,-2.0270282E-3,6E0,1E0,1.2E1,9E0,2.4348592E-4,8.000298E-4,1.4412171E-2,3.592533E-3,1E0,7.7957514E-4,1E0,-5.6584897E-3,2.3E1,-1.2652786E-3,5.8754054E-3,2.3035437E-3,1.9113064E-3,-7.423095E-4,3.3319707E-3,2E0,2.7624406E-3,3E0,-7.569458E-3,-6.053567E-4,1.015737E-3,-8.6116794E-5,8.2427694E-4,-1.2130685E-3],"split_indices":[4,56,2,0,0,5,0,35,2,39,51,29,54,2,2,6,0,54,4,26,0,48,0,0,0,5,16,2,2,0,0,0,0,56,0,52,0,2,0,0,0,0,0,0,6,0,2,0,0,0,0,0,0],"split_type":[0,0,0,0,0,0,0,0,0,0,0,0,0,0,0,0,0,0,0,0,0,0,0,0,0,0,0,0,0,0,0,0,0,0,0,0,0,0,0,0,0,0,0,0,0,0,0,0,0,0,0,0,0],"sum_hessian":[6.8E1,1.6E1,5.2E1,1.4E1,2E0,5.1E1,1E0,3.1E1,2E1,1.6E1,1.5E1,1.4E1,6E0,1.2E1,4E0,1.4E1,1E0,9E0,5E0,4E0,2E0,1.1E1,1E0,1E0,3E0,8E0,6E0,7E0,2E0,2E0,3E0,3E0,1E0,6E0,5E0,6E0,2E0,4E0,2E0,5E0,2E0,1E0,1E0,4E0,2E0,2E0,4E0,3E0,1E0,1E0,1E0,1E0,3E0],"tree_param":{"num_deleted":"0","num_feature":"82","num_nodes":"53","size_leaf_vector":"1"}},{"base_weights":[8.0912776E-4,-3.994226E-2,8.652842E-3,3.0516976E-2,2.708959E-3,-1.1523993E-2,3.6732595E-2,2.1175991E-3,-3.0728102E-2,9.693845E-3,5.3950608E-2,9.821878E-3,-3.6827315E-2,-4.7989868E-2,-2.3413293E-2,-5.359169E-3,2.9849906E-2,2.7573258E-2,1.2804638E-2,1.5688727E-2,-2.3512666E-3,-3.744498E-4,-6.7178966E-3,-8.551321E-3,-8.9356006E-4,-5.0182818E-3,-2.9126773E-2,-1.3715886E-3,-1.1808109E-3,5.3620553E-3,9.1188966E-4,-3.4190845E-4,3.216355E-2,1.9951932E-2,4.5475266E-3,-2.1727988E-3,3.184939E-3,-1.1635065E-3,-6.0709316E-4,-9.601034E-3,-6.255323E-3,-8.353813E-4,2.1383911E-3,5.5104317E-3,2.0731897E-3,-7.965714E-5,2.1862298E-2,-8.993551E-4,1.1318065E-2,7.571254E-3,-7.7808485E-4,7.718951E-4,-9.08491E-4,8.313894E-3,-2.0636972E-2,7.624559E-4,-2.8131792E-4,3.4193678E-3,9.3955774E-4,3.5551698E-3,-1.0650009E-4,4.1020548E-4,2.0188093E-3,-1.983896E-3,3.8545222E-3,-4.6008737E-3,-1.0601454E-3],"categories":[],"categories_nodes":[],"categories_segments":[],"categories_sizes":[],"default_left":[0,0,0,0,0,0,0,0,0,0,0,0,0,0,0,0,0,0,0,0,0,0,0,0,0,0,0,0,0,0,0,0,0,0,0,0,0,0,0,0,0,0,0,0,0,0,0,0,0,0,0,0,0,0,0,0,0,0,0,0,0,0,0,0,0,0,0],"id":24,"left_children":[1,-1,3,-1,5,7,9,11,13,15,17,19,21,23,25,27,29,31,-1,33,35,-1,-1,-1,-1,37,39,-1,41,-1,-1,-1,43,45,47,-1,49,-1,51,53,-1,-1,55,-1,-1,-1,57,-1,59,61,-1,-1,-1,63,65,-1,-1,-1,-1,-1,-1,-1,-1,-1,-1,-1,-1],"loss_changes":[1.46858E-1,0E0,7.818137E-2,0E0,3.286851E-2,1.263985E-2,8.788081E-3,9.062945E-3,1.4017299E-3,2.890656E-3,7.589534E-3,1.822338E-3,1.254342E-3,1.5558498E-3,1.5354259E-3,8.408709E-5,3.4339842E-4,1.1695721E-3,0E0,7.167212E-4,6.507247E-4,0E0,0E0,0E0,0E0,5.5689554E-5,2.546139E-3,0E0,7.017306E-5,0E0,0E0,0E0,7.9370104E-5,4.8116967E-4,4.961597E-4,0E0,2.963347E-4,0E0,1.2522124E-4,1.3578217E-3,0E0,0E0,4.4991077E-5,0E0,0E0,0E0,1.7384999E-5,0E0,6.126052E-4,1.0556972E-4,0E0,0E0,0E0,1.4631427E-3,3.2791938E-4,0E0,0E0,0E0,0E0,0E0,0E0,0E0,0E0,0E0,0E0,0E0,0E0],"parents":[2147483647,0,0,2,2,4,4,5,5,6,6,7,7,8,8,9,9,10,10,11,11,12,12,13,13,14,14,15,15,16,16,17,17,19,19,20,20,25,25,26,26,28,28,32,32,33,33,34,34,36,36,38,38,39,39,42,42,46,46,48,48,49,49,53,53,54,54],"right_children":[2,-1,4,-1,6,8,10,12,14,16,18,20,22,24,26,28,30,32,-1,34,36,-1,-1,-1,-1,38,40,-1,42,-1,-1,-1,44,46,48,-1,50,-1,52,54,-1,-1,56,-1,-1,-1,58,-1,60,62,-1,-1,-1,64,66,-1,-1,-1,-1,-1,-1,-1,-1,-1,-1,-1,-1],"split_conditions":[4E0,-3.994226E-2,2.008E3,3.0516976E-2,1.57E2,1E0,6E0,1E0,1.3E1,6.95E2,1.6E1,1E0,1.17E2,2.013E3,1.6E1,1E0,1.5E1,1.5E1,1.2804638E-2,1E0,3E0,-3.744498E-4,-6.7178966E-3,-8.551321E-3,-8.9356006E-4,1.4E1,2.013E3,-1.3715886E-3,1E0,5.3620553E-3,9.1188966E-4,-3.4190845E-4,2.011E3,5E0,8E1,-2.1727988E-3,1E1,-1.1635065E-3,1.5E1,2.3E1,-6.255323E-3,-8.353813E-4,3E0,5.5104317E-3,2.0731897E-3,-7.965714E-5,2.015E3,-8.993551E-4,8.9E1,2.01E3,-7.7808485E-4,7.718951E-4,-9.08491E-4,2.1E1,2E0,7.624559E-4,-2.8131792E-4,3.4193678E-3,9.3955774E-4,3.5551698E-3,-1.0650009E-4,4.1020548E-4,2.0188093E-3,-1.983896E-3,3.8545222E-3,-4.6008737E-3,-1.0601454E-3],"split_indices":[3,0,0,0,3,75,5,40,3,3,2,39,3,0,3,16,2,5,0,48,6,0,0,0,0,3,0,0,2,0,0,0,0,3,3,0,2,0,3,3,0,0,2,0,0,0,0,0,3,0,0,0,0,3,4,0,0,0,0,0,0,0,0,0,0,0,0],"split_type":[0,0,0,0,0,0,0,0,0,0,0,0,0,0,0,0,0,0,0,0,0,0,0,0,0,0,0,0,0,0,0,0,0,0,0,0,0,0,0,0,0,0,0,0,0,0,0,0,0,0,0,0,0,0,0,0,0,0,0,0,0,0,0,0,0,0,0],"sum_hessian":[6.8E1,1E0,6.7E1,1E0,6.6E1,4.7E1,1.9E1,2.8E1,1.9E1,8E0,1.1E1,2.4E1,4E0,4E0,1.5E1,5E0,3E0,7E0,4E0,1.6E1,8E0,1E0,3E0,3E0,1E0,4E0,1.1E1,2E0,3E0,2E0,1E0,1E0,6E0,1.1E1,5E0,2E0,6E0,2E0,2E0,5E0,6E0,1E0,2E0,4E0,2E0,1E0,1E1,2E0,3E0,4E0,2E0,1E0,1E0,2E0,3E0,1E0,1E0,9E0,1E0,1E0,2E0,3E0,1E0,1E0,1E0,1E0,2E0],"tree_param":{"num_deleted":"0","num_feature":"82","num_nodes":"67","size_leaf_vector":"1"}},{"base_weights":[5.9490674E-4,-3.694659E-2,7.848085E-3,2.8228212E-2,2.3476656E-3,-1.0244898E-2,3.2452434E-2,1.7728736E-3,-2.715842E-2,6.409703E-2,1.7631099E-2,8.600868E-3,-3.2721676E-2,-4.2680334E-2,-2.0610422E-2,1.1663973E-2,-3.1626542E-4,2.557982E-2,-3.3823072E-3,1.3737103E-2,-2.0565598E-3,-3.4636707E-4,-5.9621306E-3,-2.0414054E-2,-9.88091E-3,-4.525566E-3,-2.559491E-2,-7.727277E-4,2.9168107E-2,-7.0395432E-3,8.4349775E-4,1.7315753E-2,4.290285E-3,4.2206314E-3,-1.0958207E-2,-3.0214628E-2,6.740749E-4,-1.0471583E-3,-5.615552E-4,-8.792609E-3,-3.6340468E-2,1.9474277E-2,5.826042E-3,-1.2344293E-3,-2.6021898E-4,-7.368252E-5,1.8979223E-2,-8.0941996E-4,1.0482527E-2,8.502826E-5,1.8673987E-3,-2.2370473E-3,-7.002765E-4,-5.9717507E-3,-8.2654064E-4,7.1400404E-4,-8.40354E-4,7.69035E-3,-1.8956676E-2,-7.1399272E-3,-2.2316944E-2,7.052718E-4,3.1729082E-3,2.9913494E-3,7.0111384E-4,3.2885314E-3,-9.584874E-5,-6.962288E-4,3.6405722E-4,-1.8351049E-3,3.5654337E-3,-4.2558075E-3,-9.541303E-4,-8.5744413E-4,-6.6539664E-3],"categories":[],"categories_nodes":[],"categories_segments":[],"categories_sizes":[],"default_left":[0,0,0,0,0,0,0,0,0,0,0,0,0,0,0,0,0,0,0,0,0,0,0,0,0,0,0,0,0,0,0,0,0,0,0,0,0,0,0,0,0,0,0,0,0,0,0,0,0,0,0,0,0,0,0,0,0,0,0,0,0,0,0,0,0,0,0,0,0,0,0,0,0,0,0],"id":25,"left_children":[1,-1,3,-1,5,7,9,11,13,15,17,19,21,23,25,-1,-1,27,29,31,33,-1,-1,35,-1,37,39,-1,41,43,-1,45,47,49,51,53,-1,-1,55,57,59,61,-1,-1,-1,-1,63,-1,65,67,-1,-1,-1,-1,-1,-1,-1,69,71,-1,73,-1,-1,-1,-1,-1,-1,-1,-1,-1,-1,-1,-1,-1,-1],"loss_changes":[1.2550168E-1,0E0,6.701049E-2,0E0,2.5731917E-2,9.804765E-3,8.250203E-3,7.1117636E-3,1.153091E-3,5.591253E-3,2.5919648E-3,1.3967272E-3,9.765909E-4,1.2373123E-3,1.1669649E-3,0E0,0E0,1.3632602E-3,2.0426408E-4,5.004271E-4,5.491466E-4,0E0,0E0,1.1122257E-3,0E0,4.4747663E-5,1.8470734E-3,0E0,1.8121768E-4,1.0973774E-5,0E0,3.6477926E-4,4.16449E-4,2.0312509E-4,2.9889605E-5,4.918934E-4,0E0,0E0,1.0714255E-4,1.1509869E-3,4.2964704E-5,7.41072E-5,0E0,0E0,0E0,0E0,5.833851E-5,0E0,5.2297476E-4,6.661362E-5,0E0,0E0,0E0,0E0,0E0,0E0,0E0,1.2519024E-3,2.9390608E-4,0E0,1.5760532E-3,0E0,0E0,0E0,0E0,0E0,0E0,0E0,0E0,0E0,0E0,0E0,0E0,0E0,0E0],"parents":[2147483647,0,0,2,2,4,4,5,5,6,6,7,7,8,8,9,9,10,10,11,11,12,12,13,13,14,14,17,17,18,18,19,19,20,20,23,23,25,25,26,26,28,28,29,29,31,31,32,32,33,33,34,34,35,35,38,38,39,39,40,40,41,41,46,46,48,48,49,49,57,57,58,58,60,60],"right_children":[2,-1,4,-1,6,8,10,12,14,16,18,20,22,24,26,-1,-1,28,30,32,34,-1,-1,36,-1,38,40,-1,42,44,-1,46,48,50,52,54,-1,-1,56,58,60,62,-1,-1,-1,-1,64,-1,66,68,-1,-1,-1,-1,-1,-1,-1,70,72,-1,74,-1,-1,-1,-1,-1,-1,-1,-1,-1,-1,-1,-1,-1,-1],"split_conditions":[4E0,-3.694659E-2,2.008E3,2.8228212E-2,1.57E2,1E0,1E0,1E0,1.3E1,1E0,1.7E1,1E0,1.17E2,1.2E1,1.6E1,1.1663973E-2,-3.1626542E-4,1E0,2.6E1,1E0,1E1,-3.4636707E-4,-5.9621306E-3,1.1E1,-9.88091E-3,1.4E1,2.013E3,-7.727277E-4,4.98E2,2.5E1,8.4349775E-4,5E0,8E1,2.01E3,4.7E1,2.013E3,6.740749E-4,-1.0471583E-3,1.5E1,2.3E1,1.9E1,3E0,5.826042E-3,-1.2344293E-3,-2.6021898E-4,-7.368252E-5,2E1,-8.0941996E-4,8.9E1,3E0,1.8673987E-3,-2.2370473E-3,-7.002765E-4,-5.9717507E-3,-8.2654064E-4,7.1400404E-4,-8.40354E-4,2.1E1,2E0,-7.1399272E-3,6.3E1,7.052718E-4,3.1729082E-3,2.9913494E-3,7.0111384E-4,3.2885314E-3,-9.584874E-5,-6.962288E-4,3.6405722E-4,-1.8351049E-3,3.5654337E-3,-4.2558075E-3,-9.541303E-4,-8.5744413E-4,-6.6539664E-3],"split_indices":[3,0,0,0,3,75,35,42,3,11,2,39,3,3,3,0,0,2,2,48,2,0,0,3,0,3,0,0,3,2,0,3,3,0,3,0,0,0,3,3,3,2,0,0,0,0,2,0,3,6,0,0,0,0,0,0,0,3,4,0,3,0,0,0,0,0,0,0,0,0,0,0,0,0,0],"split_type":[0,0,0,0,0,0,0,0,0,0,0,0,0,0,0,0,0,0,0,0,0,0,0,0,0,0,0,0,0,0,0,0,0,0,0,0,0,0,0,0,0,0,0,0,0,0,0,0,0,0,0,0,0,0,0,0,0,0,0,0,0,0,0,0,0,0,0,0,0,0,0,0,0,0,0],"sum_hessian":[6.8E1,1E0,6.7E1,1E0,6.6E1,4.7E1,1.9E1,2.8E1,1.9E1,5E0,1.4E1,2.4E1,4E0,4E0,1.5E1,4E0,1E0,1E1,4E0,1.6E1,8E0,1E0,3E0,3E0,1E0,4E0,1.1E1,1E0,9E0,3E0,1E0,1.1E1,5E0,5E0,3E0,2E0,1E0,2E0,2E0,5E0,6E0,6E0,3E0,2E0,1E0,1E0,1E1,2E0,3E0,4E0,1E0,1E0,2E0,1E0,1E0,1E0,1E0,2E0,3E0,2E0,4E0,1E0,5E0,9E0,1E0,1E0,2E0,1E0,3E0,1E0,1E0,1E0,2E0,3E0,1E0],"tree_param":{"num_deleted":"0","num_feature":"82","num_nodes":"75","size_leaf_vector":"1"}},{"base_weights":[1.272861E-4,2.611109E-2,-4.990664E-3,1.0232534E-2,-4.7845796E-2,3.8457853E-3,3.6033623E-2,-2.4709735E-2,-2.329343E-2,1.1828789E-3,8.476872E-3,2.0710302E-3,4.855032E-2,-3.8780374E-3,-5.664021E-4,-5.1680785E-3,1.25357425E-2,8.010466E-3,1.8214793E-3,-7.6163732E-3,4.38657E-3,3.976357E-3,9.644146E-3,7.1891756E-3,-1.4596016E-2,1.0610856E-2,2.5625925E-3,-5.757591E-4,9.047421E-3,-2.0434132E-2,4.6699094E-3,2.1628493E-3,6.904412E-3,-6.815717E-5,6.447405E-4,2.8599845E-3,3.794921E-4,-5.625395E-3,-1.8554634E-3,1.8390232E-3,-6.715458E-4,1.5838344E-3,3.8999142E-4],"categories":[],"categories_nodes":[],"categories_segments":[],"categories_sizes":[],"default_left":[0,0,0,0,0,0,0,0,0,0,0,0,0,0,0,0,0,0,0,0,0,0,0,0,0,0,0,0,0,0,0,0,0,0,0,0,0,0,0,0,0,0,0],"id":26,"left_children":[1,-1,3,5,7,9,11,13,-1,15,-1,-1,17,-1,-1,19,21,-1,-1,23,-1,-1,25,27,29,31,33,-1,35,37,39,-1,41,-1,-1,-1,-1,-1,-1,-1,-1,-1,-1],"loss_changes":[6.229601E-2,0E0,4.485225E-2,8.265462E-3,4.090769E-2,5.823504E-3,2.1117274E-3,2.85496E-4,0E0,3.0209494E-3,0E0,0E0,4.1157193E-4,0E0,0E0,2.4974928E-3,3.5042036E-4,0E0,0E0,2.791707E-3,0E0,0E0,6.864988E-5,2.1915496E-4,2.1200057E-3,6.982125E-5,1.766253E-5,0E0,4.7415856E-4,1.4631567E-3,4.020237E-4,0E0,9.839237E-5,0E0,0E0,0E0,0E0,0E0,0E0,0E0,0E0,0E0,0E0],"parents":[2147483647,0,0,2,2,3,3,4,4,5,5,6,6,7,7,9,9,12,12,15,15,16,16,19,19,22,22,23,23,24,24,25,25,26,26,28,28,29,29,30,30,32,32],"right_children":[2,-1,4,6,8,10,12,14,-1,16,-1,-1,18,-1,-1,20,22,-1,-1,24,-1,-1,26,28,30,32,34,-1,36,38,40,-1,42,-1,-1,-1,-1,-1,-1,-1,-1,-1,-1],"split_conditions":[2.008E3,2.611109E-2,2.8E1,1E0,1E0,7E0,8E0,1E0,-2.329343E-2,1E0,8.476872E-3,2.0710302E-3,1E0,-3.8780374E-3,-5.664021E-4,1E0,2.01E3,8.010466E-3,1.8214793E-3,1E0,4.38657E-3,3.976357E-3,1E0,1E0,1E0,1E0,2.015E3,-5.757591E-4,1E0,6E0,2E0,2.1628493E-3,1E0,-6.815717E-5,6.447405E-4,2.8599845E-3,3.794921E-4,-5.625395E-3,-1.8554634E-3,1.8390232E-3,-6.715458E-4,1.5838344E-3,3.8999142E-4],"split_indices":[0,0,2,38,56,6,1,57,0,41,0,0,28,0,0,17,0,0,0,30,0,0,56,52,53,48,0,0,29,1,6,0,54,0,0,0,0,0,0,0,0,0,0],"split_type":[0,0,0,0,0,0,0,0,0,0,0,0,0,0,0,0,0,0,0,0,0,0,0,0,0,0,0,0,0,0,0,0,0,0,0,0,0,0,0,0,0,0,0],"sum_hessian":[6.8E1,1E0,6.7E1,5E1,1.7E1,4.1E1,9E0,1.5E1,2E0,4E1,1E0,4E0,5E0,1.4E1,1E0,2.6E1,1.4E1,4E0,1E0,2.5E1,1E0,1E0,1.3E1,8E0,1.7E1,1.1E1,2E0,1E0,7E0,1.3E1,4E0,4E0,7E0,1E0,1E0,2E0,5E0,3E0,1E1,2E0,2E0,3E0,4E0],"tree_param":{"num_deleted":"0","num_feature":"82","num_nodes":"43","size_leaf_vector":"1"}},{"base_weights":[5.165854E-4,-3.242859E-2,6.8827285E-3,2.4152758E-2,2.1789374E-3,-7.938923E-3,2.6352856E-2,-1.97175E-2,1.9524687E-3,5.160157E-2,1.44965155E-2,1.3373644E-3,-2.3026614E-2,6.9615208E-3,-1.6739467E-2,9.614285E-3,2.6614252E-3,2.9675066E-2,6.279309E-3,-1.78632E-2,-6.9497353E-3,1.0594383E-2,-2.3366665E-3,-1.8122792E-4,-2.940613E-3,1.1078239E-3,5.0101634E-3,1.4971346E-3,4.0575787E-3,-2.5573501E-2,-2.0936516E-3,7.851344E-3,2.5290996E-3,-8.5024815E-4,1.5791543E-3,-1.6040765E-3,1.3901979E-3,9.824574E-4,-2.9089224E-2,3.5888806E-3,-1.0417883E-2,1.4537895E-2,3.2642218E-3,7.410469E-4,-1.1880025E-3,-1.162817E-3,3.816592E-4,-6.583822E-3,-2.7077415E-3,-3.7011208E-3,4.3181668E-4,3.555596E-4,3.2789144E-3,-5.245301E-4,1.4058701E-3,-6.724734E-4,4.0517285E-4,-6.644072E-4,2.8825944E-4],"categories":[],"categories_nodes":[],"categories_segments":[],"categories_sizes":[],"default_left":[0,0,0,0,0,0,0,0,0,0,0,0,0,0,0,0,0,0,0,0,0,0,0,0,0,0,0,0,0,0,0,0,0,0,0,0,0,0,0,0,0,0,0,0,0,0,0,0,0,0,0,0,0,0,0,0,0,0,0],"id":27,"left_children":[1,-1,3,-1,5,7,9,11,13,15,17,-1,19,21,23,-1,-1,25,27,29,-1,31,33,-1,-1,-1,-1,35,-1,37,39,41,-1,-1,43,45,-1,-1,47,-1,49,51,53,-1,55,-1,57,-1,-1,-1,-1,-1,-1,-1,-1,-1,-1,-1,-1],"loss_changes":[9.667961E-2,0E0,4.895064E-2,0E0,1.6596634E-2,5.6308107E-3,5.239103E-3,2.2898158E-3,2.644512E-3,1.400888E-3,1.6845406E-3,0E0,1.5790332E-3,7.678943E-4,2.4326169E-4,0E0,0E0,1.6857311E-4,1.052149E-3,2.1350412E-3,0E0,1.4263962E-4,1.0027429E-4,0E0,0E0,0E0,0E0,2.5585707E-4,0E0,1.5457608E-3,1.7654048E-3,3.5128143E-4,0E0,0E0,4.3072512E-5,1.00625664E-4,0E0,0E0,1.0049548E-3,0E0,1.2083949E-3,3.9360812E-4,4.0445977E-4,0E0,5.055577E-5,0E0,6.037746E-5,0E0,0E0,0E0,0E0,0E0,0E0,0E0,0E0,0E0,0E0,0E0,0E0],"parents":[2147483647,0,0,2,2,4,4,5,5,6,6,7,7,8,8,9,9,10,10,12,12,13,13,14,14,17,17,18,18,19,19,21,21,22,22,27,27,29,29,30,30,31,31,34,34,35,35,38,38,40,40,41,41,42,42,44,44,46,46],"right_children":[2,-1,4,-1,6,8,10,12,14,16,18,-1,20,22,24,-1,-1,26,28,30,-1,32,34,-1,-1,-1,-1,36,-1,38,40,42,-1,-1,44,46,-1,-1,48,-1,50,52,54,-1,56,-1,58,-1,-1,-1,-1,-1,-1,-1,-1,-1,-1,-1,-1],"split_conditions":[4E0,-3.242859E-2,2.008E3,2.4152758E-2,1.57E2,6E0,1E1,2E0,1.7E1,1E0,1E0,1.3373644E-3,8E1,1E0,8E0,9.614285E-3,2.6614252E-3,1.3E1,1.371E3,2.1E1,-6.9497353E-3,6E0,1.16E2,-1.8122792E-4,-2.940613E-3,1.1078239E-3,5.0101634E-3,2.011E3,4.0575787E-3,8E0,2.3E1,4.7E1,2.5290996E-3,-8.5024815E-4,1.35E2,1.1E1,1.3901979E-3,9.824574E-4,1.3E1,3.5888806E-3,4.5E1,1E1,8E1,7.410469E-4,1.38E2,-1.162817E-3,1E0,-6.583822E-3,-2.7077415E-3,-3.7011208E-3,4.3181668E-4,3.555596E-4,3.2789144E-3,-5.245301E-4,1.4058701E-3,-6.724734E-4,4.0517285E-4,-6.644072E-4,2.8825944E-4],"split_indices":[3,0,0,0,3,1,1,1,1,35,65,0,3,35,2,0,0,1,3,3,0,2,3,0,0,0,0,0,0,3,3,3,0,0,3,1,0,0,3,0,3,3,3,0,3,0,2,0,0,0,0,0,0,0,0,0,0,0,0],"split_type":[0,0,0,0,0,0,0,0,0,0,0,0,0,0,0,0,0,0,0,0,0,0,0,0,0,0,0,0,0,0,0,0,0,0,0,0,0,0,0,0,0,0,0,0,0,0,0,0,0,0,0,0,0,0,0,0,0,0,0],"sum_hessian":[6.8E1,1E0,6.7E1,1E0,6.6E1,4.7E1,1.9E1,2.1E1,2.6E1,5E0,1.4E1,2E0,1.9E1,2.1E1,5E0,3E0,2E0,4E0,1E1,1.7E1,2E0,1.5E1,6E0,1E0,4E0,1E0,3E0,9E0,1E0,1.1E1,6E0,1.2E1,3E0,3E0,3E0,7E0,2E0,1E0,1E1,1E0,5E0,4E0,8E0,1E0,2E0,1E0,6E0,3E0,7E0,2E0,3E0,2E0,2E0,4E0,4E0,1E0,1E0,1E0,5E0],"tree_param":{"num_deleted":"0","num_feature":"82","num_nodes":"59","size_leaf_vector":"1"}},{"base_weights":[4.9664924E-4,-2.999645E-2,6.3856095E-3,2.23413E-2,2.0348874E-3,-6.9575785E-3,2.3515062E-2,-1.3024954E-2,7.2589787E-3,4.537748E-2,1.3202422E-2,-1.975793E-2,2.8492613E-3,9.2556765E-3,-1.5521095E-3,8.273467E-3,-2.6379974E-4,1.9003356E-2,-2.2001148E-3,-1.5211148E-2,-5.099021E-3,9.124309E-3,-2.039953E-3,1.2403124E-2,2.9918924E-3,-6.145768E-4,2.1723127E-2,-4.8191063E-3,6.206889E-4,-1.9644406E-2,2.017504E-3,1.5143574E-3,3.9290116E-4,-7.545954E-4,1.460718E-3,2.1333497E-3,1.5032581E-2,-7.1502407E-4,8.062959E-3,2.402597E-2,1.2511761E-3,-1.0756061E-3,-2.4675057E-4,9.087772E-4,-2.1761835E-2,-2.516518E-3,8.818537E-4,6.8546814E-4,-1.098901E-3,-8.971319E-5,5.6971685E-4,2.9510232E-3,9.241521E-3,2.9072016E-3,-2.1702845E-3,1.883514E-3,4.2594215E-3,-5.8431434E-3,-2.1326297E-3,-9.908527E-6,-5.563081E-4,-6.220378E-4,3.7478507E-4,2.3646683E-3,-5.4287913E-5,-1.1088856E-3,6.2057155E-4],"categories":[],"categories_nodes":[],"categories_segments":[],"categories_sizes":[],"default_left":[0,0,0,0,0,0,0,0,0,0,0,0,0,0,0,0,0,0,0,0,0,0,0,0,0,0,0,0,0,0,0,0,0,0,0,0,0,0,0,0,0,0,0,0,0,0,0,0,0,0,0,0,0,0,0,0,0,0,0,0,0,0,0,0,0,0,0],"id":28,"left_children":[1,-1,3,-1,5,7,9,11,13,15,17,19,21,23,-1,-1,-1,25,27,29,-1,31,33,35,37,-1,39,41,-1,43,45,-1,-1,-1,47,49,51,-1,53,55,-1,-1,-1,-1,57,59,-1,-1,61,-1,-1,-1,63,-1,65,-1,-1,-1,-1,-1,-1,-1,-1,-1,-1,-1,-1],"loss_changes":[8.273681E-2,0E0,4.18721E-2,0E0,1.31053105E-2,4.2348932E-3,3.910091E-3,3.6902395E-3,6.230914E-4,2.8626584E-3,1.3820464E-3,1.0363422E-3,3.560937E-4,2.3890019E-4,0E0,0E0,0E0,7.8011304E-4,1.0293747E-4,1.5672138E-3,0E0,5.1507377E-6,8.063411E-5,2.1096563E-4,2.745046E-4,0E0,1.0776101E-4,1.8061051E-5,0E0,1.0026298E-3,1.02335776E-4,0E0,0E0,0E0,3.685388E-5,1.5913189E-5,6.3172774E-6,0E0,5.053582E-4,4.4415705E-5,0E0,0E0,0E0,0E0,1.3917428E-3,8.51935E-6,0E0,0E0,4.3256794E-5,0E0,0E0,0E0,3.1891855E-4,0E0,1.294017E-4,0E0,0E0,0E0,0E0,0E0,0E0,0E0,0E0,0E0,0E0,0E0,0E0],"parents":[2147483647,0,0,2,2,4,4,5,5,6,6,7,7,8,8,9,9,10,10,11,11,12,12,13,13,17,17,18,18,19,19,21,21,22,22,23,23,24,24,26,26,27,27,29,29,30,30,34,34,35,35,36,36,38,38,39,39,44,44,45,45,48,48,52,52,54,54],"right_children":[2,-1,4,-1,6,8,10,12,14,16,18,20,22,24,-1,-1,-1,26,28,30,-1,32,34,36,38,-1,40,42,-1,44,46,-1,-1,-1,48,50,52,-1,54,56,-1,-1,-1,-1,58,60,-1,-1,62,-1,-1,-1,64,-1,66,-1,-1,-1,-1,-1,-1,-1,-1,-1,-1,-1,-1],"split_conditions":[4E0,-2.999645E-2,2.008E3,2.23413E-2,1.57E2,1E0,1E0,3E0,2E1,1E0,1.7E1,8.5E1,1E0,1E0,-1.5521095E-3,8.273467E-3,-2.6379974E-4,1E0,2.6E1,4.7E1,-5.099021E-3,9E0,1.16E2,1E1,8E1,-6.145768E-4,2.011E3,2.4E1,6.206889E-4,8E0,2.013E3,1.5143574E-3,3.9290116E-4,-7.545954E-4,1.35E2,2.015E3,4.7E1,-7.1502407E-4,8.9E1,3.99E2,1.2511761E-3,-1.0756061E-3,-2.4675057E-4,9.087772E-4,1.3E1,1.8E1,8.818537E-4,6.8546814E-4,1.38E2,-8.971319E-5,5.6971685E-4,2.9510232E-3,2.011E3,2.9072016E-3,9.7E1,1.883514E-3,4.2594215E-3,-5.8431434E-3,-2.1326297E-3,-9.908527E-6,-5.563081E-4,-6.220378E-4,3.7478507E-4,2.3646683E-3,-5.4287913E-5,-1.1088856E-3,6.2057155E-4],"split_indices":[3,0,0,0,3,13,35,4,2,11,2,3,80,48,0,0,0,2,2,3,0,2,3,3,3,0,0,2,0,3,0,0,0,0,3,0,3,0,3,3,0,0,0,0,3,2,0,0,3,0,0,0,0,0,3,0,0,0,0,0,0,0,0,0,0,0,0],"split_type":[0,0,0,0,0,0,0,0,0,0,0,0,0,0,0,0,0,0,0,0,0,0,0,0,0,0,0,0,0,0,0,0,0,0,0,0,0,0,0,0,0,0,0,0,0,0,0,0,0,0,0,0,0,0,0,0,0,0,0,0,0,0,0,0,0,0,0],"sum_hessian":[6.8E1,1E0,6.7E1,1E0,6.6E1,4.7E1,1.9E1,3.3E1,1.4E1,5E0,1.4E1,2.3E1,1E1,1.3E1,1E0,4E0,1E0,1E1,4E0,1.9E1,4E0,4E0,6E0,8E0,5E0,1E0,9E0,3E0,1E0,1.5E1,4E0,3E0,1E0,3E0,3E0,2E0,6E0,2E0,3E0,7E0,2E0,1E0,2E0,1E0,1.4E1,2E0,2E0,1E0,2E0,1E0,1E0,2E0,4E0,1E0,2E0,3E0,4E0,3E0,1.1E1,1E0,1E0,1E0,1E0,2E0,2E0,1E0,1E0],"tree_param":{"num_deleted":"0","num_feature":"82","num_nodes":"67","size_leaf_vector":"1"}},{"base_weights":[4.5210143E-4,-2.774672E-2,5.899283E-3,2.0665705E-2,1.874754E-3,-6.0049E-3,2.0692186E-2,-1.53313065E-2,1.8167971E-3,4.0350776E-2,1.1449273E-2,1.1082635E-3,-1.79727E-2,5.6206393E-3,-1.2433425E-2,2.7699443E-3,8.411974E-3,1.6526477E-2,-2.0104318E-3,-1.3586487E-2,-5.744863E-3,8.506761E-3,-1.7791583E-3,2.1478684E-4,-1.5492874E-2,1.865679E-3,2.463755E-2,-4.4268295E-3,5.741369E-4,-1.9800803E-2,-9.924471E-4,1.0831424E-2,2.8270856E-3,-6.6970347E-4,1.3511628E-3,-2.9003308E-3,-9.16645E-6,1.0080852E-3,-5.416654E-4,4.49825E-3,1.1260599E-3,-9.949353E-4,-2.2207575E-4,8.4062223E-4,-2.2619812E-2,3.4796656E-3,-8.890445E-3,-8.2985316E-5,1.2025213E-2,-6.435223E-4,7.45824E-3,-5.753853E-4,6.538228E-4,-5.1857876E-3,-2.0724423E-3,-3.1177462E-3,3.3795947E-4,1.8870941E-3,5.26987E-4,2.6891627E-3,-3.0112715E-4],"categories":[],"categories_nodes":[],"categories_segments":[],"categories_sizes":[],"default_left":[0,0,0,0,0,0,0,0,0,0,0,0,0,0,0,0,0,0,0,0,0,0,0,0,0,0,0,0,0,0,0,0,0,0,0,0,0,0,0,0,0,0,0,0,0,0,0,0,0,0,0,0,0,0,0,0,0,0,0,0,0],"id":29,"left_children":[1,-1,3,-1,5,7,9,11,13,15,17,-1,19,21,23,-1,-1,25,27,29,-1,31,33,-1,35,37,39,41,-1,43,45,47,49,-1,51,-1,-1,-1,-1,-1,-1,-1,-1,-1,53,-1,55,-1,57,-1,59,-1,-1,-1,-1,-1,-1,-1,-1,-1,-1],"loss_changes":[7.0786215E-2,0E0,3.583088E-2,0E0,1.0058671E-2,3.529373E-3,3.1720651E-3,1.4530485E-3,1.533435E-3,1.0297466E-3,1.0582902E-3,0E0,1.2627677E-3,4.8498256E-4,2.7670624E-4,0E0,0E0,1.2620969E-3,8.747882E-5,1.389089E-3,0E0,1.8063199E-4,6.487855E-5,0E0,2.9531377E-4,1.572145E-4,4.1650608E-4,1.6179176E-5,0E0,9.861658E-4,1.5436184E-3,1.5615253E-4,2.29763E-4,0E0,7.91236E-5,0E0,0E0,0E0,0E0,0E0,0E0,0E0,0E0,0E0,6.7977235E-4,0E0,8.421105E-4,0E0,3.0776719E-6,0E0,4.3239747E-4,0E0,0E0,0E0,0E0,0E0,0E0,0E0,0E0,0E0,0E0],"parents":[2147483647,0,0,2,2,4,4,5,5,6,6,7,7,8,8,9,9,10,10,12,12,13,13,14,14,17,17,18,18,19,19,21,21,22,22,24,24,25,25,26,26,27,27,29,29,30,30,31,31,32,32,34,34,44,44,46,46,48,48,50,50],"right_children":[2,-1,4,-1,6,8,10,12,14,16,18,-1,20,22,24,-1,-1,26,28,30,-1,32,34,-1,36,38,40,42,-1,44,46,48,50,-1,52,-1,-1,-1,-1,-1,-1,-1,-1,-1,54,-1,56,-1,58,-1,60,-1,-1,-1,-1,-1,-1,-1,-1,-1,-1],"split_conditions":[4E0,-2.774672E-2,2.008E3,2.0665705E-2,1.57E2,6E0,1E1,2E0,1.7E1,9E0,1.9E1,1.1082635E-3,8E1,1E0,8E0,2.7699443E-3,8.411974E-3,1E1,2.6E1,2.1E1,-5.744863E-3,1E0,1.16E2,2.1478684E-4,3E0,3.99E2,1E0,1.1E1,5.741369E-4,8E0,2.3E1,5E0,8E1,-6.6970347E-4,3E0,-2.9003308E-3,-9.16645E-6,1.0080852E-3,-5.416654E-4,4.49825E-3,1.1260599E-3,-9.949353E-4,-2.2207575E-4,8.4062223E-4,1.3E1,3.4796656E-3,4.5E1,-8.2985316E-5,2.015E3,-6.435223E-4,8.9E1,-5.753853E-4,6.538228E-4,-5.1857876E-3,-2.0724423E-3,-3.1177462E-3,3.3795947E-4,1.8870941E-3,5.26987E-4,2.6891627E-3,-3.0112715E-4],"split_indices":[3,0,0,0,3,1,1,1,1,2,2,0,3,35,2,0,0,2,2,3,0,48,3,0,6,3,23,1,0,3,3,3,3,0,6,0,0,0,0,0,0,0,0,0,3,0,3,0,0,0,3,0,0,0,0,0,0,0,0,0,0],"split_type":[0,0,0,0,0,0,0,0,0,0,0,0,0,0,0,0,0,0,0,0,0,0,0,0,0,0,0,0,0,0,0,0,0,0,0,0,0,0,0,0,0,0,0,0,0,0,0,0,0,0,0,0,0,0,0,0,0,0,0,0,0],"sum_hessian":[6.8E1,1E0,6.7E1,1E0,6.6E1,4.7E1,1.9E1,2.1E1,2.6E1,5E0,1.4E1,2E0,1.9E1,2.1E1,5E0,3E0,2E0,1E1,4E0,1.7E1,2E0,1.5E1,6E0,1E0,4E0,4E0,6E0,3E0,1E0,1.1E1,6E0,1E1,5E0,3E0,3E0,3E0,1E0,2E0,2E0,4E0,2E0,1E0,2E0,1E0,1E1,1E0,5E0,1E0,9E0,2E0,3E0,1E0,2E0,3E0,7E0,2E0,3E0,8E0,1E0,1E0,2E0],"tree_param":{"num_deleted":"0","num_feature":"82","num_nodes":"61","size_leaf_vector":"1"}},{"base_weights":[3.840593E-4,-2.5665719E-2,5.422201E-3,1.9115783E-2,1.6989937E-3,-5.3034234E-3,1.8419845E-2,-1.3502247E-2,1.5735223E-3,3.61618E-2,1.0095074E-2,6.649574E-3,-1.5849907E-2,4.9359263E-3,-1.1017546E-2,6.8671484E-3,1.6923428E-3,1.4601211E-2,-1.8374429E-3,2.803132E-4,1.2158409E-3,-1.1866148E-2,-5.1703756E-3,7.485478E-3,-1.5967531E-3,1.986757E-4,-1.3750857E-2,1.6791091E-3,2.1745397E-2,-4.0670577E-3,5.310763E-4,-1.7365465E-2,-7.435807E-4,9.418637E-3,2.6937749E-3,-5.943619E-4,1.1680946E-3,-2.5740468E-3,-8.478016E-6,9.0727623E-4,-4.8749894E-4,3.958461E-3,1.0134549E-3,-9.203151E-4,-1.9986817E-4,-9.956267E-3,-2.9694796E-2,3.218691E-3,-8.020158E-3,-7.6760356E-5,1.0462848E-2,-5.791701E-4,6.936513E-3,-5.322319E-4,5.8844016E-4,-4.60238E-3,8.280933E-4,-8.881599E-4,-5.3468524E-3,-2.8059662E-3,2.9993916E-4,2.0941403E-3,1.0453871E-3,2.4874762E-3,-2.7101487E-4],"categories":[],"categories_nodes":[],"categories_segments":[],"categories_sizes":[],"default_left":[0,0,0,0,0,0,0,0,0,0,0,0,0,0,0,0,0,0,0,0,0,0,0,0,0,0,0,0,0,0,0,0,0,0,0,0,0,0,0,0,0,0,0,0,0,0,0,0,0,0,0,0,0,0,0,0,0,0,0,0,0,0,0,0,0],"id":30,"left_children":[1,-1,3,-1,5,7,9,11,13,15,17,19,21,23,25,-1,-1,27,29,-1,-1,31,-1,33,35,-1,37,39,41,43,-1,45,47,49,51,-1,53,-1,-1,-1,-1,-1,-1,-1,-1,55,57,-1,59,-1,61,-1,63,-1,-1,-1,-1,-1,-1,-1,-1,-1,-1,-1,-1],"loss_changes":[6.0542736E-2,0E0,3.0675352E-2,0E0,7.942476E-3,2.7276236E-3,2.588898E-3,1.1462071E-3,1.1974608E-3,9.1941E-4,8.333721E-4,5.7356956E-6,1.0744776E-3,3.7837133E-4,2.2062106E-4,0E0,0E0,9.789839E-4,7.435326E-5,0E0,0E0,1.0880849E-3,0E0,1.228383E-4,5.041329E-5,0E0,2.3248116E-4,1.2734368E-4,3.0900026E-4,1.4449572E-5,0E0,8.005558E-4,1.3029536E-3,1.19417615E-4,1.936474E-4,0E0,6.5890075E-5,0E0,0E0,0E0,0E0,0E0,0E0,0E0,0E0,3.05639E-3,3.5483902E-4,0E0,6.798487E-4,0E0,2.4911948E-5,0E0,3.6733574E-4,0E0,0E0,0E0,0E0,0E0,0E0,0E0,0E0,0E0,0E0,0E0,0E0],"parents":[2147483647,0,0,2,2,4,4,5,5,6,6,7,7,8,8,9,9,10,10,11,11,12,12,13,13,14,14,17,17,18,18,21,21,23,23,24,24,26,26,27,27,28,28,29,29,31,31,32,32,33,33,34,34,36,36,45,45,46,46,48,48,50,50,52,52],"right_children":[2,-1,4,-1,6,8,10,12,14,16,18,20,22,24,26,-1,-1,28,30,-1,-1,32,-1,34,36,-1,38,40,42,44,-1,46,48,50,52,-1,54,-1,-1,-1,-1,-1,-1,-1,-1,56,58,-1,60,-1,62,-1,64,-1,-1,-1,-1,-1,-1,-1,-1,-1,-1,-1,-1],"split_conditions":[4E0,-2.5665719E-2,2.008E3,1.9115783E-2,1.57E2,6E0,1E1,2E0,1.7E1,1E0,1.9E1,2.011E3,8E1,1E0,8E0,6.8671484E-3,1.6923428E-3,1E1,2.6E1,2.803132E-4,1.2158409E-3,2.1E1,-5.1703756E-3,1E0,1.16E2,1.986757E-4,3E0,3.99E2,1E0,1.1E1,5.310763E-4,1.6E1,2.3E1,5E0,8E1,-5.943619E-4,3E0,-2.5740468E-3,-8.478016E-6,9.0727623E-4,-4.8749894E-4,3.958461E-3,1.0134549E-3,-9.203151E-4,-1.9986817E-4,2.013E3,2.013E3,3.218691E-3,4.5E1,-7.6760356E-5,4.7E1,-5.791701E-4,8.9E1,-5.322319E-4,5.8844016E-4,-4.60238E-3,8.280933E-4,-8.881599E-4,-5.3468524E-3,-2.8059662E-3,2.9993916E-4,2.0941403E-3,1.0453871E-3,2.4874762E-3,-2.7101487E-4],"split_indices":[3,0,0,0,3,1,1,1,1,35,2,0,3,35,2,0,0,2,2,0,0,3,0,48,3,0,6,3,23,1,0,3,3,3,3,0,6,0,0,0,0,0,0,0,0,0,0,0,3,0,3,0,3,0,0,0,0,0,0,0,0,0,0,0,0],"split_type":[0,0,0,0,0,0,0,0,0,0,0,0,0,0,0,0,0,0,0,0,0,0,0,0,0,0,0,0,0,0,0,0,0,0,0,0,0,0,0,0,0,0,0,0,0,0,0,0,0,0,0,0,0,0,0,0,0,0,0,0,0,0,0,0,0],"sum_hessian":[6.8E1,1E0,6.7E1,1E0,6.6E1,4.7E1,1.9E1,2.1E1,2.6E1,5E0,1.4E1,2E0,1.9E1,2.1E1,5E0,3E0,2E0,1E1,4E0,1E0,1E0,1.7E1,2E0,1.5E1,6E0,1E0,4E0,4E0,6E0,3E0,1E0,1.1E1,6E0,1E1,5E0,3E0,3E0,3E0,1E0,2E0,2E0,4E0,2E0,1E0,2E0,8E0,3E0,1E0,5E0,1E0,9E0,2E0,3E0,1E0,2E0,3E0,5E0,1E0,2E0,2E0,3E0,3E0,6E0,1E0,2E0],"tree_param":{"num_deleted":"0","num_feature":"82","num_nodes":"65","size_leaf_vector":"1"}},{"base_weights":[2.6296402E-4,-2.3740787E-2,4.921887E-3,1.4765214E-3,1.7682105E-2,-4.741093E-3,1.6324969E-2,-1.2066496E-2,1.4033497E-3,3.2164108E-2,8.900983E-3,6.1508617E-3,-1.4195775E-2,4.3847198E-3,-9.762232E-3,2.073882E-3,6.8840566E-3,1.2901181E-2,-1.6796484E-3,1.1246548E-3,2.5928917E-4,-1.0602711E-2,-4.6533346E-3,6.6564176E-3,-1.4341207E-3,1.8377604E-4,-1.2204749E-2,-5.7707727E-4,1.8027663E-2,-3.7370455E-3,4.912455E-4,-1.5594761E-2,-5.3023867E-4,4.985965E-3,1.8349589E-3,-5.274961E-4,1.0069292E-3,-2.2844689E-3,-7.843227E-6,4.850004E-4,-4.3874906E-4,1.3219375E-3,3.7558773E-3,-8.512918E-4,-1.7988123E-4,-9.0301037E-4,-2.0391677E-2,2.9772879E-3,-7.2348067E-3,9.722918E-3,2.1188916E-3,-4.9231504E-4,5.295959E-4,-1.9009412E-3,2.5805086E-3,-7.1828486E-3,-1.6453833E-3,-2.5253715E-3,2.6619696E-4,4.61806E-4,2.7224824E-3,-5.1801594E-4,9.6140284E-4],"categories":[],"categories_nodes":[],"categories_segments":[],"categories_sizes":[],"default_left":[0,0,0,0,0,0,0,0,0,0,0,0,0,0,0,0,0,0,0,0,0,0,0,0,0,0,0,0,0,0,0,0,0,0,0,0,0,0,0,0,0,0,0,0,0,0,0,0,0,0,0,0,0,0,0,0,0,0,0,0,0,0,0],"id":31,"left_children":[1,-1,3,5,-1,7,9,11,13,15,17,19,21,23,25,-1,-1,27,29,-1,-1,31,-1,33,35,-1,37,39,41,43,-1,45,47,49,-1,-1,51,-1,-1,-1,-1,-1,-1,-1,-1,53,55,-1,57,59,61,-1,-1,-1,-1,-1,-1,-1,-1,-1,-1,-1,-1],"loss_changes":[5.174252E-2,0E0,2.6290491E-2,6.2629674E-3,0E0,2.1774387E-3,2.0654988E-3,9.4069215E-4,9.4160053E-4,8.7613845E-4,6.5653876E-4,4.9077353E-6,8.802507E-4,3.0035633E-4,1.7597445E-4,0E0,0E0,7.704599E-4,6.320679E-5,0E0,0E0,8.968122E-4,0E0,8.805457E-5,3.9125753E-5,0E0,1.8301222E-4,4.5243614E-5,2.9620668E-4,1.2869841E-5,0E0,8.272871E-4,1.1000191E-3,1.6953488E-4,0E0,0E0,5.488497E-5,0E0,0E0,0E0,0E0,0E0,0E0,0E0,0E0,1.0704619E-3,1.8062785E-3,0E0,5.4887624E-4,2.240745E-4,2.61213E-4,0E0,0E0,0E0,0E0,0E0,0E0,0E0,0E0,0E0,0E0,0E0,0E0],"parents":[2147483647,0,0,2,2,3,3,5,5,6,6,7,7,8,8,9,9,10,10,11,11,12,12,13,13,14,14,17,17,18,18,21,21,23,23,24,24,26,26,27,27,28,28,29,29,31,31,32,32,33,33,36,36,45,45,46,46,48,48,49,49,50,50],"right_children":[2,-1,4,6,-1,8,10,12,14,16,18,20,22,24,26,-1,-1,28,30,-1,-1,32,-1,34,36,-1,38,40,42,44,-1,46,48,50,-1,-1,52,-1,-1,-1,-1,-1,-1,-1,-1,54,56,-1,58,60,62,-1,-1,-1,-1,-1,-1,-1,-1,-1,-1,-1,-1],"split_conditions":[4E0,-2.3740787E-2,2.9E1,1.57E2,1.7682105E-2,6E0,1E1,2E0,1.7E1,9E0,1.9E1,1E0,8E1,1E0,8E0,2.073882E-3,6.8840566E-3,7E0,2.6E1,1.1246548E-3,2.5928917E-4,2.1E1,-4.6533346E-3,9E0,1.16E2,1.8377604E-4,3E0,3.99E2,1E0,1.1E1,4.912455E-4,1.2E1,2.3E1,4.7E1,1.8349589E-3,-5.274961E-4,3E0,-2.2844689E-3,-7.843227E-6,4.850004E-4,-4.3874906E-4,1.3219375E-3,3.7558773E-3,-8.512918E-4,-1.7988123E-4,1.1E1,1.3E1,2.9772879E-3,4.5E1,2.6E1,8E1,-4.9231504E-4,5.295959E-4,-1.9009412E-3,2.5805086E-3,-7.1828486E-3,-1.6453833E-3,-2.5253715E-3,2.6619696E-4,4.61806E-4,2.7224824E-3,-5.1801594E-4,9.6140284E-4],"split_indices":[3,0,2,3,0,1,1,1,1,2,2,1,3,35,2,0,0,2,2,0,0,3,0,2,3,0,6,3,30,1,0,3,3,3,0,0,6,0,0,0,0,0,0,0,0,3,3,0,3,3,3,0,0,0,0,0,0,0,0,0,0,0,0],"split_type":[0,0,0,0,0,0,0,0,0,0,0,0,0,0,0,0,0,0,0,0,0,0,0,0,0,0,0,0,0,0,0,0,0,0,0,0,0,0,0,0,0,0,0,0,0,0,0,0,0,0,0,0,0,0,0,0,0,0,0,0,0,0,0],"sum_hessian":[6.8E1,1E0,6.7E1,6.6E1,1E0,4.7E1,1.9E1,2.1E1,2.6E1,5E0,1.4E1,2E0,1.9E1,2.1E1,5E0,3E0,2E0,1E1,4E0,1E0,1E0,1.7E1,2E0,1.5E1,6E0,1E0,4E0,3E0,7E0,3E0,1E0,1.1E1,6E0,1.3E1,2E0,3E0,3E0,3E0,1E0,1E0,2E0,4E0,3E0,1E0,2E0,3E0,8E0,1E0,5E0,4E0,9E0,1E0,2E0,2E0,1E0,1E0,7E0,2E0,3E0,3E0,1E0,4E0,5E0],"tree_param":{"num_deleted":"0","num_feature":"82","num_nodes":"63","size_leaf_vector":"1"}},{"base_weights":[2.1839989E-4,1.635595E-2,-2.9854374E-3,1.1846547E-3,-5.576553E-2,-4.741138E-3,1.3544189E-2,-1.4068133E-2,8.450051E-4,-1.2584334E-2,2.3192067E-3,1.8993016E-2,2.3157173E-3,-1.0563881E-4,2.9576497E-4,-1.3767615E-2,8.310959E-4,3.994744E-3,-1.0741134E-2,2.2067899E-2,5.788833E-3,-2.778467E-4,3.1757657E-3,-1.6253758E-2,-1.0255884E-2,6.63613E-3,-2.613388E-3,-1.8332005E-4,-2.2334354E-3,2.5238726E-2,7.799179E-4,2.3984314E-4,9.978712E-4,1.8985505E-4,1.097712E-3,-2.5795398E-3,-5.823903E-4,-7.514927E-3,-2.259019E-3,4.84044E-3,2.5178613E-3,2.594039E-4,-4.696359E-3,3.6034614E-2,1.3835013E-2,-1.4635697E-3,7.8170304E-4,-9.688452E-4,7.0409845E-3,-8.769396E-4,-7.2553757E-6,6.1956467E-3,1.5169145E-3,2.3829355E-3,2.684176E-4,4.1626394E-4,-6.5847527E-4,1.5980855E-3,3.3818523E-4],"categories":[],"categories_nodes":[],"categories_segments":[],"categories_sizes":[],"default_left":[0,0,0,0,0,0,0,0,0,0,0,0,0,0,0,0,0,0,0,0,0,0,0,0,0,0,0,0,0,0,0,0,0,0,0,0,0,0,0,0,0,0,0,0,0,0,0,0,0,0,0,0,0,0,0,0,0,0,0],"id":32,"left_children":[1,-1,3,5,7,9,11,-1,13,15,17,19,21,-1,-1,23,-1,25,27,29,31,-1,33,35,37,39,41,-1,-1,43,-1,-1,-1,-1,-1,-1,-1,45,-1,47,-1,-1,49,51,53,-1,-1,55,57,-1,-1,-1,-1,-1,-1,-1,-1,-1,-1],"loss_changes":[2.4382079E-2,0E0,1.5032714E-2,4.7515766E-3,1.0841488E-2,2.4657152E-3,1.24084E-3,0E0,6.6255843E-6,5.266669E-4,5.681022E-4,4.406711E-4,3.4560162E-5,0E0,0E0,7.916708E-6,0E0,4.0134462E-4,1.002698E-4,4.571285E-4,3.837209E-6,0E0,4.6122135E-5,4.9912604E-5,3.167463E-5,2.1035853E-4,7.14424E-5,0E0,0E0,6.094794E-4,0E0,0E0,0E0,0E0,0E0,0E0,0E0,3.0766212E-4,0E0,1.9857544E-4,0E0,0E0,2.6440954E-5,1.2870086E-4,1.1982105E-4,0E0,0E0,7.6222066E-5,1.6620231E-4,0E0,0E0,0E0,0E0,0E0,0E0,0E0,0E0,0E0,0E0],"parents":[2147483647,0,0,2,2,3,3,4,4,5,5,6,6,8,8,9,9,10,10,11,11,12,12,15,15,17,17,18,18,19,19,20,20,22,22,23,23,24,24,25,25,26,26,29,29,37,37,39,39,42,42,43,43,44,44,47,47,48,48],"right_children":[2,-1,4,6,8,10,12,-1,14,16,18,20,22,-1,-1,24,-1,26,28,30,32,-1,34,36,38,40,42,-1,-1,44,-1,-1,-1,-1,-1,-1,-1,46,-1,48,-1,-1,50,52,54,-1,-1,56,58,-1,-1,-1,-1,-1,-1,-1,-1,-1,-1],"split_conditions":[2.008E3,1.635595E-2,1E0,1.6E1,2.014E3,1.1E1,1E0,-1.4068133E-2,2.015E3,1E0,1E0,1E0,1E0,-1.0563881E-4,2.9576497E-4,2.013E3,8.310959E-4,1E0,1E0,1E0,2E0,-2.778467E-4,1.3E1,1E0,2.014E3,1E0,2E0,-1.8332005E-4,-2.2334354E-3,1E0,7.799179E-4,2.3984314E-4,9.978712E-4,1.8985505E-4,1.097712E-3,-2.5795398E-3,-5.823903E-4,1E0,-2.259019E-3,2.011E3,2.5178613E-3,2.594039E-4,3E0,1E1,1E0,-1.4635697E-3,7.8170304E-4,2E0,1E0,-8.769396E-4,-7.2553757E-6,6.1956467E-3,1.5169145E-3,2.3829355E-3,2.684176E-4,4.1626394E-4,-6.5847527E-4,1.5980855E-3,3.3818523E-4],"split_indices":[0,0,56,5,0,1,11,0,0,53,12,54,52,0,0,0,0,16,31,23,1,0,1,57,0,17,6,0,0,72,0,0,0,0,0,0,0,54,0,0,0,0,6,1,19,0,0,6,48,0,0,0,0,0,0,0,0,0,0],"split_type":[0,0,0,0,0,0,0,0,0,0,0,0,0,0,0,0,0,0,0,0,0,0,0,0,0,0,0,0,0,0,0,0,0,0,0,0,0,0,0,0,0,0,0,0,0,0,0,0,0,0,0,0,0,0,0,0,0,0,0],"sum_hessian":[6.8E1,1E0,6.7E1,6.3E1,4E0,4.3E1,2E1,2E0,2E0,2E1,2.3E1,1.3E1,7E0,1E0,1E0,1.9E1,1E0,2.1E1,2E0,1E1,3E0,1E0,6E0,9E0,1E1,1.5E1,6E0,1E0,1E0,8E0,2E0,1E0,2E0,5E0,1E0,8E0,1E0,8E0,2E0,1.4E1,1E0,2E0,4E0,3E0,5E0,7E0,1E0,4E0,1E1,3E0,1E0,2E0,1E0,4E0,1E0,2E0,2E0,5E0,5E0],"tree_param":{"num_deleted":"0","num_feature":"82","num_nodes":"59","size_leaf_vector":"1"}},{"base_weights":[3.5618056E-4,-2.090512E-2,4.4604614E-3,1.51292505E-2,1.5162395E-3,-3.448063E-3,1.3354754E-2,-6.7426646E-3,4.249571E-3,2.6156463E-2,7.3437532E-3,-1.0188952E-2,1.3894781E-3,5.3192144E-3,-8.0440793E-4,4.7419774E-3,-8.453541E-5,1.0522504E-2,-1.1182502E-3,1.9131392E-3,-1.1741016E-2,7.1736396E-4,-1.2325533E-3,1.5257181E-3,3.6628868E-3,-3.9261955E-4,1.2098247E-2,-2.80842E-3,4.2318218E-4,-2.3670226E-2,-8.768124E-3,-4.3196796E-4,7.228181E-4,8.224082E-3,3.5427883E-4,1.167898E-3,1.6620144E-2,-5.0903414E-4,-7.897485E-5,-2.8906662E-3,-6.4506684E-3,6.3757896E-3,-1.29525885E-2,-4.6963023E-4,4.5765043E-4,2.2853017E-3,2.3984404E-3,-5.720285E-4,5.4754615E-3,7.6876587E-4,2.8115185E-3,-3.2308372E-3,2.580437E-3,3.6470892E-4,1.2292386E-3,-4.5012776E-3,-1.2558843E-3,-9.7715114E-5,5.2220374E-4,2.2034459E-3,-3.7387162E-4],"categories":[],"categories_nodes":[],"categories_segments":[],"categories_sizes":[],"default_left":[0,0,0,0,0,0,0,0,0,0,0,0,0,0,0,0,0,0,0,0,0,0,0,0,0,0,0,0,0,0,0,0,0,0,0,0,0,0,0,0,0,0,0,0,0,0,0,0,