{"learner":{"attributes":{"best_iteration":"146","best_score":"0.19900898063325584"},"feature_names":[],"feature_types":[],"gradient_booster":{"model":{"gbtree_model_param":{"num_parallel_tree":"1","num_trees":"197"},"iteration_indptr":[0,1,2,3,4,5,6,7,8,9,10,11,12,13,14,15,16,17,18,19,20,21,22,23,24,25,26,27,28,29,30,31,32,33,34,35,36,37,38,39,40,41,42,43,44,45,46,47,48,49,50,51,52,53,54,55,56,57,58,59,60,61,62,63,64,65,66,67,68,69,70,71,72,73,74,75,76,77,78,79,80,81,82,83,84,85,86,87,88,89,90,91,92,93,94,95,96,97,98,99,100,101,102,103,104,105,106,107,108,109,110,111,112,113,114,115,116,117,118,119,120,121,122,123,124,125,126,127,128,129,130,131,132,133,134,135,136,137,138,139,140,141,142,143,144,145,146,147,148,149,150,151,152,153,154,155,156,157,158,159,160,161,162,163,164,165,166,167,168,169,170,171,172,173,174,175,176,177,178,179,180,181,182,183,184,185,186,187,188,189,190,191,192,193,194,195,196,197],"tree_info":[0,0,0,0,0,0,0,0,0,0,0,0,0,0,0,0,0,0,0,0,0,0,0,0,0,0,0,0,0,0,0,0,0,0,0,0,0,0,0,0,0,0,0,0,0,0,0,0,0,0,0,0,0,0,0,0,0,0,0,0,0,0,0,0,0,0,0,0,0,0,0,0,0,0,0,0,0,0,0,0,0,0,0,0,0,0,0,0,0,0,0,0,0,0,0,0,0,0,0,0,0,0,0,0,0,0,0,0,0,0,0,0,0,0,0,0,0,0,0,0,0,0,0,0,0,0,0,0,0,0,0,0,0,0,0,0,0,0,0,0,0,0,0,0,0,0,0,0,0,0,0,0,0,0,0,0,0,0,0,0,0,0,0,0,0,0,0,0,0,0,0,0,0,0,0,0,0,0,0,0,0,0,0,0,0,0,0,0,0,0,0,0,0,0,0,0,0],"trees":[{"base_weights":[-2.007846E-10,3.8231993E-1,-5.828214E-1,2.3604724E-1,1.0024574E0,-7.614321E-1,3.1332806E-1,1.3195282E-1,9.735812E-1,8.9754254E-1,1.6068894E0,-5.521298E-1,-1.4549557E0,-5.617886E-2,7.720542E-1,2.9306492E-2,4.2073035E-1,7.308204E-1,1.4590827E0,2.918755E-1,9.7327065E-1,1.4261998E0,2.865283E-1,-5.880469E-1,1.5033188E0,-1.1971931E0,-2.109512E0,-1.6628638E-1,1.8199704E0,5.0728977E-1,1.1122732E0,6.6076773E-1,-5.8453176E-3,-2.9287413E-1,4.772263E-1,-1.6304402E-1,7.4913013E-1,1.2902503E0,2.5785077E-1,-8.8748634E-2,3.7871796E-1,7.987078E-1,1.1592256E0,1.5002037E0,7.497061E-1,-6.639101E-1,-2.46466E-1,3.1719443E-1,1.0462222E0,-1.2559391E0,1.1747003E0,-1.6824285E0,-2.3963642E0,-4.699149E-1,2.0580329E-1,2.8329107E-1,7.472474E-2,3.0949062E-1,9.6120983E-1,3.198601E-1,1.002231E0,2.917E-1,1.2387605E0,-1.13958016E-1,1.9779485E-1,-3.319404E-1,4.688775E-1,3.7883678E-1,6.7587817E-1,-5.693463E-2,2.6999628E-2,6.3805825E-1,8.9001364E-1,1.4057462E0,9.1661376E-1,-3.043145E-1,1.1096508E-1,4.1462106E-1,-1.250819E-1,8.082471E-1,-3.8330105E-1,1.1695944E0,-1.4310141E-1,2.2673436E-1,5.969765E-2,9.2230254E-1,-4.7329914E-2,-5.686021E-1,-1.1663749E0,1.5431195E-1,-2.9158813E-1,1.2832679E0,1.7325002E-1,-1.4170434E0,-9.447448E-1,5.157445E-1,2.8041884E-1,-1.7320373E0,8.589541E-2,-2.4424605E0,-4.1443968E-1,-8.1949115E-1,-2.5497437E-1,-4.361983E-2,3.2930452E-1,8.177047E-2,4.1301972E-1,1.20073706E-1,1.7928962E-1,8.8115215E-1,2.4398771E-1,-4.49393E-1,4.0166786E-1,9.670047E-1,1.892003E0,-5.473291E-1,-7.4805625E-2,-9.860292E-1,2.1934576E-1,-4.535516E-1,2.1857066E-2,1.0086369E-1,4.633756E-3,2.9316887E-1,5.1969016E-1,1.192017E0,5.6723523E-1,6.0533047E-1,1.2953633E0,2.4150303E-1,9.254463E-1,1.1665426E0,1.5918868E0,5.2281636E-1,1.6564453E-1,1.7157968E-2,-5.8974363E-2,-2.4812621E-1,5.640677E-2,-9.018309E-2,4.7577807E-1,4.7570077E-1,8.465087E-1,-3.050628E-3,-8.319211E-2,1.2531719E0,9.7122973E-1,-5.0137985E-2,1.7940167E-2,1.5722209E-1,5.4476853E-2,-4.96296E-1,-9.693939E-1,-2.4768195E-1,-1.1053643E0,-3.924197E-1,3.073457E-1,-3.6875552E-1,-5.3225532E-2,1.436898E0,8.09952E-2,-3.0168565E-2,7.3481075E-2,-1.032547E0,-1.6276146E0,-7.0885545E-1,-1.0672693E0,-7.739035E-4,6.2095714E-1,-1.7704425E0,3.1398844E-2,-2.4667888E0,-4.4513613E-2,-1.7797273E-2,-7.545166E-2,-1.3367063E-2,-8.506648E-1,-4.222905E-1,-6.4894315E-3,-1.0530873E-1,6.757388E-2,-3.60988E-1,3.5609797E-1,-1.7819649E-1,1.9276854E-1,6.325776E-1,3.5235465E-1,-6.634439E-2,9.0874195E-1,-8.171504E-2,2.351986E-2,1.22303694E-1,5.073817E-2,1.1354595E-1,2.3684616E-1,2.963629E-1,7.908813E-2,-1.0089765E-1,-2.8143385E-2,-2.0486996E-2,2.0643616E-2,-5.994531E-2,-1.705635E-1,1.1080694E-2,4.9698353E-2,-3.24217E-2,-8.3221614E-2,-3.155363E-2,9.824743E-2,3.9635222E-2,1.3723981E-1,6.084078E-2,1.12636834E-1,7.781273E-2,1.9215056E-1,7.750367E-2,1.705288E-1,1.0821174E-1,6.577981E-2,2.6340976E-1,3.7396003E-2,6.55557E-3,4.6782296E-2,1.0693207E-1,1.4873746E-1,1.7860794E-1,3.4905907E-2,2.4403049E-1,4.0679477E-2,1.04436405E-1,4.800941E-2,-5.4813642E-2,7.7825994E-3,-9.217477E-2,3.6366414E-2,9.5084295E-2,3.2956634E-2,8.331847E-2,5.627516E-3,1.0913957E-1,1.4021528E-1,1.6085447E-1,2.1194328E-1,7.749155E-2,1.5958744E-1,-1.11284085E-1,-5.947364E-2,-9.002976E-3,-1.6297857E-1,-1.0063907E-1,-1.7304967E-1,-8.089144E-2,3.6653966E-2,-4.9715377E-2,5.242936E-2,-1.0680303E-1,-4.9538933E-2,-4.8752964E-2,1.7070126E-2,2.2839049E-1,4.348851E-2,-1.7209831E-1,-5.896742E-2,-2.6953417E-1,-1.6118461E-1,-5.8390956E-2,-1.4384317E-1,-1.6442937E-1,1.7470614E-3,1.03981614E-1,2.4895703E-2,-2.872765E-1,-1.3697216E-1,-3.7552452E-1,-1.1085958E-1,-1.3896744E-1,-9.902075E-2,-8.0848016E-2,-3.8655065E-2,-3.819319E-2,1.0975849E-2,7.803207E-2,-1.3920612E-2,-6.728083E-2,-1.3941475E-2,4.0364392E-2,8.0759674E-2,-4.084433E-2,-2.4035366E-3,4.6380743E-2,-1.3745766E-2,2.0624509E-3,1.0497128E-1,5.4965038E-2,1.8521536E-2,1.0228143E-1,1.4552373E-1],"categories":[],"categories_nodes":[],"categories_segments":[],"categories_sizes":[],"default_left":[0,0,0,0,0,0,0,0,0,0,0,0,0,0,0,0,0,0,0,0,0,0,0,0,0,0,0,0,0,0,0,0,0,0,0,0,0,0,0,0,0,0,0,0,0,0,0,0,0,0,0,0,0,0,0,0,0,0,0,0,0,0,0,0,0,0,0,0,0,0,0,0,0,0,0,0,0,0,0,0,0,0,0,0,0,0,0,0,0,0,0,0,0,0,0,0,0,0,0,0,0,0,0,0,0,0,0,0,0,0,0,0,0,0,0,0,0,0,0,0,0,0,0,0,0,0,0,0,0,0,0,0,0,0,0,0,0,0,0,0,0,0,0,0,0,0,0,0,0,0,0,0,0,0,0,0,0,0,0,0,0,0,0,0,0,0,0,0,0,0,0,0,0,0,0,0,0,0,0,0,0,0,0,0,0,0,0,0,0,0,0,0,0,0,0,0,0,0,0,0,0,0,0,0,0,0,0,0,0,0,0,0,0,0,0,0,0,0,0,0,0,0,0,0,0,0,0,0,0,0,0,0,0,0,0,0,0,0,0,0,0,0,0,0,0,0,0,0,0,0,0,0,0,0,0,0,0,0,0,0,0,0,0,0,0,0,0,0,0,0,0,0,0,0,0,0,0,0,0,0,0,0,0,0,0,0,0,0,0,0,0,0,0,0,0,0,0],"id":0,"left_children":[1,3,5,7,9,11,13,15,17,19,21,23,25,27,29,31,33,35,37,39,41,43,-1,45,47,49,51,53,55,57,59,61,63,65,67,69,71,73,-1,75,77,79,81,83,85,87,89,-1,91,93,95,97,99,101,103,-1,-1,105,107,-1,109,111,113,115,117,119,121,123,125,-1,-1,127,129,131,133,135,137,139,-1,141,143,145,147,-1,-1,149,-1,151,153,155,157,159,161,163,165,167,-1,169,-1,171,173,175,177,179,181,183,185,-1,-1,187,-1,189,191,193,195,197,199,201,203,205,207,-1,-1,209,211,213,215,217,219,221,223,225,227,229,-1,-1,-1,231,-1,233,235,237,239,-1,-1,241,243,-1,-1,-1,-1,245,247,-1,249,251,253,255,257,259,-1,-1,-1,261,263,265,267,-1,269,271,-1,273,-1,-1,-1,-1,275,277,279,-1,281,283,285,287,289,291,293,-1,295,-1,-1,-1,-1,-1,-1,-1,-1,-1,-1,-1,-1,-1,-1,-1,-1,-1,-1,-1,-1,-1,-1,-1,-1,-1,-1,-1,-1,-1,-1,-1,-1,-1,-1,-1,-1,-1,-1,-1,-1,-1,-1,-1,-1,-1,-1,-1,-1,-1,-1,-1,-1,-1,-1,-1,-1,-1,-1,-1,-1,-1,-1,-1,-1,-1,-1,-1,-1,-1,-1,-1,-1,-1,-1,-1,-1,-1,-1,-1,-1,-1,-1,-1,-1,-1,-1,-1,-1,-1,-1,-1,-1,-1,-1,-1,-1,-1,-1,-1,-1,-1,-1,-1,-1,-1,-1,-1,-1],"loss_changes":[1.4158252E3,3.478145E2,4.0311438E2,2.3832898E2,4.4976685E1,3.0387915E2,7.10649E1,8.070271E1,4.419223E1,2.84281E1,3.1395874E0,1.2003879E2,7.9472534E1,4.8435337E1,1.6280327E1,4.4619846E1,2.8925209E1,4.344681E0,3.3552246E0,2.3804688E0,1.7122253E1,2.429779E0,0E0,4.0961E1,5.6116104E0,5.038336E1,1.2629639E1,2.5064634E1,2.385788E-1,9.309509E0,6.9556656E0,2.2250408E1,4.1963184E1,1.7328563E0,1.2682907E1,5.13973E-1,3.3911133E0,2.2069092E0,0E0,6.3648874E-1,2.8708315E0,3.579712E0,3.7728577E0,1.871643E-1,1.945725E0,6.1496582E1,5.289339E0,0E0,3.502491E0,1.5857483E1,3.1561737E0,7.4803314E0,6.205139E0,8.957901E0,3.094771E0,0E0,0E0,1.7579775E0,2.4694252E-1,0E0,4.2364273E0,5.559271E0,5.448841E0,2.1083616E1,1.708004E1,2.2042255E0,2.4667984E-1,5.2172813E0,1.1548164E1,0E0,0E0,2.3351326E0,2.2811432E0,8.145218E-1,1.0486584E0,3.0537742E-1,8.5481006E-1,1.8026285E0,0E0,3.2617645E0,1.752617E-1,3.1762695E0,1.9062524E-1,0E0,0E0,1.8223715E-1,0E0,3.1193695E1,4.268341E0,2.63066E0,4.781164E0,8.228245E-1,6.912035E-1,1.6455322E1,2.7117386E0,3.320378E-1,0E0,4.6204376E0,0E0,3.287445E0,1.8914342E-2,9.715481E-1,3.1985765E0,2.5367236E0,1.3677325E0,7.557464E-1,4.697218E-1,0E0,0E0,2.7753143E0,0E0,6.057532E-1,1.2457447E0,2.7892838E0,2.1554184E-1,4.516939E0,1.5018048E1,6.085501E-1,1.0563854E1,7.9358625E-1,2.1960752E0,0E0,0E0,4.7774906E0,4.100712E0,1.5522118E0,4.6525803E0,2.3943405E0,2.453722E0,8.381587E-2,7.411499E-1,4.002304E-1,9.910507E-1,9.3624115E-2,0E0,0E0,0E0,1.5972216E-1,0E0,1.3697865E0,1.9256458E0,1.097486E0,2.0171204E0,0E0,0E0,3.771698E0,2.9477463E0,0E0,0E0,0E0,0E0,2.2452911E1,1.7616257E1,0E0,3.128891E0,7.86384E-1,7.625494E-1,2.3680668E0,2.9877799E0,6.3988113E-1,0E0,0E0,0E0,5.5670166E0,1.1456818E1,3.1435032E0,2.4158707E0,0E0,4.931867E-2,5.1996307E0,0E0,2.9697266E0,0E0,0E0,0E0,0E0,2.3733139E-2,7.44627E-1,6.511629E-1,0E0,2.2260816E0,2.8714031E-2,8.860483E-1,1.1771938E-1,6.244109E-1,4.0642166E-1,9.3315125E-2,0E0,2.301979E-1,0E0,0E0,0E0,0E0,0E0,0E0,0E0,0E0,0E0,0E0,0E0,0E0,0E0,0E0,0E0,0E0,0E0,0E0,0E0,0E0,0E0,0E0,0E0,0E0,0E0,0E0,0E0,0E0,0E0,0E0,0E0,0E0,0E0,0E0,0E0,0E0,0E0,0E0,0E0,0E0,0E0,0E0,0E0,0E0,0E0,0E0,0E0,0E0,0E0,0E0,0E0,0E0,0E0,0E0,0E0,0E0,0E0,0E0,0E0,0E0,0E0,0E0,0E0,0E0,0E0,0E0,0E0,0E0,0E0,0E0,0E0,0E0,0E0,0E0,0E0,0E0,0E0,0E0,0E0,0E0,0E0,0E0,0E0,0E0,0E0,0E0,0E0,0E0,0E0,0E0,0E0,0E0,0E0,0E0,0E0,0E0,0E0,0E0,0E0,0E0,0E0,0E0,0E0,0E0,0E0,0E0,0E0,0E0],"parents":[2147483647,0,0,1,1,2,2,3,3,4,4,5,5,6,6,7,7,8,8,9,9,10,10,11,11,12,12,13,13,14,14,15,15,16,16,17,17,18,18,19,19,20,20,21,21,23,23,24,24,25,25,26,26,27,27,28,28,29,29,30,30,31,31,32,32,33,33,34,34,35,35,36,36,37,37,39,39,40,40,41,41,42,42,43,43,44,44,45,45,46,46,48,48,49,49,50,50,51,51,52,52,53,53,54,54,57,57,58,58,60,60,61,61,62,62,63,63,64,64,65,65,66,66,67,67,68,68,71,71,72,72,73,73,74,74,75,75,76,76,77,77,79,79,80,80,81,81,82,82,85,85,87,87,88,88,89,89,90,90,91,91,92,92,93,93,94,94,95,95,97,97,99,99,100,100,101,101,102,102,103,103,104,104,105,105,106,106,109,109,111,111,112,112,113,113,114,114,115,115,116,116,117,117,118,118,119,119,120,120,123,123,124,124,125,125,126,126,127,127,128,128,129,129,130,130,131,131,132,132,133,133,137,137,139,139,140,140,141,141,142,142,145,145,146,146,151,151,152,152,154,154,155,155,156,156,157,157,158,158,159,159,163,163,164,164,165,165,166,166,168,168,169,169,171,171,176,176,177,177,178,178,180,180,181,181,182,182,183,183,184,184,185,185,186,186,188,188],"right_children":[2,4,6,8,10,12,14,16,18,20,22,24,26,28,30,32,34,36,38,40,42,44,-1,46,48,50,52,54,56,58,60,62,64,66,68,70,72,74,-1,76,78,80,82,84,86,88,90,-1,92,94,96,98,100,102,104,-1,-1,106,108,-1,110,112,114,116,118,120,122,124,126,-1,-1,128,130,132,134,136,138,140,-1,142,144,146,148,-1,-1,150,-1,152,154,156,158,160,162,164,166,168,-1,170,-1,172,174,176,178,180,182,184,186,-1,-1,188,-1,190,192,194,196,198,200,202,204,206,208,-1,-1,210,212,214,216,218,220,222,224,226,228,230,-1,-1,-1,232,-1,234,236,238,240,-1,-1,242,244,-1,-1,-1,-1,246,248,-1,250,252,254,256,258,260,-1,-1,-1,262,264,266,268,-1,270,272,-1,274,-1,-1,-1,-1,276,278,280,-1,282,284,286,288,290,292,294,-1,296,-1,-1,-1,-1,-1,-1,-1,-1,-1,-1,-1,-1,-1,-1,-1,-1,-1,-1,-1,-1,-1,-1,-1,-1,-1,-1,-1,-1,-1,-1,-1,-1,-1,-1,-1,-1,-1,-1,-1,-1,-1,-1,-1,-1,-1,-1,-1,-1,-1,-1,-1,-1,-1,-1,-1,-1,-1,-1,-1,-1,-1,-1,-1,-1,-1,-1,-1,-1,-1,-1,-1,-1,-1,-1,-1,-1,-1,-1,-1,-1,-1,-1,-1,-1,-1,-1,-1,-1,-1,-1,-1,-1,-1,-1,-1,-1,-1,-1,-1,-1,-1,-1,-1,-1,-1,-1,-1,-1],"split_conditions":[4E0,5.37E2,8E0,8E0,1.3E1,6E0,3.3E1,3E0,1.8E1,4.7E0,2.9E1,5E0,8E0,1E2,3.4E1,2E0,3.25E0,1.994E3,7E1,6.75E2,9.38E2,1E0,2.865283E-1,1.57E2,2E3,7E0,1E0,2.5E1,2.005E3,6.3E1,3.2E1,9E0,1.89E2,1E0,1E0,1.42E2,1.1E1,1E0,2.5785077E-1,3.25E0,1.06E2,1E0,1E0,2.8E1,1.481E3,2.012E3,2.007E3,3.1719443E-1,3E0,1E0,1.38E2,8.9E1,7E0,1.7E1,4.5E1,2.8329107E-1,7.472474E-2,9E0,8.7E1,3.198601E-1,1.14E2,3.25E0,1E0,3.25E0,1E0,1E0,2E0,4.1E2,1E0,-5.693463E-2,2.6999628E-2,1.6E1,1.28E2,4.9E1,3.4E1,5.56E2,2E0,1E0,-1.250819E-1,6.3E0,2E0,2E1,6E0,2.2673436E-1,5.969765E-2,1.229E3,-4.7329914E-2,1E2,4E0,4.7E1,1E2,1E0,2.7E1,1E0,2E0,1E0,2.8041884E-1,1E0,8.589541E-2,2.014E3,2.009E3,2.011E3,2.5E1,1.2E1,1.996E3,3.8E1,2.012E3,1.20073706E-1,1.7928962E-1,1.995E3,2.4398771E-1,1.32E2,1E0,1E0,1.04E2,1E0,1E0,3E0,1E0,3.46E2,4.54E2,1.0086369E-1,4.633756E-3,1E0,1E0,1E0,1E0,4.1E1,7.8E1,9E0,1E0,1.6E1,2.5E1,1.08E2,1.6564453E-1,1.7157968E-2,-5.8974363E-2,5.97E2,5.640677E-2,1.998E3,5E0,8.06E2,6.49E2,-3.050628E-3,-8.319211E-2,1E0,3.8E1,-5.0137985E-2,1.7940167E-2,1.5722209E-1,5.4476853E-2,5.1E1,1E0,-2.4768195E-1,9E0,1E0,1.999E3,1E0,6.6E1,6E0,8.09952E-2,-3.0168565E-2,7.3481075E-2,3E1,8E0,3.5E1,8.7E1,-7.739035E-4,1.2E1,1E1,3.1398844E-2,1E0,-4.4513613E-2,-1.7797273E-2,-7.545166E-2,-1.3367063E-2,1.3E1,9E0,7E0,-1.0530873E-1,2.012E3,1.994E3,1.7E1,2.013E3,2.013E3,1.1E1,2.7E1,-6.634439E-2,4.6E1,-8.171504E-2,2.351986E-2,1.22303694E-1,5.073817E-2,1.1354595E-1,2.3684616E-1,2.963629E-1,7.908813E-2,-1.0089765E-1,-2.8143385E-2,-2.0486996E-2,2.0643616E-2,-5.994531E-2,-1.705635E-1,1.1080694E-2,4.9698353E-2,-3.24217E-2,-8.3221614E-2,-3.155363E-2,9.824743E-2,3.9635222E-2,1.3723981E-1,6.084078E-2,1.12636834E-1,7.781273E-2,1.9215056E-1,7.750367E-2,1.705288E-1,1.0821174E-1,6.577981E-2,2.6340976E-1,3.7396003E-2,6.55557E-3,4.6782296E-2,1.0693207E-1,1.4873746E-1,1.7860794E-1,3.4905907E-2,2.4403049E-1,4.0679477E-2,1.04436405E-1,4.800941E-2,-5.4813642E-2,7.7825994E-3,-9.217477E-2,3.6366414E-2,9.5084295E-2,3.2956634E-2,8.331847E-2,5.627516E-3,1.0913957E-1,1.4021528E-1,1.6085447E-1,2.1194328E-1,7.749155E-2,1.5958744E-1,-1.11284085E-1,-5.947364E-2,-9.002976E-3,-1.6297857E-1,-1.0063907E-1,-1.7304967E-1,-8.089144E-2,3.6653966E-2,-4.9715377E-2,5.242936E-2,-1.0680303E-1,-4.9538933E-2,-4.8752964E-2,1.7070126E-2,2.2839049E-1,4.348851E-2,-1.7209831E-1,-5.896742E-2,-2.6953417E-1,-1.6118461E-1,-5.8390956E-2,-1.4384317E-1,-1.6442937E-1,1.7470614E-3,1.03981614E-1,2.4895703E-2,-2.872765E-1,-1.3697216E-1,-3.7552452E-1,-1.1085958E-1,-1.3896744E-1,-9.902075E-2,-8.0848016E-2,-3.8655065E-2,-3.819319E-2,1.0975849E-2,7.803207E-2,-1.3920612E-2,-6.728083E-2,-1.3941475E-2,4.0364392E-2,8.0759674E-2,-4.084433E-2,-2.4035366E-3,4.6380743E-2,-1.3745766E-2,2.0624509E-3,1.0497128E-1,5.4965038E-2,1.8521536E-2,1.0228143E-1,1.4552373E-1],"split_indices":[6,5,9,9,9,6,9,6,9,9,9,6,6,5,5,6,9,0,9,5,5,32,0,2,0,6,14,5,0,9,2,8,5,21,39,5,9,32,0,9,4,27,27,9,5,0,0,0,12,23,5,4,11,9,5,0,0,5,9,0,9,9,23,9,8,28,4,5,1,0,0,1,5,2,9,5,4,8,0,9,1,10,1,0,0,5,0,5,8,5,4,33,4,14,1,14,0,35,0,0,0,0,9,9,0,9,0,0,0,0,0,2,2,12,4,23,23,1,28,5,5,0,0,19,23,20,19,4,2,1,28,11,10,5,0,0,0,5,0,0,11,5,5,0,0,28,2,0,0,0,0,5,14,0,1,35,0,25,5,11,0,0,0,5,1,4,4,0,1,1,0,34,0,0,0,0,9,5,5,0,0,0,9,0,0,5,5,0,9,0,0,0,0,0,0,0,0,0,0,0,0,0,0,0,0,0,0,0,0,0,0,0,0,0,0,0,0,0,0,0,0,0,0,0,0,0,0,0,0,0,0,0,0,0,0,0,0,0,0,0,0,0,0,0,0,0,0,0,0,0,0,0,0,0,0,0,0,0,0,0,0,0,0,0,0,0,0,0,0,0,0,0,0,0,0,0,0,0,0,0,0,0,0,0,0,0,0,0,0,0,0,0,0,0,0,0,0],"split_type":[0,0,0,0,0,0,0,0,0,0,0,0,0,0,0,0,0,0,0,0,0,0,0,0,0,0,0,0,0,0,0,0,0,0,0,0,0,0,0,0,0,0,0,0,0,0,0,0,0,0,0,0,0,0,0,0,0,0,0,0,0,0,0,0,0,0,0,0,0,0,0,0,0,0,0,0,0,0,0,0,0,0,0,0,0,0,0,0,0,0,0,0,0,0,0,0,0,0,0,0,0,0,0,0,0,0,0,0,0,0,0,0,0,0,0,0,0,0,0,0,0,0,0,0,0,0,0,0,0,0,0,0,0,0,0,0,0,0,0,0,0,0,0,0,0,0,0,0,0,0,0,0,0,0,0,0,0,0,0,0,0,0,0,0,0,0,0,0,0,0,0,0,0,0,0,0,0,0,0,0,0,0,0,0,0,0,0,0,0,0,0,0,0,0,0,0,0,0,0,0,0,0,0,0,0,0,0,0,0,0,0,0,0,0,0,0,0,0,0,0,0,0,0,0,0,0,0,0,0,0,0,0,0,0,0,0,0,0,0,0,0,0,0,0,0,0,0,0,0,0,0,0,0,0,0,0,0,0,0,0,0,0,0,0,0,0,0,0,0,0,0,0,0,0,0,0,0,0,0,0,0,0,0,0,0,0,0,0,0,0,0,0,0,0,0,0,0],"sum_hessian":[6.352E3,3.836E3,2.516E3,3.105E3,7.31E2,2.098E3,4.18E2,2.722E3,3.83E2,6.25E2,1.06E2,1.613E3,4.85E2,2.32E2,1.86E2,2.009E3,7.13E2,2.57E2,1.26E2,7E1,5.55E2,7E1,3.6E1,1.586E3,2.7E1,3.5E2,1.35E2,2.2E2,1.2E1,1.06E2,8E1,1.05E2,1.904E3,5.2E1,6.61E2,5E0,2.52E2,8E1,4.6E1,1.3E1,5.7E1,2.89E2,2.66E2,6.2E1,8E0,1.297E3,2.89E2,1E1,1.7E1,3.42E2,8E0,5.7E1,7.8E1,1.21E2,9.9E1,1.1E1,1E0,7.5E1,3.1E1,6E0,7.4E1,6.5E1,4E1,1.244E3,6.6E2,5E1,2E0,4.44E2,2.17E2,3E0,2E0,1.44E2,1.08E2,5.9E1,2.1E1,6E0,7E0,5.6E1,1E0,2.87E2,2E0,2.64E2,2E0,6.1E1,1E0,7E0,1E0,1.092E3,2.05E2,2.9E1,2.6E2,1.3E1,4E0,2.23E2,1.19E2,5E0,3E0,5.6E1,1E0,7.6E1,2E0,4.5E1,7.6E1,3.3E1,6.6E1,2.4E1,5.1E1,2.1E1,1E1,6.4E1,1E1,8E0,5.7E1,3E1,1E1,1.02E2,1.142E3,1.1E1,6.49E2,3.7E1,1.3E1,1E0,1E0,2.78E2,1.66E2,3.6E1,1.81E2,1.39E2,5E0,6E0,1.02E2,2.9E1,3E1,8E0,1.3E1,1E0,5E0,3E0,4E0,6E0,5E1,3.1E1,2.56E2,1E0,1E0,1.82E2,8.2E1,1E0,1E0,5E0,2E0,9.27E2,1.65E2,2E1,1.85E2,6E0,2.3E1,1.96E2,6.4E1,1E1,3E0,2E0,2E0,8.1E1,1.42E2,4.3E1,7.6E1,1E0,4E0,5.5E1,1E0,7.5E1,1E0,1E0,1E0,2E0,4.3E1,4.5E1,3.1E1,4E0,2.9E1,2E0,6.4E1,7E0,1.7E1,9E0,4.2E1,1E0,6.3E1,7E0,1E0,6E0,5.1E1,2.4E1,6E0,9E0,1E0,7.5E1,2.7E1,8.85E2,2.57E2,3E0,8E0,2.83E2,3.66E2,1.2E1,2.5E1,1E1,3E0,2.67E2,1.1E1,1.13E2,5.3E1,5E0,3.1E1,1.68E2,1.3E1,8E1,5.9E1,3E0,2E0,2E0,4E0,2.7E1,7.5E1,2.8E1,1E0,2.9E1,1E0,3E0,5E0,2E0,1E0,2E0,4E0,3E1,2E1,2.6E1,5E0,1.13E2,1.43E2,8.9E1,9.3E1,1.5E1,6.7E1,2.66E2,6.61E2,1.9E1,1.46E2,2E1,1.65E2,5E0,1E0,1E0,2.2E1,1.8E1,1.78E2,2.4E1,4E1,9E0,1E0,6.8E1,1.3E1,1.07E2,3.5E1,2E1,2.3E1,7.4E1,2E0,3E0,1E0,4.6E1,9E0,7.3E1,2E0,2.8E1,1.5E1,2.5E1,2E1,7E0,2.4E1,7E0,2.2E1,1E0,1E0,4.5E1,1.9E1,4E0,3E0,1.2E1,5E0,1E0,8E0,3.9E1,3E0,1.6E1,4.7E1],"tree_param":{"num_deleted":"0","num_feature":"42","num_nodes":"297","size_leaf_vector":"1"}},{"base_weights":[6.3284277E-4,-8.203883E-1,5.346163E-1,-1.7057365E0,-5.579778E-1,2.7392325E-1,1.1911027E0,-2.4203408E0,-1.4505908E0,-8.399092E-1,-3.499511E-1,1.5311071E-1,5.2551234E-1,1.0070487E0,1.7355872E0,-2.7598379E0,-2.0485728E0,-1.6584016E0,-1.3049756E0,-9.818649E-1,-7.043577E-1,-4.5612854E-1,-2.378605E-1,9.556857E-2,7.450412E-1,4.4208533E-1,6.40325E-1,8.708939E-1,1.1662966E0,2.3327935E-1,3.2688814E-1,-4.8077607E-1,-3.7717596E-1,6.9783285E-2,-3.1613487E-1,-1.6844136E0,5.3960472E-2,1.4233513E-2,-1.3164623E0,-9.938176E-1,-5.1456934E-1,-1.1362549E-1,-6.424634E-1,-5.2786386E-1,-4.172272E-1,-2.8149927E-1,-1.9286092E-1,-4.987448E-2,2.090816E-1,1.015806E0,1.01965986E-1,3.790851E-1,4.8795772E-1,6.1322534E-1,1.0331957E-1,1.1855915E-1,1.397965E-1,1.6132598E-1,1.8605408E-1,-9.7332086E-4,1.667456E-2,7.5455415E-3,-2.542558E-1,-2.0774592E-1,-1.1984764E0,-1.5804407E-1,-1.3384417E-1,3.0035475E-1,-1.4393637E-1,-2.485927E-2,-6.485151E-1,-5.3513527E-1,1.2073044E-1,-4.4513905E-1,-3.827843E-1,-2.8739122E-1,-4.966861E-2,-1.7344828E-1,-2.5967503E-1,-2.2580037E-1,1.8248074E-1,-1.019548E-1,2.6900864E-1,-1.5359515E-1,1.0923144E0,-6.223959E-3,1.6301733E-1,6.0318515E-2,3.3510286E-1,4.9982226E-1,5.861337E-2,9.56956E-2,8.261957E-2,-1.8136737E-1,-4.5143312E-1,-7.824217E-2,9.543761E-2,5.7344336E-2,-6.293767E-2,-9.8313585E-2,-4.2907074E-1,-5.407808E-1,-1.3036574E-1,-4.378017E-2,7.094452E-2,-1.8116039E-1,-4.5233244E-1,-3.920193E-1,-2.5814295E-1,-2.0722108E-1,-2.9666495E-1,1.1229133E-1,-4.0597856E-2,-1.834592E-1,-1.0875642E-1,-4.0048104E-2,-2.2587718E-2,-3.4237766E-1,-4.7183998E-2,9.427447E-2,2.79295E-1,-6.715632E-2,-1.3133232E-1,4.063146E-1,1.58807E-1,-2.5524361E-2,-2.8218306E-3,2.3954867E-1,9.38773E-1,-1.5927754E-2,1.2633328E-2,1.0435253E-1,2.9649626E-2,4.829667E-2,5.138284E-1,7.702817E-2,6.541698E-2,9.022422E-3,-1.10594876E-1,-8.1627175E-2,3.6885962E-2,-8.3006606E-2,-6.0717274E-2,4.136242E-2,-5.3648096E-2,7.277495E-2,-5.596139E-2,-6.845272E-2,-2.1950377E-2,-5.8995526E-2,-1.399135E-2,-4.028418E-2,-8.42159E-3,-3.241015E-2,4.3632123E-3,-4.757571E-2,-4.0317968E-2,-3.1839807E-2,-2.3446245E-2,-2.591628E-2,1.0039676E-2,-8.843886E-3,-7.581896E-2,-9.124056E-3,6.1870992E-2,7.83319E-3,1.9794129E-2,3.3022773E-2,5.022165E-2,-1.2556634E-2,5.0641997E-3,-2.289007E-2,-1.4428941E-2,1.4416018E-1,3.7081104E-2,1.0533791E-2,3.382349E-2,1.2720591E-1,2.5761303E-1,6.7082676E-3,-5.467591E-3,2.7023894E-3,1.6441194E-2,1.9040834E-2,9.007179E-2],"categories":[],"categories_nodes":[],"categories_segments":[],"categories_sizes":[],"default_left":[0,0,0,0,0,0,0,0,0,0,0,0,0,0,0,0,0,0,0,0,0,0,0,0,0,0,0,0,0,0,0,0,0,0,0,0,0,0,0,0,0,0,0,0,0,0,0,0,0,0,0,0,0,0,0,0,0,0,0,0,0,0,0,0,0,0,0,0,0,0,0,0,0,0,0,0,0,0,0,0,0,0,0,0,0,0,0,0,0,0,0,0,0,0,0,0,0,0,0,0,0,0,0,0,0,0,0,0,0,0,0,0,0,0,0,0,0,0,0,0,0,0,0,0,0,0,0,0,0,0,0,0,0,0,0,0,0,0,0,0,0,0,0,0,0,0,0,0,0,0,0,0,0,0,0,0,0,0,0,0,0,0,0,0,0,0,0,0,0,0,0,0,0,0,0,0,0,0,0,0,0,0,0,0,0],"id":1,"left_children":[1,3,5,7,9,11,13,15,17,19,21,23,25,27,29,31,33,35,37,39,41,43,45,47,49,51,53,55,57,-1,-1,-1,-1,59,-1,61,-1,-1,63,65,67,-1,69,71,73,75,77,79,81,83,85,87,89,91,-1,-1,-1,-1,-1,-1,-1,-1,-1,-1,93,-1,-1,95,-1,97,99,101,103,105,107,109,111,113,115,117,119,121,123,125,127,129,131,-1,133,135,-1,-1,-1,-1,137,-1,-1,-1,-1,-1,139,141,143,-1,-1,145,147,149,151,153,155,-1,-1,157,159,-1,-1,161,163,165,167,169,171,173,175,-1,-1,-1,177,179,-1,181,-1,-1,183,-1,-1,-1,-1,-1,-1,-1,-1,-1,-1,-1,-1,-1,-1,-1,-1,-1,-1,-1,-1,-1,-1,-1,-1,-1,-1,-1,-1,-1,-1,-1,-1,-1,-1,-1,-1,-1,-1,-1,-1,-1,-1,-1,-1,-1,-1,-1,-1,-1,-1],"loss_changes":[2.7856685E3,5.807892E2,6.5856836E2,1.00781006E2,1.13075134E2,8.371884E1,1.0788684E2,1.3152161E1,1.0666199E1,1.5087097E1,1.3149765E1,6.3418396E1,8.28009E0,1.6763855E1,1.8620056E1,1.3470459E-1,9.519684E0,9.582703E0,4.2091675E0,1.7115784E0,9.0475464E-1,1.3731918E0,1.0139751E0,2.8076887E1,2.862658E1,1.3207016E0,6.889343E-2,1.4563904E0,1.187561E0,0E0,0E0,0E0,0E0,1.0189838E-2,0E0,3.2002258E0,0E0,0E0,3.7713623E-1,1.4097595E0,4.639971E0,0E0,7.388687E-1,9.936943E-1,1.9012451E-1,3.5999107E-1,3.0645657E-1,3.0535667E1,1.7828144E1,1.0546165E1,3.312717E-1,9.222031E-2,1.483612E-1,3.326416E-2,0E0,0E0,0E0,0E0,0E0,0E0,0E0,0E0,0E0,0E0,2.489624E-1,0E0,0E0,1.712358E0,0E0,6.425481E-1,2.1995544E-2,3.751068E-1,5.740349E-1,2.997322E-1,1.0024071E-1,1.3703346E-1,1.6138635E0,1.17991924E-1,6.8604946E-3,8.833458E0,2.7234297E0,1.4963579E-1,1.2055679E1,1.4662743E-2,6.947052E0,1.8017218E-2,4.441482E-2,0E0,2.9259682E-2,4.7073364E-3,0E0,0E0,0E0,0E0,4.830804E-1,0E0,0E0,0E0,0E0,0E0,8.3308995E-1,1.0491562E-1,4.6784362E-1,0E0,0E0,1.0761529E0,1.7303085E-1,2.5079727E-2,1.648897E-2,7.1091175E-2,5.0239563E-2,0E0,0E0,1.0994816E-1,3.6023045E-1,0E0,0E0,1.1848856E1,1.0849096E0,2.6253033E-1,4.286499E-1,1.24783516E-1,4.7350883E-2,3.118486E1,2.618638E0,0E0,0E0,0E0,4.6194153E0,2.4034765E-2,0E0,4.3776482E-3,0E0,0E0,5.7872057E-2,0E0,0E0,0E0,0E0,0E0,0E0,0E0,0E0,0E0,0E0,0E0,0E0,0E0,0E0,0E0,0E0,0E0,0E0,0E0,0E0,0E0,0E0,0E0,0E0,0E0,0E0,0E0,0E0,0E0,0E0,0E0,0E0,0E0,0E0,0E0,0E0,0E0,0E0,0E0,0E0,0E0,0E0,0E0,0E0,0E0,0E0,0E0,0E0,0E0,0E0],"parents":[2147483647,0,0,1,1,2,2,3,3,4,4,5,5,6,6,7,7,8,8,9,9,10,10,11,11,12,12,13,13,14,14,15,15,16,16,17,17,18,18,19,19,20,20,21,21,22,22,23,23,24,24,25,25,26,26,27,27,28,28,33,33,35,35,38,38,39,39,40,40,42,42,43,43,44,44,45,45,46,46,47,47,48,48,49,49,50,50,51,51,52,52,53,53,64,64,67,67,69,69,70,70,71,71,72,72,73,73,74,74,75,75,76,76,77,77,78,78,79,79,80,80,81,81,82,82,83,83,84,84,85,85,86,86,88,88,89,89,94,94,100,100,101,101,102,102,105,105,106,106,107,107,108,108,109,109,110,110,113,113,114,114,117,117,118,118,119,119,120,120,121,121,122,122,123,123,124,124,128,128,129,129,131,131,134,134],"right_children":[2,4,6,8,10,12,14,16,18,20,22,24,26,28,30,32,34,36,38,40,42,44,46,48,50,52,54,56,58,-1,-1,-1,-1,60,-1,62,-1,-1,64,66,68,-1,70,72,74,76,78,80,82,84,86,88,90,92,-1,-1,-1,-1,-1,-1,-1,-1,-1,-1,94,-1,-1,96,-1,98,100,102,104,106,108,110,112,114,116,118,120,122,124,126,128,130,132,-1,134,136,-1,-1,-1,-1,138,-1,-1,-1,-1,-1,140,142,144,-1,-1,146,148,150,152,154,156,-1,-1,158,160,-1,-1,162,164,166,168,170,172,174,176,-1,-1,-1,178,180,-1,182,-1,-1,184,-1,-1,-1,-1,-1,-1,-1,-1,-1,-1,-1,-1,-1,-1,-1,-1,-1,-1,-1,-1,-1,-1,-1,-1,-1,-1,-1,-1,-1,-1,-1,-1,-1,-1,-1,-1,-1,-1,-1,-1,-1,-1,-1,-1,-1,-1,-1,-1,-1,-1],"split_conditions":[1.253E3,2.43E2,5.039E3,6.8E1,6E2,2.632E3,1.4888E4,4E1,1.44E2,4.07E2,9.1E2,5.97E2,3.721E3,7.85E3,3.1163E4,2E1,2E0,8E0,2E0,4.02E2,5E2,7.02E2,1.075E3,1.33E2,1.596E3,3.002E3,4.472E3,6.02E3,9.946E3,2.3327935E-1,3.2688814E-1,-4.8077607E-1,-3.7717596E-1,2.001E3,-3.1613487E-1,2E0,5.3960472E-2,1.4233513E-2,2.05E2,3.4E2,3E0,-1.1362549E-1,1E0,1.109E3,8.08E2,2.1E1,2.16E2,1.576E3,1.55E3,1.532E3,2.187E3,2.09E2,5.78E2,3.17E2,1.0331957E-1,1.1855915E-1,1.397965E-1,1.6132598E-1,1.8605408E-1,-9.7332086E-4,1.667456E-2,7.5455415E-3,-2.542558E-1,-2.0774592E-1,2.68E2,-1.5804407E-1,-1.3384417E-1,1.998E3,-1.4393637E-1,2E0,1E0,1.5E1,1.999E3,3E0,4.82E2,5E1,2.002E3,4.59E2,1E0,8.7E1,2.028E3,1.83E2,1.576E3,2.01E3,1.7E1,4.59E2,2.397E3,6.0318515E-2,1.481E3,8E0,5.861337E-2,9.56956E-2,8.261957E-2,-1.8136737E-1,2.001E3,-7.824217E-2,9.543761E-2,5.7344336E-2,-6.293767E-2,-9.8313585E-2,4.87E2,1E0,2.001E3,-4.378017E-2,7.094452E-2,1.1E1,6.12E2,1E0,1.5E2,4.4E2,1E3,1.1229133E-1,-4.0597856E-2,1.152E3,1E0,-4.0048104E-2,-2.2587718E-2,1.55E3,1.6E2,1.76E3,2.278E3,1.502E3,1.429E3,1.7E1,1.994E3,-2.5524361E-2,-2.8218306E-3,2.3954867E-1,2.698E3,6E0,1.2633328E-2,3E0,2.9649626E-2,4.829667E-2,1.1E1,7.702817E-2,6.541698E-2,9.022422E-3,-1.10594876E-1,-8.1627175E-2,3.6885962E-2,-8.3006606E-2,-6.0717274E-2,4.136242E-2,-5.3648096E-2,7.277495E-2,-5.596139E-2,-6.845272E-2,-2.1950377E-2,-5.8995526E-2,-1.399135E-2,-4.028418E-2,-8.42159E-3,-3.241015E-2,4.3632123E-3,-4.757571E-2,-4.0317968E-2,-3.1839807E-2,-2.3446245E-2,-2.591628E-2,1.0039676E-2,-8.843886E-3,-7.581896E-2,-9.124056E-3,6.1870992E-2,7.83319E-3,1.9794129E-2,3.3022773E-2,5.022165E-2,-1.2556634E-2,5.0641997E-3,-2.289007E-2,-1.4428941E-2,1.4416018E-1,3.7081104E-2,1.0533791E-2,3.382349E-2,1.2720591E-1,2.5761303E-1,6.7082676E-3,-5.467591E-3,2.7023894E-3,1.6441194E-2,1.9040834E-2,9.007179E-2],"split_indices":[7,7,7,7,7,7,7,7,7,7,7,5,7,7,7,7,11,9,11,5,7,7,7,5,7,7,7,7,7,0,0,0,0,0,0,11,0,0,7,7,11,0,11,5,7,9,5,7,7,7,7,5,5,5,0,0,0,0,0,0,0,0,0,0,5,0,0,0,0,1,31,9,0,8,3,5,0,3,37,5,7,5,7,0,2,3,7,0,5,9,0,0,0,0,0,0,0,0,0,0,3,35,0,0,0,3,5,21,5,3,7,0,0,7,26,0,0,7,2,7,7,7,7,2,7,0,0,0,5,8,0,11,0,0,3,0,0,0,0,0,0,0,0,0,0,0,0,0,0,0,0,0,0,0,0,0,0,0,0,0,0,0,0,0,0,0,0,0,0,0,0,0,0,0,0,0,0,0,0,0,0,0,0,0,0],"split_type":[0,0,0,0,0,0,0,0,0,0,0,0,0,0,0,0,0,0,0,0,0,0,0,0,0,0,0,0,0,0,0,0,0,0,0,0,0,0,0,0,0,0,0,0,0,0,0,0,0,0,0,0,0,0,0,0,0,0,0,0,0,0,0,0,0,0,0,0,0,0,0,0,0,0,0,0,0,0,0,0,0,0,0,0,0,0,0,0,0,0,0,0,0,0,0,0,0,0,0,0,0,0,0,0,0,0,0,0,0,0,0,0,0,0,0,0,0,0,0,0,0,0,0,0,0,0,0,0,0,0,0,0,0,0,0,0,0,0,0,0,0,0,0,0,0,0,0,0,0,0,0,0,0,0,0,0,0,0,0,0,0,0,0,0,0,0,0,0,0,0,0,0,0,0,0,0,0,0,0,0,0,0,0,0,0],"sum_hessian":[6.352E3,2.503E3,3.849E3,5.71E2,1.932E3,2.756E3,1.093E3,1.48E2,4.23E2,8.19E2,1.113E3,1.863E3,8.93E2,8.19E2,2.74E2,7.4E1,7.4E1,1.7E2,2.53E2,3.97E2,4.22E2,5.7E2,5.43E2,1.699E3,1.64E2,5.2E2,3.73E2,4.45E2,3.74E2,1.98E2,7.6E1,2.2E1,5.2E1,2E0,7.2E1,1.68E2,2E0,2E0,2.51E2,3.86E2,1.1E1,2.21E2,2.01E2,1.96E2,3.74E2,2.73E2,2.7E2,7.45E2,9.54E2,1.15E2,4.9E1,2.23E2,2.97E2,2.48E2,1.25E2,1.98E2,2.47E2,1.75E2,1.99E2,1E0,1E0,1E0,1.67E2,1.52E2,9.9E1,2.37E2,1.49E2,4E0,7E0,2E0,1.99E2,1.94E2,2E0,2E2,1.74E2,2.66E2,7E0,2.12E2,5.8E1,4.24E2,3.21E2,1.54E2,8E2,7E0,1.08E2,1.8E1,3.1E1,1.41E2,8.2E1,2.61E2,3.6E1,1.71E2,7.7E1,9.7E1,2E0,1E0,3E0,1E0,1E0,1.91E2,8E0,1.91E2,3E0,1E0,1E0,6E0,1.94E2,1.6E2,1.4E1,3E1,2.36E2,1E0,6E0,1.82E2,3E1,5.3E1,5E0,2.56E2,1.68E2,1.69E2,1.52E2,7.2E1,8.2E1,3.55E2,4.45E2,6E0,1E0,2.3E1,8.5E1,1.7E1,1E0,1.3E1,1.8E1,7.9E1,3E0,2.09E2,5.2E1,1E0,1E0,7E0,1E0,1.72E2,1.9E1,1E0,2E0,1E0,5E0,1.91E2,3E0,1.59E2,1E0,1.3E1,1E0,2.9E1,1E0,1.3E2,1.06E2,8.5E1,9.7E1,2.2E1,8E0,9.4E1,1.62E2,1.64E2,4E0,8.1E1,8.8E1,7.6E1,7.6E1,6.2E1,1E1,4.9E1,3.3E1,7.8E1,2.77E2,1.92E2,2.53E2,7.8E1,7E0,4E0,1.3E1,1E0,1.2E1,1E0,2E0],"tree_param":{"num_deleted":"0","num_feature":"42","num_nodes":"185","size_leaf_vector":"1"}},{"base_weights":[5.0235586E-4,-6.8153524E-1,4.6676004E-1,-1.4143001E0,-4.4951296E-1,2.434838E-1,1.0135031E0,-2.065064E0,-1.2058718E0,-6.999848E-1,-2.8664422E-1,1.3900797E-1,4.4298264E-1,8.471569E-1,1.4509422E0,-2.4868498E0,-1.8335207E0,-1.4313971E0,-1.0963681E0,-8.196405E-1,-5.993241E-1,-3.842508E-1,-1.887205E-1,6.294666E-2,4.866208E-1,3.542635E-1,5.262636E-1,7.3376894E-1,9.7283214E-1,1.9076063E-1,1.7863419E0,-3.8113353E-1,-1.8452471E-1,6.4549536E-2,-2.809373E-1,-1.4571292E0,4.8564423E-2,1.281016E-2,-1.104021E0,-8.2485884E-1,-1.6204023E-1,-9.665844E-2,-5.4682976E-1,-4.386848E-1,-3.4408274E-1,-2.259927E-1,-1.4349188E-1,-6.306304E-2,1.44774E-1,7.417133E-1,9.6070945E-2,3.2010087E-1,3.9557287E-1,7.046337E-2,8.35926E-2,6.7243093E-1,1.1774782E-1,1.3636562E-1,1.5601577E-1,2.4743812E-1,3.1576794E-1,-9.0032176E-4,1.54239675E-2,6.9796257E-3,-2.2014053E-1,-1.7811324E-1,-9.990729E-1,-8.2819426E-1,-1.6633713E-1,-7.7971324E-2,6.834491E-2,-2.2994837E-2,-5.5195314E-1,-4.435933E-1,1.1167566E-1,-3.736367E-1,-3.1458744E-1,-2.3052177E-1,-7.575184E-2,-1.2266358E-1,-1.9025667E-1,-2.5196615E-1,1.5225384E-1,3.4167504E-1,9.96836E-2,-1.1756514E-1,8.4290123E-1,8.316526E-2,8.962232E-2,5.1249284E-2,2.868669E-1,6.076125E-2,4.4361275E-2,9.9605195E-2,1.7511825E-1,-1.5250878E-1,-1.0940885E-1,-8.6902326E-1,-7.4841815E-1,3.992496E-2,-7.735082E-2,5.3043507E-2,-5.8217343E-2,-8.362611E-2,-3.4896266E-1,-4.5398244E-1,-1.7942767E-1,-4.0496655E-2,6.562368E-2,6.731683E-2,-3.8124865E-1,-5.297844E-2,-4.224083E-2,-2.557987E-1,-1.995108E-1,1.03869475E-1,-3.3272948E-2,2.6305443E-2,-1.2437915E-1,-2.9011237E-2,4.876481E-3,-2.8058548E-2,-3.4452298E-1,8.340127E-2,2.334032E-1,6.351803E-1,9.0500124E-2,8.8816725E-2,8.569164E-1,-1.2996663E-1,9.784855E-3,7.737052E-1,1.5109596E0,5.295665E-3,1.3933086E-1,4.1879416E-2,8.1347495E-2,4.6318404E-2,-1.02300264E-1,-1.3135791E-1,-6.0490306E-2,-1.13235146E-1,-3.5297006E-2,-6.957061E-2,3.4119517E-2,-6.830627E-2,-9.399128E-3,-5.7745382E-2,7.455093E-2,-2.268449E-2,-5.7894826E-2,-4.0837213E-2,-2.768588E-2,-3.3533163E-2,-2.504698E-2,-1.6030613E-2,2.1949338E-2,-2.108774E-2,-1.6679285E-2,-1.1592818E-3,-1.1670657E-2,-1.23293154E-1,-3.3579543E-2,6.6684093E-3,1.6508313E-2,3.8266085E-2,2.2138322E-2,3.3999063E-2,1.353735E-1,2.0184518E-4,2.8535433E-2,-9.86448E-3,1.7435318E-2,-1.0581702E-2,1.451709E-1,-2.1987002E-2,-1.0015813E-2,7.655008E-2,1.4461502E-1,1.5825838E-2,2.4057199E-1,3.8496368E-3,-5.9021185E-3,2.3180777E-2,1.2768369E-2],"categories":[],"categories_nodes":[],"categories_segments":[],"categories_sizes":[],"default_left":[0,0,0,0,0,0,0,0,0,0,0,0,0,0,0,0,0,0,0,0,0,0,0,0,0,0,0,0,0,0,0,0,0,0,0,0,0,0,0,0,0,0,0,0,0,0,0,0,0,0,0,0,0,0,0,0,0,0,0,0,0,0,0,0,0,0,0,0,0,0,0,0,0,0,0,0,0,0,0,0,0,0,0,0,0,0,0,0,0,0,0,0,0,0,0,0,0,0,0,0,0,0,0,0,0,0,0,0,0,0,0,0,0,0,0,0,0,0,0,0,0,0,0,0,0,0,0,0,0,0,0,0,0,0,0,0,0,0,0,0,0,0,0,0,0,0,0,0,0,0,0,0,0,0,0,0,0,0,0,0,0,0,0,0,0,0,0,0,0,0,0,0,0,0,0,0,0,0,0,0,0,0,0,0,0],"id":2,"left_children":[1,3,5,7,9,11,13,15,17,19,21,23,25,27,29,31,33,35,37,39,41,43,45,47,49,51,53,55,57,-1,59,-1,-1,61,-1,63,-1,-1,65,67,69,-1,71,73,75,77,79,81,83,85,87,89,91,-1,-1,93,-1,-1,-1,-1,-1,-1,-1,-1,-1,-1,95,97,99,-1,-1,101,103,105,107,109,111,113,115,117,119,121,123,125,127,129,131,133,-1,-1,135,-1,-1,-1,-1,-1,137,139,141,-1,-1,-1,-1,-1,143,145,147,-1,-1,-1,149,-1,-1,151,153,-1,-1,155,157,-1,-1,159,161,163,165,167,169,171,173,175,-1,177,179,181,183,-1,-1,-1,-1,-1,-1,-1,-1,-1,-1,-1,-1,-1,-1,-1,-1,-1,-1,-1,-1,-1,-1,-1,-1,-1,-1,-1,-1,-1,-1,-1,-1,-1,-1,-1,-1,-1,-1,-1,-1,-1,-1,-1,-1,-1,-1,-1,-1,-1,-1],"loss_changes":[2.0206057E3,4.3801013E2,4.6046326E2,8.16051E1,7.979642E1,5.5817978E1,7.83772E1,9.991882E0,1.0087097E1,8.807251E0,1.1301506E1,4.6530018E1,6.6184845E0,1.0614929E1,1.5759827E1,2.6986694E-1,7.5983276E0,7.2914734E0,3.0064392E0,1.0673828E0,6.483154E-1,1.150032E0,9.7229004E-1,1.4918894E1,3.141066E1,5.0702286E-1,5.673218E-1,7.978821E-1,6.578369E-1,0E0,9.7402954E-1,0E0,0E0,8.71868E-3,0E0,2.4150085E0,0E0,0E0,1.614563E0,6.2438965E-1,1.1207778E0,0E0,5.29438E-1,7.221947E-1,1.8493652E-1,2.0368385E-1,2.4159908E-1,2.322256E1,7.7522526E0,1.6706276E1,7.656629E-1,8.1840515E-2,6.897354E-2,0E0,0E0,5.189514E-2,0E0,0E0,0E0,0E0,0E0,0E0,0E0,0E0,0E0,0E0,2.2130432E0,4.733429E-1,5.905204E-1,0E0,0E0,5.497802E-1,3.0944824E-2,5.964241E-1,4.911586E-1,1.2228069E0,1.2971115E-1,1.958828E-1,1.3879282E0,5.208516E-2,6.38566E-2,6.2904835E0,1.4723539E0,1.19590645E1,5.8074503E0,5.6084216E-2,6.735779E0,5.4158765E-1,0E0,0E0,5.4336548E-2,0E0,0E0,0E0,0E0,0E0,1.1684241E0,3.3921814E-1,2.3482513E-1,0E0,0E0,0E0,0E0,0E0,6.3507897E-1,1.00624084E-1,1.7207196E0,0E0,0E0,0E0,1.228199E-1,0E0,0E0,1.4892673E-1,7.686615E-2,0E0,0E0,6.359109E-2,2.4748564E-2,0E0,0E0,9.041866E-2,1.2201403E1,1.4666283E-1,1.8957615E-1,7.9855404E0,7.911248E-1,2.9999433E0,1.0967317E0,1.1210084E-2,0E0,7.380684E0,1.7883072E0,4.9203616E-2,4.6200752E-2,0E0,0E0,0E0,0E0,0E0,0E0,0E0,0E0,0E0,0E0,0E0,0E0,0E0,0E0,0E0,0E0,0E0,0E0,0E0,0E0,0E0,0E0,0E0,0E0,0E0,0E0,0E0,0E0,0E0,0E0,0E0,0E0,0E0,0E0,0E0,0E0,0E0,0E0,0E0,0E0,0E0,0E0,0E0,0E0,0E0,0E0,0E0,0E0,0E0,0E0],"parents":[2147483647,0,0,1,1,2,2,3,3,4,4,5,5,6,6,7,7,8,8,9,9,10,10,11,11,12,12,13,13,14,14,15,15,16,16,17,17,18,18,19,19,20,20,21,21,22,22,23,23,24,24,25,25,26,26,27,27,28,28,30,30,33,33,35,35,38,38,39,39,40,40,42,42,43,43,44,44,45,45,46,46,47,47,48,48,49,49,50,50,51,51,52,52,55,55,66,66,67,67,68,68,71,71,72,72,73,73,74,74,75,75,76,76,77,77,78,78,79,79,80,80,81,81,82,82,83,83,84,84,85,85,86,86,87,87,90,90,96,96,97,97,98,98,104,104,105,105,106,106,110,110,113,113,114,114,117,117,118,118,121,121,122,122,123,123,124,124,125,125,126,126,127,127,128,128,129,129,131,131,132,132,133,133,134,134],"right_children":[2,4,6,8,10,12,14,16,18,20,22,24,26,28,30,32,34,36,38,40,42,44,46,48,50,52,54,56,58,-1,60,-1,-1,62,-1,64,-1,-1,66,68,70,-1,72,74,76,78,80,82,84,86,88,90,92,-1,-1,94,-1,-1,-1,-1,-1,-1,-1,-1,-1,-1,96,98,100,-1,-1,102,104,106,108,110,112,114,116,118,120,122,124,126,128,130,132,134,-1,-1,136,-1,-1,-1,-1,-1,138,140,142,-1,-1,-1,-1,-1,144,146,148,-1,-1,-1,150,-1,-1,152,154,-1,-1,156,158,-1,-1,160,162,164,166,168,170,172,174,176,-1,178,180,182,184,-1,-1,-1,-1,-1,-1,-1,-1,-1,-1,-1,-1,-1,-1,-1,-1,-1,-1,-1,-1,-1,-1,-1,-1,-1,-1,-1,-1,-1,-1,-1,-1,-1,-1,-1,-1,-1,-1,-1,-1,-1,-1,-1,-1,-1,-1,-1,-1,-1,-1],"split_conditions":[1.313E3,2.65E2,5.039E3,6.8E1,6E2,2.595E3,1.3795E4,2.8E1,1.36E2,4.07E2,9.26E2,3.81E2,3.483E3,7.68E3,2.6157E4,2.014E3,1E0,8E0,1E0,8E0,5E2,7.29E2,1.117E3,1.14E2,1.576E3,3.002E3,3.899E3,6.02E3,9.946E3,1.9076063E-1,5.7749E4,-3.8113353E-1,-1.8452471E-1,2.001E3,-2.809373E-1,1E0,4.8564423E-2,1.281016E-2,2.05E2,1.7E1,9E0,-9.665844E-2,1E0,1.109E3,4E0,2.1E1,1.6E2,1.576E3,3E0,1.55E3,1.2E1,1.89E2,5.78E2,7.046337E-2,8.35926E-2,1.04E2,1.1774782E-1,1.3636562E-1,1.5601577E-1,2.4743812E-1,3.1576794E-1,-9.0032176E-4,1.54239675E-2,6.9796257E-3,-2.2014053E-1,-1.7811324E-1,2.68E2,3.52E2,2.001E3,-7.7971324E-2,6.834491E-2,2E0,1E0,4E0,1.999E3,3E0,8.08E2,4E0,2.002E3,1E0,1E0,1.55E3,2.028E3,2.001E3,1.66E2,4.59E2,8E0,2.028E3,8.962232E-2,5.1249284E-2,2.067E3,6.076125E-2,4.4361275E-2,9.9605195E-2,1.7511825E-1,-1.5250878E-1,2.002E3,1.075E1,1.64E2,3.992496E-2,-7.735082E-2,5.3043507E-2,-5.8217343E-2,-8.362611E-2,4.72E2,1.15E2,9E0,-4.0496655E-2,6.562368E-2,6.731683E-2,7.41E2,-5.297844E-2,-4.224083E-2,1E0,1.025E3,1.03869475E-1,-3.3272948E-2,2.003E3,4E0,-2.9011237E-2,4.876481E-3,8E0,4.4E1,1.728E3,1.2E1,1.4E1,1.894E3,1.55E3,2E3,1.502E3,9.784855E-3,2.82E2,4.02E2,1E0,8.56E2,4.1879416E-2,8.1347495E-2,4.6318404E-2,-1.02300264E-1,-1.3135791E-1,-6.0490306E-2,-1.13235146E-1,-3.5297006E-2,-6.957061E-2,3.4119517E-2,-6.830627E-2,-9.399128E-3,-5.7745382E-2,7.455093E-2,-2.268449E-2,-5.7894826E-2,-4.0837213E-2,-2.768588E-2,-3.3533163E-2,-2.504698E-2,-1.6030613E-2,2.1949338E-2,-2.108774E-2,-1.6679285E-2,-1.1592818E-3,-1.1670657E-2,-1.23293154E-1,-3.3579543E-2,6.6684093E-3,1.6508313E-2,3.8266085E-2,2.2138322E-2,3.3999063E-2,1.353735E-1,2.0184518E-4,2.8535433E-2,-9.86448E-3,1.7435318E-2,-1.0581702E-2,1.451709E-1,-2.1987002E-2,-1.0015813E-2,7.655008E-2,1.4461502E-1,1.5825838E-2,2.4057199E-1,3.8496368E-3,-5.9021185E-3,2.3180777E-2,1.2768369E-2],"split_indices":[7,7,7,7,7,7,7,7,7,7,7,5,7,7,7,0,6,9,6,12,7,7,7,5,7,7,7,7,7,0,7,0,0,0,0,6,0,0,7,9,1,0,6,5,6,9,5,7,2,7,9,5,5,0,0,9,0,0,0,0,0,0,0,0,0,0,5,7,0,0,0,1,24,12,0,8,7,6,0,11,31,7,7,0,2,3,9,7,0,0,5,0,0,0,0,0,0,9,2,0,0,0,0,0,3,4,1,0,0,0,7,0,0,26,7,0,0,0,6,0,0,9,5,7,9,8,7,7,0,7,0,3,5,34,5,0,0,0,0,0,0,0,0,0,0,0,0,0,0,0,0,0,0,0,0,0,0,0,0,0,0,0,0,0,0,0,0,0,0,0,0,0,0,0,0,0,0,0,0,0,0,0,0,0,0],"split_type":[0,0,0,0,0,0,0,0,0,0,0,0,0,0,0,0,0,0,0,0,0,0,0,0,0,0,0,0,0,0,0,0,0,0,0,0,0,0,0,0,0,0,0,0,0,0,0,0,0,0,0,0,0,0,0,0,0,0,0,0,0,0,0,0,0,0,0,0,0,0,0,0,0,0,0,0,0,0,0,0,0,0,0,0,0,0,0,0,0,0,0,0,0,0,0,0,0,0,0,0,0,0,0,0,0,0,0,0,0,0,0,0,0,0,0,0,0,0,0,0,0,0,0,0,0,0,0,0,0,0,0,0,0,0,0,0,0,0,0,0,0,0,0,0,0,0,0,0,0,0,0,0,0,0,0,0,0,0,0,0,0,0,0,0,0,0,0,0,0,0,0,0,0,0,0,0,0,0,0,0,0,0,0,0,0],"sum_hessian":[6.352E3,2.579E3,3.773E3,6.19E2,1.96E3,2.68E3,1.093E3,1.48E2,4.71E2,7.71E2,1.189E3,1.76E3,9.2E2,7.94E2,2.99E2,4.9E1,9.9E1,1.5E2,3.21E2,3.49E2,4.22E2,5.94E2,5.95E2,1.445E3,3.15E2,4.48E2,4.72E2,4.21E2,3.73E2,1.98E2,1.01E2,4.6E1,3E0,2E0,9.7E1,1.48E2,2E0,2E0,3.19E2,3.46E2,3E0,2.21E2,2.01E2,2.48E2,3.46E2,3.24E2,2.71E2,5.69E2,8.76E2,1.9E2,1.25E2,2.5E2,1.98E2,1.73E2,2.99E2,1.98E2,2.23E2,1.99E2,1.74E2,7.5E1,2.6E1,1E0,1E0,1E0,1.47E2,1.72E2,1.47E2,3.44E2,2E0,2E0,1E0,2E0,1.99E2,2.46E2,2E0,1.67E2,1.79E2,3.14E2,1E1,1.9E2,8.1E1,3.03E2,2.66E2,1.62E2,7.14E2,2E1,1.7E2,1.23E2,2E0,1.46E2,1.04E2,1.78E2,2E1,1.97E2,1E0,1.44E2,3E0,2.21E2,1.23E2,1E0,1E0,1E0,1E0,1.92E2,7E0,2.36E2,1E1,1E0,1E0,1E0,1.66E2,7.8E1,1.01E2,1.69E2,1.45E2,1E0,9E0,2E0,1.88E2,8E1,1E0,8.9E1,2.14E2,1.45E2,1.21E2,7.4E1,8.8E1,7.05E2,9E0,1.9E1,1E0,1.56E2,1.4E1,5.2E1,7.1E1,1.03E2,1E0,2E0,1E0,2.17E2,4E0,1.21E2,2E0,6E0,1E0,2.35E2,1E0,8E0,2E0,4E0,1.62E2,1.35E2,3.4E1,8E1,6.5E1,1E0,1E0,8E1,1.08E2,6.4E1,2.5E1,4.2E1,1.72E2,6E1,8.5E1,9.5E1,2.6E1,3E1,4.4E1,4.7E1,4.1E1,1.06E2,5.99E2,1E0,8E0,1.4E1,5E0,6.7E1,8.9E1,1E0,1.3E1,3.6E1,1.6E1,5.4E1,1.7E1],"tree_param":{"num_deleted":"0","num_feature":"42","num_nodes":"185","size_leaf_vector":"1"}},{"base_weights":[5.0097355E-4,-5.8017147E-1,3.974629E-1,-1.23797E0,-3.9259508E-1,2.0743369E-1,8.627928E-1,-1.9166509E0,-1.0901209E0,-6.079587E-1,-2.4386334E-1,1.1667717E-1,3.740333E-1,7.2855E-1,1.2599428E0,-1.9377197E0,1.426717E-2,-1.2968748E0,-9.6725917E-1,-7.105986E-1,-5.099477E-1,-3.3054632E-1,-1.636378E-1,3.4864417E-1,7.780783E-2,2.9962605E-1,4.4764978E-1,6.302385E-1,8.435325E-1,1.1261662E0,2.3839717E-1,-3.571108E-1,-2.6733652E-1,-1.317155E0,4.3707978E-2,1.1529145E-2,-9.745246E-1,-7.145764E-1,-1.4014082E-1,-8.814966E-2,-4.8406744E-1,-3.8330024E-1,-3.0195147E-1,-1.9548461E-1,-1.2217391E-1,5.656058E-1,8.251677E-2,6.459604E-2,7.1818775E-1,2.7166128E-1,3.367652E-1,6.2270775E-2,7.34928E-2,5.864108E-1,1.0440155E-1,1.19720854E-1,1.3903566E-1,1.572466E-1,1.8575636E-1,2.4992693E-2,-1.3331863E0,-1.5665607E-1,-9.005618E-1,-7.47154E-1,-6.3735324E-1,-7.0174195E-2,6.321904E-2,-4.9419945E-1,-5.529569E-2,-3.897733E-1,-1.1227877E-1,-3.0757955E-1,-8.775208E-2,-2.2577104E-1,-1.7206092E-1,2.4332529E-2,-1.2334927E-1,7.6985234E-1,3.2631177E-2,-1.1768027E-2,1.5753277E-1,3.4241434E-2,1.890788E-1,3.6726204E-1,1.5034407E-1,4.325735E-2,2.5245094E-1,5.232253E-2,4.2739637E-2,8.709713E-2,1.6198438E-1,6.456154E-3,-8.327977E-4,-2.1003035E-1,-1.7260122E-1,-1.3626063E-1,-4.883158E-1,-1.1390431E-1,-4.1936526E-1,-9.638909E-2,-2.1178202E-1,-1.7920408E-1,-4.96831E-1,-5.9111495E-2,-1.5001383E-1,-4.3941308E-2,5.932783E-2,-3.3815154E-1,-2.8008622E-1,-3.9106548E-2,6.905599E-2,-2.2756986E-1,-6.2371794E-2,-1.792696E-1,5.3332377E-2,-1.4828317E-2,2.0303136E-2,-1.3475846E-1,-1.0260607E-1,1.2897834E-1,8.918404E-1,8.039103E-2,5.2825143E-3,-6.621119E-2,1.5012021E-2,9.028088E-2,1.8900916E-1,-2.311656E-2,1.5245312E-1,1.21881895E-1,3.0728415E-1,-3.3374757E-2,4.3146574E-1,3.7986044E-2,1.094172E-2,-9.399515E-2,4.8718597E-3,7.790456E-2,-1.184973E-1,3.8137431E-3,-5.14647E-2,4.9065243E-2,-6.855098E-2,-7.760598E-2,-6.6780746E-2,-4.98192E-2,4.3383207E-2,-5.189367E-2,-3.4135763E-2,-4.213889E-2,-8.599888E-3,-4.171199E-3,-3.4312144E-2,5.7174186E-3,-1.9751072E-2,-5.5003096E-4,-2.7160548E-2,9.607927E-2,-2.2693258E-2,-1.8167697E-2,-2.3696207E-2,-9.806675E-3,-1.6337829E-2,-7.51031E-3,2.1494713E-2,1.420052E-1,5.0335884E-2,-1.221333E-2,8.043878E-3,-4.4404604E-3,-1.0791192E-2,3.640204E-3,-9.418353E-3,1.3807136E-2,3.988538E-3,-2.6598014E-4,2.9055847E-2,1.5178543E-1,-4.646709E-3,1.906478E-2,3.0783156E-2,3.4031343E-2,7.854041E-3,7.213334E-2,1.5095567E-3,-9.788074E-3,2.2787536E-3,9.1672085E-2,3.6415715E-2],"categories":[],"categories_nodes":[],"categories_segments":[],"categories_sizes":[],"default_left":[0,0,0,0,0,0,0,0,0,0,0,0,0,0,0,0,0,0,0,0,0,0,0,0,0,0,0,0,0,0,0,0,0,0,0,0,0,0,0,0,0,0,0,0,0,0,0,0,0,0,0,0,0,0,0,0,0,0,0,0,0,0,0,0,0,0,0,0,0,0,0,0,0,0,0,0,0,0,0,0,0,0,0,0,0,0,0,0,0,0,0,0,0,0,0,0,0,0,0,0,0,0,0,0,0,0,0,0,0,0,0,0,0,0,0,0,0,0,0,0,0,0,0,0,0,0,0,0,0,0,0,0,0,0,0,0,0,0,0,0,0,0,0,0,0,0,0,0,0,0,0,0,0,0,0,0,0,0,0,0,0,0,0,0,0,0,0,0,0,0,0,0,0,0,0,0,0,0,0,0,0,0,0,0,0,0,0,0,0],"id":3,"left_children":[1,3,5,7,9,11,13,15,17,19,21,23,25,27,29,31,-1,33,35,37,39,41,43,45,47,49,51,53,55,57,-1,-1,-1,59,-1,-1,61,63,65,-1,67,69,71,73,75,77,79,81,83,85,87,-1,-1,89,-1,-1,-1,-1,-1,91,93,-1,95,97,99,-1,-1,101,-1,103,105,107,109,111,113,115,117,119,121,123,125,127,129,131,-1,-1,133,-1,-1,-1,-1,-1,-1,-1,-1,-1,135,-1,137,-1,139,141,143,-1,145,-1,-1,147,149,-1,-1,151,153,155,157,-1,-1,159,161,163,165,-1,167,169,171,173,175,177,179,181,183,185,187,-1,-1,-1,-1,-1,-1,-1,-1,-1,-1,-1,-1,-1,-1,-1,-1,-1,-1,-1,-1,-1,-1,-1,-1,-1,-1,-1,-1,-1,-1,-1,-1,-1,-1,-1,-1,-1,-1,-1,-1,-1,-1,-1,-1,-1,-1,-1,-1,-1,-1,-1,-1,-1,-1,-1,-1],"loss_changes":[1.4646278E3,3.1785364E2,3.3354187E2,5.5306396E1,6.420282E1,4.0493088E1,5.740808E1,4.4652405E0,1.0735413E1,7.8867188E0,8.22139E0,1.5634371E1,5.042206E0,8.737732E0,1.032724E1,2.644867E0,0E0,5.9562073E0,2.350708E0,8.029785E-1,5.663147E-1,7.456093E-1,7.948227E-1,1.433045E1,1.2551386E1,3.9976883E-1,4.471283E-1,8.775177E-1,6.7941284E-1,4.4030762E-1,0E0,0E0,0E0,3.7125854E0,0E0,0E0,5.98999E-1,5.1750183E-1,9.3328875E-1,0E0,1.9558716E-1,3.0184364E-1,4.2508316E-1,2.0874214E-1,4.983902E-2,1.4888454E1,8.010879E-1,5.5103183E0,2.6229E0,1.553154E-2,2.492714E-2,0E0,0E0,1.5224457E-1,0E0,0E0,0E0,0E0,0E0,1.8928045E-3,4.559021E-1,0E0,4.7821045E-2,7.7001953E-1,1.4046478E-1,0E0,0E0,1.5467072E-1,0E0,1.3898087E-1,6.663064E-1,2.120781E-1,1.1628546E0,2.9601097E-2,3.3614302E-1,5.441012E-2,5.0071716E-2,7.624687E0,5.339971E-1,7.535147E-2,1.1629748E-1,7.970478E0,2.234254E0,4.0023565E-1,0E0,0E0,7.982254E-4,0E0,0E0,0E0,0E0,0E0,0E0,0E0,0E0,0E0,3.8053024E-1,0E0,4.5851917E0,0E0,1.0217044E-1,7.120994E-1,7.826996E-2,0E0,4.9601322E-1,0E0,0E0,6.6287994E-2,2.0928383E-2,0E0,0E0,2.8223991E-2,2.5910944E-2,6.099701E-2,9.37972E-1,0E0,0E0,3.501892E-2,1.6380548E-2,5.0761193E-2,2.2152557E0,0E0,1.6364695E-1,1.4363751E-3,2.6728205E-2,2.7894974E-5,3.797567E-2,6.4756956E0,4.876728E-1,1.331198E0,5.309848E0,5.6360746E-3,2.923944E-1,0E0,0E0,0E0,0E0,0E0,0E0,0E0,0E0,0E0,0E0,0E0,0E0,0E0,0E0,0E0,0E0,0E0,0E0,0E0,0E0,0E0,0E0,0E0,0E0,0E0,0E0,0E0,0E0,0E0,0E0,0E0,0E0,0E0,0E0,0E0,0E0,0E0,0E0,0E0,0E0,0E0,0E0,0E0,0E0,0E0,0E0,0E0,0E0,0E0,0E0,0E0,0E0,0E0,0E0,0E0,0E0],"parents":[2147483647,0,0,1,1,2,2,3,3,4,4,5,5,6,6,7,7,8,8,9,9,10,10,11,11,12,12,13,13,14,14,15,15,17,17,18,18,19,19,20,20,21,21,22,22,23,23,24,24,25,25,26,26,27,27,28,28,29,29,33,33,36,36,37,37,38,38,40,40,41,41,42,42,43,43,44,44,45,45,46,46,47,47,48,48,49,49,50,50,53,53,59,59,60,60,62,62,63,63,64,64,67,67,69,69,70,70,71,71,72,72,73,73,74,74,75,75,76,76,77,77,78,78,79,79,80,80,81,81,82,82,83,83,86,86,96,96,98,98,100,100,101,101,102,102,104,104,107,107,108,108,111,111,112,112,113,113,114,114,117,117,118,118,119,119,120,120,122,122,123,123,124,124,125,125,126,126,127,127,128,128,129,129,130,130,131,131,132,132],"right_children":[2,4,6,8,10,12,14,16,18,20,22,24,26,28,30,32,-1,34,36,38,40,42,44,46,48,50,52,54,56,58,-1,-1,-1,60,-1,-1,62,64,66,-1,68,70,72,74,76,78,80,82,84,86,88,-1,-1,90,-1,-1,-1,-1,-1,92,94,-1,96,98,100,-1,-1,102,-1,104,106,108,110,112,114,116,118,120,122,124,126,128,130,132,-1,-1,134,-1,-1,-1,-1,-1,-1,-1,-1,-1,136,-1,138,-1,140,142,144,-1,146,-1,-1,148,150,-1,-1,152,154,156,158,-1,-1,160,162,164,166,-1,168,170,172,174,176,178,180,182,184,186,188,-1,-1,-1,-1,-1,-1,-1,-1,-1,-1,-1,-1,-1,-1,-1,-1,-1,-1,-1,-1,-1,-1,-1,-1,-1,-1,-1,-1,-1,-1,-1,-1,-1,-1,-1,-1,-1,-1,-1,-1,-1,-1,-1,-1,-1,-1,-1,-1,-1,-1,-1,-1,-1,-1,-1,-1],"split_conditions":[1.313E3,2.43E2,5.039E3,4.8E1,6E2,2.537E3,1.4888E4,1.3E2,1.27E2,4.07E2,9.1E2,1E0,3.483E3,7.85E3,3.1163E4,2E1,1.426717E-2,8E0,2E0,8E0,4.52E2,7.02E2,1.117E3,2.001E3,1.69E2,3.002E3,4.243E3,6.564E3,1.1336E4,2.016E4,2.3839717E-1,-3.571108E-1,-2.6733652E-1,2E0,4.3707978E-2,1.1529145E-2,1.84E2,3.52E2,9E0,-8.814966E-2,1E0,5E0,4E0,1E3,1E0,4E0,1.777E3,1E0,1E0,7E0,8E0,6.2270775E-2,7.34928E-2,1.04E2,1.0440155E-1,1.19720854E-1,1.3903566E-1,1.572466E-1,1.8575636E-1,2E3,1.05E2,-1.5665607E-1,5E0,1.075E1,1.64E2,-7.0174195E-2,6.321904E-2,1E0,-5.529569E-2,1.5E1,9E0,7.89E2,8E0,1E0,2.1E1,2.003E3,1.239E3,3E0,1.997E3,1.456E3,1.994E3,1.855E3,1E0,1.429E3,1.5034407E-1,4.325735E-2,1E0,5.232253E-2,4.2739637E-2,8.709713E-2,1.6198438E-1,6.456154E-3,-8.327977E-4,-2.1003035E-1,-1.7260122E-1,-1.3626063E-1,9E0,-1.1390431E-1,2.002E3,-9.638909E-2,1.995E3,2E0,5.5E2,-5.9111495E-2,2E0,-4.3941308E-2,5.932783E-2,1.09E2,1E0,-3.9106548E-2,6.905599E-2,1E0,2.001E3,1E0,2.002E3,-1.4828317E-2,2.0303136E-2,9E0,2.001E3,1.429E3,1E0,8.039103E-2,1.613E3,1E0,1E0,6.4E1,2E0,1.991E3,2.278E3,1E0,1E0,2E3,1E0,3.7986044E-2,1.094172E-2,-9.399515E-2,4.8718597E-3,7.790456E-2,-1.184973E-1,3.8137431E-3,-5.14647E-2,4.9065243E-2,-6.855098E-2,-7.760598E-2,-6.6780746E-2,-4.98192E-2,4.3383207E-2,-5.189367E-2,-3.4135763E-2,-4.213889E-2,-8.599888E-3,-4.171199E-3,-3.4312144E-2,5.7174186E-3,-1.9751072E-2,-5.5003096E-4,-2.7160548E-2,9.607927E-2,-2.2693258E-2,-1.8167697E-2,-2.3696207E-2,-9.806675E-3,-1.6337829E-2,-7.51031E-3,2.1494713E-2,1.420052E-1,5.0335884E-2,-1.221333E-2,8.043878E-3,-4.4404604E-3,-1.0791192E-2,3.640204E-3,-9.418353E-3,1.3807136E-2,3.988538E-3,-2.6598014E-4,2.9055847E-2,1.5178543E-1,-4.646709E-3,1.906478E-2,3.0783156E-2,3.4031343E-2,7.854041E-3,7.213334E-2,1.5095567E-3,-9.788074E-3,2.2787536E-3,9.1672085E-2,3.6415715E-2],"split_indices":[7,7,7,7,7,7,7,2,7,7,7,2,7,7,7,7,0,9,11,12,7,7,7,0,2,7,7,7,7,7,0,0,0,11,0,0,7,7,1,0,37,12,12,7,11,11,7,35,35,1,9,0,0,9,0,0,0,0,0,0,7,0,12,9,2,0,0,11,0,9,1,7,9,21,9,0,7,11,0,7,7,7,20,7,0,0,21,0,0,0,0,0,0,0,0,0,1,0,0,0,0,1,7,0,4,0,0,4,21,0,0,11,0,11,0,0,0,1,0,7,29,0,7,4,32,4,11,0,7,12,26,0,20,0,0,0,0,0,0,0,0,0,0,0,0,0,0,0,0,0,0,0,0,0,0,0,0,0,0,0,0,0,0,0,0,0,0,0,0,0,0,0,0,0,0,0,0,0,0,0,0,0,0,0,0,0,0,0,0],"split_type":[0,0,0,0,0,0,0,0,0,0,0,0,0,0,0,0,0,0,0,0,0,0,0,0,0,0,0,0,0,0,0,0,0,0,0,0,0,0,0,0,0,0,0,0,0,0,0,0,0,0,0,0,0,0,0,0,0,0,0,0,0,0,0,0,0,0,0,0,0,0,0,0,0,0,0,0,0,0,0,0,0,0,0,0,0,0,0,0,0,0,0,0,0,0,0,0,0,0,0,0,0,0,0,0,0,0,0,0,0,0,0,0,0,0,0,0,0,0,0,0,0,0,0,0,0,0,0,0,0,0,0,0,0,0,0,0,0,0,0,0,0,0,0,0,0,0,0,0,0,0,0,0,0,0,0,0,0,0,0,0,0,0,0,0,0,0,0,0,0,0,0,0,0,0,0,0,0,0,0,0,0,0,0,0,0,0,0,0,0],"sum_hessian":[6.352E3,2.579E3,3.773E3,5.71E2,2.008E3,2.68E3,1.093E3,1E2,4.71E2,8.19E2,1.189E3,1.736E3,9.44E2,8.19E2,2.74E2,9.9E1,1E0,1.72E2,2.99E2,3.97E2,4.22E2,5.7E2,6.19E2,2.48E2,1.488E3,4.72E2,4.72E2,4.45E2,3.74E2,1.98E2,7.6E1,2.2E1,7.7E1,1.7E2,2E0,2E0,2.97E2,3.94E2,3E0,1E2,3.22E2,1.96E2,3.74E2,3.48E2,2.71E2,1.36E2,1.12E2,1.459E3,2.9E1,2.74E2,1.98E2,2.73E2,1.99E2,2.73E2,1.72E2,2.49E2,1.25E2,1.23E2,7.5E1,2E0,1.68E2,1.46E2,1.51E2,2.71E2,1.23E2,2E0,1E0,2.93E2,2.9E1,1.91E2,5E0,3.64E2,1E1,1.48E2,2E2,2E0,2.69E2,9.8E1,3.8E1,5E1,6.2E1,1.174E3,2.85E2,1.4E1,1.5E1,1.39E2,1.35E2,1.56E2,4.2E1,2.72E2,1E0,1E0,1E0,1.18E2,5E1,1.47E2,4E0,2.6E2,1.1E1,1.21E2,2E0,3E0,2.9E2,1.87E2,4E0,4E0,1E0,1.67E2,1.97E2,8E0,2E0,1.46E2,2E0,1.94E2,6E0,1E0,1E0,1.7E2,9.9E1,1.6E1,8.2E1,1E0,3.7E1,1.6E1,3.4E1,2.1E1,4.1E1,7.91E2,3.83E2,1.83E2,1.02E2,2E0,1.2E1,1.34E2,1E0,3E0,1E0,3E0,8E0,1E0,1E0,1E0,2E0,2.01E2,8.9E1,3E0,1E0,1.54E2,1.3E1,1.96E2,1E0,1E0,1.45E2,1E0,1E0,2E0,1.92E2,1E0,5E0,1.11E2,5.9E1,1.6E1,8.3E1,1E0,1.5E1,7.4E1,8E0,1.3E1,2.4E1,3E0,1.3E1,3.1E1,3E0,2E1,1E0,1E0,4E1,5E0,7.86E2,2.61E2,1.22E2,7.2E1,1.11E2,6.4E1,3.8E1,1E0,1E0,5E0,7E0],"tree_param":{"num_deleted":"0","num_feature":"42","num_nodes":"189","size_leaf_vector":"1"}},{"base_weights":[4.6597508E-4,-4.939803E-1,3.3848158E-1,-1.0266271E0,-3.25324E-1,1.6892304E-1,7.161814E-1,-1.4556066E0,-8.5600364E-1,-4.930348E-1,-1.9763218E-1,9.968887E-2,3.0695847E-1,5.8607477E-1,1.0189564E0,-1.732407E0,-1.2356498E0,-9.660109E-1,-7.634633E-1,-5.732141E-1,-4.0114105E-1,-2.672723E-1,-1.3654074E-1,5.502639E-2,5.16477E-1,2.476229E-1,3.6229768E-1,5.0845045E-1,6.777359E-1,1.3181235E-1,1.2582281E0,-3.0587316E-1,-2.349905E-1,5.5230197E-2,-1.2622861E0,1.2184251E-2,-9.7699934E-1,-7.7131534E-1,-9.362194E-2,-6.133867E-1,-5.2131253E-1,-4.0433905E-1,6.513527E-2,-2.7244115E-1,-1.16638236E-1,-1.6328967E-1,-1.04077734E-1,-4.9025327E-2,1.3541059E-1,7.153565E-1,4.6197418E-2,2.312473E-1,2.7618444E-1,3.9463553E-1,3.3157626E-1,4.697126E-1,8.312053E-2,9.435559E-2,1.0757337E-1,1.743045E-1,2.3572187E-1,-7.70338E-4,1.3197132E-2,-1.9175455E-1,2.349759E-2,-9.8426956E-1,-1.7634587E-1,3.2599105E-3,-1.1620026E-1,2.5031826E-1,-8.4408194E-2,-6.1879134E-1,3.4256916E-2,-7.853638E-2,-1.9589838E-1,-4.110793E-1,-2.9235026E-1,-3.0107832E-1,-2.3466685E-1,3.3275917E-1,-3.8799223E-2,-1.6693999E-1,-4.391342E-2,-8.744921E-2,-1.4505322E-1,-1.7937072E-1,1.13001704E-1,-6.1236378E-2,1.6719148E-1,1.2233134E-1,7.940106E-1,3.3272292E-2,3.0600151E-2,2.2858752E-1,7.2002135E-2,2.8424135E-1,2.9535701E-2,4.0772453E-1,4.1984588E-2,4.2926505E-2,3.5259786E-1,6.953264E-2,1.4983556E-1,-1.6162306E-1,-1.380278E-1,3.5508186E-2,-7.518601E-2,4.50647E-3,5.181514E-2,-6.2627035E-1,-2.7396968E-1,-5.076981E-2,5.8477618E-2,3.5277123E-3,-4.7604848E-2,-4.225069E-1,-3.2514074E-1,2.584439E-1,-6.0636315E-2,-3.0976415E-1,-2.3901626E-1,-2.6363367E-1,-2.0516613E-1,7.405192E-2,-2.3319133E-2,-1.8871333E-1,-1.4044403E-1,8.887332E-2,-2.5020378E-2,-9.406046E-2,-4.613407E-2,-1.4799222E-1,5.873322E-3,-3.830468E-1,-1.0326277E-1,7.1676806E-2,1.9257818E-1,-2.8827233E-2,-8.665197E-2,1.5597253E-1,1.284469E-1,-2.051221E-2,7.804188E-2,8.957993E-1,4.1738984E-1,-2.0321531E-2,7.0958555E-2,2.3963222E-1,1.7431468E-1,4.2920835E-2,1.5995324E-2,3.655849E-1,6.449724E-2,5.306753E-2,1.2572744E-2,-1.040586E-1,-8.942051E-2,5.7643633E-2,-9.211982E-2,-6.4539924E-2,-4.7509037E-2,-5.0667346E-2,-1.5245718E-2,-2.5979355E-2,6.1447907E-2,-4.7748413E-2,-3.4855824E-2,-2.5739567E-2,-3.9918892E-2,-4.0095057E-2,-2.0195913E-2,-2.7397545E-2,-3.571436E-2,-2.9570876E-2,-1.4294033E-2,-2.2427246E-2,-1.3215542E-2,-1.3479505E-2,-2.0071456E-2,1.8780401E-2,-8.508715E-3,-2.037961E-2,-2.692858E-2,-3.543786E-3,-8.6372435E-2,-2.775096E-2,-5.1426683E-3,5.1434175E-3,1.3664482E-2,3.3382583E-2,2.1732543E-2,-6.663467E-3,5.851883E-3,-1.4423705E-2,-4.1681253E-3,7.4372017E-3,3.3341065E-2,2.3174072E-2,-2.513806E-2,1.7325443E-1,8.3446264E-2,1.3565794E-1,4.121569E-2,1.1745608E-2,-4.312013E-3,-6.3710514E-4,1.1102168E-2,3.6360186E-2,2.013338E-2,3.0800115E-2,2.2018587E-2,5.929135E-2,4.618958E-2],"categories":[],"categories_nodes":[],"categories_segments":[],"categories_sizes":[],"default_left":[0,0,0,0,0,0,0,0,0,0,0,0,0,0,0,0,0,0,0,0,0,0,0,0,0,0,0,0,0,0,0,0,0,0,0,0,0,0,0,0,0,0,0,0,0,0,0,0,0,0,0,0,0,0,0,0,0,0,0,0,0,0,0,0,0,0,0,0,0,0,0,0,0,0,0,0,0,0,0,0,0,0,0,0,0,0,0,0,0,0,0,0,0,0,0,0,0,0,0,0,0,0,0,0,0,0,0,0,0,0,0,0,0,0,0,0,0,0,0,0,0,0,0,0,0,0,0,0,0,0,0,0,0,0,0,0,0,0,0,0,0,0,0,0,0,0,0,0,0,0,0,0,0,0,0,0,0,0,0,0,0,0,0,0,0,0,0,0,0,0,0,0,0,0,0,0,0,0,0,0,0,0,0,0,0,0,0,0,0,0,0,0,0,0,0,0,0,0,0,0,0,0,0,0,0,0,0,0,0,0,0,0,0],"id":4,"left_children":[1,3,5,7,9,11,13,15,17,19,21,23,25,27,29,31,33,35,37,39,41,43,45,47,49,51,53,55,57,-1,59,-1,-1,61,63,-1,65,67,69,71,73,75,-1,77,79,81,83,85,87,89,91,93,95,97,99,101,-1,-1,-1,-1,-1,-1,-1,-1,-1,103,105,-1,-1,107,-1,109,111,-1,113,115,117,119,121,123,-1,125,127,129,131,133,135,137,139,141,143,-1,145,147,-1,149,-1,151,-1,-1,153,-1,-1,-1,-1,-1,-1,-1,-1,155,157,-1,-1,-1,-1,159,161,163,-1,165,167,169,171,-1,-1,173,175,-1,-1,177,179,181,-1,183,185,187,189,191,193,195,-1,197,-1,199,201,203,205,207,209,-1,-1,211,-1,-1,-1,-1,-1,-1,-1,-1,-1,-1,-1,-1,-1,-1,-1,-1,-1,-1,-1,-1,-1,-1,-1,-1,-1,-1,-1,-1,-1,-1,-1,-1,-1,-1,-1,-1,-1,-1,-1,-1,-1,-1,-1,-1,-1,-1,-1,-1,-1,-1,-1,-1,-1,-1,-1,-1,-1,-1,-1,-1,-1],"loss_changes":[1.0619476E3,2.3143835E2,2.4157437E2,4.4134277E1,4.1897964E1,2.4874336E1,4.545331E1,8.514069E0,3.802826E0,6.010742E0,4.707176E0,3.2305477E1,2.767006E0,5.4898376E0,1.0636017E1,6.1994934E-1,3.5425262E0,2.380844E0,1.2269287E0,6.184845E-1,1.2388458E0,3.7309647E-1,5.005417E-1,1.3138298E1,1.5679817E1,1.3397408E-1,3.1422043E-1,5.3258514E-1,2.649231E-1,0E0,2.0009308E0,0E0,0E0,6.3828947E-3,2.458725E0,0E0,9.789734E-1,6.656494E-1,7.862278E-1,8.8926697E-1,4.6943665E-2,1.7948914E-1,0E0,4.723854E-1,1.2987448E0,1.3429165E-1,1.7264533E-1,1.448711E1,5.5473957E0,5.4068375E0,1.329095E-1,7.22332E-2,3.920555E-2,2.0576477E-1,1.24326706E-1,3.4887314E-1,0E0,0E0,0E0,0E0,0E0,0E0,0E0,0E0,0E0,1.7936707E-1,5.212634E-1,0E0,0E0,5.2477136E-2,0E0,4.628296E-1,5.2956426E-1,0E0,8.74196E-2,2.2795868E-1,1.7068377E0,7.797623E-2,1.3476467E-1,4.6957028E-1,0E0,1.5522099E-1,9.5910436E-1,4.9197078E-2,4.7481775E-2,5.8509665E0,9.924741E-1,9.964061E-2,5.7653522E0,8.6333627E-1,3.6130219E0,0E0,1.0008764E-1,1.22470856E-1,0E0,1.4309883E-2,0E0,2.0069122E-2,0E0,0E0,2.038002E-2,0E0,0E0,0E0,0E0,0E0,0E0,0E0,0E0,7.4279785E-2,1.8034139E0,0E0,0E0,0E0,0E0,1.3047409E-1,1.01288795E-1,3.9728868E-1,0E0,8.764839E-2,2.5614262E-2,1.509285E-2,4.1035652E-2,0E0,0E0,1.15027905E-1,5.6144714E-2,0E0,0E0,1.6003013E-2,5.972476E-2,4.6732426E-3,0E0,7.122802E0,1.5611703E0,1.4426506E-1,1.1642647E-1,6.0982224E-2,3.5938203E-2,5.2934875E0,0E0,3.3475897E-1,0E0,6.4859543E0,1.4184141E0,2.0531718E-2,6.5195262E-3,3.3138275E-2,1.254797E-2,0E0,0E0,1.5325546E-3,0E0,0E0,0E0,0E0,0E0,0E0,0E0,0E0,0E0,0E0,0E0,0E0,0E0,0E0,0E0,0E0,0E0,0E0,0E0,0E0,0E0,0E0,0E0,0E0,0E0,0E0,0E0,0E0,0E0,0E0,0E0,0E0,0E0,0E0,0E0,0E0,0E0,0E0,0E0,0E0,0E0,0E0,0E0,0E0,0E0,0E0,0E0,0E0,0E0,0E0,0E0,0E0,0E0,0E0,0E0,0E0,0E0,0E0,0E0,0E0,0E0],"parents":[2147483647,0,0,1,1,2,2,3,3,4,4,5,5,6,6,7,7,8,8,9,9,10,10,11,11,12,12,13,13,14,14,15,15,16,16,17,17,18,18,19,19,20,20,21,21,22,22,23,23,24,24,25,25,26,26,27,27,28,28,30,30,33,33,34,34,36,36,37,37,38,38,39,39,40,40,41,41,43,43,44,44,45,45,46,46,47,47,48,48,49,49,50,50,51,51,52,52,53,53,54,54,55,55,65,65,66,66,69,69,71,71,72,72,74,74,75,75,76,76,77,77,78,78,79,79,81,81,82,82,83,83,84,84,85,85,86,86,87,87,88,88,89,89,90,90,92,92,93,93,95,95,97,97,100,100,109,109,110,110,115,115,116,116,117,117,119,119,120,120,121,121,122,122,125,125,126,126,129,129,130,130,131,131,133,133,134,134,135,135,136,136,137,137,138,138,139,139,141,141,143,143,144,144,145,145,146,146,147,147,148,148,151,151],"right_children":[2,4,6,8,10,12,14,16,18,20,22,24,26,28,30,32,34,36,38,40,42,44,46,48,50,52,54,56,58,-1,60,-1,-1,62,64,-1,66,68,70,72,74,76,-1,78,80,82,84,86,88,90,92,94,96,98,100,102,-1,-1,-1,-1,-1,-1,-1,-1,-1,104,106,-1,-1,108,-1,110,112,-1,114,116,118,120,122,124,-1,126,128,130,132,134,136,138,140,142,144,-1,146,148,-1,150,-1,152,-1,-1,154,-1,-1,-1,-1,-1,-1,-1,-1,156,158,-1,-1,-1,-1,160,162,164,-1,166,168,170,172,-1,-1,174,176,-1,-1,178,180,182,-1,184,186,188,190,192,194,196,-1,198,-1,200,202,204,206,208,210,-1,-1,212,-1,-1,-1,-1,-1,-1,-1,-1,-1,-1,-1,-1,-1,-1,-1,-1,-1,-1,-1,-1,-1,-1,-1,-1,-1,-1,-1,-1,-1,-1,-1,-1,-1,-1,-1,-1,-1,-1,-1,-1,-1,-1,-1,-1,-1,-1,-1,-1,-1,-1,-1,-1,-1,-1,-1,-1,-1,-1,-1,-1,-1],"split_conditions":[1.313E3,2.65E2,4.701E3,8.4E1,6.28E2,2.537E3,1.2482E4,4E1,1.68E2,4.52E2,9.26E2,5.78E2,3.334E3,7.305E3,2.17E4,2E1,1E0,1E0,2.68E2,3.6E2,1.6E3,4E0,1.117E3,1.33E2,1.596E3,3.002E3,1.92E2,5.865E3,8.967E3,1.3181235E-1,5.7749E4,-3.0587316E-1,-2.349905E-1,2.001E3,8E0,1.2184251E-2,1E1,1E0,2.002E3,8E0,1.64E2,1.075E1,6.513527E-2,7.89E2,3E0,2.1E1,1.65E2,1.576E3,1.55E3,6.3E0,3E0,2.067E3,5.78E2,3.8E1,3.721E3,1.04E2,8.312053E-2,9.435559E-2,1.0757337E-1,1.743045E-1,2.3572187E-1,-7.70338E-4,1.3197132E-2,-1.9175455E-1,2.349759E-2,1.18E2,2.001E3,3.2599105E-3,-1.1620026E-1,2.001E3,-8.4408194E-2,1.2E1,9E0,-7.853638E-2,1.995E3,5E0,2.006E3,4.59E2,4E0,2.002E3,-3.8799223E-2,4E0,2.002E3,4.59E2,1E0,5.3E1,2.117E3,1.83E2,1.69E2,4.2E1,1E0,3.3272292E-2,2.187E3,3.81E2,7.2002135E-2,4.8E1,2.9535701E-2,3.782E3,4.1984588E-2,4.2926505E-2,1E0,6.953264E-2,1.4983556E-1,-1.6162306E-1,-1.380278E-1,3.5508186E-2,-7.518601E-2,4.50647E-3,5.181514E-2,4E0,2.001E3,-5.076981E-2,5.8477618E-2,3.5277123E-3,-4.7604848E-2,1E0,4.15E2,1.994E3,-6.0636315E-2,5E0,3.2E1,4.82E2,1.11E2,7.405192E-2,-2.3319133E-2,8E0,4.72E2,8.887332E-2,-2.5020378E-2,2.1E1,1E0,4.1E2,5.873322E-3,1.55E3,8.7E1,1.728E3,1.17E2,1.502E3,4.15E2,1E0,1.284469E-1,4E0,7.804188E-2,2.001E3,1.996E3,1.613E3,3E0,4E1,9E0,4.2920835E-2,1.5995324E-2,3E0,6.449724E-2,5.306753E-2,1.2572744E-2,-1.040586E-1,-8.942051E-2,5.7643633E-2,-9.211982E-2,-6.4539924E-2,-4.7509037E-2,-5.0667346E-2,-1.5245718E-2,-2.5979355E-2,6.1447907E-2,-4.7748413E-2,-3.4855824E-2,-2.5739567E-2,-3.9918892E-2,-4.0095057E-2,-2.0195913E-2,-2.7397545E-2,-3.571436E-2,-2.9570876E-2,-1.4294033E-2,-2.2427246E-2,-1.3215542E-2,-1.3479505E-2,-2.0071456E-2,1.8780401E-2,-8.508715E-3,-2.037961E-2,-2.692858E-2,-3.543786E-3,-8.6372435E-2,-2.775096E-2,-5.1426683E-3,5.1434175E-3,1.3664482E-2,3.3382583E-2,2.1732543E-2,-6.663467E-3,5.851883E-3,-1.4423705E-2,-4.1681253E-3,7.4372017E-3,3.3341065E-2,2.3174072E-2,-2.513806E-2,1.7325443E-1,8.3446264E-2,1.3565794E-1,4.121569E-2,1.1745608E-2,-4.312013E-3,-6.3710514E-4,1.1102168E-2,3.6360186E-2,2.013338E-2,3.0800115E-2,2.2018587E-2,5.929135E-2,4.618958E-2],"split_indices":[7,7,7,7,7,7,7,7,7,7,7,5,7,7,7,7,6,6,5,7,5,12,7,5,7,7,5,7,7,0,7,0,0,0,9,0,9,6,0,12,2,9,0,7,11,9,5,7,7,9,8,5,5,9,7,9,0,0,0,0,0,0,0,0,0,7,0,0,0,0,0,9,1,0,0,6,0,3,6,0,0,6,0,3,31,5,7,5,2,4,33,0,7,5,0,9,0,7,0,0,40,0,0,0,0,0,0,0,0,6,0,0,0,0,0,37,3,0,0,6,2,3,2,0,0,11,3,0,0,9,6,5,0,7,5,7,2,7,3,28,0,11,0,0,0,7,11,9,8,0,0,1,0,0,0,0,0,0,0,0,0,0,0,0,0,0,0,0,0,0,0,0,0,0,0,0,0,0,0,0,0,0,0,0,0,0,0,0,0,0,0,0,0,0,0,0,0,0,0,0,0,0,0,0,0,0,0,0,0,0,0,0,0],"split_type":[0,0,0,0,0,0,0,0,0,0,0,0,0,0,0,0,0,0,0,0,0,0,0,0,0,0,0,0,0,0,0,0,0,0,0,0,0,0,0,0,0,0,0,0,0,0,0,0,0,0,0,0,0,0,0,0,0,0,0,0,0,0,0,0,0,0,0,0,0,0,0,0,0,0,0,0,0,0,0,0,0,0,0,0,0,0,0,0,0,0,0,0,0,0,0,0,0,0,0,0,0,0,0,0,0,0,0,0,0,0,0,0,0,0,0,0,0,0,0,0,0,0,0,0,0,0,0,0,0,0,0,0,0,0,0,0,0,0,0,0,0,0,0,0,0,0,0,0,0,0,0,0,0,0,0,0,0,0,0,0,0,0,0,0,0,0,0,0,0,0,0,0,0,0,0,0,0,0,0,0,0,0,0,0,0,0,0,0,0,0,0,0,0,0,0,0,0,0,0,0,0,0,0,0,0,0,0,0,0,0,0,0,0],"sum_hessian":[6.352E3,2.579E3,3.773E3,6.19E2,1.96E3,2.605E3,1.168E3,1.74E2,4.45E2,8.46E2,1.114E3,1.736E3,8.69E2,8.19E2,3.49E2,7.4E1,1E2,1.99E2,2.46E2,4.49E2,3.97E2,5.19E2,5.95E2,1.569E3,1.67E2,4.22E2,4.47E2,4.47E2,3.72E2,2.23E2,1.26E2,2.2E1,5.2E1,2E0,9.8E1,2E0,1.97E2,2.43E2,3E0,2.47E2,2.02E2,3.96E2,1E0,5.01E2,1.8E1,3.24E2,2.71E2,6.84E2,8.85E2,1.17E2,5E1,2.74E2,1.48E2,2.12E2,2.35E2,2.48E2,1.99E2,1.74E2,1.98E2,1E2,2.6E1,1E0,1E0,9.7E1,1E0,1.95E2,2E0,1E0,2.42E2,2E0,1E0,2.45E2,2E0,2E2,2E0,3.71E2,2.5E1,2.81E2,2.2E2,4E0,1.4E1,3.14E2,1E1,1.95E2,7.6E1,3.79E2,3.05E2,1.23E2,7.62E2,1.4E1,1.03E2,3E0,4.7E1,2.73E2,1E0,1.32E2,1.6E1,1.88E2,2.4E1,7.9E1,1.56E2,2.47E2,1E0,7.3E1,1.22E2,1E0,1E0,1E0,1E0,2.39E2,6E0,1E0,1E0,1E0,1E0,3.24E2,4.7E1,4E0,2.1E1,2.43E2,3.8E1,1.07E2,1.13E2,3E0,1E0,1.69E2,1.45E2,1E0,9E0,1.67E2,2.8E1,7.5E1,1E0,1.02E2,2.77E2,2.02E2,1.03E2,5.5E1,6.8E1,7.51E2,1.1E1,1.1E1,3E0,8E1,2.3E1,2.1E1,2.6E1,2.24E2,4.9E1,1.3E2,2E0,7.1E1,1.17E2,1.55E2,1E0,6.7E1,1.72E2,2E0,4E0,2.99E2,2.5E1,4.4E1,3E0,1E0,3E0,2.16E2,2.7E1,1.3E1,2.5E1,1.03E2,4E0,7.1E1,4.2E1,1.54E2,1.5E1,1.22E2,2.3E1,1.54E2,1.3E1,1E0,2.7E1,5.8E1,1.7E1,3.6E1,6.6E1,1.26E2,1.51E2,7E1,1.32E2,6.1E1,4.2E1,4.5E1,1E1,5.8E1,1E1,2.89E2,4.62E2,5E0,6E0,4.4E1,3.6E1,4E0,1.9E1,1E0,2E1,1E0,2.5E1,2.17E2,7E0,2E1,2.9E1,4.3E1,2.8E1],"tree_param":{"num_deleted":"0","num_feature":"42","num_nodes":"213","size_leaf_vector":"1"}},{"base_weights":[4.4526695E-4,-4.1740912E-1,2.9060322E-1,-8.406346E-1,-2.628872E-1,1.5264535E-1,6.253962E-1,-1.2412467E0,-7.047193E-1,-4.053916E-1,-1.6619381E-1,8.989938E-2,2.7628207E-1,5.383848E-1,9.571994E-1,-1.4797574E0,-1.0518452E0,-8.1324697E-1,-6.2041247E-1,-4.7249445E-1,-3.413166E-1,-2.1591076E-1,-1.0130689E-1,4.5904882E-2,3.9370933E-1,2.3219964E-1,3.369523E-1,4.7365195E-1,6.4634293E-1,8.658986E-1,1.869081E-1,-2.61987E-1,-2.0040701E-1,5.108793E-2,-1.0746427E0,1.0965826E-2,-8.2152414E-1,-6.255475E-1,-8.66003E-2,-4.7805932E-1,-2.6478213E-1,-3.4419987E-1,6.025012E-2,-2.4031197E-1,-1.7571811E-1,-1.1796549E-1,-8.004408E-2,-3.576671E-2,1.1438032E-1,5.939592E-1,5.527255E-2,2.0422702E-1,2.619359E-1,3.2225642E-1,5.6022625E-2,4.2482722E-1,7.811221E-2,9.037888E-2,1.03929274E-1,1.20136976E-1,1.4100188E-1,-7.1256264E-4,1.2207347E-2,-1.6328484E-1,2.1735273E-2,-8.2674444E-1,-1.6311993E-1,3.0154171E-3,-6.2781197E-1,2.3154438E-1,-7.807758E-2,-7.6734245E-2,-4.3745112E-1,-6.3832045E-2,5.3904183E-2,-3.6741006E-1,-3.1265658E-1,-2.4576348E-1,-4.4474404E-2,-1.6495627E-1,-2.1112701E-1,-1.2173614E-1,7.4233594E-3,-6.486776E-2,-1.2466956E-1,-1.535236E-1,9.969095E-2,1.05451696E-1,6.7358E-1,-1.441521E-1,6.4576954E-1,3.8095154E-2,1.7857575E-1,2.2235484E-1,1.7699298E-1,2.752063E-1,3.0542338E-2,3.5098964E-1,2.9266417E-1,6.294214E-2,1.3859789E-1,-1.3770722E-1,-1.1632599E-1,3.284507E-2,-6.954706E-2,-1.0077326E-1,-8.716257E-2,4.168485E-3,4.7929004E-2,-4.4569293E-1,-3.1318995E-1,-3.7155932E-1,-1.1219023E-1,-3.1699628E-1,-4.788573E-2,-2.726664E-1,-2.2958538E-1,-3.8104244E-2,6.572107E-2,-1.6657473E-1,-4.6435334E-2,-1.7565729E-1,-3.7221767E-2,-9.2284136E-2,-1.4014213E-1,8.220782E-2,-1.2866175E-1,-7.0188984E-2,-2.224733E-2,-1.8879537E-2,-4.514506E-3,-3.8765916E-1,-9.981251E-2,6.31125E-2,1.687286E-1,2.4177058E-1,7.059257E-2,-7.97219E-3,1.1078545E-1,-2.8590238E-2,-8.141886E-2,5.9070796E-1,1.2529438E0,-5.701502E-2,6.913021E-2,2.4254356E-1,2.1988157E-2,2.7585036E-1,2.0459929E-1,2.56051E-2,6.660197E-2,2.6324463E-1,3.4209976E-1,3.610265E-1,3.5875756E-2,2.9494336E-1,2.1130001E-2,-6.788573E-2,-4.2229317E-2,-6.423476E-2,3.7706066E-2,-5.687551E-2,-3.8823295E-2,-3.7421875E-2,3.2772407E-2,-3.833108E-2,-4.946221E-2,3.5520874E-2,-3.325773E-2,-4.3734554E-2,-3.526191E-2,-3.2507382E-2,-4.288501E-2,-1.9329213E-2,-2.583938E-2,6.2797787E-3,-1.3473587E-2,-2.828333E-2,-6.2182997E-3,-1.4929044E-2,-1.9200632E-3,2.4620602E-3,-2.1328332E-2,-8.456301E-3,-2.1504201E-2,-6.851627E-3,-1.1873151E-2,-6.1059045E-3,1.43880965E-2,-1.7661063E-1,-4.001493E-2,-1.17554046E-1,-1.3577449E-2,1.1502758E-2,1.901619E-3,2.9069984E-2,1.9804101E-2,6.287821E-2,8.254134E-3,-7.2810793E-4,1.8574072E-2,-3.6699858E-3,-1.31874E-2,1.3550925E-1,7.449173E-2,1.9782202E-1,4.9508754E-2,-1.4375857E-2,-6.0409014E-3,1.5823727E-2,5.6139496E-3,4.4201225E-2,1.1221545E-2,-3.227183E-3,6.549087E-3,4.6593692E-2,2.8163632E-2,3.2828037E-2,2.2553641E-2,3.998865E-2,2.1798825E-2,6.4144306E-2,4.253712E-2,7.459001E-2,5.2439142E-2,4.3180544E-2,7.7591136E-2],"categories":[],"categories_nodes":[],"categories_segments":[],"categories_sizes":[],"default_left":[0,0,0,0,0,0,0,0,0,0,0,0,0,0,0,0,0,0,0,0,0,0,0,0,0,0,0,0,0,0,0,0,0,0,0,0,0,0,0,0,0,0,0,0,0,0,0,0,0,0,0,0,0,0,0,0,0,0,0,0,0,0,0,0,0,0,0,0,0,0,0,0,0,0,0,0,0,0,0,0,0,0,0,0,0,0,0,0,0,0,0,0,0,0,0,0,0,0,0,0,0,0,0,0,0,0,0,0,0,0,0,0,0,0,0,0,0,0,0,0,0,0,0,0,0,0,0,0,0,0,0,0,0,0,0,0,0,0,0,0,0,0,0,0,0,0,0,0,0,0,0,0,0,0,0,0,0,0,0,0,0,0,0,0,0,0,0,0,0,0,0,0,0,0,0,0,0,0,0,0,0,0,0,0,0,0,0,0,0,0,0,0,0,0,0,0,0,0,0,0,0,0,0,0,0,0,0,0,0,0,0,0,0,0,0,0,0,0,0,0,0,0,0,0,0,0,0],"id":5,"left_children":[1,3,5,7,9,11,13,15,17,19,21,23,25,27,29,31,33,35,37,39,41,43,45,47,49,51,53,55,57,59,-1,-1,-1,61,63,-1,65,67,69,71,73,75,-1,77,79,81,83,85,87,89,91,93,95,97,-1,99,-1,-1,-1,-1,-1,-1,-1,-1,-1,101,103,-1,105,107,-1,-1,109,-1,-1,111,113,115,117,119,121,123,125,127,129,131,133,135,137,139,141,143,145,147,149,151,-1,153,155,-1,-1,-1,-1,-1,-1,-1,-1,-1,-1,157,159,161,163,165,167,169,171,-1,-1,173,175,177,-1,179,181,-1,183,185,187,-1,-1,189,191,193,195,197,199,-1,-1,-1,201,203,205,207,209,211,213,215,217,-1,-1,219,221,223,-1,225,-1,-1,-1,-1,-1,-1,-1,-1,-1,-1,-1,-1,-1,-1,-1,-1,-1,-1,-1,-1,-1,-1,-1,-1,-1,-1,-1,-1,-1,-1,-1,-1,-1,-1,-1,-1,-1,-1,-1,-1,-1,-1,-1,-1,-1,-1,-1,-1,-1,-1,-1,-1,-1,-1,-1,-1,-1,-1,-1,-1,-1,-1,-1,-1,-1,-1,-1,-1,-1,-1,-1],"loss_changes":[7.70383E2,1.7007437E2,1.7310703E2,3.7021973E1,2.6237183E1,2.0587383E1,3.1069183E1,6.3490295E0,4.271515E0,3.1537323E0,3.6525192E0,2.3559494E1,2.3127594E0,5.7668E0,4.881256E0,5.423889E-1,2.5944595E0,1.7107849E0,7.626877E-1,3.057251E-1,9.908562E-1,5.8937454E-1,1.6624546E-1,8.627724E0,1.5080311E1,3.7987328E-1,8.043289E-2,1.0365677E0,2.4090576E-1,8.998108E-2,0E0,0E0,0E0,5.461364E-3,1.8387146E0,0E0,6.3160706E-1,4.439392E-1,6.7271626E-1,2.700653E-1,1.3570082E0,1.7577744E-1,0E0,4.1397858E-1,5.929613E-2,1.3139606E-1,1.4158535E-1,1.1244859E1,4.118001E0,5.4469414E0,1.711115E-1,9.542465E-2,1.3667297E-1,1.3025284E-1,0E0,3.2526016E-1,0E0,0E0,0E0,0E0,0E0,0E0,0E0,0E0,0E0,3.2191467E-1,4.4600594E-1,0E0,2.1421814E-1,4.4900745E-2,0E0,0E0,3.5541534E-2,0E0,0E0,1.9446564E-1,1.8589973E-1,1.0583496E-1,1.324906E0,2.947855E-2,2.7314425E-2,1.3234782E-1,7.326571E-1,3.6312878E-2,2.4225712E-3,4.7023373E0,8.176465E-1,3.9128008E0,6.5324163E-1,1.3620704E-2,3.6394615E0,2.2532266E-1,9.483251E-2,9.553623E-2,1.1574674E-1,6.997585E-2,0E0,6.404114E-2,7.2345734E-3,0E0,0E0,0E0,0E0,0E0,0E0,0E0,0E0,0E0,0E0,5.1002502E-2,1.0169241E0,8.9767456E-2,2.8149554E-1,5.0527573E-2,2.504587E-1,3.0900955E-2,1.17777824E-1,0E0,0E0,1.8772602E-2,1.9085428E-2,4.5843422E-2,0E0,5.974883E-2,5.4564E-2,0E0,4.1858852E-4,2.8908074E-2,4.7529086E-2,0E0,0E0,6.369131E0,1.8871689E0,1.4688677E-1,7.8389645E-2,5.5430193E0,2.6514044E0,0E0,0E0,0E0,6.9160014E-5,3.140934E0,1.7261791E-1,8.49041E-3,6.176111E-2,3.9164305E-2,4.7105737E-3,5.5022E-2,6.296778E-2,0E0,0E0,2.9917717E-2,1.3869286E-2,1.4620781E-2,0E0,6.81057E-2,0E0,0E0,0E0,0E0,0E0,0E0,0E0,0E0,0E0,0E0,0E0,0E0,0E0,0E0,0E0,0E0,0E0,0E0,0E0,0E0,0E0,0E0,0E0,0E0,0E0,0E0,0E0,0E0,0E0,0E0,0E0,0E0,0E0,0E0,0E0,0E0,0E0,0E0,0E0,0E0,0E0,0E0,0E0,0E0,0E0,0E0,0E0,0E0,0E0,0E0,0E0,0E0,0E0,0E0,0E0,0E0,0E0,0E0,0E0,0E0,0E0,0E0,0E0,0E0,0E0,0E0,0E0,0E0,0E0,0E0,0E0],"parents":[2147483647,0,0,1,1,2,2,3,3,4,4,5,5,6,6,7,7,8,8,9,9,10,10,11,11,12,12,13,13,14,14,15,15,16,16,17,17,18,18,19,19,20,20,21,21,22,22,23,23,24,24,25,25,26,26,27,27,28,28,29,29,33,33,34,34,36,36,37,37,38,38,39,39,40,40,41,41,43,43,44,44,45,45,46,46,47,47,48,48,49,49,50,50,51,51,52,52,53,53,55,55,65,65,66,66,68,68,69,69,72,72,75,75,76,76,77,77,78,78,79,79,80,80,81,81,82,82,83,83,84,84,85,85,86,86,87,87,88,88,89,89,90,90,91,91,92,92,93,93,94,94,95,95,97,97,98,98,109,109,110,110,111,111,112,112,113,113,114,114,115,115,116,116,119,119,120,120,121,121,123,123,124,124,126,126,127,127,128,128,131,131,132,132,133,133,134,134,135,135,136,136,140,140,141,141,142,142,143,143,144,144,145,145,146,146,147,147,148,148,151,151,152,152,153,153,155,155],"right_children":[2,4,6,8,10,12,14,16,18,20,22,24,26,28,30,32,34,36,38,40,42,44,46,48,50,52,54,56,58,60,-1,-1,-1,62,64,-1,66,68,70,72,74,76,-1,78,80,82,84,86,88,90,92,94,96,98,-1,100,-1,-1,-1,-1,-1,-1,-1,-1,-1,102,104,-1,106,108,-1,-1,110,-1,-1,112,114,116,118,120,122,124,126,128,130,132,134,136,138,140,142,144,146,148,150,152,-1,154,156,-1,-1,-1,-1,-1,-1,-1,-1,-1,-1,158,160,162,164,166,168,170,172,-1,-1,174,176,178,-1,180,182,-1,184,186,188,-1,-1,190,192,194,196,198,200,-1,-1,-1,202,204,206,208,210,212,214,216,218,-1,-1,220,222,224,-1,226,-1,-1,-1,-1,-1,-1,-1,-1,-1,-1,-1,-1,-1,-1,-1,-1,-1,-1,-1,-1,-1,-1,-1,-1,-1,-1,-1,-1,-1,-1,-1,-1,-1,-1,-1,-1,-1,-1,-1,-1,-1,-1,-1,-1,-1,-1,-1,-1,-1,-1,-1,-1,-1,-1,-1,-1,-1,-1,-1,-1,-1,-1,-1,-1,-1,-1,-1,-1,-1,-1,-1],"split_conditions":[1.334E3,3E2,5.039E3,8.4E1,6.28E2,2.632E3,1.6727E4,4E1,1.77E2,4.52E2,1E3,4.83E2,3.721E3,8.967E3,3.8886E4,2E1,2E0,2E0,3.3E2,4E0,1.6E3,8.57E2,1.178E3,1.35E2,1.596E3,3.099E3,4.581E3,6.564E3,1.18E4,2.17E4,1.869081E-1,-2.61987E-1,-2.0040701E-1,2.001E3,8E0,1.0965826E-2,1.3E1,1E0,2.002E3,3.7E2,1.53E2,5.5E2,6.025012E-2,4E0,1.89E2,2.1E1,1.89E2,1.576E3,1.66E2,1.55E3,4.82E2,1.89E2,4.02E2,1.89E2,5.6022625E-2,1.04E2,7.811221E-2,9.037888E-2,1.03929274E-1,1.20136976E-1,1.4100188E-1,-7.1256264E-4,1.2207347E-2,-1.6328484E-1,2.1735273E-2,1.18E2,2.001E3,3.0154171E-3,2.33E2,2.001E3,-7.807758E-2,-7.6734245E-2,1E0,-6.3832045E-2,5.3904183E-2,1E0,1.5E1,7.12E2,9E0,1E0,1E0,9.8E1,2.002E3,4.82E2,4.92E2,4.4E1,2.153E3,3E0,1.1E1,4E0,2.698E3,1.855E3,5E0,2.002E3,2.067E3,1E0,3.0542338E-2,4E1,1.8E1,6.294214E-2,1.3859789E-1,-1.3770722E-1,-1.1632599E-1,3.284507E-2,-6.954706E-2,-1.0077326E-1,-8.716257E-2,4.168485E-3,4.7929004E-2,6E0,1E1,1E0,2.001E3,4.2E1,2.001E3,4E0,1.89E2,-3.8104244E-2,6.572107E-2,5.1E1,2.001E3,7E0,-3.7221767E-2,1E0,1E0,8.220782E-2,7E0,2.004E3,1E0,-1.8879537E-2,-4.514506E-3,2E3,1E0,8E0,1.17E2,2.001E3,4E0,-7.97219E-3,1.1078545E-1,-2.8590238E-2,4.96E2,1.7E1,2E3,1.64E3,1.4E1,5.97E2,1.777E3,1E0,1E1,2.56051E-2,6.660197E-2,5.9E1,1E0,2E0,3.5875756E-2,1.6E1,2.1130001E-2,-6.788573E-2,-4.2229317E-2,-6.423476E-2,3.7706066E-2,-5.687551E-2,-3.8823295E-2,-3.7421875E-2,3.2772407E-2,-3.833108E-2,-4.946221E-2,3.5520874E-2,-3.325773E-2,-4.3734554E-2,-3.526191E-2,-3.2507382E-2,-4.288501E-2,-1.9329213E-2,-2.583938E-2,6.2797787E-3,-1.3473587E-2,-2.828333E-2,-6.2182997E-3,-1.4929044E-2,-1.9200632E-3,2.4620602E-3,-2.1328332E-2,-8.456301E-3,-2.1504201E-2,-6.851627E-3,-1.1873151E-2,-6.1059045E-3,1.43880965E-2,-1.7661063E-1,-4.001493E-2,-1.17554046E-1,-1.3577449E-2,1.1502758E-2,1.901619E-3,2.9069984E-2,1.9804101E-2,6.287821E-2,8.254134E-3,-7.2810793E-4,1.8574072E-2,-3.6699858E-3,-1.31874E-2,1.3550925E-1,7.449173E-2,1.9782202E-1,4.9508754E-2,-1.4375857E-2,-6.0409014E-3,1.5823727E-2,5.6139496E-3,4.4201225E-2,1.1221545E-2,-3.227183E-3,6.549087E-3,4.6593692E-2,2.8163632E-2,3.2828037E-2,2.2553641E-2,3.998865E-2,2.1798825E-2,6.4144306E-2,4.253712E-2,7.459001E-2,5.2439142E-2,4.3180544E-2,7.7591136E-2],"split_indices":[7,7,7,7,7,7,7,7,7,7,7,5,7,7,7,7,11,11,5,12,5,7,7,5,7,7,7,7,7,7,0,0,0,0,9,0,9,11,0,7,5,7,0,12,5,9,5,7,2,7,3,5,5,5,0,9,0,0,0,0,0,0,0,0,0,7,0,0,7,0,0,0,35,0,0,31,9,7,1,21,28,5,0,3,3,5,7,2,3,11,5,7,11,0,5,37,0,9,9,0,0,0,0,0,0,0,0,0,0,11,1,37,0,5,0,11,5,0,0,5,0,11,0,26,11,0,5,0,29,0,0,0,8,9,2,0,11,0,0,0,5,2,0,7,8,5,7,20,1,0,0,9,41,11,0,9,0,0,0,0,0,0,0,0,0,0,0,0,0,0,0,0,0,0,0,0,0,0,0,0,0,0,0,0,0,0,0,0,0,0,0,0,0,0,0,0,0,0,0,0,0,0,0,0,0,0,0,0,0,0,0,0,0,0,0,0,0,0,0,0,0,0,0,0,0,0,0],"split_type":[0,0,0,0,0,0,0,0,0,0,0,0,0,0,0,0,0,0,0,0,0,0,0,0,0,0,0,0,0,0,0,0,0,0,0,0,0,0,0,0,0,0,0,0,0,0,0,0,0,0,0,0,0,0,0,0,0,0,0,0,0,0,0,0,0,0,0,0,0,0,0,0,0,0,0,0,0,0,0,0,0,0,0,0,0,0,0,0,0,0,0,0,0,0,0,0,0,0,0,0,0,0,0,0,0,0,0,0,0,0,0,0,0,0,0,0,0,0,0,0,0,0,0,0,0,0,0,0,0,0,0,0,0,0,0,0,0,0,0,0,0,0,0,0,0,0,0,0,0,0,0,0,0,0,0,0,0,0,0,0,0,0,0,0,0,0,0,0,0,0,0,0,0,0,0,0,0,0,0,0,0,0,0,0,0,0,0,0,0,0,0,0,0,0,0,0,0,0,0,0,0,0,0,0,0,0,0,0,0,0,0,0,0,0,0,0,0,0,0,0,0,0,0,0,0,0,0],"sum_hessian":[6.352E3,2.603E3,3.749E3,6.95E2,1.908E3,2.656E3,1.093E3,1.74E2,5.21E2,7.7E2,1.138E3,1.763E3,8.93E2,8.68E2,2.25E2,7.4E1,1E2,2.24E2,2.97E2,3.73E2,3.97E2,6.43E2,4.95E2,1.541E3,2.22E2,5.2E2,3.73E2,5.46E2,3.22E2,1.74E2,5.1E1,2.2E1,5.2E1,2E0,9.8E1,2E0,2.22E2,2.94E2,3E0,3.62E2,1.1E1,3.96E2,1E0,3.97E2,2.46E2,2.75E2,2.2E2,7.03E2,8.38E2,1.39E2,8.3E1,2.72E2,2.48E2,2.73E2,1E2,2.73E2,2.73E2,1.73E2,1.49E2,9.9E1,7.5E1,1E0,1E0,9.7E1,1E0,2.2E2,2E0,1E0,2.93E2,2E0,1E0,1.92E2,1.7E2,9E0,2E0,2.22E2,1.74E2,3.86E2,1.1E1,1.93E2,5.3E1,2.67E2,8E0,1.66E2,5.4E1,3.76E2,3.27E2,8.26E2,1.2E1,9E0,1.3E2,7.4E1,9E0,1.59E2,1.13E2,1.99E2,4.9E1,1.33E2,1.4E2,2.72E2,1E0,7.3E1,1.47E2,1E0,1E0,1.44E2,1.49E2,1E0,1E0,1.57E2,1.3E1,2.18E2,4E0,1.71E2,3E0,1.39E2,2.47E2,8E0,3E0,1.9E2,3E0,3E1,2.3E1,1.05E2,1.62E2,1E0,7E0,1.47E2,1.9E1,5.3E1,1E0,6.9E1,3.07E2,2.15E2,1.12E2,1.67E2,6.59E2,1E0,1.1E1,4E0,5E0,1.21E2,9E0,1.8E1,5.6E1,6E0,3E0,3.6E1,1.23E2,1.12E2,1E0,1.73E2,2.6E1,1.2E2,1.3E1,1.37E2,3E0,1.49E2,8E0,1.1E1,2E0,2.02E2,1.6E1,3E0,1E0,3.3E1,1.38E2,1E0,2E0,8.8E1,5.1E1,2.05E2,4.2E1,2.8E1,1.62E2,1E0,2E0,2.7E1,3E0,9.6E1,9E0,2E0,1.6E2,2E0,5E0,4.1E1,1.06E2,1.7E1,2E0,8E0,6.1E1,3E0,3.04E2,1.69E2,4.6E1,6.4E1,4.8E1,8.5E1,8.2E1,2.73E2,3.86E2,1E0,4E0,2.6E1,9.5E1,8E0,1E0,4E0,1.4E1,2.5E1,3.1E1,4E0,2E0,1E0,2E0,2.4E1,1.2E1,9.5E1,2.8E1,1.67E2,6E0,8E0,1.8E1,6E0,1.14E2,1.35E2,2E0],"tree_param":{"num_deleted":"0","num_feature":"42","num_nodes":"227","size_leaf_vector":"1"}},{"base_weights":[4.3859624E-4,-3.4152082E-1,2.5770965E-1,-7.1609557E-1,-2.1311672E-1,1.4074752E-1,5.3697556E-1,-1.1997077E0,-6.3293964E-1,-3.386426E-1,-1.2815434E-1,8.112769E-2,2.3065346E-1,4.6181986E-1,8.15602E-1,-1.2132103E0,1.1291796E-2,-7.5773317E-1,-5.41829E-1,-4.0221736E-1,-2.846927E-1,-1.7945516E-1,-7.87154E-2,4.385839E-2,4.209215E-1,1.78796E-1,2.750738E-1,4.0284437E-1,5.4488873E-1,7.3750603E-1,1.5941101E-1,-2.2439757E-1,-1.671412E-1,4.7149148E-2,-7.677405E-1,-5.456118E-1,-8.010527E-2,-4.625816E-1,-3.7970817E-1,-2.8681818E-1,1.2548518E-1,-1.97203E-1,-1.4314689E-1,-9.453666E-2,-5.4602314E-2,-8.659287E-2,9.048723E-2,5.5785507E-1,9.861315E-3,1.8722557E-1,1.3978904E-1,2.4242608E-1,2.9679608E-1,3.6491877E-1,4.393044E-1,5.0299877E-1,8.751386E-2,9.969522E-2,1.1764746E-1,9.869243E-3,-6.591205E-4,-7.764591E-1,-4.614736E-2,-5.967371E-1,-7.5555235E-2,2.1417856E-1,-7.2221756E-2,-4.716273E-1,-3.7017617E-2,-3.8617617E-1,-1.13141075E-1,-3.1008562E-1,-2.564972E-1,-2.7497195E-2,5.573136E-2,-2.1942234E-1,-1.7657635E-1,-1.6051722E-1,-1.2203622E-1,-1.04370125E-1,-6.8443924E-2,-3.2706432E-2,-8.778268E-2,-2.4696557E-1,8.793996E-2,2.3329279E-1,6.215433E-2,4.9358577E-1,1.0192099E0,-2.8042823E-2,5.1236346E-2,1.9493504E-1,1.4898157E-1,1.289638E-1,2.9369542E-1,2.6189956E-1,2.061892E-1,5.063956E-1,2.8988725E-1,3.5951933E-1,1.2820305E-1,4.4685835E-1,5.1157486E-2,7.686468E-2,5.2014653E-2,-1.2921233E-1,-1.0340534E-1,3.365788E-2,-6.4331025E-2,2.789261E-3,-6.009916E-1,3.8558482E-3,4.433433E-2,-7.1460456E-2,-1.7114612E-1,-4.0101385E-1,-3.2969093E-1,-5.6133885E-2,6.7011334E-2,-3.134615E-1,-1.2224349E-1,-2.613777E-1,-1.4858735E-2,-2.2394295E-1,4.6605892E-2,-1.562803E-1,-2.1129613E-1,-1.6674818E-1,-9.15454E-2,-1.2418124E-1,5.808795E-3,-1.23305015E-1,-8.2548834E-2,-7.8851044E-2,7.6042235E-2,-5.0291236E-2,-1.6888805E-2,-8.9348495E-2,4.8075966E-3,-6.039321E-1,-1.9204864E-1,1.3101304E-1,4.6267163E-2,4.598588E-1,2.9308649E-2,5.2603625E-2,5.298537E-1,2.2578916E-1,6.183901E-1,1.596583E-1,3.577988E-2,1.2044926E-2,-4.132305E-2,7.040489E-2,2.2115195E-2,2.2370458E-1,1.8011193E-1,1.6258794E-1,1.6127486E-2,1.6203454E-1,1.1303492E-1,6.0132537E-2,1.329132E-2,2.8106806E-1,2.964774E-2,1.9481707E-1,4.4450736E-1,5.8143425E-1,2.4376033E-2,3.0212015E-1,2.337969E-1,3.2596388E-1,5.72008E-2,7.035576E-2,4.0245906E-1,-9.1819376E-2,-5.7744984E-2,4.3517892E-4,-3.8943056E-2,-6.0679667E-2,-3.5218121E-3,-5.3541247E-2,-3.9587945E-2,-1.46445455E-2,-4.736433E-2,-3.412962E-2,3.0314475E-2,-3.969383E-2,-6.0205637E-3,-2.4983644E-2,4.4395264E-2,-2.9390393E-2,-3.9156694E-2,-2.4938203E-2,-1.4487659E-2,-1.4370966E-2,-3.2216635E-2,2.9741033E-4,-2.5281778E-2,6.569784E-4,-1.7002316E-2,-1.9630317E-2,-1.0220204E-2,-2.1392481E-2,-1.5028837E-2,-1.0084305E-2,-1.5067855E-2,-8.203203E-3,-1.9726332E-2,-1.5630493E-3,-8.614085E-3,-5.9635337E-3,2.062657E-4,-1.363641E-2,4.537398E-3,-2.4274956E-1,-5.0047502E-2,1.5994513E-2,-4.080773E-2,1.3394845E-2,2.4103351E-2,2.5547517E-3,1.3568909E-2,-2.4317033E-3,7.8065105E-2,-8.35914E-5,1.6719475E-2,1.6569829E-3,1.8742934E-2,-4.450829E-3,9.778074E-2,4.399808E-2,-1.5020593E-1,1.3342745E-2,1.0295496E-1,-2.2963868E-3,3.0866417E-3,-7.0151812E-3,-3.2093024E-4,1.1538819E-3,1.1386031E-2,6.247534E-3,8.108966E-4,3.6544457E-2,2.4965236E-2,2.4471445E-2,2.9596718E-2,2.2009462E-2,5.431848E-2,1.0379891E-2,2.5064778E-2,7.189045E-3,1.7907241E-2,3.974027E-2,5.2633986E-2,2.9378062E-2,8.391246E-3,6.1708693E-3,9.384329E-2,9.569422E-2,1.8170318E-2,3.9417338E-2,4.7284495E-2,2.666846E-2,3.7966065E-2,5.018584E-2,3.3297874E-2,5.7278354E-2,1.2368957E-1],"categories":[],"categories_nodes":[],"categories_segments":[],"categories_sizes":[],"default_left":[0,0,0,0,0,0,0,0,0,0,0,0,0,0,0,0,0,0,0,0,0,0,0,0,0,0,0,0,0,0,0,0,0,0,0,0,0,0,0,0,0,0,0,0,0,0,0,0,0,0,0,0,0,0,0,0,0,0,0,0,0,0,0,0,0,0,0,0,0,0,0,0,0,0,0,0,0,0,0,0,0,0,0,0,0,0,0,0,0,0,0,0,0,0,0,0,0,0,0,0,0,0,0,0,0,0,0,0,0,0,0,0,0,0,0,0,0,0,0,0,0,0,0,0,0,0,0,0,0,0,0,0,0,0,0,0,0,0,0,0,0,0,0,0,0,0,0,0,0,0,0,0,0,0,0,0,0,0,0,0,0,0,0,0,0,0,0,0,0,0,0,0,0,0,0,0,0,0,0,0,0,0,0,0,0,0,0,0,0,0,0,0,0,0,0,0,0,0,0,0,0,0,0,0,0,0,0,0,0,0,0,0,0,0,0,0,0,0,0,0,0,0,0,0,0,0,0,0,0,0,0,0,0,0,0,0,0,0,0,0,0,0,0,0,0,0,0,0,0,0,0,0,0,0,0,0,0,0,0,0,0,0,0,0,0,0,0,0,0],"id":6,"left_children":[1,3,5,7,9,11,13,15,17,19,21,23,25,27,29,31,-1,33,35,37,39,41,43,45,47,49,51,53,55,57,-1,-1,-1,59,61,63,65,67,69,71,73,75,77,79,81,83,85,87,89,91,93,95,97,99,101,103,-1,-1,-1,-1,-1,105,107,109,-1,111,-1,113,-1,115,117,119,121,-1,-1,123,125,127,129,131,133,135,137,139,141,143,145,147,149,151,153,155,157,159,161,163,165,167,169,171,-1,173,-1,-1,-1,-1,-1,-1,-1,-1,175,-1,-1,-1,177,179,181,-1,-1,183,185,187,189,191,-1,193,195,197,199,201,-1,203,205,207,-1,209,211,213,-1,215,217,219,221,223,225,227,229,231,233,-1,-1,235,237,239,241,243,245,247,-1,249,251,-1,-1,253,-1,255,257,259,-1,261,263,265,-1,-1,267,-1,-1,-1,-1,-1,-1,-1,-1,-1,-1,-1,-1,-1,-1,-1,-1,-1,-1,-1,-1,-1,-1,-1,-1,-1,-1,-1,-1,-1,-1,-1,-1,-1,-1,-1,-1,-1,-1,-1,-1,-1,-1,-1,-1,-1,-1,-1,-1,-1,-1,-1,-1,-1,-1,-1,-1,-1,-1,-1,-1,-1,-1,-1,-1,-1,-1,-1,-1,-1,-1,-1,-1,-1,-1,-1,-1,-1,-1,-1,-1,-1,-1,-1,-1,-1,-1,-1,-1,-1,-1,-1,-1,-1,-1],"loss_changes":[5.590012E2,1.3105582E2,1.1836241E2,2.7230438E1,2.1638496E1,1.36872635E1,2.202948E1,1.8301086E0,6.365982E0,2.6979752E0,3.06489E0,1.9471245E1,2.2981148E0,3.9201813E0,3.5781403E0,1.1307068E0,0E0,2.0418243E0,5.6411743E-1,3.3252335E-1,4.2570114E-1,3.5518456E-1,2.3136759E-1,8.450748E0,8.550264E0,1.2935543E-1,3.1597137E-1,5.283127E-1,2.6831818E-1,7.5660706E-2,0E0,0E0,0E0,4.133377E-3,1.5118256E0,4.3863678E-1,5.7559276E-1,7.2956085E-2,4.3562317E-1,2.3440933E-1,2.960564E-1,1.4320469E-1,5.3384304E-2,8.8561535E-2,1.7730439E-1,1.0266169E1,4.1246557E0,2.8771439E0,6.259992E-2,8.476734E-2,1.0873842E-1,1.040678E-1,3.2238007E-1,3.5383606E-1,3.2409668E-2,7.872391E-2,0E0,0E0,0E0,0E0,0E0,1.2040863E0,5.103936E-1,4.038658E-1,0E0,3.841819E-2,0E0,5.048752E-2,0E0,9.49173E-2,1.3365986E0,1.1831093E-1,2.3079967E-1,0E0,0E0,5.177269E-1,1.15664005E-1,3.0289412E-2,3.7223697E-2,1.00967884E-1,6.687318E-1,4.1151285E-2,2.1252036E-2,3.6282854E0,3.0985415E-1,7.7970047E0,3.791293E0,3.269434E0,2.0461845E-1,1.1677597E-2,9.048969E-3,9.531975E-2,2.1448135E-2,2.5933981E-2,7.439244E-2,1.1932373E-1,1.3834786E-1,1.3775754E-1,1.4618874E-1,5.8006287E-2,0E0,3.5758972E-2,0E0,0E0,0E0,0E0,0E0,0E0,0E0,0E0,1.22844696E-1,0E0,0E0,0E0,4.6949327E-2,2.693596E-1,1.6919136E-2,0E0,0E0,8.93383E-2,2.5087643E-1,1.2949657E-1,2.8505647E-1,1.4212608E-1,0E0,6.551647E-2,9.578228E-3,2.944231E-2,2.3502886E-2,2.5940776E-2,0E0,4.9091578E-2,2.8355122E-2,1.2513477E-1,0E0,1.9602403E-2,3.388518E-2,2.085805E-2,0E0,6.3143864E0,4.019502E0,9.2110395E-2,1.16029605E-1,2.315483E0,2.2088793E-1,2.5211766E0,1.1799698E0,3.1113682E0,2.422205E0,0E0,0E0,1.7154543E-3,3.3134948E-3,3.2115467E-3,2.7125753E-3,7.812691E-2,3.0560017E-2,1.0507929E-1,0E0,1.8972158E-4,1.907152E-2,0E0,0E0,2.756977E-2,0E0,7.0500374E-4,1.9343E-1,1.04856014E-1,0E0,4.9186707E-2,2.0972252E-2,1.9714355E-2,0E0,0E0,4.0701294E-1,0E0,0E0,0E0,0E0,0E0,0E0,0E0,0E0,0E0,0E0,0E0,0E0,0E0,0E0,0E0,0E0,0E0,0E0,0E0,0E0,0E0,0E0,0E0,0E0,0E0,0E0,0E0,0E0,0E0,0E0,0E0,0E0,0E0,0E0,0E0,0E0,0E0,0E0,0E0,0E0,0E0,0E0,0E0,0E0,0E0,0E0,0E0,0E0,0E0,0E0,0E0,0E0,0E0,0E0,0E0,0E0,0E0,0E0,0E0,0E0,0E0,0E0,0E0,0E0,0E0,0E0,0E0,0E0,0E0,0E0,0E0,0E0,0E0,0E0,0E0,0E0,0E0,0E0,0E0,0E0,0E0,0E0,0E0,0E0,0E0,0E0,0E0,0E0,0E0,0E0,0E0,0E0,0E0,0E0],"parents":[2147483647,0,0,1,1,2,2,3,3,4,4,5,5,6,6,7,7,8,8,9,9,10,10,11,11,12,12,13,13,14,14,15,15,17,17,18,18,19,19,20,20,21,21,22,22,23,23,24,24,25,25,26,26,27,27,28,28,29,29,33,33,34,34,35,35,36,36,37,37,38,38,39,39,40,40,41,41,42,42,43,43,44,44,45,45,46,46,47,47,48,48,49,49,50,50,51,51,52,52,53,53,54,54,55,55,61,61,62,62,63,63,65,65,67,67,69,69,70,70,71,71,72,72,75,75,76,76,77,77,78,78,79,79,80,80,81,81,82,82,83,83,84,84,85,85,86,86,87,87,88,88,89,89,90,90,91,91,92,92,93,93,94,94,95,95,96,96,97,97,98,98,99,99,101,101,110,110,114,114,115,115,116,116,119,119,120,120,121,121,122,122,123,123,125,125,126,126,127,127,128,128,129,129,131,131,132,132,133,133,135,135,136,136,137,137,139,139,140,140,141,141,142,142,143,143,144,144,145,145,146,146,147,147,148,148,151,151,152,152,153,153,154,154,155,155,156,156,157,157,159,159,160,160,163,163,165,165,166,166,167,167,169,169,170,170,171,171,174,174],"right_children":[2,4,6,8,10,12,14,16,18,20,22,24,26,28,30,32,-1,34,36,38,40,42,44,46,48,50,52,54,56,58,-1,-1,-1,60,62,64,66,68,70,72,74,76,78,80,82,84,86,88,90,92,94,96,98,100,102,104,-1,-1,-1,-1,-1,106,108,110,-1,112,-1,114,-1,116,118,120,122,-1,-1,124,126,128,130,132,134,136,138,140,142,144,146,148,150,152,154,156,158,160,162,164,166,168,170,172,-1,174,-1,-1,-1,-1,-1,-1,-1,-1,176,-1,-1,-1,178,180,182,-1,-1,184,186,188,190,192,-1,194,196,198,200,202,-1,204,206,208,-1,210,212,214,-1,216,218,220,222,224,226,228,230,232,234,-1,-1,236,238,240,242,244,246,248,-1,250,252,-1,-1,254,-1,256,258,260,-1,262,264,266,-1,-1,268,-1,-1,-1,-1,-1,-1,-1,-1,-1,-1,-1,-1,-1,-1,-1,-1,-1,-1,-1,-1,-1,-1,-1,-1,-1,-1,-1,-1,-1,-1,-1,-1,-1,-1,-1,-1,-1,-1,-1,-1,-1,-1,-1,-1,-1,-1,-1,-1,-1,-1,-1,-1,-1,-1,-1,-1,-1,-1,-1,-1,-1,-1,-1,-1,-1,-1,-1,-1,-1,-1,-1,-1,-1,-1,-1,-1,-1,-1,-1,-1,-1,-1,-1,-1,-1,-1,-1,-1,-1,-1,-1,-1,-1,-1],"split_conditions":[1.456E3,3E2,5.146E3,4.8E1,6.65E2,2.464E3,1.6727E4,1.3E2,1.58E2,4.52E2,1E3,5.78E2,3.334E3,8.675E3,3.8886E4,2E1,1.1291796E-2,1E0,3.3E2,3E0,1.6E3,8.89E2,1.239E3,8.7E1,1.613E3,3.95E2,3.899E3,6.564E3,1.1336E4,2.016E4,1.5941101E-1,-2.2439757E-1,-1.671412E-1,2E3,1E1,2.13E2,2.002E3,9E0,1.13E2,5.59E2,1.999E3,4E0,4E0,1E0,1.38E2,1.576E3,1E0,9E0,2.187E3,8E0,1.46E2,2.93E2,2E0,1.04E2,5.6E1,7.8E1,8.751386E-2,9.969522E-2,1.1764746E-1,9.869243E-3,-6.591205E-4,1.05E2,2.001E3,1E0,-7.5555235E-2,2.001E3,-7.2221756E-2,1.7E1,-3.7017617E-2,5E0,9.2E1,1E0,6E0,-2.7497195E-2,5.573136E-2,1.075E1,1.25E2,1E0,1E0,4E0,1.6E1,1.313E3,1E0,2E3,1.17E2,1.576E3,1.69E2,1.37E2,2.002E3,5.5E0,1E0,1.22E2,5E0,6.3E0,1.56E2,8E0,1.4E1,1E0,1.075E1,1E0,1.2820305E-1,3.88E2,5.1157486E-2,7.686468E-2,5.2014653E-2,-1.2921233E-1,-1.0340534E-1,3.365788E-2,-6.4331025E-2,2.789261E-3,7E0,3.8558482E-3,4.433433E-2,-7.1460456E-2,1.995E3,1.075E1,1E0,-5.6133885E-2,6.7011334E-2,1E0,4.87E2,1.5E1,9E0,1E0,4.6605892E-2,5E0,1.1E1,1E0,3E0,9.9E1,5.808795E-3,1.136E3,1.17E2,1.98E2,7.6042235E-2,2.001E3,3E0,1E0,4.8075966E-3,3E0,7E0,1.935E3,2.028E3,1.55E3,2.212E3,2.3E2,1E2,9.8E1,5.5E0,1.596583E-1,3.577988E-2,1.809E3,1E0,1.998E3,1.049E3,1.4E2,2.876E3,1E0,1.6127486E-2,4.35E2,3E0,6.0132537E-2,1.329132E-2,1E0,2.964774E-2,1E0,1.999E3,8.7E1,2.4376033E-2,1.31E2,3E0,8.56E2,5.72008E-2,7.035576E-2,2.1E1,-9.1819376E-2,-5.7744984E-2,4.3517892E-4,-3.8943056E-2,-6.0679667E-2,-3.5218121E-3,-5.3541247E-2,-3.9587945E-2,-1.46445455E-2,-4.736433E-2,-3.412962E-2,3.0314475E-2,-3.969383E-2,-6.0205637E-3,-2.4983644E-2,4.4395264E-2,-2.9390393E-2,-3.9156694E-2,-2.4938203E-2,-1.4487659E-2,-1.4370966E-2,-3.2216635E-2,2.9741033E-4,-2.5281778E-2,6.569784E-4,-1.7002316E-2,-1.9630317E-2,-1.0220204E-2,-2.1392481E-2,-1.5028837E-2,-1.0084305E-2,-1.5067855E-2,-8.203203E-3,-1.9726332E-2,-1.5630493E-3,-8.614085E-3,-5.9635337E-3,2.062657E-4,-1.363641E-2,4.537398E-3,-2.4274956E-1,-5.0047502E-2,1.5994513E-2,-4.080773E-2,1.3394845E-2,2.4103351E-2,2.5547517E-3,1.3568909E-2,-2.4317033E-3,7.8065105E-2,-8.35914E-5,1.6719475E-2,1.6569829E-3,1.8742934E-2,-4.450829E-3,9.778074E-2,4.399808E-2,-1.5020593E-1,1.3342745E-2,1.0295496E-1,-2.2963868E-3,3.0866417E-3,-7.0151812E-3,-3.2093024E-4,1.1538819E-3,1.1386031E-2,6.247534E-3,8.108966E-4,3.6544457E-2,2.4965236E-2,2.4471445E-2,2.9596718E-2,2.2009462E-2,5.431848E-2,1.0379891E-2,2.5064778E-2,7.189045E-3,1.7907241E-2,3.974027E-2,5.2633986E-2,2.9378062E-2,8.391246E-3,6.1708693E-3,9.384329E-2,9.569422E-2,1.8170318E-2,3.9417338E-2,4.7284495E-2,2.666846E-2,3.7966065E-2,5.018584E-2,3.3297874E-2,5.7278354E-2,1.2368957E-1],"split_indices":[7,7,7,7,7,7,7,2,7,7,7,5,7,7,7,7,0,6,5,6,5,7,7,5,7,5,7,7,7,7,0,0,0,0,9,7,0,11,4,7,0,6,6,29,5,7,2,9,7,9,2,5,11,9,9,9,0,0,0,0,0,7,0,6,0,0,0,1,0,6,5,31,12,0,0,9,2,37,21,6,9,7,21,0,2,7,2,3,0,9,28,5,11,9,2,9,9,14,9,14,0,5,0,0,0,0,0,0,0,0,6,0,0,0,0,9,29,0,0,6,3,9,1,10,0,6,3,11,1,5,0,7,2,5,0,0,6,19,0,11,11,7,7,7,7,5,5,3,9,0,0,7,36,0,5,2,7,23,0,5,2,0,0,37,0,40,0,4,0,3,6,5,0,0,9,0,0,0,0,0,0,0,0,0,0,0,0,0,0,0,0,0,0,0,0,0,0,0,0,0,0,0,0,0,0,0,0,0,0,0,0,0,0,0,0,0,0,0,0,0,0,0,0,0,0,0,0,0,0,0,0,0,0,0,0,0,0,0,0,0,0,0,0,0,0,0,0,0,0,0,0,0,0,0,0,0,0,0,0,0,0,0,0,0,0,0,0,0,0],"split_type":[0,0,0,0,0,0,0,0,0,0,0,0,0,0,0,0,0,0,0,0,0,0,0,0,0,0,0,0,0,0,0,0,0,0,0,0,0,0,0,0,0,0,0,0,0,0,0,0,0,0,0,0,0,0,0,0,0,0,0,0,0,0,0,0,0,0,0,0,0,0,0,0,0,0,0,0,0,0,0,0,0,0,0,0,0,0,0,0,0,0,0,0,0,0,0,0,0,0,0,0,0,0,0,0,0,0,0,0,0,0,0,0,0,0,0,0,0,0,0,0,0,0,0,0,0,0,0,0,0,0,0,0,0,0,0,0,0,0,0,0,0,0,0,0,0,0,0,0,0,0,0,0,0,0,0,0,0,0,0,0,0,0,0,0,0,0,0,0,0,0,0,0,0,0,0,0,0,0,0,0,0,0,0,0,0,0,0,0,0,0,0,0,0,0,0,0,0,0,0,0,0,0,0,0,0,0,0,0,0,0,0,0,0,0,0,0,0,0,0,0,0,0,0,0,0,0,0,0,0,0,0,0,0,0,0,0,0,0,0,0,0,0,0,0,0,0,0,0,0,0,0,0,0,0,0,0,0,0,0,0,0,0,0,0,0,0,0,0,0],"sum_hessian":[6.352E3,2.727E3,3.625E3,6.95E2,2.032E3,2.556E3,1.069E3,1E2,5.95E2,8.19E2,1.213E3,1.538E3,1.018E3,8.44E2,2.25E2,9.9E1,1E0,2.48E2,3.47E2,3.73E2,4.46E2,5.94E2,6.19E2,1.387E3,1.51E2,4.72E2,5.46E2,4.97E2,3.47E2,1.74E2,5.1E1,2.2E1,7.7E1,3E0,2.45E2,3.44E2,3E0,9.6E1,2.77E2,4.44E2,2E0,3.96E2,1.98E2,3.72E2,2.47E2,3.65E2,1.022E3,1.13E2,3.8E1,3.85E2,8.7E1,2.23E2,3.23E2,2.49E2,2.48E2,1.73E2,1.74E2,7.4E1,1E2,2E0,1E0,2.42E2,3E0,1.49E2,1.95E2,2E0,1E0,9.1E1,5E0,2.7E2,7E0,2.46E2,1.98E2,1E0,1E0,1.86E2,2.1E2,1.05E2,9.3E1,2.68E2,1.04E2,1.5E2,9.7E1,1.9E2,1.75E2,1.68E2,8.54E2,1.01E2,1.2E1,2E1,1.8E1,3.17E2,6.8E1,8.3E1,4E0,1.41E2,8.2E1,8E0,3.15E2,2.48E2,1E0,2.27E2,2.1E1,1.61E2,1.2E1,1.18E2,1.24E2,2E0,1E0,1E0,1.48E2,1E0,1E0,8.9E1,2E0,2.09E2,6.1E1,5E0,2E0,2.41E2,5E0,1.94E2,4E0,1.85E2,1E0,1.36E2,7.4E1,9.5E1,1E1,9.2E1,1E0,1.41E2,1.27E2,1.03E2,1E0,7E1,8E1,9.6E1,1E0,2.4E1,1.66E2,8.5E1,9E1,7.9E1,8.9E1,8.38E2,1.6E1,3.3E1,6.8E1,1.1E1,1E0,5E0,1.5E1,1E1,8E0,1.03E2,2.14E2,4.9E1,1.9E1,2.4E1,5.9E1,2E0,2E0,1.06E2,3.5E1,8E1,2E0,6E0,2E0,2.55E2,6E1,1.04E2,1.44E2,1.45E2,8.2E1,1.39E2,9E0,1E0,1E0,2.07E2,2E0,4E1,2.1E1,3E0,2.38E2,4E0,1E0,1.91E2,3E0,3E0,1E0,1.09E2,7.6E1,1.15E2,2.1E1,3E0,7.1E1,1E0,9.4E1,2E0,8E0,8.1E1,1.1E1,7.4E1,6.7E1,7.1E1,5.6E1,7.2E1,3.1E1,1.1E1,5.9E1,3.5E1,4.5E1,9.5E1,1E0,4E0,2E1,3.5E1,1.31E2,3.7E1,4.8E1,5.5E1,3.5E1,9E0,7E1,6.6E1,2.3E1,5.33E2,3.05E2,3E0,1.3E1,3.2E1,1E0,8E0,6E1,1E0,4E0,1.3E1,2E0,1E0,9E0,3E0,5E0,7.4E1,2.9E1,1.13E2,1.01E2,4.7E1,2E0,2E0,2.2E1,6E0,5.3E1,9E1,1.6E1,7.9E1,1E0,1E0,1E0,5E0,1E0,6.9E1,1.86E2,1.8E1,4.2E1,9.4E1,1E1,8E1,2E0],"tree_param":{"num_deleted":"0","num_feature":"42","num_nodes":"269","size_leaf_vector":"1"}},{"base_weights":[4.942423E-4,-2.882525E-1,2.2166866E-1,-6.2669873E-1,-1.8475533E-1,1.3154078E-1,4.8349366E-1,-1.0235164E0,-5.520102E-1,-3.0031964E-1,-1.11030586E-1,8.5894816E-2,2.3954761E-1,4.188818E-1,7.128551E-1,-1.0351442E0,1.0444911E-2,-6.7959017E-1,-4.913577E-1,-3.5665864E-1,-2.5272256E-1,-1.5646484E-1,-6.5705426E-2,3.4630764E-2,1.9744162E-1,2.0816502E-1,2.790561E-1,3.7197652E-1,4.8383853E-1,6.627829E-1,1.5164928E-1,-1.9220136E-1,-9.492762E-1,-6.910815E-1,3.029209E-2,5.5146895E-2,-4.9445248E-1,-3.5877582E-1,-7.1124345E-2,-2.5482094E-1,5.155151E-2,-1.8144342E-1,-1.3522851E-1,-8.580902E-2,-5.0653696E-2,-3.665165E-2,1.1413972E-1,3.4209266E-1,6.2481772E-2,2.3005287E-1,1.8574348E-1,2.753144E-1,1.1858782E-1,5.133213E-2,3.9688942E-1,5.066123E-1,6.2927596E-2,9.060491E-2,1.0970475E-1,-1.4457217E-1,-4.3936482E-1,1.28258085E-2,-6.994877E-1,9.827985E-3,2.5800667E-3,-8.092707E-2,-4.3976086E-1,-3.8764462E-1,-3.3243084E-1,-4.424029E-2,4.5023132E-2,-2.719479E-1,-2.2654888E-1,-1.8824965E-1,-3.235883E-2,-1.264088E-1,-1.6957013E-1,-8.8887155E-2,1.5385424E-2,-3.5430375E-2,-9.0215504E-2,1.9280164E-1,-8.6485244E-2,6.939215E-2,1.4866939E-1,2.8560758E-1,6.5465695E-1,-2.342119E-2,9.974873E-2,2.4400003E-1,1.797641E-1,1.796985E-1,2.336289E-1,2.872716E-1,2.367219E-1,4.1640943E-1,5.0875384E-2,8.195654E-2,6.902891E-2,-8.993084E-2,-2.7919073E-2,3.4954934E-3,-6.0968654E-4,-1.0999335E-1,-9.1035396E-2,-6.686669E-2,-7.409738E-2,-3.917277E-1,2.2985794E-2,-5.09327E-2,-2.2887833E-1,-2.7810463E-1,-1.9266753E-1,-2.2967191E-1,-3.5621658E-2,-1.9539945E-1,-1.3905735E-1,-1.8478754E-1,2.7897036E-1,-1.3171074E-1,-8.355015E-2,-1.24673285E-1,-1.9224621E-1,-6.7285225E-2,-1.0238972E-1,7.033907E-2,-9.992318E-2,-4.721463E-2,-2.0431595E-2,-8.014921E-2,-1.236346E-1,3.2651666E-1,1.837317E-2,-9.5520794E-1,-5.7581767E-2,7.770249E-2,2.866263E-2,1.5849514E-1,1.0568091E-1,-2.165839E-1,3.2897747E-1,7.2194684E-1,-4.831905E-1,-3.688301E-2,5.958227E-2,6.6571206E-2,1.2595437E-1,2.3779422E-1,9.742411E-2,2.8602235E-2,1.826056E-2,1.9282271E-1,1.4476794E-1,4.425395E-1,1.9061086E-1,4.5855753E-2,3.5341725E-2,3.3307705E-2,3.1113112E-1,6.568156E-2,5.3116355E-2,2.9717274E-2,-6.6805124E-2,-5.895993E-2,-1.24138715E-2,4.5442164E-2,-4.267949E-2,-4.2034768E-2,-1.1424805E-2,-3.8473245E-2,-6.141388E-3,-2.7662465E-2,-3.629829E-2,3.3308353E-2,-2.9329902E-2,-2.4931712E-2,-3.0946793E-2,-1.3107965E-2,-2.422977E-2,-2.902837E-2,-7.963003E-3,-7.4201976E-3,5.6017045E-2,-1.7350167E-2,-2.1452736E-2,1.3037501E-2,-1.37024475E-2,-2.477281E-2,-6.5088067E-3,-2.9173492E-2,-7.1824645E-3,-3.2138205E-3,-1.1558145E-2,-1.9007603E-2,-1.3376245E-2,-6.103884E-3,-1.6932694E-2,-7.7830576E-3,-2.1023902E-3,4.7881043E-4,-5.4013035E-3,-1.305779E-2,-4.89436E-3,-1.13838E-2,-2.1128252E-2,9.63139E-3,6.599077E-2,1.3317706E-2,-9.1768766E-4,-1.9700259E-1,-3.0046485E-3,-2.3094779E-2,8.0819795E-4,1.3074127E-2,4.873199E-3,8.474016E-4,6.611554E-3,2.4694894E-2,1.6899694E-2,2.2800006E-2,1.2410491E-2,3.597969E-3,-8.706566E-2,5.827145E-2,7.872482E-3,7.126037E-2,1.4016692E-1,-1.3894048E-1,3.0222613E-2,-1.4632321E-2,-2.2870998E-3,1.386013E-2,4.7977665E-3,1.7678492E-2,4.305183E-2,3.665975E-2,2.0885535E-2,2.9771041E-2,2.2460302E-2,8.963908E-3,2.2229051E-2,8.6805046E-2,1.2766344E-2,3.234737E-2,1.44370105E-2,2.7623141E-2,6.781018E-2],"categories":[],"categories_nodes":[],"categories_segments":[],"categories_sizes":[],"default_left":[0,0,0,0,0,0,0,0,0,0,0,0,0,0,0,0,0,0,0,0,0,0,0,0,0,0,0,0,0,0,0,0,0,0,0,0,0,0,0,0,0,0,0,0,0,0,0,0,0,0,0,0,0,0,0,0,0,0,0,0,0,0,0,0,0,0,0,0,0,0,0,0,0,0,0,0,0,0,0,0,0,0,0,0,0,0,0,0,0,0,0,0,0,0,0,0,0,0,0,0,0,0,0,0,0,0,0,0,0,0,0,0,0,0,0,0,0,0,0,0,0,0,0,0,0,0,0,0,0,0,0,0,0,0,0,0,0,0,0,0,0,0,0,0,0,0,0,0,0,0,0,0,0,0,0,0,0,0,0,0,0,0,0,0,0,0,0,0,0,0,0,0,0,0,0,0,0,0,0,0,0,0,0,0,0,0,0,0,0,0,0,0,0,0,0,0,0,0,0,0,0,0,0,0,0,0,0,0,0,0,0,0,0,0,0,0,0,0,0,0,0,0,0,0,0,0,0,0,0,0,0,0,0,0,0,0,0,0,0,0,0,0,0,0,0,0,0],"id":7,"left_children":[1,3,5,7,9,11,13,15,17,19,21,23,25,27,29,31,-1,33,35,37,39,41,43,45,47,49,51,53,55,57,-1,-1,59,61,-1,63,65,67,69,71,-1,73,75,77,79,81,83,85,87,89,91,93,-1,-1,95,97,-1,-1,-1,-1,99,101,103,-1,-1,-1,105,107,109,-1,-1,111,113,115,117,119,121,123,125,127,129,131,133,135,137,139,141,143,145,147,149,151,153,155,157,159,-1,-1,-1,-1,-1,-1,-1,-1,-1,-1,161,163,-1,-1,165,167,169,171,173,175,177,179,181,183,185,187,189,191,193,-1,195,197,199,201,203,205,207,209,211,213,215,217,219,221,223,225,227,229,-1,231,233,235,-1,-1,-1,237,239,241,243,-1,-1,-1,245,-1,-1,-1,-1,-1,-1,-1,-1,-1,-1,-1,-1,-1,-1,-1,-1,-1,-1,-1,-1,-1,-1,-1,-1,-1,-1,-1,-1,-1,-1,-1,-1,-1,-1,-1,-1,-1,-1,-1,-1,-1,-1,-1,-1,-1,-1,-1,-1,-1,-1,-1,-1,-1,-1,-1,-1,-1,-1,-1,-1,-1,-1,-1,-1,-1,-1,-1,-1,-1,-1,-1,-1,-1,-1,-1,-1,-1,-1,-1,-1,-1,-1,-1,-1,-1,-1,-1,-1],"loss_changes":[4.0578806E2,9.642203E1,8.484105E1,1.8551361E1,1.7960785E1,1.3182167E1,1.3350113E1,1.3558807E0,3.8833008E0,2.1141129E0,2.6482954E0,1.076652E1,9.276123E-1,2.0167694E0,2.3305664E0,8.977127E-1,0E0,1.8920593E0,6.5812683E-1,2.0057678E-1,6.4948845E-1,3.1707478E-1,1.9173431E-1,7.3267097E0,1.155522E1,1.7663765E-1,4.50325E-1,1.7782211E-1,2.2545624E-1,2.633438E-1,0E0,0E0,1.5476227E-1,1.0208054E0,0E0,5.388446E-5,6.77063E-1,1.5330124E-1,4.2091084E-1,1.553173E-1,0E0,2.912159E-1,8.517933E-2,8.7338924E-2,2.2144729E-1,7.8149924E0,9.337516E-1,4.8624115E0,9.883497E-1,1.1184406E-1,2.3437023E-2,9.25827E-2,0E0,0E0,1.1114502E-1,1.4726639E-1,0E0,0E0,0E0,0E0,5.0657988E-2,6.2562403E-4,8.3847046E-2,0E0,0E0,0E0,3.4760284E-1,4.3767357E-1,7.048988E-2,0E0,0E0,8.016205E-2,9.616566E-2,7.130718E-2,7.159274E-1,5.3530216E-2,4.6279788E-2,7.128143E-2,5.17532E-1,4.6934456E-2,2.4740636E-2,2.8394928E0,1.4031209E1,8.848441E-2,1.2855387E-1,5.3855667E0,3.641159E0,5.4692847E-1,1.7854428E-1,2.7586174E-1,9.729385E-3,6.606436E-2,1.1335957E-1,1.7651749E-1,2.6976109E-2,6.294823E-2,0E0,0E0,0E0,0E0,0E0,0E0,0E0,0E0,0E0,0E0,4.9249154E-1,3.7776947E-2,0E0,0E0,5.597492E-1,8.690262E-2,2.1221226E-1,5.124569E-2,2.082409E-1,4.2790413E-2,3.1174004E-2,1.2304783E-3,1.7362234E-1,2.8990269E-2,5.3144693E-2,7.837802E-2,4.9393177E-3,4.583788E-2,4.1101813E-2,0E0,1.5481487E-3,2.2695601E-2,4.4641506E-2,2.405703E-2,7.397473E-3,2.0245967E0,9.366375E-2,6.0023727E0,3.3024964E0,9.210765E-2,1.6423583E-2,5.9648514E-2,5.8628976E-2,1.7645717E0,3.6811085E0,1.7069874E0,1.096724E0,1.1926685E-1,0E0,8.369923E-2,1.2137461E-1,7.6621056E-2,0E0,0E0,0E0,5.830288E-3,8.616924E-3,9.675151E-2,2.6498735E-2,0E0,0E0,0E0,1.314981E-1,0E0,0E0,0E0,0E0,0E0,0E0,0E0,0E0,0E0,0E0,0E0,0E0,0E0,0E0,0E0,0E0,0E0,0E0,0E0,0E0,0E0,0E0,0E0,0E0,0E0,0E0,0E0,0E0,0E0,0E0,0E0,0E0,0E0,0E0,0E0,0E0,0E0,0E0,0E0,0E0,0E0,0E0,0E0,0E0,0E0,0E0,0E0,0E0,0E0,0E0,0E0,0E0,0E0,0E0,0E0,0E0,0E0,0E0,0E0,0E0,0E0,0E0,0E0,0E0,0E0,0E0,0E0,0E0,0E0,0E0,0E0,0E0,0E0,0E0,0E0,0E0,0E0,0E0,0E0,0E0,0E0,0E0,0E0,0E0,0E0,0E0,0E0,0E0],"parents":[2147483647,0,0,1,1,2,2,3,3,4,4,5,5,6,6,7,7,8,8,9,9,10,10,11,11,12,12,13,13,14,14,15,15,17,17,18,18,19,19,20,20,21,21,22,22,23,23,24,24,25,25,26,26,27,27,28,28,29,29,32,32,33,33,35,35,36,36,37,37,38,38,39,39,41,41,42,42,43,43,44,44,45,45,46,46,47,47,48,48,49,49,50,50,51,51,54,54,55,55,60,60,61,61,62,62,66,66,67,67,68,68,71,71,72,72,73,73,74,74,75,75,76,76,77,77,78,78,79,79,80,80,81,81,82,82,83,83,84,84,85,85,86,86,87,87,88,88,89,89,90,90,91,91,92,92,93,93,94,94,95,95,106,106,107,107,110,110,111,111,112,112,113,113,114,114,115,115,116,116,117,117,118,118,119,119,120,120,121,121,122,122,123,123,124,124,126,126,127,127,128,128,129,129,130,130,131,131,132,132,133,133,134,134,135,135,136,136,137,137,138,138,139,139,140,140,141,141,142,142,143,143,145,145,146,146,147,147,151,151,152,152,153,153,154,154,158,158],"right_children":[2,4,6,8,10,12,14,16,18,20,22,24,26,28,30,32,-1,34,36,38,40,42,44,46,48,50,52,54,56,58,-1,-1,60,62,-1,64,66,68,70,72,-1,74,76,78,80,82,84,86,88,90,92,94,-1,-1,96,98,-1,-1,-1,-1,100,102,104,-1,-1,-1,106,108,110,-1,-1,112,114,116,118,120,122,124,126,128,130,132,134,136,138,140,142,144,146,148,150,152,154,156,158,160,-1,-1,-1,-1,-1,-1,-1,-1,-1,-1,162,164,-1,-1,166,168,170,172,174,176,178,180,182,184,186,188,190,192,194,-1,196,198,200,202,204,206,208,210,212,214,216,218,220,222,224,226,228,230,-1,232,234,236,-1,-1,-1,238,240,242,244,-1,-1,-1,246,-1,-1,-1,-1,-1,-1,-1,-1,-1,-1,-1,-1,-1,-1,-1,-1,-1,-1,-1,-1,-1,-1,-1,-1,-1,-1,-1,-1,-1,-1,-1,-1,-1,-1,-1,-1,-1,-1,-1,-1,-1,-1,-1,-1,-1,-1,-1,-1,-1,-1,-1,-1,-1,-1,-1,-1,-1,-1,-1,-1,-1,-1,-1,-1,-1,-1,-1,-1,-1,-1,-1,-1,-1,-1,-1,-1,-1,-1,-1,-1,-1,-1,-1,-1,-1,-1,-1,-1],"split_conditions":[1.479E3,2.78E2,5.865E3,4.8E1,6.28E2,3.099E3,1.7765E4,1.3E2,1.27E2,4.28E2,1E3,2.5E2,4.301E3,9.484E3,5.7749E4,2E1,1.0444911E-2,8E0,2E0,8E0,1.6E3,7.89E2,1.178E3,1.809E3,1.576E3,1.86E2,1.04E2,7.305E3,1.8E1,2.6157E4,1.5164928E-1,-1.9220136E-1,7E0,2E0,3.029209E-2,2E3,2.05E2,3.4E2,9E0,5.5E2,5.155151E-2,3E0,1.89E2,2.1E1,1.89E2,1.7E1,2.278E3,1.29E3,2.028E3,1.2E1,4E0,5.19E2,1.1858782E-1,5.133213E-2,1.3E1,6.32E2,6.2927596E-2,9.060491E-2,1.0970475E-1,-1.4457217E-1,4.7E1,2E3,1.05E2,9.827985E-3,2.5800667E-3,-8.092707E-2,3.3E2,1.4E1,1E0,-4.424029E-2,4.5023132E-2,1E0,1.5E1,4.59E2,9E0,4.82E2,3.3E1,9.8E1,2.002E3,1.313E3,4.1E2,2E3,3.1E1,1.92E2,8E0,3E0,2.01E3,1.2E1,2.464E3,2.7E1,6.2E1,5.37E2,3E0,9E0,1E1,5.06E2,5.0875384E-2,8.195654E-2,6.902891E-2,-8.993084E-2,-2.7919073E-2,3.4954934E-3,-6.0968654E-4,-1.0999335E-1,-9.1035396E-2,-6.686669E-2,2.002E3,1E0,2.2985794E-2,-5.09327E-2,3E0,1E0,4.72E2,5.1E1,2.001E3,9E0,3.2E1,9E0,1.995E3,4.9E1,3.6E1,2E0,1.6E2,2.002E3,3.1E1,7.033907E-2,7E0,4.72E2,9.5E1,4.15E2,9E0,1.33E2,6.4E1,7E0,8.7E1,8E0,1E0,2.01E2,7E0,1E0,1E0,1E0,2.011E3,1.694E3,5.958227E-2,1E0,9E0,1E0,9.742411E-2,2.8602235E-2,1.826056E-2,8E0,3E0,2.002E3,9E0,4.5855753E-2,3.5341725E-2,3.3307705E-2,1.387E3,6.568156E-2,5.3116355E-2,2.9717274E-2,-6.6805124E-2,-5.895993E-2,-1.24138715E-2,4.5442164E-2,-4.267949E-2,-4.2034768E-2,-1.1424805E-2,-3.8473245E-2,-6.141388E-3,-2.7662465E-2,-3.629829E-2,3.3308353E-2,-2.9329902E-2,-2.4931712E-2,-3.0946793E-2,-1.3107965E-2,-2.422977E-2,-2.902837E-2,-7.963003E-3,-7.4201976E-3,5.6017045E-2,-1.7350167E-2,-2.1452736E-2,1.3037501E-2,-1.37024475E-2,-2.477281E-2,-6.5088067E-3,-2.9173492E-2,-7.1824645E-3,-3.2138205E-3,-1.1558145E-2,-1.9007603E-2,-1.3376245E-2,-6.103884E-3,-1.6932694E-2,-7.7830576E-3,-2.1023902E-3,4.7881043E-4,-5.4013035E-3,-1.305779E-2,-4.89436E-3,-1.13838E-2,-2.1128252E-2,9.63139E-3,6.599077E-2,1.3317706E-2,-9.1768766E-4,-1.9700259E-1,-3.0046485E-3,-2.3094779E-2,8.0819795E-4,1.3074127E-2,4.873199E-3,8.474016E-4,6.611554E-3,2.4694894E-2,1.6899694E-2,2.2800006E-2,1.2410491E-2,3.597969E-3,-8.706566E-2,5.827145E-2,7.872482E-3,7.126037E-2,1.4016692E-1,-1.3894048E-1,3.0222613E-2,-1.4632321E-2,-2.2870998E-3,1.386013E-2,4.7977665E-3,1.7678492E-2,4.305183E-2,3.665975E-2,2.0885535E-2,2.9771041E-2,2.2460302E-2,8.963908E-3,2.2229051E-2,8.6805046E-2,1.2766344E-2,3.234737E-2,1.44370105E-2,2.7623141E-2,6.781018E-2],"split_indices":[7,7,7,7,7,7,7,2,7,7,7,5,7,7,7,7,0,9,11,12,5,7,7,7,7,5,9,7,9,7,0,0,11,11,0,0,7,7,1,7,0,12,5,9,5,2,7,5,7,1,12,5,0,0,9,5,0,0,0,0,5,0,7,0,0,0,5,9,35,0,0,37,9,3,1,3,2,5,0,7,5,0,2,5,9,11,0,9,7,9,9,5,8,9,9,5,0,0,0,0,0,0,0,0,0,0,0,31,0,0,11,31,3,5,0,8,2,8,0,2,5,1,2,0,3,0,5,3,5,3,8,5,5,1,5,9,14,5,8,26,29,23,0,7,0,28,9,24,0,0,0,9,8,0,9,0,0,0,5,0,0,0,0,0,0,0,0,0,0,0,0,0,0,0,0,0,0,0,0,0,0,0,0,0,0,0,0,0,0,0,0,0,0,0,0,0,0,0,0,0,0,0,0,0,0,0,0,0,0,0,0,0,0,0,0,0,0,0,0,0,0,0,0,0,0,0,0,0,0,0,0,0,0,0,0,0,0,0,0,0,0,0,0,0,0,0,0],"split_type":[0,0,0,0,0,0,0,0,0,0,0,0,0,0,0,0,0,0,0,0,0,0,0,0,0,0,0,0,0,0,0,0,0,0,0,0,0,0,0,0,0,0,0,0,0,0,0,0,0,0,0,0,0,0,0,0,0,0,0,0,0,0,0,0,0,0,0,0,0,0,0,0,0,0,0,0,0,0,0,0,0,0,0,0,0,0,0,0,0,0,0,0,0,0,0,0,0,0,0,0,0,0,0,0,0,0,0,0,0,0,0,0,0,0,0,0,0,0,0,0,0,0,0,0,0,0,0,0,0,0,0,0,0,0,0,0,0,0,0,0,0,0,0,0,0,0,0,0,0,0,0,0,0,0,0,0,0,0,0,0,0,0,0,0,0,0,0,0,0,0,0,0,0,0,0,0,0,0,0,0,0,0,0,0,0,0,0,0,0,0,0,0,0,0,0,0,0,0,0,0,0,0,0,0,0,0,0,0,0,0,0,0,0,0,0,0,0,0,0,0,0,0,0,0,0,0,0,0,0,0,0,0,0,0,0,0,0,0,0,0,0,0,0,0,0,0,0],"sum_hessian":[6.352E3,2.755E3,3.597E3,6.44E2,2.111E3,2.677E3,9.2E2,1E2,5.44E2,8.21E2,1.29E3,1.883E3,7.94E2,7.2E2,2E2,9.9E1,1E0,1.72E2,3.72E2,3.73E2,4.48E2,6.43E2,6.47E2,1.291E3,5.92E2,4.46E2,3.48E2,4.22E2,2.98E2,1.74E2,2.6E1,2.2E1,7.7E1,1.7E2,2E0,2E0,3.7E2,3.7E2,3E0,4.47E2,1E0,2.92E2,3.51E2,2.75E2,3.72E2,6.81E2,6.1E2,2.85E2,3.07E2,2.21E2,2.25E2,3.47E2,1E0,1.99E2,2.23E2,2.15E2,8.3E1,9.9E1,7.5E1,7.4E1,3E0,2E0,1.68E2,1E0,1E0,1.98E2,1.72E2,1.7E2,2E2,2E0,1E0,2.73E2,1.74E2,2.79E2,1.3E1,2.83E2,6.8E1,2.67E2,8E0,2.7E2,1.02E2,1.21E2,5.6E2,2.67E2,3.43E2,2.43E2,4.2E1,9.3E1,2.14E2,1.7E2,5.1E1,2.04E2,2.1E1,2.6E2,8.7E1,1.62E2,6.1E1,1.1E2,1.05E2,1E0,2E0,1E0,1E0,1.18E2,5E1,1.69E2,3E0,1.69E2,1E0,1.85E2,1.5E1,2.51E2,2.2E1,1.71E2,3E0,2.41E2,3.8E1,9E0,4E0,2.5E2,3.3E1,2.5E1,4.3E1,1.05E2,1.62E2,1E0,7E0,1.5E2,1.2E2,8.1E1,2.1E1,6.8E1,5.3E1,1.7E1,5.43E2,2.21E2,4.6E1,2.77E2,6.6E1,1.9E1,2.24E2,4E1,2E0,9.1E1,2E0,9.6E1,1.18E2,1.69E2,1E0,4.1E1,1E1,1.45E2,5.9E1,2E0,1.9E1,1.88E2,7.2E1,7.6E1,1.1E1,1.16E2,4.6E1,2E0,1E0,1.68E2,1E0,1E0,1.4E1,2.48E2,3E0,1.5E1,7E0,4E1,1.31E2,1E0,2E0,7E1,1.71E2,1.3E1,2.5E1,8E0,1E0,1E0,3E0,1.08E2,1.42E2,1E0,3.2E1,1.6E1,9E0,4.2E1,1E0,1.9E1,8.6E1,5.4E1,1.08E2,2E0,5E0,1.31E2,1.9E1,4.8E1,7.2E1,7E1,1.1E1,7E0,1.4E1,2.1E1,4.7E1,1.3E1,4E1,1.2E1,5E0,2.14E2,3.29E2,1.82E2,3.9E1,1.9E1,2.7E1,2.42E2,3.5E1,2E1,4.6E1,1.2E1,7E0,1.84E2,4E1,2E1,2E1,1E0,1E0,2.3E1,6.8E1,5.4E1,4.2E1,1.14E2,4E0,1.57E2,1.2E1,1.25E2,2E1,3E0,5.6E1,1E0,1E0,1.4E1,5E0,7E0,4E0],"tree_param":{"num_deleted":"0","num_feature":"42","num_nodes":"247","size_leaf_vector":"1"}},{"base_weights":[4.9593695E-4,1.03200294E-1,-1.5607026E-1,7.770837E-2,3.7387443E-1,-1.9058616E-1,1.59081E-1,3.8893916E-2,2.3007679E-1,2.9643604E-1,4.495162E-1,-1.3541383E-1,-3.5176438E-1,5.972962E-1,1.3824649E-1,-1.298286E-1,5.3348236E-2,4.1140255E-2,2.539277E-1,2.7714992E-2,3.1166393E-1,3.8929436E-1,7.0753807E-1,-1.4913934E-1,4.8255575E-1,-3.920992E-1,-1.7461647E-1,2.998049E-2,9.95108E-2,6.295235E-2,2.6220065E-1,-2.7522132E-1,-8.7897554E-2,2.5365102E-1,4.199777E-2,-6.441185E-2,8.9411944E-2,2.1288131E-1,3.3657578E-1,-3.5981208E-2,8.4099926E-2,2.6985413E-1,3.9573982E-1,4.9971142E-1,3.519359E-1,9.1306996E-1,4.411349E-1,-2.0022206E-1,-1.11153565E-1,6.5485394E-1,2.8485987E-1,-3.2327256E-1,-5.677401E-1,-1.8262136E-1,5.1743373E-2,2.7808418E-2,1.6580264E-1,2.2283718E-1,6.1091207E-2,-6.859045E-2,