{"learner":{"attributes":{"best_iteration":"26","best_score":"0.1735892315382744"},"feature_names":[],"feature_types":[],"gradient_booster":{"model":{"gbtree_model_param":{"num_parallel_tree":"1","num_trees":"77"},"iteration_indptr":[0,1,2,3,4,5,6,7,8,9,10,11,12,13,14,15,16,17,18,19,20,21,22,23,24,25,26,27,28,29,30,31,32,33,34,35,36,37,38,39,40,41,42,43,44,45,46,47,48,49,50,51,52,53,54,55,56,57,58,59,60,61,62,63,64,65,66,67,68,69,70,71,72,73,74,75,76,77],"tree_info":[0,0,0,0,0,0,0,0,0,0,0,0,0,0,0,0,0,0,0,0,0,0,0,0,0,0,0,0,0,0,0,0,0,0,0,0,0,0,0,0,0,0,0,0,0,0,0,0,0,0,0,0,0,0,0,0,0,0,0,0,0,0,0,0,0,0,0,0,0,0,0,0,0,0,0,0,0],"trees":[{"base_weights":[-3.1593667E-10,-8.2106805E-1,7.124611E-1,-1.7112832E0,-4.9273524E-1,3.832963E-1,1.3836855E0,-2.6310694E0,-1.4493285E0,-7.677E-1,-2.7829173E-1,1.9211511E-1,6.434758E-1,1.1869601E0,1.9831372E0,-4.8212758E-1,-3.5581654E-1,-1.7491579E0,-1.2781223E0,-9.4098264E-1,-6.530577E-1,-3.943836E-1,-1.745859E-1,5.249668E-2,3.072953E-1,5.272289E-1,7.647734E-1,1.0456052E0,1.385833E0,1.754325E0,2.3540215E0,2.065417E-2,-1.7582775E0,-1.3879547E0,-1.7527251E-1,-1.5581904E-1,-8.677932E-1,-7.4038196E-1,-5.8296E-1,-4.6159604E-1,-3.403901E-1,-2.3122138E-1,-8.636825E-2,6.155004E-1,4.4773754E-2,2.0760705E-1,3.4860373E-1,4.6566388E-1,8.785685E-2,3.9642683E-1,7.760207E-1,9.392932E-1,1.6689603E-1,1.2874784E0,1.4789896E0,7.924837E-1,2.6584426E-1,1.02685675E-1,3.5456595E-1,-2.8107378E-1,-2.393686E-1,-6.932707E-2,-2.0927867E-1,2.9249783E-3,-8.719338E-1,1.0084005E-2,-1.115822E-1,2.947094E-1,-5.8936644E-1,-4.6786913E-1,8.347095E-2,-3.469462E-1,-7.456164E-2,-2.873345E-1,-1.9770724E-1,-1.0619178E-1,1.9507557E-1,2.0303521E-2,9.971335E-2,-8.072567E-2,7.5656995E-2,1.2487755E-4,2.1462275E-1,2.889579E-1,3.8853002E-1,2.153359E-1,4.7314206E-1,5.4003173E-1,-2.7510319E-2,1.0836268E-1,1.2759553E-1,9.4383186E-1,3.0476225E-3,1.937658E-1,3.9885618E-2,2.0915616E-2,2.2290118E-1,2.025643E-1,-1.07947186E-1,-1.3131666E-1,-7.997952E-3,1.1483092E-2,5.4826528E-2,-6.378072E-1,-5.2949274E-1,-4.7225335E-1,5.1978827E-2,-3.7445945E-1,-2.9631945E-1,-3.205957E-2,-3.0449232E-2,-7.380943E-2,-2.748676E-1,8.443203E-2,-2.0034426E-1,-3.3486766E-1,-8.6999245E-2,4.097224E-1,4.0747996E-2,-1.5088746E-1,-6.001988E-2,3.2029554E-2,1.1878325E-1,1.4799996E-1,-1.8475018E-1,8.96752E-2,2.0796783E-1,3.0759364E-1,2.1857597E-1,1.1852983E-1,3.9737067E-1,2.0582888E-3,2.3882242E-1,1.5564858E-3,4.7504285E-1,-1.8959402E-3,5.9142363E-1,-2.4003645E-2,4.5624252E-2,2.8843237E-2,1.4200062E-1,-1.2892905E-1,-9.3478754E-2,-7.993448E-2,-1.9296247E-3,-7.755176E-2,-6.611858E-2,1.2130219E-2,-4.3498198E-4,-5.6924436E-2,-1.547001E-2,-4.701567E-2,-4.2273123E-3,-1.4098394E-3,-9.360014E-3,-4.257096E-2,-4.636993E-3,3.6614127E-2,-1.7616922E-2,-2.839195E-2,-3.9903827E-2,-7.020438E-2,-1.6486825E-2,6.889513E-2,-1.37386555E-2,7.042214E-2,3.8378467E-3,-1.1324542E-2,1.7693844E-2,-1.3500792E-2,-2.9496485E-2,-1.3860171E-2,-6.5471316E-3,3.456126E-3,4.2967714E-2,1.4503624E-2,3.727409E-2,2.7241008E-2,1.01797E-3,-8.111651E-3,-3.154227E-2,-7.6162377E-3,3.1809285E-2,7.168695E-2,4.1825622E-2,-3.920418E-3,4.2813115E-2,3.5719298E-2,-4.1966487E-2,3.668016E-2,6.1066784E-2,4.0023483E-2,1.5482003E-2,1.1926614E-1,7.034421E-2,9.673322E-2,4.2584385E-3,9.695066E-4,1.2233016E-2],"categories":[],"categories_nodes":[],"categories_segments":[],"categories_sizes":[],"default_left":[0,0,0,0,0,0,0,0,0,0,0,0,0,0,0,0,0,0,0,0,0,0,0,0,0,0,0,0,0,0,0,0,0,0,0,0,0,0,0,0,0,0,0,0,0,0,0,0,0,0,0,0,0,0,0,0,0,0,0,0,0,0,0,0,0,0,0,0,0,0,0,0,0,0,0,0,0,0,0,0,0,0,0,0,0,0,0,0,0,0,0,0,0,0,0,0,0,0,0,0,0,0,0,0,0,0,0,0,0,0,0,0,0,0,0,0,0,0,0,0,0,0,0,0,0,0,0,0,0,0,0,0,0,0,0,0,0,0,0,0,0,0,0,0,0,0,0,0,0,0,0,0,0,0,0,0,0,0,0,0,0,0,0,0,0,0,0,0,0,0,0,0,0,0,0,0,0,0,0,0,0,0,0,0,0,0,0,0,0,0,0,0,0,0,0,0,0,0,0],"id":0,"left_children":[1,3,5,7,9,11,13,15,17,19,21,23,25,27,29,-1,-1,31,33,35,37,39,41,43,45,47,49,51,53,55,57,-1,59,61,-1,-1,63,65,67,69,71,73,75,77,79,81,83,85,-1,87,89,91,-1,93,95,97,-1,-1,-1,-1,-1,-1,-1,-1,99,-1,-1,101,103,105,-1,107,109,111,113,115,117,-1,-1,119,121,123,125,127,129,131,133,135,137,-1,-1,139,-1,-1,-1,-1,-1,-1,-1,-1,-1,-1,-1,141,143,145,147,149,151,-1,153,-1,155,157,159,161,163,165,167,169,171,173,175,177,179,-1,181,183,185,187,189,-1,191,-1,193,-1,195,-1,197,-1,-1,-1,-1,-1,-1,-1,-1,-1,-1,-1,-1,-1,-1,-1,-1,-1,-1,-1,-1,-1,-1,-1,-1,-1,-1,-1,-1,-1,-1,-1,-1,-1,-1,-1,-1,-1,-1,-1,-1,-1,-1,-1,-1,-1,-1,-1,-1,-1,-1,-1,-1,-1,-1,-1,-1,-1,-1,-1,-1],"loss_changes":[3.716957E3,8.619874E2,7.511194E2,1.8773584E2,1.27031555E2,1.1348575E2,1.2960669E2,1.8801147E1,2.9641968E1,1.8158386E1,1.4546982E1,2.117899E1,1.3231964E1,2.2305176E1,1.9207642E1,0E0,0E0,4.0792847E0,3.1828613E0,1.7758789E0,3.069748E0,1.9186859E0,3.1926193E0,2.5682192E0,2.9008026E0,1.5167236E0,1.6436768E0,2.5039673E0,1.2843628E0,1.6029053E0,4.2297363E-2,0E0,1.1778564E0,6.548157E-1,0E0,0E0,8.2528687E-1,7.5935364E-1,1.9841995E0,1.8697357E0,5.3357315E-1,6.784992E-1,1.4322556E0,9.9217415E-2,2.292847E0,3.114786E-1,1.0998802E0,3.604927E-1,0E0,9.889281E-1,1.2093201E0,8.1082153E-1,0E0,4.3289185E-1,1.40979E0,5.190263E0,0E0,0E0,0E0,0E0,0E0,0E0,0E0,0E0,5.8265686E-1,0E0,0E0,1.8355489E-2,5.9039307E-1,5.96611E-1,0E0,3.2501984E-1,4.874371E-2,2.3228455E-1,2.0143032E-1,1.0110292E0,5.4644537E-1,0E0,0E0,1.6091603E-1,8.8802075E-1,2.4605033E-1,4.0357018E-1,2.0558167E-1,6.737671E-1,3.933978E-2,2.0529938E-1,3.4830928E-1,5.5757754E-2,0E0,0E0,2.4040222E-1,0E0,0E0,0E0,0E0,0E0,0E0,0E0,0E0,0E0,0E0,0E0,2.1728516E-2,2.551613E-1,1.2275314E-1,4.9907295E-3,2.328167E-1,5.190239E-1,0E0,4.7941087E-3,0E0,2.9215622E-1,1.2536484E-1,1.2842464E-1,4.877553E-1,5.939363E-1,1.4867616E-1,1.07634746E-1,5.472958E-2,4.4741362E-2,5.3540134E-1,6.579912E-1,2.2496186E-2,1.9735843E-3,0E0,2.279253E-1,6.601734E-1,7.76273E-1,5.906295E-1,3.3517838E-1,0E0,2.8375983E-3,0E0,9.038925E-2,0E0,3.128171E-1,0E0,5.100962E-3,0E0,0E0,0E0,0E0,0E0,0E0,0E0,0E0,0E0,0E0,0E0,0E0,0E0,0E0,0E0,0E0,0E0,0E0,0E0,0E0,0E0,0E0,0E0,0E0,0E0,0E0,0E0,0E0,0E0,0E0,0E0,0E0,0E0,0E0,0E0,0E0,0E0,0E0,0E0,0E0,0E0,0E0,0E0,0E0,0E0,0E0,0E0,0E0,0E0,0E0,0E0,0E0,0E0,0E0,0E0,0E0,0E0,0E0,0E0,0E0],"parents":[2147483647,0,0,1,1,2,2,3,3,4,4,5,5,6,6,7,7,8,8,9,9,10,10,11,11,12,12,13,13,14,14,17,17,18,18,19,19,20,20,21,21,22,22,23,23,24,24,25,25,26,26,27,27,28,28,29,29,30,30,32,32,33,33,36,36,37,37,38,38,39,39,40,40,41,41,42,42,43,43,44,44,45,45,46,46,47,47,49,49,50,50,51,51,53,53,54,54,55,55,64,64,67,67,68,68,69,69,71,71,72,72,73,73,74,74,75,75,76,76,79,79,80,80,81,81,82,82,83,83,84,84,85,85,86,86,87,87,88,88,91,91,103,103,104,104,105,105,106,106,107,107,108,108,110,110,112,112,113,113,114,114,115,115,116,116,117,117,118,118,119,119,120,120,121,121,122,122,123,123,124,124,126,126,127,127,128,128,129,129,130,130,132,132,134,134,136,136,138,138],"right_children":[2,4,6,8,10,12,14,16,18,20,22,24,26,28,30,-1,-1,32,34,36,38,40,42,44,46,48,50,52,54,56,58,-1,60,62,-1,-1,64,66,68,70,72,74,76,78,80,82,84,86,-1,88,90,92,-1,94,96,98,-1,-1,-1,-1,-1,-1,-1,-1,100,-1,-1,102,104,106,-1,108,110,112,114,116,118,-1,-1,120,122,124,126,128,130,132,134,136,138,-1,-1,140,-1,-1,-1,-1,-1,-1,-1,-1,-1,-1,-1,142,144,146,148,150,152,-1,154,-1,156,158,160,162,164,166,168,170,172,174,176,178,180,-1,182,184,186,188,190,-1,192,-1,194,-1,196,-1,198,-1,-1,-1,-1,-1,-1,-1,-1,-1,-1,-1,-1,-1,-1,-1,-1,-1,-1,-1,-1,-1,-1,-1,-1,-1,-1,-1,-1,-1,-1,-1,-1,-1,-1,-1,-1,-1,-1,-1,-1,-1,-1,-1,-1,-1,-1,-1,-1,-1,-1,-1,-1,-1,-1,-1,-1,-1,-1,-1,-1],"split_conditions":[1.4560852E3,3.3255176E2,5.7654067E3,8.750553E1,7.745422E2,3.0555725E3,1.6177495E4,3.3040043E1,1.8106242E2,5.1046234E2,1.0675802E3,2.0567197E3,4.0815576E3,9.308523E3,2.9199506E4,-4.8212758E-1,-3.5581654E-1,1E0,2.57E2,4.0541986E2,6.210074E2,8.890435E2,1.2487445E3,7.49E2,2.2775686E3,3.334E3,3.7070354E3,6.9515156E3,1.14721455E4,1.3766591E4,1.4241034E4,2.065417E-2,1.367678E2,5.6E1,-1.7527251E-1,-1.5581904E-1,1E0,1.96E2,1.05E2,1.417E3,1.3257816E3,1.122E3,2.2372214E3,1E0,1.551E3,1.7546111E3,2.5894893E3,2.3665425E3,8.785685E-2,4.6511646E3,5.1301157E3,7.743772E3,1.6689603E-1,1.6344746E4,3.25E0,1E1,2.6584426E-1,1.02685675E-1,3.5456595E-1,-2.8107378E-1,-2.393686E-1,-6.932707E-2,-2.0927867E-1,2.9249783E-3,1.6E1,1.0084005E-2,-1.115822E-1,4E0,7.120329E2,1.1788365E3,8.347095E-2,9.993253E2,1.11E2,6.94E2,1.0793068E3,1.182707E3,1.2757125E3,2.0303521E-2,9.971335E-2,1.3632198E3,1.7915449E3,9.6E1,1.5798699E3,3.81E2,2.277632E3,9E1,1.364E3,1.551E3,3E0,1.0836268E-1,1.2759553E-1,2.3031895E3,3.0476225E-3,1.937658E-1,3.9885618E-2,2.0915616E-2,2.2290118E-1,2.025643E-1,-1.07947186E-1,-1.3131666E-1,-7.997952E-3,1.1483092E-2,5.4826528E-2,5.5177136E2,2.7E1,8E2,1.2E1,1E0,1.2743353E3,-3.205957E-2,8.3E1,-7.380943E-2,1.2607312E3,3.96E2,1.505E3,3E0,5.15E2,1.583E3,1.365182E3,2.7E1,9E0,3.4438394E3,2.8410234E3,2E0,3.2E1,8.96752E-2,1.532E3,1.583E3,1.762E3,3.2517356E3,2.332777E3,2.0582888E-3,2.2561772E3,1.5564858E-3,2.4418137E3,-1.8959402E-3,1E0,-2.4003645E-2,9E0,2.8843237E-2,1.4200062E-1,-1.2892905E-1,-9.3478754E-2,-7.993448E-2,-1.9296247E-3,-7.755176E-2,-6.611858E-2,1.2130219E-2,-4.3498198E-4,-5.6924436E-2,-1.547001E-2,-4.701567E-2,-4.2273123E-3,-1.4098394E-3,-9.360014E-3,-4.257096E-2,-4.636993E-3,3.6614127E-2,-1.7616922E-2,-2.839195E-2,-3.9903827E-2,-7.020438E-2,-1.6486825E-2,6.889513E-2,-1.37386555E-2,7.042214E-2,3.8378467E-3,-1.1324542E-2,1.7693844E-2,-1.3500792E-2,-2.9496485E-2,-1.3860171E-2,-6.5471316E-3,3.456126E-3,4.2967714E-2,1.4503624E-2,3.727409E-2,2.7241008E-2,1.01797E-3,-8.111651E-3,-3.154227E-2,-7.6162377E-3,3.1809285E-2,7.168695E-2,4.1825622E-2,-3.920418E-3,4.2813115E-2,3.5719298E-2,-4.1966487E-2,3.668016E-2,6.1066784E-2,4.0023483E-2,1.5482003E-2,1.1926614E-1,7.034421E-2,9.673322E-2,4.2584385E-3,9.695066E-4,1.2233016E-2],"split_indices":[45,42,45,42,45,45,46,42,45,45,46,42,42,42,46,0,0,6,7,45,45,42,47,7,46,7,45,45,46,45,42,0,45,7,0,0,6,7,7,5,42,7,47,6,7,45,42,42,0,46,42,42,0,42,9,3,0,0,0,0,0,0,0,0,1,0,0,1,46,45,0,46,3,7,46,46,42,0,0,42,42,2,47,3,45,5,7,7,1,0,0,46,0,0,0,0,0,0,0,0,0,0,0,46,9,7,1,31,47,0,5,0,42,3,7,6,7,7,45,3,8,48,48,1,4,0,7,7,7,46,47,0,48,0,42,0,34,0,1,0,0,0,0,0,0,0,0,0,0,0,0,0,0,0,0,0,0,0,0,0,0,0,0,0,0,0,0,0,0,0,0,0,0,0,0,0,0,0,0,0,0,0,0,0,0,0,0,0,0,0,0,0,0,0,0,0,0,0,0],"split_type":[0,0,0,0,0,0,0,0,0,0,0,0,0,0,0,0,0,0,0,0,0,0,0,0,0,0,0,0,0,0,0,0,0,0,0,0,0,0,0,0,0,0,0,0,0,0,0,0,0,0,0,0,0,0,0,0,0,0,0,0,0,0,0,0,0,0,0,0,0,0,0,0,0,0,0,0,0,0,0,0,0,0,0,0,0,0,0,0,0,0,0,0,0,0,0,0,0,0,0,0,0,0,0,0,0,0,0,0,0,0,0,0,0,0,0,0,0,0,0,0,0,0,0,0,0,0,0,0,0,0,0,0,0,0,0,0,0,0,0,0,0,0,0,0,0,0,0,0,0,0,0,0,0,0,0,0,0,0,0,0,0,0,0,0,0,0,0,0,0,0,0,0,0,0,0,0,0,0,0,0,0,0,0,0,0,0,0,0,0,0,0,0,0,0,0,0,0,0,0],"sum_hessian":[6.352E3,2.951E3,3.401E3,7.94E2,2.157E3,2.283E3,1.118E3,1.74E2,6.2E2,9.44E2,1.213E3,1.317E3,9.66E2,8.44E2,2.74E2,5E1,1.24E2,2.22E2,3.98E2,3.73E2,5.71E2,5.71E2,6.42E2,5.96E2,7.21E2,4.96E2,4.7E2,4.97E2,3.47E2,1.73E2,1.01E2,1E0,2.21E2,1.93E2,2.05E2,1.54E2,2.19E2,2.5E2,3.21E2,2.51E2,3.2E2,3.9E2,2.52E2,7E0,5.89E2,2.13E2,5.08E2,2.46E2,2.5E2,1.5E1,4.55E2,1.98E2,2.99E2,1.76E2,1.71E2,4E0,1.69E2,1E0,1E2,1.23E2,9.8E1,2E0,1.91E2,1E0,2.18E2,1E0,2.49E2,2E0,3.19E2,2.5E2,1E0,3.12E2,8E0,1.43E2,2.47E2,2.36E2,1.6E1,1E0,6E0,1.16E2,4.73E2,7E0,2.06E2,2.07E2,3.01E2,8E0,2.38E2,1.1E1,4E0,2.71E2,1.84E2,1.97E2,1E0,1.75E2,1E0,1E0,1.7E2,3E0,1E0,2.17E2,1E0,1E0,1E0,1.71E2,1.48E2,2.48E2,2E0,1.98E2,1.14E2,1E0,7E0,6E0,1.37E2,2E0,2.45E2,1.7E1,2.19E2,6E0,1E1,2.5E1,9.1E1,2.36E2,2.37E2,4E0,3E0,2E0,2.04E2,1.61E2,4.6E1,1E1,2.91E2,1E0,7E0,1E0,2.37E2,1E0,1E1,1E0,3E0,1E0,1.96E2,7E0,1.64E2,1.47E2,1E0,9.6E1,1.52E2,1E0,1E0,1.94E2,4E0,1.07E2,7E0,5E0,2E0,1.32E2,5E0,1E0,1E0,2.13E2,3.2E1,1E1,7E0,1E0,2.18E2,5E0,1E0,4E0,6E0,1.2E1,1.3E1,2.9E1,6.2E1,2.29E2,7E0,2.04E2,3.3E1,3E0,1E0,1E0,2E0,3E0,2.01E2,2.1E1,1.4E2,1E1,3.6E1,8E0,2E0,1.9E1,2.72E2,5E0,2E0,2E0,2.35E2,9E0,1E0,2E0,1E0],"tree_param":{"num_deleted":"0","num_feature":"49","num_nodes":"199","size_leaf_vector":"1"}},{"base_weights":[6.0681296E-6,-6.821721E-1,6.21455E-1,-1.4252046E0,-3.945087E-1,3.5316658E-1,1.207291E0,-2.1203E0,-1.1710635E0,-6.381899E-1,-2.252684E-1,1.7650592E-1,5.632268E-1,1.0437509E0,1.719815E0,-2.6148002E0,-1.8556178E0,-1.365337E0,-1.019702E0,-7.499302E-1,-5.250251E-1,-3.27908E-1,-1.2994134E-1,6.6035055E-2,2.6903996E-1,4.6468297E-1,6.817063E-1,9.268649E-1,1.2122084E0,2.26146E-1,3.0224648E-1,-4.5970294E-1,-3.5426143E-1,1.9105107E-2,-2.804672E-1,-2.2108775E-1,-1.2637656E0,-1.6480546E-1,-1.4295664E-1,7.551723E-2,-7.556647E-1,-5.810682E-1,-4.6376967E-1,-3.6794847E-1,-2.505853E-1,-1.9040531E-1,-6.181942E-2,5.418562E-1,5.998018E-2,2.2622426E-1,3.3402264E-1,3.9925015E-1,5.1680034E-1,2.9979482E-1,6.8849725E-1,8.517035E-1,9.9391514E-1,1.2151811E0,1.9346945E-2,-6.2394366E-2,-1.9089781E-1,1.329971E-2,2.705605E-3,-1.2538639E-1,-7.0155364E-1,-8.772467E-2,-2.9477036E-1,5.071454E-2,-4.6899888E-1,-3.713904E-1,7.721063E-2,-2.572281E-1,1.6413006E-1,-2.7841225E-1,-1.7438295E-1,6.810663E-2,-6.653616E-2,1.8780757E-2,8.85646E-2,-6.745916E-2,8.0394E-2,1.9983043E-1,4.2136755E-2,1.2182484E-1,3.4097967E-1,1.894315E-1,4.0520662E-1,4.2584032E-1,5.335753E-1,4.6807742E-1,-6.964846E-2,6.296358E-1,7.3421985E-1,3.9215964E-1,1.2840739E-1,3.052493E-1,1.497518E-1,1.1217588E0,1.930068E-1,-1.0556677E-1,-7.3981057E-3,-1.3006141E-2,-4.8766375E-2,-1.7849028E-3,-4.710505E-1,-3.7548518E-1,1.3400623E-1,-2.6675293E-1,-1.0346646E-1,-2.1569828E-2,4.7205903E-2,-2.8851303E-1,-1.3894655E-2,-1.9635461E-1,-1.5481663E-1,-8.090502E-2,1.0337886E-1,-1.0768938E-1,-4.007174E-2,5.300156E-2,1.4407012E-1,2.0509394E-1,-7.471914E-2,2.4670564E-1,-2.517989E-1,2.2447044E-1,3.4933767E-1,1.9039173E-3,2.0993724E-1,1.0733952E-1,3.99818E-1,1.7449866E-1,4.5362264E-1,1.3459557E-1,7.909894E-2,-1.7537447E-3,8.249813E-2,-2.220337E-2,5.8170394E-3,7.940643E-3,9.4823085E-2,5.18894E-1,7.465153E-1,-2.4331973E-3,8.005406E-2,6.5862045E-2,2.8190506E-3,6.4219914E-2,1.6925603E-1,-7.6179326E-2,-6.459388E-2,-6.36107E-2,-5.0949756E-2,2.7069487E-2,-4.0235836E-4,-3.901182E-2,-9.2415415E-2,-7.5472686E-3,-4.2237453E-2,-6.975227E-2,-3.953965E-2,-3.573784E-3,4.4748635E-4,-1.9083012E-2,-3.1559963E-2,-2.1648286E-2,-4.1489612E-2,-3.8703244E-2,-9.819069E-3,4.7149844E-2,5.817779E-4,-1.890286E-2,7.1311058E-3,3.5160512E-3,-6.9567454E-3,6.3332883E-3,3.221083E-2,1.751746E-2,2.4997666E-2,2.5505356E-2,3.5652835E-2,2.3165155E-2,-5.3302616E-2,5.1724654E-2,9.355874E-3,-8.740104E-3,-4.7914654E-2,4.0259212E-2,-2.7488128E-3,5.019842E-2,6.775148E-2,3.7018828E-2,1.670764E-2,-1.8401809E-2,6.036451E-2,-4.3853684E-3,3.199906E-2,1.8822204E-2,6.869019E-2,-7.702943E-4,2.0791283E-3,9.905704E-2,4.1576162E-2,2.889243E-2,1.1220595E-1],"categories":[],"categories_nodes":[],"categories_segments":[],"categories_sizes":[],"default_left":[0,0,0,0,0,0,0,0,0,0,0,0,0,0,0,0,0,0,0,0,0,0,0,0,0,0,0,0,0,0,0,0,0,0,0,0,0,0,0,0,0,0,0,0,0,0,0,0,0,0,0,0,0,0,0,0,0,0,0,0,0,0,0,0,0,0,0,0,0,0,0,0,0,0,0,0,0,0,0,0,0,0,0,0,0,0,0,0,0,0,0,0,0,0,0,0,0,0,0,0,0,0,0,0,0,0,0,0,0,0,0,0,0,0,0,0,0,0,0,0,0,0,0,0,0,0,0,0,0,0,0,0,0,0,0,0,0,0,0,0,0,0,0,0,0,0,0,0,0,0,0,0,0,0,0,0,0,0,0,0,0,0,0,0,0,0,0,0,0,0,0,0,0,0,0,0,0,0,0,0,0,0,0,0,0,0,0,0,0,0,0,0,0,0,0,0,0,0,0,0,0,0,0,0,0],"id":1,"left_children":[1,3,5,7,9,11,13,15,17,19,21,23,25,27,29,31,33,35,37,39,41,43,45,47,49,51,53,55,57,-1,-1,-1,-1,-1,-1,-1,59,-1,-1,61,63,65,67,69,71,73,75,77,79,81,83,85,87,89,91,93,95,97,-1,-1,-1,-1,-1,-1,99,-1,101,-1,103,105,-1,107,109,111,113,-1,115,-1,-1,117,119,121,-1,123,125,127,129,131,133,135,137,139,141,143,-1,145,-1,147,-1,-1,-1,-1,-1,-1,149,151,153,155,157,-1,-1,159,161,163,165,167,169,171,173,175,177,179,181,183,185,187,189,-1,191,-1,193,195,197,-1,-1,-1,-1,-1,199,-1,-1,201,203,-1,-1,-1,-1,-1,-1,-1,-1,-1,-1,-1,-1,-1,-1,-1,-1,-1,-1,-1,-1,-1,-1,-1,-1,-1,-1,-1,-1,-1,-1,-1,-1,-1,-1,-1,-1,-1,-1,-1,-1,-1,-1,-1,-1,-1,-1,-1,-1,-1,-1,-1,-1,-1,-1,-1,-1,-1,-1,-1,-1,-1,-1],"loss_changes":[2.693708E3,6.468662E2,5.2217395E2,1.4678821E2,8.99671E1,8.458417E1,8.571118E1,2.4597107E1,1.6868591E1,1.09236145E1,1.2588966E1,1.2668129E1,1.184903E1,1.451062E1,1.2681213E1,1.4143677E0,4.45105E0,1.1040344E0,8.117676E-1,2.1776886E0,1.2684708E0,1.8304367E0,2.7520266E0,1.6010473E0,1.8024712E0,1.7442932E0,1.015152E0,1.5372314E0,8.801575E-1,0E0,0E0,0E0,0E0,0E0,0E0,0E0,5.705719E-1,0E0,0E0,1.423588E-3,1.3457947E0,7.539368E-2,1.0768547E0,1.4276886E0,6.345167E-1,4.5202732E-1,8.0153203E-1,6.774497E-2,1.4648778E0,5.356636E-1,3.511467E-1,2.4568939E-1,2.534256E-1,6.5430963E-1,7.8108215E-1,1.2359619E-1,4.396515E-1,7.016907E-1,0E0,0E0,0E0,0E0,0E0,0E0,3.5998535E-1,0E0,3.372401E-3,0E0,1.9883347E-1,8.9053345E-1,0E0,2.8288555E-1,2.3072107E-1,1.3759851E-1,9.98621E-2,0E0,7.774317E-1,0E0,0E0,8.162528E-2,8.3657813E-1,4.1995144E-1,0E0,5.287045E-1,1.7184639E-1,2.9952765E-2,1.320343E-1,2.9791737E-1,1.2234497E-1,2.8151572E-1,2.4519188E-2,2.7004242E-1,2.8512573E-1,2.3985648E-1,0E0,1.0675797E-1,0E0,1.9136047E-1,0E0,0E0,0E0,0E0,0E0,0E0,1.0421753E-1,5.5732346E-1,2.5884643E-2,3.0375385E-1,1.1837196E-1,0E0,0E0,1.0170221E-1,5.738978E-4,1.0820198E-1,1.7096019E-1,7.79137E-1,5.235293E-1,9.419584E-2,2.0313181E-2,5.837132E-1,6.988239E-2,2.738018E-1,4.4072473E-1,1.2319407E-1,2.065444E-2,2.1821105E-1,2.0643616E-1,0E0,1.5685558E-3,0E0,3.8783646E-1,6.1611548E-2,1.0454178E-2,0E0,0E0,0E0,0E0,0E0,3.3547523E-4,0E0,0E0,3.9835978E-1,5.6869507E-2,0E0,0E0,0E0,0E0,0E0,0E0,0E0,0E0,0E0,0E0,0E0,0E0,0E0,0E0,0E0,0E0,0E0,0E0,0E0,0E0,0E0,0E0,0E0,0E0,0E0,0E0,0E0,0E0,0E0,0E0,0E0,0E0,0E0,0E0,0E0,0E0,0E0,0E0,0E0,0E0,0E0,0E0,0E0,0E0,0E0,0E0,0E0,0E0,0E0,0E0,0E0,0E0,0E0,0E0,0E0,0E0,0E0,0E0,0E0,0E0,0E0,0E0],"parents":[2147483647,0,0,1,1,2,2,3,3,4,4,5,5,6,6,7,7,8,8,9,9,10,10,11,11,12,12,13,13,14,14,15,15,16,16,17,17,18,18,19,19,20,20,21,21,22,22,23,23,24,24,25,25,26,26,27,27,28,28,36,36,39,39,40,40,41,41,42,42,43,43,44,44,45,45,46,46,47,47,48,48,49,49,50,50,51,51,52,52,53,53,54,54,55,55,56,56,57,57,64,64,66,66,68,68,69,69,71,71,72,72,73,73,74,74,76,76,79,79,80,80,81,81,83,83,84,84,85,85,86,86,87,87,88,88,89,89,90,90,91,91,92,92,93,93,95,95,97,97,104,104,105,105,106,106,107,107,108,108,111,111,112,112,113,113,114,114,115,115,116,116,117,117,118,118,119,119,120,120,121,121,122,122,123,123,124,124,125,125,126,126,128,128,130,130,131,131,132,132,138,138,141,141,142,142],"right_children":[2,4,6,8,10,12,14,16,18,20,22,24,26,28,30,32,34,36,38,40,42,44,46,48,50,52,54,56,58,-1,-1,-1,-1,-1,-1,-1,60,-1,-1,62,64,66,68,70,72,74,76,78,80,82,84,86,88,90,92,94,96,98,-1,-1,-1,-1,-1,-1,100,-1,102,-1,104,106,-1,108,110,112,114,-1,116,-1,-1,118,120,122,-1,124,126,128,130,132,134,136,138,140,142,144,-1,146,-1,148,-1,-1,-1,-1,-1,-1,150,152,154,156,158,-1,-1,160,162,164,166,168,170,172,174,176,178,180,182,184,186,188,190,-1,192,-1,194,196,198,-1,-1,-1,-1,-1,200,-1,-1,202,204,-1,-1,-1,-1,-1,-1,-1,-1,-1,-1,-1,-1,-1,-1,-1,-1,-1,-1,-1,-1,-1,-1,-1,-1,-1,-1,-1,-1,-1,-1,-1,-1,-1,-1,-1,-1,-1,-1,-1,-1,-1,-1,-1,-1,-1,-1,-1,-1,-1,-1,-1,-1,-1,-1,-1,-1,-1,-1,-1,-1,-1,-1],"split_conditions":[1.5466194E3,3.5590137E2,6.175904E3,1.0899219E2,7.745422E2,3.0555725E3,1.689968E4,3.7859226E1,2.15E2,5.634153E2,1.0888779E3,2.1103303E3,4.2642085E3,9.653943E3,3.0210361E4,2E1,1E0,1.5962706E2,2.915594E2,1.96E2,6.6411365E2,9.792586E2,1.2487445E3,7.49E2,2.6906274E3,3.5169697E3,3.6494976E3,7.5921763E3,2.5711385E4,2.26146E-1,3.0224648E-1,-4.5970294E-1,-3.5426143E-1,1.9105107E-2,-2.804672E-1,-2.2108775E-1,5.6E1,-1.6480546E-1,-1.4295664E-1,4E0,4.3891354E2,7.9804834E2,9.4E1,1.417E3,3.483393E3,1.066E3,5.15E2,1E0,1.551E3,2.411E3,2.213267E3,2.3665425E3,3.5341865E3,4.6511646E3,5.1301157E3,1.992E3,6.6502637E3,1.2149708E4,1.9346945E-2,-6.2394366E-2,-1.9089781E-1,1.329971E-2,2.705605E-3,-1.2538639E-1,1.6E1,-8.772467E-2,3E0,5.071454E-2,5E0,1.2529093E3,7.721063E-2,1.2177002E3,1.995E3,1.365182E3,1.1657133E3,6.810663E-2,2.2372214E3,1.8780757E-2,8.85646E-2,1.346E3,1.888E3,2.6425215E3,4.2136755E-2,1E0,2.332777E3,9E1,2.4418137E3,2.6143376E3,2.332777E3,1.551E3,3E0,3.0933037E3,2.7388926E3,8E0,1.2840739E-1,1.992E3,1.497518E-1,6.0361E3,1.930068E-1,-1.0556677E-1,-7.3981057E-3,-1.3006141E-2,-4.8766375E-2,-1.7849028E-3,7.284658E2,8.49E2,1.2E1,1.9710665E3,1E0,-2.1569828E-2,4.7205903E-2,8.584469E2,3.6E1,1.0529004E3,1E0,1.2109036E3,1.2757125E3,2.277632E3,1.364E3,3.3249197E3,2E3,2.2393262E3,9E0,1.11E2,1.997E3,3.17483E3,1E0,1.9039173E-3,2.105152E3,1.0733952E-1,2.5486401E3,6.2E1,1.583E3,1.3459557E-1,7.909894E-2,-1.7537447E-3,8.249813E-2,-2.220337E-2,1.992E3,7.940643E-3,9.4823085E-2,6.332868E3,3.3174016E3,-2.4331973E-3,8.005406E-2,6.5862045E-2,2.8190506E-3,6.4219914E-2,1.6925603E-1,-7.6179326E-2,-6.459388E-2,-6.36107E-2,-5.0949756E-2,2.7069487E-2,-4.0235836E-4,-3.901182E-2,-9.2415415E-2,-7.5472686E-3,-4.2237453E-2,-6.975227E-2,-3.953965E-2,-3.573784E-3,4.4748635E-4,-1.9083012E-2,-3.1559963E-2,-2.1648286E-2,-4.1489612E-2,-3.8703244E-2,-9.819069E-3,4.7149844E-2,5.817779E-4,-1.890286E-2,7.1311058E-3,3.5160512E-3,-6.9567454E-3,6.3332883E-3,3.221083E-2,1.751746E-2,2.4997666E-2,2.5505356E-2,3.5652835E-2,2.3165155E-2,-5.3302616E-2,5.1724654E-2,9.355874E-3,-8.740104E-3,-4.7914654E-2,4.0259212E-2,-2.7488128E-3,5.019842E-2,6.775148E-2,3.7018828E-2,1.670764E-2,-1.8401809E-2,6.036451E-2,-4.3853684E-3,3.199906E-2,1.8822204E-2,6.869019E-2,-7.702943E-4,2.0791283E-3,9.905704E-2,4.1576162E-2,2.889243E-2,1.1220595E-1],"split_indices":[45,42,45,42,45,45,46,45,7,46,46,42,42,42,45,7,6,45,46,7,45,42,47,7,46,46,45,42,42,0,0,0,0,0,0,0,7,0,0,1,46,42,7,5,48,7,7,6,7,7,45,42,45,46,42,0,45,42,0,0,0,0,0,0,1,0,1,0,5,45,0,42,0,45,45,0,47,0,0,7,7,46,0,33,47,5,42,47,47,7,1,46,47,1,0,0,0,46,0,0,0,0,0,0,42,7,1,47,18,0,0,45,5,45,24,46,42,45,7,48,7,45,1,3,0,42,37,0,48,0,42,3,7,0,0,0,0,0,0,0,0,42,46,0,0,0,0,0,0,0,0,0,0,0,0,0,0,0,0,0,0,0,0,0,0,0,0,0,0,0,0,0,0,0,0,0,0,0,0,0,0,0,0,0,0,0,0,0,0,0,0,0,0,0,0,0,0,0,0,0,0,0,0,0,0],"split_type":[0,0,0,0,0,0,0,0,0,0,0,0,0,0,0,0,0,0,0,0,0,0,0,0,0,0,0,0,0,0,0,0,0,0,0,0,0,0,0,0,0,0,0,0,0,0,0,0,0,0,0,0,0,0,0,0,0,0,0,0,0,0,0,0,0,0,0,0,0,0,0,0,0,0,0,0,0,0,0,0,0,0,0,0,0,0,0,0,0,0,0,0,0,0,0,0,0,0,0,0,0,0,0,0,0,0,0,0,0,0,0,0,0,0,0,0,0,0,0,0,0,0,0,0,0,0,0,0,0,0,0,0,0,0,0,0,0,0,0,0,0,0,0,0,0,0,0,0,0,0,0,0,0,0,0,0,0,0,0,0,0,0,0,0,0,0,0,0,0,0,0,0,0,0,0,0,0,0,0,0,0,0,0,0,0,0,0,0,0,0,0,0,0,0,0,0,0,0,0,0,0,0,0,0,0],"sum_hessian":[6.352E3,3.028E3,3.324E3,8.44E2,2.184E3,2.281E3,1.043E3,2.24E2,6.2E2,8.94E2,1.29E3,1.24E3,1.041E3,7.93E2,2.5E2,7.5E1,1.49E2,2.68E2,3.52E2,4.47E2,4.47E2,6.2E2,6.7E2,5.66E2,6.74E2,5.71E2,4.7E2,4.72E2,3.21E2,1.49E2,1.01E2,2.3E1,5.2E1,1E0,1.48E2,1.23E2,1.45E2,1.54E2,1.98E2,3E0,4.44E2,2.29E2,2.18E2,4.06E2,2.14E2,3.54E2,3.16E2,6E0,5.6E2,4.09E2,2.65E2,2.57E2,3.14E2,9E0,4.61E2,2.29E2,2.43E2,3.2E2,1E0,2E0,1.43E2,2E0,1E0,1.73E2,2.71E2,2.25E2,4E0,1E0,2.17E2,4.05E2,1E0,2.11E2,3E0,5.2E1,3.02E2,2E0,3.14E2,1E0,5E0,7.7E1,4.83E2,2.79E2,1.3E2,9E0,2.56E2,8E0,2.49E2,5.3E1,2.61E2,6E0,3E0,2.08E2,2.53E2,3E0,2.26E2,2E0,2.41E2,1.46E2,1.74E2,2.7E2,1E0,1E0,3E0,1E0,2.16E2,4.02E2,3E0,1.98E2,1.3E1,1E0,2E0,5E1,2E0,1.38E2,1.64E2,2.9E2,2.4E1,3E1,4.7E1,3.39E2,1.44E2,2.74E2,5E0,7E0,2E0,1.9E1,2.37E2,1E0,7E0,2E0,2.47E2,6E0,4.7E1,2E0,2.59E2,1E0,5E0,1E0,2E0,1E0,2.07E2,1.6E1,2.37E2,1E0,2E0,1E0,1E0,2E0,1.44E2,1.07E2,1.09E2,1.66E2,2.36E2,2E0,1E0,1.96E2,2E0,1.1E1,2E0,4E0,4.6E1,1E0,1E0,2.5E1,1.13E2,1.53E2,1.1E1,2.2E1,2.68E2,7E0,1.7E1,2.7E1,3E0,4E0,4.3E1,3.19E2,2E1,6.8E1,7.6E1,1.35E2,1.39E2,3E0,2E0,4E0,3E0,1E0,1E0,1.6E1,3E0,2.11E2,2.6E1,4E0,3E0,1E0,2.46E2,1E0,5E0,1E0,4.6E1,1E0,1E0,9E0,7E0,1E0,2.36E2],"tree_param":{"num_deleted":"0","num_feature":"49","num_nodes":"205","size_leaf_vector":"1"}},{"base_weights":[2.6672295E-5,-5.9036195E-1,5.2048475E-1,-1.2850442E0,-3.6818373E-1,2.693844E-1,9.7994304E-1,-1.9904958E0,-1.0978016E0,-6.1129564E-1,-2.2281273E-1,1.19418986E-1,4.258316E-1,8.2400465E-1,1.3938831E0,-3.8990554E-1,-2.771889E-1,-1.3036424E0,-9.6156025E-1,-7.351722E-1,-5.224712E-1,-3.3668137E-1,-1.4505792E-1,4.8098247E-2,2.0638289E-1,3.356769E-1,5.1061255E-1,7.156643E-1,9.5041835E-1,1.1881434E0,1.6474249E0,1.7672224E-2,-1.3105141E0,-1.0418712E0,-1.3225576E-1,-7.7339137E-1,-6.5834993E-1,6.819097E-2,-5.262114E-1,-3.3893478E-1,7.141983E-2,-1.8670328E-1,-6.472372E-2,4.7591284E-1,4.310186E-2,1.7826943E-1,2.567121E-1,2.9451898E-1,3.966869E-1,4.3528172E-1,5.435392E-1,6.592268E-1,7.773145E-1,8.833747E-1,1.0283185E0,1.7931667E-1,5.2739553E-2,2.2466482E-1,2.820789E-1,-2.1349174E-1,-1.8147281E-1,-5.6154933E-2,-1.5714873E-1,-1.135798E-1,-1.0506734E0,-9.9449754E-2,-6.8432475E-3,1.1969739E-2,2.5026847E-3,-8.7089576E-2,-4.7896743E-1,-3.8623255E-1,-3.0180004E-1,-2.4262594E-1,-1.5491869E-1,6.1295968E-2,-6.944626E-2,1.7372198E-2,7.749402E-2,-1.4570672E-3,9.5463805E-2,1.8232363E-1,-1.9367523E-1,3.621761E-2,4.5057163E-2,-1.2691892E-2,2.9851106E-1,5.63213E-2,6.544704E-2,4.4444624E-1,2.1991943E-1,4.9150681E-1,5.775012E-1,6.6211194E-1,-5.0875405E-3,1.1737711E-1,4.614441E-1,4.5716062E-2,8.8993907E-1,5.7797924E-2,1.033436E0,-3.938752E-2,-1.6635944E-1,-7.2344765E-2,-2.8539297E-1,-3.9010733E-1,4.2812467E-2,4.691095E-2,-3.0466202E-1,-2.336397E-1,-8.1684574E-2,4.1725323E-2,-1.581513E-1,-8.286604E-2,9.59678E-2,-2.788237E-2,6.518393E-2,6.8956845E-2,1.2922727E-1,1.859208E-1,-8.3640724E-2,-9.187678E-3,-4.4321056E-2,9.687018E-3,-4.815492E-2,3.0035734E-1,-2.053812E-2,1.7611234E-3,4.4702885E-1,-1.5639104E-2,3.403052E-1,4.963497E-1,2.4598217E-1,5.8023775E-1,-2.2507077E-3,4.6600282E-1,1.0088364E-1,9.148785E-2,-2.1069767E-2,1.337746E-1,3.596127E-2,1.5666077E-1,6.1940926E-1,-4.5933545E-2,-1.2030681E-2,-5.6744862E-2,-9.9050544E-2,-7.0630657E-3,-4.6160184E-2,2.6157396E-3,-3.5449788E-2,-2.2127893E-2,-3.4455903E-2,-2.5251547E-2,-1.0182215E-2,4.016514E-2,-3.0849222E-4,-1.6603816E-2,-8.5652934E-4,3.643853E-2,2.9837026E-3,8.235335E-3,1.1828382E-2,1.82959E-2,3.1014029E-2,2.6028825E-2,4.178124E-2,-5.3307846E-2,1.0971287E-2,-8.549509E-3,-1.6222137E-3,4.639637E-2,3.0442806E-2,1.333551E-1,6.5402426E-2,-1.1582385E-2,4.593769E-3,6.244704E-2,-2.9802495E-3,1.03704E-1,7.2752036E-2,5.349668E-3,4.3446824E-2,1.0156933E-1,8.4145024E-2,9.728755E-2,3.7789598E-2,1.47334E-1,-1.168121E-1],"categories":[],"categories_nodes":[],"categories_segments":[],"categories_sizes":[],"default_left":[0,0,0,0,0,0,0,0,0,0,0,0,0,0,0,0,0,0,0,0,0,0,0,0,0,0,0,0,0,0,0,0,0,0,0,0,0,0,0,0,0,0,0,0,0,0,0,0,0,0,0,0,0,0,0,0,0,0,0,0,0,0,0,0,0,0,0,0,0,0,0,0,0,0,0,0,0,0,0,0,0,0,0,0,0,0,0,0,0,0,0,0,0,0,0,0,0,0,0,0,0,0,0,0,0,0,0,0,0,0,0,0,0,0,0,0,0,0,0,0,0,0,0,0,0,0,0,0,0,0,0,0,0,0,0,0,0,0,0,0,0,0,0,0,0,0,0,0,0,0,0,0,0,0,0,0,0,0,0,0,0,0,0,0,0,0,0,0,0,0,0,0,0,0,0,0,0,0,0,0,0,0,0,0,0,0,0,0,0],"id":2,"left_children":[1,3,5,7,9,11,13,15,17,19,21,23,25,27,29,-1,-1,31,33,35,37,39,41,43,45,47,49,51,53,55,57,-1,59,61,-1,63,65,67,69,71,-1,73,75,77,79,81,83,85,87,89,91,93,95,97,99,-1,-1,-1,-1,-1,-1,-1,-1,-1,101,-1,-1,-1,-1,-1,103,105,107,109,111,-1,113,-1,-1,115,117,119,121,-1,-1,123,125,-1,-1,127,129,131,133,135,-1,-1,137,-1,139,-1,141,-1,-1,-1,143,145,-1,-1,147,149,-1,-1,151,153,155,157,159,161,163,165,167,-1,-1,-1,169,171,-1,-1,173,175,177,179,181,183,-1,185,-1,-1,-1,-1,-1,-1,187,-1,-1,-1,-1,-1,-1,-1,-1,-1,-1,-1,-1,-1,-1,-1,-1,-1,-1,-1,-1,-1,-1,-1,-1,-1,-1,-1,-1,-1,-1,-1,-1,-1,-1,-1,-1,-1,-1,-1,-1,-1,-1,-1,-1,-1,-1],"loss_changes":[1.9524097E3,4.5900684E2,3.8934094E2,9.3052124E1,7.962933E1,5.1212875E1,7.585852E1,8.217651E0,1.4787659E1,8.902679E0,1.24704895E1,6.9180727E0,7.9993896E0,1.12213745E1,1.4995789E1,0E0,0E0,2.3522034E0,1.3132019E0,5.1846313E-1,1.1294403E0,1.2108841E0,2.8048668E0,1.2940665E0,6.6594505E-1,1.1914253E0,1.1251373E0,1.129837E0,1.1702576E0,6.973877E-1,2.1720886E0,0E0,8.215332E-1,2.5675964E-1,0E0,2.2813416E-1,3.200798E-1,1.0599978E-3,9.8605347E-1,8.8809204E-1,0E0,9.47134E-1,6.744306E-1,4.2794228E-2,1.421053E0,5.269003E-1,4.6100616E-2,3.901043E-1,1.0169983E-2,2.4172974E-1,3.8414E-1,5.2841187E-1,2.4414062E-4,5.68161E-1,1.8751526E-1,0E0,0E0,0E0,0E0,0E0,0E0,0E0,0E0,0E0,1.6894054E-1,0E0,0E0,0E0,0E0,0E0,3.580475E-2,7.5675964E-1,6.668892E-1,4.1271114E-1,5.4239464E-1,0E0,6.450412E-1,0E0,0E0,5.829503E-1,2.4167967E-1,3.245716E-1,3.582415E-2,0E0,0E0,1.6811347E-2,2.9114914E-1,0E0,0E0,1.7802048E-1,2.605432E-1,6.339264E-2,3.7026978E-1,2.0281982E-1,0E0,0E0,6.218827E-1,0E0,5.429077E-2,0E0,1.5240479E-1,0E0,0E0,0E0,5.3589344E-3,5.383568E-1,0E0,0E0,2.4192429E-1,1.3593292E-1,0E0,0E0,2.354269E-1,3.292781E-1,3.7104332E-1,4.3451688E-1,7.518946E-1,1.7791867E-2,4.3402195E-2,3.1789875E-1,2.3901801E-1,0E0,0E0,0E0,7.042121E-4,2.0752907E-1,0E0,0E0,4.0579987E-1,1.3759958E-2,1.7252874E-1,7.05719E-4,3.558579E-2,3.466797E-2,0E0,4.619696E-1,0E0,0E0,0E0,0E0,0E0,0E0,4.315834E0,0E0,0E0,0E0,0E0,0E0,0E0,0E0,0E0,0E0,0E0,0E0,0E0,0E0,0E0,0E0,0E0,0E0,0E0,0E0,0E0,0E0,0E0,0E0,0E0,0E0,0E0,0E0,0E0,0E0,0E0,0E0,0E0,0E0,0E0,0E0,0E0,0E0,0E0,0E0,0E0,0E0,0E0,0E0,0E0,0E0,0E0],"parents":[2147483647,0,0,1,1,2,2,3,3,4,4,5,5,6,6,7,7,8,8,9,9,10,10,11,11,12,12,13,13,14,14,17,17,18,18,19,19,20,20,21,21,22,22,23,23,24,24,25,25,26,26,27,27,28,28,29,29,30,30,32,32,33,33,35,35,36,36,37,37,38,38,39,39,41,41,42,42,43,43,44,44,45,45,46,46,47,47,48,48,49,49,50,50,51,51,52,52,53,53,54,54,64,64,70,70,71,71,72,72,73,73,74,74,76,76,79,79,80,80,81,81,82,82,85,85,86,86,89,89,90,90,91,91,92,92,93,93,96,96,98,98,100,100,104,104,105,105,108,108,109,109,112,112,113,113,114,114,115,115,116,116,117,117,118,118,119,119,120,120,124,124,125,125,128,128,129,129,130,130,131,131,132,132,133,133,135,135,142,142],"right_children":[2,4,6,8,10,12,14,16,18,20,22,24,26,28,30,-1,-1,32,34,36,38,40,42,44,46,48,50,52,54,56,58,-1,60,62,-1,64,66,68,70,72,-1,74,76,78,80,82,84,86,88,90,92,94,96,98,100,-1,-1,-1,-1,-1,-1,-1,-1,-1,102,-1,-1,-1,-1,-1,104,106,108,110,112,-1,114,-1,-1,116,118,120,122,-1,-1,124,126,-1,-1,128,130,132,134,136,-1,-1,138,-1,140,-1,142,-1,-1,-1,144,146,-1,-1,148,150,-1,-1,152,154,156,158,160,162,164,166,168,-1,-1,-1,170,172,-1,-1,174,176,178,180,182,184,-1,186,-1,-1,-1,-1,-1,-1,188,-1,-1,-1,-1,-1,-1,-1,-1,-1,-1,-1,-1,-1,-1,-1,-1,-1,-1,-1,-1,-1,-1,-1,-1,-1,-1,-1,-1,-1,-1,-1,-1,-1,-1,-1,-1,-1,-1,-1,-1,-1,-1,-1,-1,-1,-1],"split_conditions":[1.4862242E3,3.1254352E2,5.443027E3,7.422474E1,6.901441E2,2.7904067E3,1.4758212E4,2.0593582E1,1.7207753E2,4.6181235E2,9.6053436E2,2.1103303E3,3.7640051E3,8.316996E3,2.2539586E4,-3.8990554E-1,-2.771889E-1,1E0,2.38E2,4.0541986E2,1.96E2,1.14E3,1.2487445E3,7.49E2,2.45E3,3.181E3,4.083282E3,6.8006167E3,1.0791369E4,1E0,4.2306926E4,1.7672224E-2,1.1953774E2,5.6E1,-1.3225576E-1,1.1676519E3,1.3E1,4E0,5.634153E2,8.119662E2,7.141983E-2,1.066E3,5.15E2,1E0,1.731E3,3.5919229E3,2.771E3,1.551E3,3.569E3,4.7092056E3,4.5176914E3,1E0,1E0,2.418689E3,6.0361E3,1.7931667E-1,5.2739553E-2,2.2466482E-1,2.820789E-1,-2.1349174E-1,-1.8147281E-1,-5.6154933E-2,-1.5714873E-1,-1.135798E-1,3E0,-9.9449754E-2,-6.8432475E-3,1.1969739E-2,2.5026847E-3,-8.7089576E-2,7.9804834E2,9.5761536E2,9.4E1,4.4191646E3,9.7303156E2,6.1295968E-2,2.2188103E3,1.7372198E-2,7.749402E-2,3.59E2,1.932E3,2.754863E3,1.997E3,3.621761E-2,4.5057163E-2,1.995E3,5.1301157E3,5.63213E-2,6.544704E-2,2.0006152E3,1E0,5.424028E3,7.925285E3,2.7388926E3,-5.0875405E-3,1.1737711E-1,2.008E3,4.5716062E-2,1.69E2,5.7797924E-2,1.8560697E4,-3.938752E-2,-1.6635944E-1,-7.2344765E-2,1.13E2,1.2487445E3,4.2812467E-2,4.691095E-2,1.993E3,6.671011E2,-8.1684574E-2,4.1725323E-2,1.55E3,1.1949666E3,2.9E1,1.4804142E3,4.04E2,1.81E3,2.189E3,2.6906274E3,1E0,-9.187678E-3,-4.4321056E-2,9.687018E-3,2.006E3,5.86E2,-2.053812E-2,1.7611234E-3,2.8222256E3,1E1,2.011E3,2.9843413E3,1.995E3,3.569E3,-2.2507077E-3,6.332868E3,1.0088364E-1,9.148785E-2,-2.1069767E-2,1.337746E-1,3.596127E-2,1.5666077E-1,2.01E3,-4.5933545E-2,-1.2030681E-2,-5.6744862E-2,-9.9050544E-2,-7.0630657E-3,-4.6160184E-2,2.6157396E-3,-3.5449788E-2,-2.2127893E-2,-3.4455903E-2,-2.5251547E-2,-1.0182215E-2,4.016514E-2,-3.0849222E-4,-1.6603816E-2,-8.5652934E-4,3.643853E-2,2.9837026E-3,8.235335E-3,1.1828382E-2,1.82959E-2,3.1014029E-2,2.6028825E-2,4.178124E-2,-5.3307846E-2,1.0971287E-2,-8.549509E-3,-1.6222137E-3,4.639637E-2,3.0442806E-2,1.333551E-1,6.5402426E-2,-1.1582385E-2,4.593769E-3,6.244704E-2,-2.9802495E-3,1.03704E-1,7.2752036E-2,5.349668E-3,4.3446824E-2,1.0156933E-1,8.4145024E-2,9.728755E-2,3.7789598E-2,1.47334E-1,-1.168121E-1],"split_indices":[45,42,42,45,45,45,45,42,42,45,45,42,45,42,46,0,0,6,7,45,7,5,47,7,7,7,46,45,42,31,46,0,42,7,0,47,1,1,46,46,0,7,7,6,7,46,7,7,7,42,45,27,18,47,46,0,0,0,0,0,0,0,0,0,1,0,0,0,0,0,42,42,7,48,45,0,47,0,0,3,7,45,0,0,0,0,42,0,0,42,26,46,45,47,0,0,0,0,2,0,42,0,0,0,4,47,0,0,0,47,0,0,7,46,4,46,3,7,7,46,28,0,0,0,0,5,0,0,42,3,0,47,0,7,0,42,0,0,0,0,0,0,0,0,0,0,0,0,0,0,0,0,0,0,0,0,0,0,0,0,0,0,0,0,0,0,0,0,0,0,0,0,0,0,0,0,0,0,0,0,0,0,0,0,0,0,0,0,0],"split_type":[0,0,0,0,0,0,0,0,0,0,0,0,0,0,0,0,0,0,0,0,0,0,0,0,0,0,0,0,0,0,0,0,0,0,0,0,0,0,0,0,0,0,0,0,0,0,0,0,0,0,0,0,0,0,0,0,0,0,0,0,0,0,0,0,0,0,0,0,0,0,0,0,0,0,0,0,0,0,0,0,0,0,0,0,0,0,0,0,0,0,0,0,0,0,0,0,0,0,0,0,0,0,0,0,0,0,0,0,0,0,0,0,0,0,0,0,0,0,0,0,0,0,0,0,0,0,0,0,0,0,0,0,0,0,0,0,0,0,0,0,0,0,0,0,0,0,0,0,0,0,0,0,0,0,0,0,0,0,0,0,0,0,0,0,0,0,0,0,0,0,0,0,0,0,0,0,0,0,0,0,0,0,0,0,0,0,0,0,0],"sum_hessian":[6.352E3,2.976E3,3.376E3,7.2E2,2.256E3,2.184E3,1.192E3,1.49E2,5.71E2,8.43E2,1.413E3,1.116E3,1.068E3,8.68E2,3.24E2,2.5E1,1.24E2,2.24E2,3.47E2,3.49E2,4.94E2,5.72E2,8.41E2,6.14E2,5.02E2,5.2E2,5.48E2,4.71E2,3.97E2,1.82E2,1.42E2,1E0,2.23E2,1.67E2,1.8E2,2.27E2,1.22E2,3E0,4.91E2,5.71E2,1E0,5.53E2,2.88E2,6E0,6.08E2,3.25E2,1.77E2,3.14E2,2.06E2,1.71E2,3.77E2,2.52E2,2.19E2,2.2E2,1.77E2,1.8E2,2E0,9.1E1,5.1E1,9.9E1,1.24E2,2E0,1.65E2,2.18E2,9E0,1.21E2,1E0,2E0,1E0,2.23E2,2.68E2,2.47E2,3.24E2,1.98E2,3.55E2,2E0,2.86E2,1E0,5E0,3.29E2,2.79E2,3.22E2,3E0,1.36E2,4.1E1,4E0,3.1E2,1.41E2,6.5E1,1.63E2,8E0,1.55E2,2.22E2,2.51E2,1E0,2.14E2,5E0,3E0,2.17E2,2E0,1.75E2,1E0,8E0,2.62E2,6E0,2.46E2,1E0,1E0,3.23E2,1.94E2,4E0,2E0,3.53E2,2.65E2,2.1E1,2.36E2,9.3E1,1.58E2,1.21E2,3.18E2,4E0,2E0,1E0,1E0,3E0,3.09E2,1E0,1E0,1.62E2,3E0,5E0,1.51E2,4E0,2.21E2,1E0,1.5E1,2.36E2,4E0,1E0,2.16E2,1E0,1.69E2,6E0,5E0,1E0,2.38E2,8E0,4E0,3.19E2,2E0,1.92E2,3.1E2,4.3E1,3.8E1,2.27E2,7E0,1.4E1,4.9E1,1.87E2,1.8E1,7.5E1,6.8E1,9E1,1.13E2,8E0,2.83E2,3.5E1,1E0,3E0,2E0,1E0,2.81E2,2.8E1,2E0,1.6E2,1E0,2E0,4E0,1E0,5E0,1.46E2,1E0,3E0,3.1E1,1.9E2,7E0,8E0,5E0,1E0],"tree_param":{"num_deleted":"0","num_feature":"49","num_nodes":"189","size_leaf_vector":"1"}},{"base_weights":[1.11859576E-4,-5.222582E-1,4.2660955E-1,-1.0942154E0,-3.2895145E-1,2.155035E-1,8.3430773E-1,-1.7015666E0,-9.3303204E-1,-5.20346E-1,-2.0376508E-1,8.8190556E-2,3.6274195E-1,6.942068E-1,1.1697675E0,-3.336692E-1,-1.5791919E0,-1.1065787E0,-8.1897044E-1,-6.261124E-1,-4.4451046E-1,-2.8576115E-1,-1.3432713E-1,2.389984E-2,1.6909693E-1,2.8566623E-1,4.3522596E-1,5.973607E-1,7.90094E-1,1.0041916E0,1.396932E0,-1.5882066E0,-3.4603138E-2,1.6346807E-2,-1.1125183E0,-1.331504E-1,-1.11838765E-1,-1.0081821E-1,-5.7787836E-1,-4.7425586E-1,-3.864048E-1,-3.3387202E-1,-2.4836607E-1,-1.5818204E-1,-6.530112E-2,-1.7246308E-2,6.266727E-2,1.1857504E-1,1.973391E-1,2.6062468E-1,3.2330126E-1,3.609145E-1,4.6150175E-1,5.5592877E-1,6.48381E-1,7.941202E-1,1.7183822E-1,1.3940458E-2,1.5122753E-1,1.895826E-1,2.4260639E-1,-2.540286E-1,-2.1063784E-1,-1.795156E-1,-1.0342906E0,-5.8066636E-1,-6.330004E-3,6.49832E-3,-4.776156E-1,8.726651E-3,-3.8932785E-1,-3.2216135E-1,-5.8973783E-1,-2.536732E-1,2.5687024E-1,-3.0086234E-1,-1.5277247E-1,-7.355693E-2,2.4166599E-1,-3.357495E-2,3.905661E-2,3.59609E-1,5.827132E-2,1.2305414E-1,-2.1507776E-1,7.453952E-2,1.9418935E-1,4.7342483E-2,2.638805E-1,3.3162454E-1,-6.6373735E-3,6.0552806E-1,3.5167748E-1,4.399216E-1,5.1835304E-1,5.3240012E-2,5.620415E-1,5.6574676E-2,9.807747E-2,7.44479E-1,8.7784916E-1,7.0934516E-1,-1.08051196E-1,-1.038265E0,-4.1206017E-2,-1.11986585E-1,-8.477622E-2,-7.728972E-2,-6.783923E-2,-3.7555844E-1,-5.178997E-1,-3.285923E-1,-5.4730408E-2,-1.08246505E-1,-3.1720318E-2,-3.2780936E-1,-2.4333364E-1,8.005743E-2,-4.3025065E-2,-2.7442558E-2,-3.592654E-1,3.960153E-2,-1.5412593E-1,-2.6592866E-2,-1.0520618E-1,6.424592E-2,-2.5529467E-2,-1.5964307E-2,-1.3975927E-1,2.6150523E-2,3.4438795E-1,6.736375E-2,1.2588697E-4,1.8903261E-2,8.480161E-2,-2.9093744E-2,1.3396184E-1,-7.3955194E-3,-4.0996976E-2,1.8848519E-1,3.3819884E-1,-7.694558E-3,1.6422978E-2,4.2619693E-1,2.5767308E-1,-1.04502335E-1,3.365827E-1,-7.850009E-2,1.3708807E-2,1.6290392E-3,1.20019585E-1,2.5248027E-1,3.7023956E-1,4.446425E-1,1.8014552E-1,2.9337162E-1,5.266684E-1,1.9477773E-1,-2.7852984E-2,5.646777E-1,-4.705975E-3,2.8772935E-1,7.5203973E-1,8.5283256E-1,1.9006032E-1,1.338896E-1,2.571306E-2,-1.5632272E-1,-4.259996E-2,-5.658794E-2,-8.087641E-3,-4.9278967E-2,-9.282958E-2,9.011098E-3,-4.9814418E-2,1.9199772E-2,-2.3013249E-2,-5.21645E-2,3.1361836E-3,1.2240059E-2,-3.687198E-2,-6.0162093E-2,-1.7109687E-2,-2.5753181E-2,-1.8121535E-2,3.389492E-3,-1.1666461E-2,-4.7303613E-2,-1.08658895E-2,6.6366354E-3,-1.2380766E-2,-1.6439948E-3,-5.7394832E-2,-7.482463E-3,-2.8844653E-2,1.6372648E-4,1.7538184E-2,7.437977E-2,3.1075175E-3,1.4302342E-3,3.4683775E-2,9.653481E-3,3.011691E-2,5.8677266E-3,-2.3954825E-2,1.7007934E-2,2.667248E-2,2.0797743E-2,2.998263E-2,3.0331966E-2,1.0181276E-1,8.6509E-2,2.4048291E-2,2.200792E-2,4.0874876E-2,-1.5005477E-3,-2.201248E-2,2.2846045E-2,5.138553E-2,-1.899776E-2,-3.0348448E-3,4.495418E-2,6.7725326E-3,5.6347888E-2,2.5591485E-2,6.69274E-2,2.2132207E-2,4.29488E-2,-8.530407E-3,4.9484433E-3,5.0827514E-2,1.0123312E-1,7.5114936E-2,5.393519E-3,3.843147E-2,8.530813E-2,2.8048376E-2,-6.41649E-2,7.745725E-2,3.4359444E-2,1.1327364E-1,3.3023894E-2,1.283576E-1],"categories":[],"categories_nodes":[],"categories_segments":[],"categories_sizes":[],"default_left":[0,0,0,0,0,0,0,0,0,0,0,0,0,0,0,0,0,0,0,0,0,0,0,0,0,0,0,0,0,0,0,0,0,0,0,0,0,0,0,0,0,0,0,0,0,0,0,0,0,0,0,0,0,0,0,0,0,0,0,0,0,0,0,0,0,0,0,0,0,0,0,0,0,0,0,0,0,0,0,0,0,0,0,0,0,0,0,0,0,0,0,0,0,0,0,0,0,0,0,0,0,0,0,0,0,0,0,0,0,0,0,0,0,0,0,0,0,0,0,0,0,0,0,0,0,0,0,0,0,0,0,0,0,0,0,0,0,0,0,0,0,0,0,0,0,0,0,0,0,0,0,0,0,0,0,0,0,0,0,0,0,0,0,0,0,0,0,0,0,0,0,0,0,0,0,0,0,0,0,0,0,0,0,0,0,0,0,0,0,0,0,0,0,0,0,0,0,0,0,0,0,0,0,0,0,0,0,0,0,0,0,0,0,0,0,0,0,0,0,0,0,0,0,0,0,0,0,0,0,0,0,0,0,0,0,0,0,0,0,0,0,0,0],"id":3,"left_children":[1,3,5,7,9,11,13,15,17,19,21,23,25,27,29,-1,31,33,35,37,39,41,43,45,47,49,51,53,55,57,59,61,-1,-1,63,-1,-1,-1,65,67,69,71,73,75,77,79,81,83,85,87,89,91,93,95,97,99,101,-1,-1,-1,-1,-1,-1,-1,103,105,-1,-1,107,-1,109,111,113,115,117,119,121,123,125,127,129,131,133,135,137,-1,139,141,143,145,147,149,151,153,155,157,159,-1,-1,161,163,165,-1,167,-1,-1,-1,-1,-1,169,171,173,175,-1,-1,177,179,-1,-1,-1,181,-1,183,185,187,-1,189,191,193,195,197,-1,-1,199,201,203,205,-1,-1,207,209,-1,-1,211,213,215,217,219,-1,-1,-1,221,223,225,227,229,231,233,-1,235,-1,237,239,241,-1,-1,-1,-1,-1,-1,-1,-1,-1,-1,-1,-1,-1,-1,-1,-1,-1,-1,-1,-1,-1,-1,-1,-1,-1,-1,-1,-1,-1,-1,-1,-1,-1,-1,-1,-1,-1,-1,-1,-1,-1,-1,-1,-1,-1,-1,-1,-1,-1,-1,-1,-1,-1,-1,-1,-1,-1,-1,-1,-1,-1,-1,-1,-1,-1,-1,-1,-1,-1,-1,-1,-1,-1,-1,-1,-1,-1,-1,-1],"loss_changes":[1.4156053E3,3.1540857E2,3.0088452E2,6.899457E1,5.107251E1,4.3194817E1,5.5256775E1,6.0855103E0,1.0416473E1,6.491272E0,7.323494E0,6.4354506E0,5.8479156E0,7.365692E0,1.1761749E1,0E0,1.1531677E0,1.7384949E0,1.0974731E0,3.8832092E-1,6.72287E-1,9.821472E-1,1.1455889E0,1.103316E0,7.5851154E-1,4.0674973E-1,9.054184E-1,5.3582764E-1,9.114685E-1,6.5563965E-1,2.2086182E0,2.420044E-2,0E0,0E0,2.3196411E-1,0E0,0E0,0E0,2.4133301E-1,5.8236694E-1,2.4746895E-1,5.7707596E-1,9.687767E-1,3.561659E-1,4.7901195E-1,3.1021297E-1,4.4374692E-1,3.2386494E-1,2.3377419E-1,2.0832825E-1,5.62418E-1,1.2145424E-1,2.651596E-1,7.106247E-1,2.6298523E-2,1.0838318E0,2.429181E0,0E0,0E0,0E0,0E0,0E0,0E0,0E0,8.609009E-2,3.2981873E-2,0E0,0E0,7.337952E-2,0E0,1.099987E-1,4.0681458E-1,3.4635258E-1,1.7625618E-1,7.551768E-1,5.822766E-2,3.2499695E-1,2.617774E-1,2.6028135E-1,4.8583218E-1,2.9048222E-1,1.6014141E-1,3.6604202E-1,3.3083534E-1,1.54865235E-2,0E0,2.2212029E-1,4.2395484E-2,2.0554924E-1,4.6548843E-1,4.9442243E-2,4.5420575E-1,1.7351341E-1,2.8535843E-1,4.192543E-2,1.7143607E-1,3.900299E-1,0E0,0E0,7.1255493E-1,3.7995148E-1,1.4271832E-1,0E0,6.1676025E-2,0E0,0E0,0E0,0E0,0E0,6.631279E-2,6.436539E-2,3.4814453E-1,1.4587393E-1,0E0,0E0,2.716856E-1,2.5934792E-1,0E0,0E0,0E0,6.703532E-2,0E0,2.7355766E-1,1.8554896E-1,7.0707273E-1,0E0,1.55850295E-2,4.0866584E-1,1.6511989E-1,1.6819456E-1,1.3681364E-1,0E0,0E0,2.8223795E-1,4.8502505E-1,1.3097067E-1,1.4586806E-1,0E0,0E0,1.6372013E-1,4.1847146E-1,0E0,0E0,3.0775893E-1,4.6010017E-1,1.0508969E-2,1.6518402E-1,8.660305E-3,0E0,0E0,0E0,2.409811E-1,6.558037E-2,6.777573E-2,1.9244654E-1,5.987209E-2,4.5957565E-2,2.0057626E-2,0E0,2.5556946E-1,0E0,1.2024883E0,2.5749207E-1,7.4409485E-2,0E0,0E0,0E0,0E0,0E0,0E0,0E0,0E0,0E0,0E0,0E0,0E0,0E0,0E0,0E0,0E0,0E0,0E0,0E0,0E0,0E0,0E0,0E0,0E0,0E0,0E0,0E0,0E0,0E0,0E0,0E0,0E0,0E0,0E0,0E0,0E0,0E0,0E0,0E0,0E0,0E0,0E0,0E0,0E0,0E0,0E0,0E0,0E0,0E0,0E0,0E0,0E0,0E0,0E0,0E0,0E0,0E0,0E0,0E0,0E0,0E0,0E0,0E0,0E0,0E0,0E0,0E0,0E0,0E0,0E0,0E0,0E0,0E0,0E0,0E0,0E0,0E0,0E0,0E0],"parents":[2147483647,0,0,1,1,2,2,3,3,4,4,5,5,6,6,7,7,8,8,9,9,10,10,11,11,12,12,13,13,14,14,16,16,17,17,18,18,19,19,20,20,21,21,22,22,23,23,24,24,25,25,26,26,27,27,28,28,29,29,30,30,31,31,34,34,38,38,39,39,40,40,41,41,42,42,43,43,44,44,45,45,46,46,47,47,48,48,49,49,50,50,51,51,52,52,53,53,54,54,55,55,56,56,64,64,65,65,68,68,70,70,71,71,72,72,73,73,74,74,75,75,76,76,77,77,78,78,79,79,80,80,81,81,82,82,83,83,84,84,86,86,87,87,88,88,89,89,90,90,91,91,92,92,93,93,94,94,95,95,96,96,99,99,100,100,101,101,103,103,109,109,110,110,111,111,112,112,115,115,116,116,120,120,122,122,123,123,124,124,126,126,127,127,128,128,129,129,130,130,133,133,134,134,135,135,136,136,139,139,140,140,143,143,144,144,145,145,146,146,147,147,151,151,152,152,153,153,154,154,155,155,156,156,157,157,159,159,161,161,162,162,163,163],"right_children":[2,4,6,8,10,12,14,16,18,20,22,24,26,28,30,-1,32,34,36,38,40,42,44,46,48,50,52,54,56,58,60,62,-1,-1,64,-1,-1,-1,66,68,70,72,74,76,78,80,82,84,86,88,90,92,94,96,98,100,102,-1,-1,-1,-1,-1,-1,-1,104,106,-1,-1,108,-1,110,112,114,116,118,120,122,124,126,128,130,132,134,136,138,-1,140,142,144,146,148,150,152,154,156,158,160,-1,-1,162,164,166,-1,168,-1,-1,-1,-1,-1,170,172,174,176,-1,-1,178,180,-1,-1,-1,182,-1,184,186,188,-1,190,192,194,196,198,-1,-1,200,202,204,206,-1,-1,208,210,-1,-1,212,214,216,218,220,-1,-1,-1,222,224,226,228,230,232,234,-1,236,-1,238,240,242,-1,-1,-1,-1,-1,-1,-1,-1,-1,-1,-1,-1,-1,-1,-1,-1,-1,-1,-1,-1,-1,-1,-1,-1,-1,-1,-1,-1,-1,-1,-1,-1,-1,-1,-1,-1,-1,-1,-1,-1,-1,-1,-1,-1,-1,-1,-1,-1,-1,-1,-1,-1,-1,-1,-1,-1,-1,-1,-1,-1,-1,-1,-1,-1,-1,-1,-1,-1,-1,-1,-1,-1,-1,-1,-1,-1,-1,-1,-1],"split_conditions":[1.365182E3,3.1254352E2,5.443027E3,7.671926E1,6.901441E2,2.7904067E3,1.3766591E4,2.0593582E1,1.6792857E2,4.6181235E2,9.792586E2,2.0567197E3,3.7640051E3,7.925285E3,2.2539586E4,-3.336692E-1,9.917773E1,1E0,2.4832541E2,3.7764203E2,6.0895386E2,8.119662E2,1.2487445E3,1.7214531E3,2.2393262E3,3.2912815E3,4.0219397E3,6.6660005E3,1.8560697E4,3.25E0,4.371783E4,5.0045868E1,-3.4603138E-2,1.6346807E-2,1.1953774E2,-1.331504E-1,-1.11838765E-1,-1.0081821E-1,1.7E1,2.5004501E2,1E0,1.2487445E3,4.142036E3,8.584469E2,2.418689E3,1.7075884E3,1.1525724E3,3.5919229E3,1.5798699E3,2.0591345E3,4.821061E3,2.8222256E3,5.1041753E3,1.993E3,2.5496692E3,1.0791369E4,1.997E3,1.3940458E-2,1.5122753E-1,1.895826E-1,2.4260639E-1,-2.540286E-1,-2.1063784E-1,-1.795156E-1,2.2512503E2,3.5076324E2,-6.330004E-3,6.49832E-3,5.192241E2,8.726651E-3,1E0,1.2162355E3,1.3458176E3,7.9804834E2,1.22E2,8E0,7.3519855E2,1.15E2,1E0,2.478924E3,1E0,2.002E3,1.7915449E3,1.8581805E3,1.997E3,7.453952E-2,4.81E2,2E0,2.2188103E3,2.7534182E3,9E0,2E3,3.5169697E3,5.8364062E3,4.453062E3,9.6E1,1E0,5.6574676E-2,9.807747E-2,1.2420355E3,2.551E3,1.994E3,-1.08051196E-1,2.5905942E2,-4.1206017E-2,-1.11986585E-1,-8.477622E-2,-7.728972E-2,-6.783923E-2,1.2487445E3,1.1320597E3,3.8607327E2,5.5E1,-1.08246505E-1,-3.1720318E-2,3E1,7.054079E2,8.005743E-2,-4.3025065E-2,-2.7442558E-2,2.1E1,3.960153E-2,1.1657133E3,1.2711838E3,1.182707E3,6.424592E-2,1.994E3,1.8839803E3,9E0,7.9E1,1.999E3,6.736375E-2,1.2588697E-4,1E0,2.749867E3,1.64E2,2.2583853E3,-7.3955194E-3,-4.0996976E-2,2.2775686E3,3.1389626E3,-7.694558E-3,1.6422978E-2,2.663518E3,2.663518E3,2.007E3,2.440548E3,3E0,1.3708807E-2,1.6290392E-3,1.20019585E-1,4.5176914E3,6.805383E3,1.417E3,1E0,2E0,4.7092056E3,9E0,-2.7852984E-2,8.0171543E3,-4.705975E-3,1.995E3,2.332777E3,5.424028E3,1.9006032E-1,1.338896E-1,2.571306E-2,-1.5632272E-1,-4.259996E-2,-5.658794E-2,-8.087641E-3,-4.9278967E-2,-9.282958E-2,9.011098E-3,-4.9814418E-2,1.9199772E-2,-2.3013249E-2,-5.21645E-2,3.1361836E-3,1.2240059E-2,-3.687198E-2,-6.0162093E-2,-1.7109687E-2,-2.5753181E-2,-1.8121535E-2,3.389492E-3,-1.1666461E-2,-4.7303613E-2,-1.08658895E-2,6.6366354E-3,-1.2380766E-2,-1.6439948E-3,-5.7394832E-2,-7.482463E-3,-2.8844653E-2,1.6372648E-4,1.7538184E-2,7.437977E-2,3.1075175E-3,1.4302342E-3,3.4683775E-2,9.653481E-3,3.011691E-2,5.8677266E-3,-2.3954825E-2,1.7007934E-2,2.667248E-2,2.0797743E-2,2.998263E-2,3.0331966E-2,1.0181276E-1,8.6509E-2,2.4048291E-2,2.200792E-2,4.0874876E-2,-1.5005477E-3,-2.201248E-2,2.2846045E-2,5.138553E-2,-1.899776E-2,-3.0348448E-3,4.495418E-2,6.7725326E-3,5.6347888E-2,2.5591485E-2,6.69274E-2,2.2132207E-2,4.29488E-2,-8.530407E-3,4.9484433E-3,5.0827514E-2,1.0123312E-1,7.5114936E-2,5.393519E-3,3.843147E-2,8.530813E-2,2.8048376E-2,-6.41649E-2,7.745725E-2,3.4359444E-2,1.1327364E-1,3.3023894E-2,1.283576E-1],"split_indices":[45,42,42,46,45,45,45,42,46,45,42,42,45,45,46,0,42,6,42,42,45,46,47,45,45,42,42,46,42,9,42,42,0,0,42,0,0,0,1,46,6,47,48,45,47,46,46,46,47,47,46,42,46,0,47,42,0,0,0,0,0,0,0,0,45,45,0,0,42,0,24,47,48,42,2,1,46,5,23,48,19,0,42,46,0,0,3,6,47,46,1,0,46,48,45,2,27,0,0,48,5,0,0,47,0,0,0,0,0,47,47,47,5,0,0,9,45,0,0,0,10,0,45,45,46,0,0,42,1,4,0,0,0,31,48,5,42,0,0,46,42,0,0,42,42,0,47,1,0,0,0,45,48,5,23,4,42,1,0,42,0,0,47,46,0,0,0,0,0,0,0,0,0,0,0,0,0,0,0,0,0,0,0,0,0,0,0,0,0,0,0,0,0,0,0,0,0,0,0,0,0,0,0,0,0,0,0,0,0,0,0,0,0,0,0,0,0,0,0,0,0,0,0,0,0,0,0,0,0,0,0,0,0,0,0,0,0,0,0,0,0,0,0],"split_type":[0,0,0,0,0,0,0,0,0,0,0,0,0,0,0,0,0,0,0,0,0,0,0,0,0,0,0,0,0,0,0,0,0,0,0,0,0,0,0,0,0,0,0,0,0,0,0,0,0,0,0,0,0,0,0,0,0,0,0,0,0,0,0,0,0,0,0,0,0,0,0,0,0,0,0,0,0,0,0,0,0,0,0,0,0,0,0,0,0,0,0,0,0,0,0,0,0,0,0,0,0,0,0,0,0,0,0,0,0,0,0,0,0,0,0,0,0,0,0,0,0,0,0,0,0,0,0,0,0,0,0,0,0,0,0,0,0,0,0,0,0,0,0,0,0,0,0,0,0,0,0,0,0,0,0,0,0,0,0,0,0,0,0,0,0,0,0,0,0,0,0,0,0,0,0,0,0,0,0,0,0,0,0,0,0,0,0,0,0,0,0,0,0,0,0,0,0,0,0,0,0,0,0,0,0,0,0,0,0,0,0,0,0,0,0,0,0,0,0,0,0,0,0,0,0,0,0,0,0,0,0,0,0,0,0,0,0,0,0,0,0,0,0],"sum_hessian":[6.352E3,2.855E3,3.497E3,7.2E2,2.135E3,2.305E3,1.192E3,1.49E2,5.71E2,8.43E2,1.292E3,1.237E3,1.068E3,8.43E2,3.49E2,2.5E1,1.24E2,2.23E2,3.48E2,3.49E2,4.94E2,5.91E2,7.01E2,6.9E2,5.47E2,5.2E2,5.48E2,4.23E2,4.2E2,2.05E2,1.44E2,1.23E2,1E0,1E0,2.22E2,1.74E2,1.74E2,1.72E2,1.77E2,3.22E2,1.72E2,2.55E2,3.36E2,5.2E2,1.81E2,3.35E2,3.55E2,1.98E2,3.49E2,3.17E2,2.03E2,1.47E2,4.01E2,2.4E2,1.83E2,4.17E2,3E0,1E0,2.04E2,9.4E1,5E1,7.3E1,5E1,1E2,1.22E2,1.76E2,1E0,2E0,3.2E2,1E0,1.71E2,2.46E2,9E0,3.33E2,3E0,1.7E1,5.03E2,1.77E2,4E0,2.6E2,7.5E1,4E0,3.51E2,1.96E2,2E0,2E0,3.47E2,5E0,3.12E2,1.98E2,5E0,3E0,1.44E2,2.97E2,1.04E2,3E0,2.37E2,5E0,1.78E2,2.68E2,1.49E2,2E0,1E0,1.21E2,1E0,1.1E1,1.65E2,1.21E2,1.99E2,1.58E2,1.3E1,2.4E2,6E0,6E0,3E0,3.7E1,2.96E2,2E0,1E0,7E0,1E1,1E0,5.02E2,7.2E1,1.05E2,2E0,2E0,2.24E2,3.6E1,7.3E1,2E0,3E0,1E0,1.42E2,2.09E2,1.3E1,1.83E2,1E0,1E0,3.36E2,1.1E1,2E0,3E0,9E0,3.03E2,2E0,1.96E2,3E0,2E0,1E0,2E0,2.5E1,1.19E2,2.91E2,6E0,5E0,9.9E1,2E0,1E0,2.36E2,1E0,5E0,2.63E2,1.43E2,6E0,1E0,1E0,1.2E2,1E0,1.57E2,1E0,6E0,7E0,2E0,2.38E2,2E0,4E0,3.5E1,2E0,2E0,2.94E2,8E0,2E0,3.26E2,1.76E2,3.7E1,3.5E1,1.3E1,9.2E1,1E0,1E0,2.22E2,2E0,1.4E1,2.2E1,5.8E1,1.5E1,1E0,1E0,1.37E2,5E0,1.79E2,3E1,9E0,4E0,1.27E2,5.6E1,6.5E1,2.71E2,9E0,2E0,5E0,4E0,3.7E1,2.66E2,1E0,1E0,7E0,1.89E2,1E0,2E0,2E1,5E0,1.15E2,4E0,2.89E2,2E0,4E0,2E0,1E0,4E0,1.1E1,8.8E1,1E0,1E0,2.33E2,3E0,1E0,4E0,2E0,2.61E2,1E0,1.42E2],"tree_param":{"num_deleted":"0","num_feature":"49","num_nodes":"243","size_leaf_vector":"1"}},{"base_weights":[1.2560659E-4,-4.1123363E-1,3.9226362E-1,-8.6307037E-1,-2.2810264E-1,2.1348837E-1,7.216548E-1,-1.4518845E0,-7.4335873E-1,-3.6984158E-1,-1.2215033E-1,1.0719821E-1,3.2253447E-1,6.3593835E-1,1.120633E0,-2.658955E-1,-1.2883118E0,-9.179271E-1,-6.398563E-1,-4.4864678E-1,-3.115758E-1,-1.7600358E-1,-6.10198E-2,5.5314932E-2,1.6690405E-1,2.6413497E-1,3.9210486E-1,5.584864E-1,7.687941E-1,1.0216006E0,2.0771293E-1,-1.9451375E-1,-3.2007903E-2,1.5120798E-2,-9.22013E-1,-7.136132E-1,-8.770391E-2,5.5177696E-2,-4.538885E-1,2.2251621E-1,-3.1493637E-1,-2.1626756E-1,-1.4092596E-1,-1.0960795E-1,-2.8683454E-2,1.6135097E-2,7.638467E-2,1.050662E-1,1.6333331E-1,2.1541835E-1,2.9246128E-1,3.6985886E-1,4.3939653E-1,5.1212925E-1,6.200429E-1,7.357679E-1,1.2962712E-1,6.982948E-1,1.5632433E-1,-1.0529861E0,-1.3051751E-1,-1.0738257E-1,-2.0143516E-2,1.8276093E-3,9.432014E-3,-4.4449878E-1,-6.485267E-1,3.895776E-2,8.318228E-3,-3.169949E-1,6.0059033E-2,-3.7646353E-1,-2.0396383E-1,6.1437797E-2,-1.4666724E-1,-2.4497664E-1,-9.869901E-2,5.0286587E-2,-3.1669687E-2,-1.75246E-2,4.7397148E-2,8.2760654E-2,-1.06547184E-1,1.5293281E-1,2.810178E-1,2.2508892E-1,3.467906E-2,4.11459E-2,4.8777636E-2,3.4420902E-1,6.1237235E-2,6.316877E-1,4.0915903E-1,5.14577E-1,5.9115123E-2,9.5013833E-1,6.1092436E-1,1.2894924E-2,7.379199E-1,8.8292444E-1,-9.994735E-2,-1.5908287E-1,-3.8115565E-2,-4.8721814E-1,-3.9000544E-1,-1.0042334E-1,-2.505708E-2,-3.6556143E-1,-2.8369448E-1,-2.5893718E-1,-6.2712324E-1,-2.3274167E-1,-1.78609E-1,-1.488786E-1,8.681118E-2,-1.010863E-1,-4.4476066E-2,-9.0828106E-2,-1.6933487E-1,-7.566808E-2,-1.7756064E-3,-5.269377E-2,4.188116E-2,4.0351637E-2,9.863721E-2,5.680803E-2,1.0912313E-1,-3.9085588E-1,6.324067E-2,1.2931535E-1,2.7395202E-2,5.280581E-1,1.6510703E-1,2.1648787E-1,3.854794E-1,-2.1572435E-1,1.4211623E-1,3.460082E-1,-1.4421244E-3,6.9658154E-1,7.502443E-2,9.292321E-2,6.317417E-2,5.162367E-1,-4.3530264E-3,3.9064914E-2,-2.576401E-2,1.5726824E-1,4.176539E-2,1.2646174E-1,6.163184E-1,4.2334017E-1,7.4239296E-1,1.3787821E-1,3.9021634E-2,-7.337779E-2,-5.8552534E-3,-1.1545077E-2,-5.9550095E-2,-5.9945505E-2,-5.1770013E-2,-4.1944537E-2,-9.421003E-2,-4.889928E-2,-2.2669464E-2,-1.0513556E-1,-1.9366564E-2,-3.5303768E-2,-1.3426643E-2,3.2346793E-3,-2.819541E-2,-2.0718282E-2,-3.179211E-2,-6.0785552E-3,2.1414606E-2,-2.2683483E-2,-8.124932E-5,-1.4274339E-2,2.2057451E-4,-1.667415E-2,-4.4436418E-2,-1.3760182E-2,-9.464995E-3,-2.6349989E-3,1.9415399E-2,-4.903057E-3,-3.5096306E-2,7.1158685E-4,4.1791618E-2,4.0742503E-3,7.056289E-3,1.1439415E-2,2.1050941E-2,6.853328E-3,1.6531907E-2,2.9311152E-2,1.3757097E-2,-7.2435796E-2,-1.6993723E-3,5.0606267E-3,1.37527855E-2,2.2631636E-2,1.1354136E-2,9.573205E-2,2.222906E-2,1.7885081E-2,5.284151E-2,3.5132214E-2,2.2609841E-2,9.330792E-2,2.452759E-2,-4.703811E-2,5.83986E-3,-3.9835772E-3,4.235496E-2,2.7488383E-2,5.2636627E-2,1.2766656E-1,5.6447167E-2,7.475764E-4,1.6132923E-2,2.277289E-2,3.8280555E-3,7.8370824E-2,5.1634084E-2,4.3949056E-2,-2.7985059E-2,3.0923499E-2,9.282532E-2,7.564998E-2,1.3781503E-3,1.3674113E-1,1.0887518E-1],"categories":[],"categories_nodes":[],"categories_segments":[],"categories_sizes":[],"default_left":[0,0,0,0,0,0,0,0,0,0,0,0,0,0,0,0,0,0,0,0,0,0,0,0,0,0,0,0,0,0,0,0,0,0,0,0,0,0,0,0,0,0,0,0,0,0,0,0,0,0,0,0,0,0,0,0,0,0,0,0,0,0,0,0,0,0,0,0,0,0,0,0,0,0,0,0,0,0,0,0,0,0,0,0,0,0,0,0,0,0,0,0,0,0,0,0,0,0,0,0,0,0,0,0,0,0,0,0,0,0,0,0,0,0,0,0,0,0,0,0,0,0,0,0,0,0,0,0,0,0,0,0,0,0,0,0,0,0,0,0,0,0,0,0,0,0,0,0,0,0,0,0,0,0,0,0,0,0,0,0,0,0,0,0,0,0,0,0,0,0,0,0,0,0,0,0,0,0,0,0,0,0,0,0,0,0,0,0,0,0,0,0,0,0,0,0,0,0,0,0,0,0,0,0,0,0,0,0,0,0,0,0,0,0,0,0,0,0,0,0,0,0,0,0,0,0,0,0,0,0,0,0,0],"id":4,"left_children":[1,3,5,7,9,11,13,15,17,19,21,23,25,27,29,-1,31,33,35,37,39,41,43,45,47,49,51,53,55,57,-1,-1,-1,-1,59,61,-1,63,65,67,69,71,73,75,77,79,81,-1,83,85,87,89,91,93,95,97,-1,99,-1,101,-1,-1,-1,-1,-1,103,105,-1,-1,107,-1,109,111,-1,113,115,117,-1,119,121,123,125,127,129,131,133,135,-1,-1,137,-1,139,141,143,145,147,149,-1,151,153,-1,-1,-1,155,157,-1,-1,159,161,163,165,167,169,171,173,175,-1,177,179,181,183,185,187,189,191,193,195,197,199,201,-1,203,205,207,209,211,213,215,-1,217,219,221,-1,223,-1,-1,-1,-1,-1,225,227,229,231,-1,-1,-1,-1,-1,-1,-1,-1,-1,-1,-1,-1,-1,-1,-1,-1,-1,-1,-1,-1,-1,-1,-1,-1,-1,-1,-1,-1,-1,-1,-1,-1,-1,-1,-1,-1,-1,-1,-1,-1,-1,-1,-1,-1,-1,-1,-1,-1,-1,-1,-1,-1,-1,-1,-1,-1,-1,-1,-1,-1,-1,-1,-1,-1,-1,-1,-1,-1,-1,-1,-1,-1,-1,-1,-1,-1,-1,-1,-1,-1],"loss_changes":[1.024961E3,2.5639642E2,1.9140533E2,6.193689E1,3.3113617E1,2.442144E1,3.841095E1,5.586212E0,1.2873505E1,4.1947327E0,4.153738E0,3.3053436E0,4.125885E0,9.284363E0,3.8427887E0,0E0,6.584625E-1,1.2376251E0,1.4990997E0,1.0787659E0,1.0500717E0,9.186325E-1,9.3012714E-1,4.7260964E-1,8.324404E-1,7.221947E-1,3.351059E-1,1.3946075E0,4.5098877E-1,2.6942444E-1,0E0,0E0,0E0,0E0,9.4615173E-1,1.6300201E-1,0E0,8.8963285E-4,4.336319E-1,1.04575455E-2,9.2650604E-1,5.361967E-1,1.2042236E0,3.2580566E-1,3.9968133E-1,2.1338938E-1,4.4387388E-1,0E0,5.6289196E-1,3.644867E-1,1.2289238E-1,1.8244934E-1,5.9044456E-1,3.5546112E-1,1.8106842E-1,3.0433655E-1,0E0,3.6116767E0,0E0,1.7176819E-1,0E0,0E0,0E0,0E0,0E0,6.9459534E-1,4.964924E-2,0E0,0E0,7.728615E-1,0E0,4.5625615E-1,1.7076111E-1,0E0,1.9827843E-1,9.607768E-2,1.0748863E-1,0E0,4.681095E-1,2.069535E-1,3.3926114E-2,2.4078822E-1,6.522561E-1,2.9695988E-1,1.0295644E0,1.9521236E-1,3.5348958E-1,0E0,0E0,1.3255692E-1,0E0,5.979719E-1,4.504795E-1,3.2715607E-1,1.841697E-1,3.8269997E-2,5.727539E-1,0E0,5.4397583E-2,9.305954E-3,0E0,0E0,0E0,1.6515732E-1,3.460827E-1,0E0,0E0,1.3124466E-2,2.8064346E-1,6.64022E-2,1.2996769E-1,2.8781414E-2,3.019724E-1,2.1224165E-1,3.428433E-2,3.0164067E-2,0E0,8.054721E-2,1.2210655E-1,2.3288786E-2,4.4360313E-1,2.1721682E-1,3.2396322E-1,7.017255E-3,4.941225E-4,1.0422665E-1,2.4945974E-1,1.6920513E-1,4.4596083E-3,2.8687668E-1,0E0,4.075508E-1,1.9840652E-1,1.9083023E-1,3.7087643E-1,1.1189467E-1,2.2040711E-1,9.687233E-2,0E0,4.7156334E-1,6.298894E-3,1.9944083E-2,0E0,1.9017792E-1,0E0,0E0,0E0,0E0,0E0,2.6318017E-1,1.2638855E-1,1.9662702E-1,5.8410645E-2,0E0,0E0,0E0,0E0,0E0,0E0,0E0,0E0,0E0,0E0,0E0,0E0,0E0,0E0,0E0,0E0,0E0,0E0,0E0,0E0,0E0,0E0,0E0,0E0,0E0,0E0,0E0,0E0,0E0,0E0,0E0,0E0,0E0,0E0,0E0,0E0,0E0,0E0,0E0,0E0,0E0,0E0,0E0,0E0,0E0,0E0,0E0,0E0,0E0,0E0,0E0,0E0,0E0,0E0,0E0,0E0,0E0,0E0,0E0,0E0,0E0,0E0,0E0,0E0,0E0,0E0,0E0,0E0,0E0,0E0,0E0,0E0,0E0,0E0,0E0,0E0,0E0,0E0,0E0,0E0],"parents":[2147483647,0,0,1,1,2,2,3,3,4,4,5,5,6,6,7,7,8,8,9,9,10,10,11,11,12,12,13,13,14,14,16,16,17,17,18,18,19,19,20,20,21,21,22,22,23,23,24,24,25,25,26,26,27,27,28,28,29,29,34,34,35,35,37,37,38,38,39,39,40,40,41,41,42,42,43,43,44,44,45,45,46,46,48,48,49,49,50,50,51,51,52,52,53,53,54,54,55,55,57,57,59,59,65,65,66,66,69,69,71,71,72,72,74,74,75,75,76,76,78,78,79,79,80,80,81,81,82,82,83,83,84,84,85,85,86,86,89,89,91,91,92,92,93,93,94,94,95,95,96,96,98,98,99,99,103,103,104,104,107,107,108,108,109,109,110,110,111,111,112,112,113,113,114,114,115,115,117,117,118,118,119,119,120,120,121,121,122,122,123,123,124,124,125,125,126,126,127,127,128,128,129,129,131,131,132,132,133,133,134,134,135,135,136,136,137,137,139,139,140,140,141,141,143,143,149,149,150,150,151,151,152,152],"right_children":[2,4,6,8,10,12,14,16,18,20,22,24,26,28,30,-1,32,34,36,38,40,42,44,46,48,50,52,54,56,58,-1,-1,-1,-1,60,62,-1,64,66,68,70,72,74,76,78,80,82,-1,84,86,88,90,92,94,96,98,-1,100,-1,102,-1,-1,-1,-1,-1,104,106,-1,-1,108,-1,110,112,-1,114,116,118,-1,120,122,124,126,128,130,132,134,136,-1,-1,138,-1,140,142,144,146,148,150,-1,152,154,-1,-1,-1,156,158,-1,-1,160,162,164,166,168,170,172,174,176,-1,178,180,182,184,186,188,190,192,194,196,198,200,202,-1,204,206,208,210,212,214,216,-1,218,220,222,-1,224,-1,-1,-1,-1,-1,226,228,230,232,-1,-1,-1,-1,-1,-1,-1,-1,-1,-1,-1,-1,-1,-1,-1,-1,-1,-1,-1,-1,-1,-1,-1,-1,-1,-1,-1,-1,-1,-1,-1,-1,-1,-1,-1,-1,-1,-1,-1,-1,-1,-1,-1,-1,-1,-1,-1,-1,-1,-1,-1,-1,-1,-1,-1,-1,-1,-1,-1,-1,-1,-1,-1,-1,-1,-1,-1,-1,-1,-1,-1,-1,-1,-1,-1,-1,-1,-1,-1,-1],"split_conditions":[1.617554E3,3.7764203E2,5.634504E3,7.671926E1,8.2164734E2,2.8903062E3,1.9124379E4,2.9E1,1.9550562E2,5.634153E2,1.170616E3,2.1814084E3,4.0219397E3,9.869862E3,4.371783E4,-2.658955E-1,9.917773E1,1E0,2.8220578E2,2.24E2,2.24E2,9.792586E2,1.2487445E3,1.7915449E3,1.015E3,3.064E3,5.1041753E3,7.743772E3,1.5353E4,4.7351743E3,2.0771293E-1,-1.9451375E-1,-3.2007903E-2,1.5120798E-2,1.05E2,1.2284136E3,-8.770391E-2,5.6E1,1.1676519E3,1E1,1.634E3,7.798015E2,5.03E2,9.48E2,5.15E2,1.65E3,1E0,1.050662E-1,3.483393E3,1E0,3.646E3,4.476E3,1.583E3,1E0,4.740087E3,3.25E0,1.2962712E-1,9.25E2,1.5632433E-1,1.7207753E2,-1.3051751E-1,-1.0738257E-1,-2.0143516E-2,1.8276093E-3,9.432014E-3,4.76E2,1.22E2,3.895776E-2,8.318228E-3,6.54E2,6.0059033E-2,1.1320597E3,8.96E2,6.1437797E-2,2.332777E3,1.2109036E3,1E0,5.0286587E-2,1.43E3,1.61E2,1.835E3,1.9832832E3,1.583E3,2.479E3,4.142036E3,4.92E2,3E0,4.11459E-2,4.8777636E-2,2.551E3,6.1237235E-2,5.4736323E3,3.721E3,1E0,1E1,2.92E2,6.0361E3,1.2894924E-2,1.4864761E3,1E0,-9.994735E-2,-1.5908287E-1,-3.8115565E-2,1.7E1,4.3660504E2,-1.0042334E-1,-2.505708E-2,5.89375E2,2.1739714E3,7.35E2,3.75E2,1E0,8.674798E2,1.55E3,1E0,2.92E2,-4.4476066E-2,1.4668932E3,1.346E3,1.346E3,1E0,2.9687798E3,3.3249197E3,1.699E3,2.91E2,2E0,1.583E3,2.04E2,1.888E3,2.3471487E3,2.7395202E-2,1.583E3,2.692E3,3.96E2,1.674E3,1.14E3,1E0,3.0933037E3,-1.4421244E-3,5.3492046E3,8E0,8E0,6.317417E-2,5E0,-4.3530264E-3,3.9064914E-2,-2.576401E-2,1.5726824E-1,4.176539E-2,1E1,2.332777E3,1.38E2,4.0770867E3,1.3787821E-1,3.9021634E-2,-7.337779E-2,-5.8552534E-3,-1.1545077E-2,-5.9550095E-2,-5.9945505E-2,-5.1770013E-2,-4.1944537E-2,-9.421003E-2,-4.889928E-2,-2.2669464E-2,-1.0513556E-1,-1.9366564E-2,-3.5303768E-2,-1.3426643E-2,3.2346793E-3,-2.819541E-2,-2.0718282E-2,-3.179211E-2,-6.0785552E-3,2.1414606E-2,-2.2683483E-2,-8.124932E-5,-1.4274339E-2,2.2057451E-4,-1.667415E-2,-4.4436418E-2,-1.3760182E-2,-9.464995E-3,-2.6349989E-3,1.9415399E-2,-4.903057E-3,-3.5096306E-2,7.1158685E-4,4.1791618E-2,4.0742503E-3,7.056289E-3,1.1439415E-2,2.1050941E-2,6.853328E-3,1.6531907E-2,2.9311152E-2,1.3757097E-2,-7.2435796E-2,-1.6993723E-3,5.0606267E-3,1.37527855E-2,2.2631636E-2,1.1354136E-2,9.573205E-2,2.222906E-2,1.7885081E-2,5.284151E-2,3.5132214E-2,2.2609841E-2,9.330792E-2,2.452759E-2,-4.703811E-2,5.83986E-3,-3.9835772E-3,4.235496E-2,2.7488383E-2,5.2636627E-2,1.2766656E-1,5.6447167E-2,7.475764E-4,1.6132923E-2,2.277289E-2,3.8280555E-3,7.8370824E-2,5.1634084E-2,4.3949056E-2,-2.7985059E-2,3.0923499E-2,9.282532E-2,7.564998E-2,1.3781503E-3,1.3674113E-1,1.0887518E-1],"split_indices":[43,43,43,46,43,43,46,7,43,46,46,43,43,46,43,0,43,6,46,7,7,43,47,43,7,7,46,43,7,47,0,0,0,0,7,47,0,7,47,3,5,46,7,7,7,7,31,0,48,33,7,7,7,31,46,9,0,5,0,43,0,0,0,0,0,7,2,0,0,7,0,47,7,0,47,46,35,0,7,5,7,46,7,7,48,3,6,0,0,5,0,47,7,27,1,3,46,0,48,21,0,0,0,1,43,0,0,43,47,7,3,19,43,7,1,3,0,43,7,7,26,48,48,7,3,12,7,5,7,48,0,7,7,5,7,5,13,46,0,43,1,1,0,12,0,0,0,0,0,1,47,5,47,0,0,0,0,0,0,0,0,0,0,0,0,0,0,0,0,0,0,0,0,0,0,0,0,0,0,0,0,0,0,0,0,0,0,0,0,0,0,0,0,0,0,0,0,0,0,0,0,0,0,0,0,0,0,0,0,0,0,0,0,0,0,0,0,0,0,0,0,0,0,0,0,0,0,0,0,0,0,0,0],"split_type":[0,0,0,0,0,0,0,0,0,0,0,0,0,0,0,0,0,0,0,0,0,0,0,0,0,0,0,0,0,0,0,0,0,0,0,0,0,0,0,0,0,0,0,0,0,0,0,0,0,0,0,0,0,0,0,0,0,0,0,0,0,0,0,0,0,0,0,0,0,0,0,0,0,0,0,0,0,0,0,0,0,0,0,0,0,0,0,0,0,0,0,0,0,0,0,0,0,0,0,0,0,0,0,0,0,0,0,0,0,0,0,0,0,0,0,0,0,0,0,0,0,0,0,0,0,0,0,0,0,0,0,0,0,0,0,0,0,0,0,0,0,0,0,0,0,0,0,0,0,0,0,0,0,0,0,0,0,0,0,0,0,0,0,0,0,0,0,0,0,0,0,0,0,0,0,0,0,0,0,0,0,0,0,0,0,0,0,0,0,0,0,0,0,0,0,0,0,0,0,0,0,0,0,0,0,0,0,0,0,0,0,0,0,0,0,0,0,0,0,0,0,0,0,0,0,0,0,0,0,0,0,0,0],"sum_hessian":[6.352E3,3.1E3,3.252E3,8.93E2,2.207E3,2.109E3,1.143E3,1.49E2,7.44E2,9.43E2,1.264E3,1.069E3,1.04E3,9.43E2,2E2,4.7E1,1.02E2,2.74E2,4.7E2,3.98E2,5.45E2,6.71E2,5.93E2,5.73E2,4.96E2,5.68E2,4.72E2,5.99E2,3.44E2,1.49E2,5.1E1,1.01E2,1E0,1E0,2.73E2,1.96E2,2.74E2,4E0,3.94E2,3E0,5.42E2,3.1E2,3.61E2,2.36E2,3.57E2,2.01E2,3.72E2,2E0,4.94E2,2.12E2,3.56E2,3.27E2,1.45E2,3.47E2,2.52E2,2.62E2,8.2E1,1.1E1,1.38E2,7.2E1,2.01E2,1.95E2,1E0,1E0,3E0,3.79E2,1.5E1,2E0,1E0,5.41E2,1E0,2E1,2.9E2,3E0,3.58E2,1.6E1,2.2E2,2E0,3.55E2,9.7E1,1.04E2,3.6E2,1.2E1,4.56E2,3.8E1,2.01E2,1.1E1,2.35E2,1.21E2,2.02E2,1.25E2,1.7E1,1.28E2,3.45E2,2E0,4E0,2.48E2,1E0,2.61E2,1E1,1E0,7.1E1,1E0,2.08E2,1.71E2,1.4E1,1E0,2.16E2,3.25E2,1.5E1,5E0,1.32E2,1.58E2,3.55E2,3E0,5E0,1.1E1,2E2,2E1,1.43E2,2.12E2,6.1E1,3.6E1,9.3E1,1.1E1,1.83E2,1.77E2,4E0,8E0,2.57E2,1.99E2,1.1E1,2.7E1,1.93E2,8E0,3E0,8E0,2.01E2,1E0,1.5E1,2E0,5E0,1.23E2,3.44E2,1E0,1E0,1E0,3E0,1E0,3E0,2.45E2,5E0,2.56E2,9E0,1E0,2.07E2,1E0,4E0,1.67E2,7.4E1,1.42E2,3.23E2,2E0,8E0,7E0,4E0,1E0,1.29E2,3E0,7E0,1.51E2,3.06E2,4.9E1,1E0,2E0,3E0,2E0,1.91E2,9E0,1.5E1,5E0,6E1,8.3E1,1.9E2,2.2E1,5.6E1,5E0,3.2E1,4E0,3.3E1,6E1,9E0,2E0,1.53E2,3E1,2.8E1,1.49E2,3E0,1E0,5E0,3E0,1.82E2,7.5E1,8E0,3E0,2.3E1,4E0,1.5E2,4.3E1,3E0,5E0,2E0,1E0,4E0,4E0,7E0,1.94E2,9E0,6E0,1E0,1E0,2E0,3E0,3.3E2,1.4E1,2E0,1E0,2E0,2.43E2,4E0,1E0,1.8E1,2.38E2],"tree_param":{"num_deleted":"0","num_feature":"49","num_nodes":"233","size_leaf_vector":"1"}},{"base_weights":[2.2013621E-4,-3.7886247E-1,3.0972835E-1,-8.486582E-1,-2.545939E-1,1.6594845E-1,6.255244E-1,-1.2901703E0,-7.2899896E-1,-4.0416935E-1,-1.5216291E-1,6.412091E-2,2.737366E-1,5.5596757E-1,9.8516774E-1,-2.513843E-1,-1.1877668E0,-8.482218E-1,-6.397495E-1,-4.8506024E-1,-3.4132388E-1,-2.1590498E-1,-1.0070833E-1,1.3906587E-2,1.1801284E-1,2.1142764E-1,3.3277452E-1,4.8561886E-1,6.68947E-1,9.193082E-1,1.9718495E-1,-1.789583E-1,-4.8625197E-2,1.39867375E-2,-1.2801714E-1,-6.4370465E-1,-2.1185218E-1,-7.745247E-2,-6.624481E-2,4.9152967E-2,-3.444461E-1,-2.1750471E-1,5.5554602E-2,-1.2970616E-1,-6.071223E-2,-1.7226748E-2,5.9127554E-2,1.0355651E-1,1.734489E-1,1.8168433E-1,2.4998413E-1,2.8132755E-1,3.5604313E-1,4.534159E-1,5.416044E-1,6.152356E-1,7.2157323E-1,5.999633E-1,1.4103958E-1,-6.838728E-1,-8.891623E-2,-3.8627494E-2,-5.6144134E-3,1.6905386E-3,8.370912E-3,-4.0500584E-1,-3.2342377E-1,-2.5226942E-1,-1.947788E-1,-1.2701675E-1,-5.775682E-2,-6.5184966E-2,2.2963451E-1,3.3019722E-1,-2.272493E-2,4.5946725E-2,1.216674E-1,5.78815E-2,1.0034642E-1,2.4651404E-2,3.056776E-2,1.943665E-1,1.1420438E-1,3.541543E-2,4.4084586E-2,2.721309E-1,4.5768425E-1,3.41884E-1,5.8901835E-2,4.2147762E-1,4.869794E-1,5.4608047E-1,6.1171055E-2,7.66541E-1,5.9785724E-1,1.1927804E-2,1.0873234E-1,7.665676E-1,-9.24513E-2,-6.860913E-1,-2.733091E-2,-8.6245954E-2,-3.890165E-1,-3.2546312E-1,7.0170197E-3,3.955279E-2,-2.5562993E-1,-1.9813107E-1,-3.9790846E-2,-1.3147399E-1,-4.0258546E-3,4.4247E-2,-6.729834E-2,3.245584E-1,-1.1254583E-2,2.089896E-2,5.8620155E-2,-5.858927E-2,-2.6240607E-3,3.558344E-2,5.9238896E-2,9.2097744E-2,1.6495284E-1,-9.433416E-3,1.0781889E-1,2.5213358E-1,1.7761011E-1,-6.143727E-2,1.713941E-1,1.8115944E-1,2.8273973E-1,8.754985E-2,2.786796E-2,3.4491444E-1,9.2890844E-2,4.2778096E-1,9.513439E-2,6.228476E-1,7.02271E-2,5.477743E-1,1.5548435E-2,2.0886818E-2,-7.1233306E-3,4.4498527E-1,8.828203E-1,3.2595412E-3,9.018259E-2,1.3443715E-2,8.252994E-1,-1.03219286E-1,-2.960731E-2,-5.874848E-2,-5.41611E-3,-5.321106E-2,-4.6512343E-2,-3.7313048E-2,-7.770945E-2,-2.8898163E-2,-6.2047936E-2,-2.0905813E-2,3.0874347E-2,-1.9890033E-2,2.4939561E-2,6.240611E-3,-5.163561E-2,-1.7428692E-2,-7.922674E-3,1.3547846E-2,5.5879787E-2,-4.40399E-3,-1.1315638E-2,-1.3837705E-3,4.6816796E-2,4.8648003E-3,1.0889769E-2,8.999163E-3,2.4484647E-3,1.4133659E-2,2.4413702E-3,3.8269665E-2,1.5917648E-2,4.560469E-2,-4.502492E-3,1.6515886E-2,-2.5520338E-2,3.246557E-2,7.970691E-2,-2.4100814E-3,2.7203681E-2,-3.2937918E-2,1.2693395E-2,1.3165697E-2,2.9330678E-2,1.2890248E-2,5.0559055E-2,9.375438E-3,4.2557012E-2,6.242254E-2,4.943589E-2,2.675085E-2,-3.5281377E-3,6.5495074E-2,3.3449315E-2,5.0390508E-2,-2.6606906E-2,1.080063E-2,9.76522E-2,3.213039E-2,8.250929E-2,-9.1078883E-4,8.0461666E-2,3.863299E-2,1.3855161E-1,6.0384993E-2,1.4234416E-1],"categories":[],"categories_nodes":[],"categories_segments":[],"categories_sizes":[],"default_left":[0,0,0,0,0,0,0,0,0,0,0,0,0,0,0,0,0,0,0,0,0,0,0,0,0,0,0,0,0,0,0,0,0,0,0,0,0,0,0,0,0,0,0,0,0,0,0,0,0,0,0,0,0,0,0,0,0,0,0,0,0,0,0,0,0,0,0,0,0,0,0,0,0,0,0,0,0,0,0,0,0,0,0,0,0,0,0,0,0,0,0,0,0,0,0,0,0,0,0,0,0,0,0,0,0,0,0,0,0,0,0,0,0,0,0,0,0,0,0,0,0,0,0,0,0,0,0,0,0,0,0,0,0,0,0,0,0,0,0,0,0,0,0,0,0,0,0,0,0,0,0,0,0,0,0,0,0,0,0,0,0,0,0,0,0,0,0,0,0,0,0,0,0,0,0,0,0,0,0,0,0,0,0,0,0,0,0,0,0,0,0,0,0,0,0,0,0,0,0,0,0,0,0,0,0,0,0,0,0,0,0,0,0,0,0],"id":5,"left_children":[1,3,5,7,9,11,13,15,17,19,21,23,25,27,29,-1,31,33,35,37,39,41,43,45,47,49,51,53,55,57,-1,-1,-1,-1,-1,59,61,-1,-1,63,65,67,-1,69,71,73,75,77,79,81,83,85,87,89,91,93,95,97,-1,99,-1,-1,-1,-1,-1,101,103,105,107,109,-1,111,113,115,117,119,121,-1,123,-1,-1,125,127,-1,-1,129,131,133,-1,135,137,139,141,143,145,-1,-1,147,-1,149,-1,-1,151,153,-1,-1,155,157,159,161,163,-1,165,167,-1,-1,-1,169,171,173,175,177,179,181,183,185,187,189,191,193,195,-1,-1,197,199,201,203,205,-1,207,-1,-1,-1,209,211,-1,-1,-1,213,-1,-1,-1,-1,-1,-1,-1,-1,-1,-1,-1,-1,-1,-1,-1,-1,-1,-1,-1,-1,-1,-1,-1,-1,-1,-1,-1,-1,-1,-1,-1,-1,-1,-1,-1,-1,-1,-1,-1,-1,-1,-1,-1,-1,-1,-1,-1,-1,-1,-1,-1,-1,-1,-1,-1,-1,-1,-1,-1,-1,-1,-1,-1,-1,-1,-1],"loss_changes":[7.455096E2,1.6651962E2,1.587233E2,3.059961E1,3.4564346E1,2.6379257E1,2.6819427E1,2.986374E0,4.4796906E0,4.50119E0,4.3830566E0,3.348569E0,4.226242E0,6.979309E0,2.6096497E0,0E0,8.36792E-2,1.0586548E0,3.273468E-1,3.1414032E-1,6.5089035E-1,6.423397E-1,8.561764E-1,9.048772E-1,4.6047497E-1,6.094036E-1,6.1569977E-1,7.82074E-1,5.4537964E-1,4.3968964E-1,0E0,0E0,0E0,0E0,0E0,1.4902496E-1,2.2220984E-2,0E0,0E0,6.312411E-4,5.259323E-1,4.2331696E-1,0E0,2.4706459E-1,4.2404175E-1,7.352901E-1,2.1038353E-1,3.92663E-1,2.1147728E-4,2.567911E-1,8.056259E-2,1.8523216E-1,7.738876E-2,1.8923187E-1,4.0314102E-1,1.5014648E-2,3.056717E-1,2.9041677E0,0E0,3.6361694E-2,0E0,0E0,0E0,0E0,0E0,1.2690353E-1,3.0815887E-1,4.7139835E-1,1.8227482E-1,2.3409986E-1,0E0,2.565732E-1,1.6895178E-1,1.4956117E-2,2.7090633E-1,2.7921706E-2,4.2405307E-2,0E0,3.8821077E-1,0E0,0E0,2.1947384E-1,5.5295444E-1,0E0,0E0,1.2635708E-1,1.6559541E-1,1.9583893E-1,0E0,3.6248398E-1,1.5026474E-1,9.384918E-2,3.2063283E-2,1.6801167E-1,3.0827713E-1,0E0,0E0,3.6337137E-1,0E0,7.545471E-3,0E0,0E0,9.859276E-2,6.3819885E-2,0E0,0E0,2.8979015E-1,3.4286976E-1,2.4881893E-1,1.6053295E-1,2.627029E-1,0E0,2.1334136E-1,1.1302441E-2,0E0,0E0,0E0,6.426796E-2,5.056576E-1,1.222682E-2,2.0685494E-3,3.1425655E-3,6.312224E-2,2.0914125E-1,2.9970598E-1,4.7310686E-1,1.5897274E-1,3.4197083E-1,6.561506E-2,2.9763752E-1,1.7220497E-2,0E0,0E0,1.8853378E-1,5.3930536E-2,2.5071716E-1,3.876979E-1,2.3240566E-1,0E0,3.4793854E-2,0E0,0E0,0E0,2.5068665E-1,1.7569542E-2,0E0,0E0,0E0,1.4073801E-1,0E0,0E0,0E0,0E0,0E0,0E0,0E0,0E0,0E0,0E0,0E0,0E0,0E0,0E0,0E0,0E0,0E0,0E0,0E0,0E0,0E0,0E0,0E0,0E0,0E0,0E0,0E0,0E0,0E0,0E0,0E0,0E0,0E0,0E0,0E0,0E0,0E0,0E0,0E0,0E0,0E0,0E0,0E0,0E0,0E0,0E0,0E0,0E0,0E0,0E0,0E0,0E0,0E0,0E0,0E0,0E0,0E0,0E0,0E0,0E0,0E0,0E0,0E0,0E0,0E0,0E0],"parents":[2147483647,0,0,1,1,2,2,3,3,4,4,5,5,6,6,7,7,8,8,9,9,10,10,11,11,12,12,13,13,14,14,16,16,17,17,18,18,19,19,20,20,21,21,22,22,23,23,24,24,25,25,26,26,27,27,28,28,29,29,35,35,36,36,39,39,40,40,41,41,43,43,44,44,45,45,46,46,47,47,48,48,49,49,50,50,51,51,52,52,53,53,54,54,55,55,56,56,57,57,59,59,65,65,66,66,67,67,68,68,69,69,71,71,72,72,73,73,74,74,75,75,76,76,78,78,81,81,82,82,85,85,86,86,87,87,89,89,90,90,91,91,92,92,93,93,94,94,97,97,99,99,102,102,103,103,106,106,107,107,108,108,109,109,110,110,112,112,113,113,117,117,118,118,119,119,120,120,121,121,122,122,123,123,124,124,125,125,126,126,127,127,128,128,129,129,130,130,133,133,134,134,135,135,136,136,137,137,139,139,143,143,144,144,148,148],"right_children":[2,4,6,8,10,12,14,16,18,20,22,24,26,28,30,-1,32,34,36,38,40,42,44,46,48,50,52,54,56,58,-1,-1,-1,-1,-1,60,62,-1,-1,64,66,68,-1,70,72,74,76,78,80,82,84,86,88,90,92,94,96,98,-1,100,-1,-1,-1,-1,-1,102,104,106,108,110,-1,112,114,116,118,120,122,-1,124,-1,-1,126,128,-1,-1,130,132,134,-1,136,138,140,142,144,146,-1,-1,148,-1,150,-1,-1,152,154,-1,-1,156,158,160,162,164,-1,166,168,-1,-1,-1,170,172,174,176,178,180,182,184,186,188,190,192,194,196,-1,-1,198,200,202,204,206,-1,208,-1,-1,-1,210,212,-1,-1,-1,214,-1,-1,-1,-1,-1,-1,-1,-1,-1,-1,-1,-1,-1,-1,-1,-1,-1,-1,-1,-1,-1,-1,-1,-1,-1,-1,-1,-1,-1,-1,-1,-1,-1,-1,-1,-1,-1,-1,-1,-1,-1,-1,-1,-1,-1,-1,-1,-1,-1,-1,-1,-1,-1,-1,-1,-1,-1,-1,-1,-1,-1,-1,-1,-1,-1,-1],"split_conditions":[1.365182E3,2.6684137E2,5.902271E3,6.1798058E1,6.642124E2,2.7904067E3,2.0187727E4,2E1,1.5569594E2,4.2353485E2,9.4940326E2,2.0159435E3,3.8830635E3,1.0407624E4,5.596E4,-2.513843E-1,7E0,1E0,1.2284136E3,3.5076324E2,2.24E2,1.634E3,1.1949666E3,1.674E3,2.556E3,3.181E3,4.2642085E3,8.316996E3,1.3559133E4,4.7351743E3,1.9718495E-1,-1.789583E-1,-4.8625197E-2,1.39867375E-2,-1.2801714E-1,2.07E2,3.0796875E2,-7.745247E-2,-6.624481E-2,5.6E1,4.8307352E2,7.745422E2,5.5554602E-2,5.387462E3,2.418689E3,6.54E2,2E3,7.49E2,2.828E3,4.45E2,3.782E3,5.1041753E3,5.372E3,7.0195933E3,1.4241034E4,3.782E3,3.25E0,2.001E3,1.4103958E-1,2.0401494E3,-8.891623E-2,-3.8627494E-2,-5.6144134E-3,1.6905386E-3,8.370912E-3,3.7764203E2,3E1,9.4E1,1E0,1.3420507E3,-5.775682E-2,5.15E2,3.36E2,1.38E2,1.477E3,1.835E3,2.6143376E3,5.78815E-2,1.8295686E3,2.4651404E-2,3.056776E-2,1.583E3,1.583E3,3.541543E-2,4.4084586E-2,2.692E3,1.583E3,5.7654067E3,5.8901835E-2,8.0171543E3,4.805E3,1.69E2,1.994E3,3.8E2,7.4031943E3,1.1927804E-2,1.0873234E-1,1.997E3,-9.24513E-2,3.599788E2,-2.733091E-2,-8.6245954E-2,1.6E1,5.37E2,7.0170197E-3,3.955279E-2,1.2487445E3,1.9710665E3,1.5E2,1E0,3E0,4.4247E-2,1.213E3,3E0,-1.1254583E-2,2.089896E-2,5.8620155E-2,3.3E1,3.7197695E3,1.9654874E3,2.9358325E3,4.8E2,3.32E2,5.3E1,3.5169697E3,2.8779502E3,1.959E3,2.067748E3,2.7076538E3,3E0,2.6425215E3,8.754985E-2,2.786796E-2,3.211777E3,6.075977E3,5E0,3.0788708E3,7.1558555E3,7.02271E-2,7.2696396E3,1.5548435E-2,2.0886818E-2,-7.1233306E-3,2E0,2.2158857E3,3.2595412E-3,9.018259E-2,1.3443715E-2,2.1770938E4,-1.03219286E-1,-2.960731E-2,-5.874848E-2,-5.41611E-3,-5.321106E-2,-4.6512343E-2,-3.7313048E-2,-7.770945E-2,-2.8898163E-2,-6.2047936E-2,-2.0905813E-2,3.0874347E-2,-1.9890033E-2,2.4939561E-2,6.240611E-3,-5.163561E-2,-1.7428692E-2,-7.922674E-3,1.3547846E-2,5.5879787E-2,-4.40399E-3,-1.1315638E-2,-1.3837705E-3,4.6816796E-2,4.8648003E-3,1.0889769E-2,8.999163E-3,2.4484647E-3,1.4133659E-2,2.4413702E-3,3.8269665E-2,1.5917648E-2,4.560469E-2,-4.502492E-3,1.6515886E-2,-2.5520338E-2,3.246557E-2,7.970691E-2,-2.4100814E-3,2.7203681E-2,-3.2937918E-2,1.2693395E-2,1.3165697E-2,2.9330678E-2,1.2890248E-2,5.0559055E-2,9.375438E-3,4.2557012E-2,6.242254E-2,4.943589E-2,2.675085E-2,-3.5281377E-3,6.5495074E-2,3.3449315E-2,5.0390508E-2,-2.6606906E-2,1.080063E-2,9.76522E-2,3.213039E-2,8.250929E-2,-9.1078883E-4,8.0461666E-2,3.863299E-2,1.3855161E-1,6.0384993E-2,1.4234416E-1],"split_indices":[45,42,45,45,42,45,46,7,42,45,45,45,45,45,7,0,11,6,47,45,7,5,46,7,7,7,42,42,42,47,0,0,0,0,0,7,45,0,0,7,42,45,0,48,47,7,7,7,7,5,7,46,7,46,42,7,9,0,0,48,0,0,0,0,0,42,9,7,31,42,0,7,3,5,7,7,47,0,42,0,0,7,7,0,0,7,7,45,0,42,7,2,0,5,42,0,0,0,0,45,0,0,1,7,0,0,47,47,5,21,12,0,7,1,0,0,0,2,48,42,48,3,5,5,46,47,7,48,42,12,46,0,0,47,42,12,47,46,0,45,0,0,0,6,46,0,0,0,42,0,0,0,0,0,0,0,0,0,0,0,0,0,0,0,0,0,0,0,0,0,0,0,0,0,0,0,0,0,0,0,0,0,0,0,0,0,0,0,0,0,0,0,0,0,0,0,0,0,0,0,0,0,0,0,0,0,0,0,0,0,0,0,0,0,0],"split_type":[0,0,0,0,0,0,0,0,0,0,0,0,0,0,0,0,0,0,0,0,0,0,0,0,0,0,0,0,0,0,0,0,0,0,0,0,0,0,0,0,0,0,0,0,0,0,0,0,0,0,0,0,0,0,0,0,0,0,0,0,0,0,0,0,0,0,0,0,0,0,0,0,0,0,0,0,0,0,0,0,0,0,0,0,0,0,0,0,0,0,0,0,0,0,0,0,0,0,0,0,0,0,0,0,0,0,0,0,0,0,0,0,0,0,0,0,0,0,0,0,0,0,0,0,0,0,0,0,0,0,0,0,0,0,0,0,0,0,0,0,0,0,0,0,0,0,0,0,0,0,0,0,0,0,0,0,0,0,0,0,0,0,0,0,0,0,0,0,0,0,0,0,0,0,0,0,0,0,0,0,0,0,0,0,0,0,0,0,0,0,0,0,0,0,0,0,0,0,0,0,0,0,0,0,0,0,0,0,0,0,0,0,0,0,0],"sum_hessian":[6.352E3,2.855E3,3.497E3,5.96E2,2.259E3,2.404E3,1.093E3,1.25E2,4.71E2,9.17E2,1.342E3,1.237E3,1.167E3,9.18E2,1.75E2,2.3E1,1.02E2,1.98E2,2.73E2,3.98E2,5.19E2,5.98E2,7.44E2,6.41E2,5.96E2,5.7E2,5.97E2,5.69E2,3.49E2,1.49E2,2.6E1,1.01E2,1E0,1E0,1.97E2,2.7E2,3E0,2.25E2,1.73E2,4E0,5.15E2,5.97E2,1E0,4.3E2,3.14E2,3.8E2,2.61E2,4.75E2,1.21E2,3.25E2,2.45E2,1.9E2,4.07E2,3.67E2,2.02E2,1.79E2,1.7E2,1.1E1,1.38E2,1.44E2,1.26E2,2E0,1E0,1E0,3E0,1.28E2,3.87E2,2.32E2,3.65E2,4.27E2,3E0,3.1E2,4E0,5E0,3.75E2,2.17E2,4.4E1,4E0,4.71E2,9.8E1,2.3E1,2.72E2,5.3E1,1.91E2,5.4E1,1.83E2,7E0,3.01E2,1.06E2,1.95E2,1.72E2,2E2,2E0,1.4E1,1.65E2,1E0,1.69E2,1E1,1E0,1.43E2,1E0,8E0,1.2E2,3.85E2,2E0,1E0,2.31E2,3.57E2,8E0,4.12E2,1.5E1,1E0,3.09E2,3E0,1E0,2E0,3E0,1.34E2,2.41E2,1.24E2,9.3E1,2.8E1,1.6E1,3E1,4.41E2,5.8E1,2.14E2,1.3E1,4E1,2.1E1,1.62E2,4E0,3E0,2.97E2,4E0,1.91E2,4E0,1.7E1,1.55E2,1.99E2,1E0,1E0,1E0,5E0,9E0,1E0,1.64E2,1E0,9E0,1.42E2,1E0,1.19E2,1E0,1.25E2,2.6E2,2.27E2,4E0,3.5E2,7E0,6E0,2E0,4.11E2,1E0,1.4E1,1E0,6.9E1,2.4E2,1E0,2E0,5E1,8.4E1,2.37E2,4E0,1.16E2,8E0,9.1E1,2E0,2.7E1,1E0,5E0,1.1E1,1E0,2.9E1,4.38E2,3E0,5.3E1,5E0,4E0,2.1E2,6E0,7E0,1E1,3E1,1.4E1,7E0,1E0,1.61E2,4.8E1,2.49E2,2E0,2E0,1.82E2,9E0,2E0,2E0,1E0,1.6E1,2E0,1.97E2,1E0,4E0,1E0,8E0,3E0,6E0],"tree_param":{"num_deleted":"0","num_feature":"49","num_nodes":"215","size_leaf_vector":"1"}},{"base_weights":[3.4594568E-4,-3.2251805E-1,2.6395348E-1,-6.688411E-1,-1.9997917E-1,1.4943825E-1,5.518753E-1,-1.0586791E0,-5.697716E-1,-3.204847E-1,-1.2752435E-1,6.6864714E-2,2.5632143E-1,4.9429673E-1,8.7043166E-1,-1.9535194E-1,-9.3484694E-1,-6.8274355E-1,-5.0058573E-1,-3.8037473E-1,-2.7842745E-1,-1.7661874E-1,-8.0776244E-2,2.1701122E-2,1.2450244E-1,1.9888262E-1,2.9979837E-1,4.4029137E-1,5.924605E-1,8.085369E-1,1.1247435E0,-1.4106482E-1,-2.7386764E-2,1.2937732E-2,-6.8657875E-1,-5.5738986E-1,-4.6381846E-1,-3.6986166E-1,-6.4589524E-1,4.3792315E-2,-2.812934E-1,-1.7242882E-1,-4.016738E-1,-9.743336E-2,-3.48457E-2,-6.566008E-3,6.0053185E-2,1.0366827E-1,1.5303117E-1,1.6717605E-1,2.166095E-1,2.7036846E-1,3.297948E-1,4.0270537E-1,4.826738E-1,5.9415287E-1,6.8646492E-3,1.1033219E-2,1.2208065E-1,4.5741867E-2,1.7168182E-1,-7.714892E-1,-6.4098245E-1,-8.386362E-2,-2.3817249E-2,-7.022575E-2,-2.8286362E-1,-3.736398E-1,-1.1364555E-1,-4.808507E-2,-7.8600174E-1,1.5637482E-3,7.429185E-3,-3.1057626E-1,-2.572157E-1,-1.7378578E-1,5.138801E-2,-8.723878E-2,-2.1577893E-1,-9.093262E-2,-2.1169922E-1,-3.9973434E-2,4.2665046E-2,2.92363E-1,-1.1853959E-2,4.880381E-2,1.1117439E-1,2.1073452E-1,9.47562E-2,1.4197351E-1,2.362155E-1,1.5066071E-1,2.3317614E-1,3.068377E-2,2.1775435E-1,1.6644666E-1,2.753231E-1,-1.9050332E-2,3.3173433E-1,6.8788373E-1,3.9344975E-1,7.068429E-1,4.7053993E-1,5.8671916E-1,9.901314E-1,-1.1656634E-1,-2.751545E-2,-9.652149E-2,-2.0014863E-2,-1.2011433E-2,-5.0567012E-2,-6.0344536E-2,-3.4479785E-1,-3.0482242E-2,4.366215E-2,-1.7575126E-2,-1.3169193E-1,-3.0114213E-1,-4.3721348E-1,-2.596896E-1,6.315318E-3,-1.9579834E-1,-1.4090441E-1,3.848503E-2,-4.877723E-2,-1.311272E-1,-6.745065E-2,-3.3649158E-1,-1.093766E-2,-4.733347E-2,1.8135652E-1,4.684144E-2,1.1472763E-2,-4.8699353E-2,6.8538873E-3,3.2760095E-2,5.9756394E-2,1.4139095E-2,2.0714559E-2,1.2231191E-1,4.4589737E-1,-1.9748034E-1,1.0066801E-1,1.24350734E-1,1.8180193E-1,1.3478817E-1,3.6867186E-1,-3.6034263E-3,1.6890925E-1,2.6093137E-1,-1.3135332E-1,-7.178955E-4,7.621744E-3,3.3249307E-2,2.1888867E-1,3.469432E-2,2.7970493E-1,8.2561225E-2,2.707222E-1,1.9362824E-1,3.3779654E-1,7.628887E-1,1.2213654E-2,3.9511517E-1,-6.5890793E-3,1.2847637E-1,8.210937E-1,1.06318435E-2,4.7189853E-1,5.5479026E-1,6.3940936E-1,1.78215E-1,2.9716928E-2,-5.1980305E-2,-5.0099017E-3,9.193934E-3,6.300509E-4,-4.783768E-2,-3.71752E-2,-7.613342E-2,-3.5583384E-2,-3.7840795E-2,-5.3486682E-2,3.658633E-2,-2.9643198E-2,-4.912264E-2,-2.0385435E-2,9.186387E-3,-5.2725524E-4,-1.863329E-2,-4.1570187E-2,1.658082E-2,-1.0718861E-2,-6.7412585E-2,-1.1006892E-2,-8.598137E-3,3.3967115E-2,-4.8976718E-3,-2.3017358E-2,-4.239355E-3,4.3984734E-2,-6.1552697E-3,-1.6692087E-2,1.5313149E-3,-4.93023E-2,5.4783626E-3,-3.3189391E-3,1.38482135E-2,8.556345E-3,2.6817633E-2,6.347096E-3,4.2775343E-3,9.107193E-2,1.16989445E-2,-6.353753E-2,5.61239E-2,1.46789495E-2,1.9568466E-2,-1.4385292E-2,2.4509283E-2,3.1726684E-2,2.3549955E-2,-1.8210568E-2,8.2063906E-2,3.166123E-2,1.6574452E-2,-1.9727286E-2,2.1333804E-2,2.7914813E-2,5.903503E-2,2.5245529E-2,-3.428052E-2,4.726021E-3,-7.326801E-3,1.4807896E-2,2.8811302E-2,3.4648996E-2,2.715946E-2,-1.0300084E-2,1.059984E-2,4.9400307E-2,1.4393228E-2,4.100521E-2,4.9740102E-2,9.720318E-3,6.9202565E-2,4.8946187E-2,1.23676084E-1,2.9488342E-2,-6.246096E-3,5.951644E-2,2.5892107E-2,3.0150758E-3,2.1062726E-2,1.3329388E-1,7.0959136E-2,1.4382305E-2,8.426655E-2,2.7588626E-2,1.3107304E-1,9.2421174E-2],"categories":[],"categories_nodes":[],"categories_segments":[],"categories_sizes":[],"default_left":[0,0,0,0,0,0,0,0,0,0,0,0,0,0,0,0,0,0,0,0,0,0,0,0,0,0,0,0,0,0,0,0,0,0,0,0,0,0,0,0,0,0,0,0,0,0,0,0,0,0,0,0,0,0,0,0,0,0,0,0,0,0,0,0,0,0,0,0,0,0,0,0,0,0,0,0,0,0,0,0,0,0,0,0,0,0,0,0,0,0,0,0,0,0,0,0,0,0,0,0,0,0,0,0,0,0,0,0,0,0,0,0,0,0,0,0,0,0,0,0,0,0,0,0,0,0,0,0,0,0,0,0,0,0,0,0,0,0,0,0,0,0,0,0,0,0,0,0,0,0,0,0,0,0,0,0,0,0,0,0,0,0,0,0,0,0,0,0,0,0,0,0,0,0,0,0,0,0,0,0,0,0,0,0,0,0,0,0,0,0,0,0,0,0,0,0,0,0,0,0,0,0,0,0,0,0,0,0,0,0,0,0,0,0,0,0,0,0,0,0,0,0,0,0,0,0,0,0,0,0,0,0,0,0,0,0,0,0,0,0,0,0,0,0,0,0,0,0,0,0,0,0,0,0,0,0,0,0,0,0,0],"id":6,"left_children":[1,3,5,7,9,11,13,15,17,19,21,23,25,27,29,-1,31,33,35,37,39,41,43,45,47,49,51,53,55,57,59,-1,-1,-1,61,63,65,67,69,71,73,75,77,79,81,83,85,87,89,91,93,95,97,99,101,103,-1,-1,-1,-1,-1,105,107,-1,-1,-1,109,111,113,-1,115,-1,-1,117,119,121,-1,-1,123,125,127,129,-1,131,133,135,137,139,141,143,145,147,149,151,153,155,157,-1,159,161,163,165,167,169,171,-1,-1,-1,-1,-1,-1,-1,173,-1,175,-1,-1,177,179,181,-1,183,185,187,-1,189,191,193,195,197,199,-1,-1,201,203,205,207,-1,-1,209,211,213,215,217,219,221,223,225,227,229,231,-1,-1,233,235,237,239,-1,241,243,245,247,-1,249,-1,251,253,-1,255,257,259,-1,-1,-1,-1,-1,-1,-1,-1,-1,-1,-1,-1,-1,-1,-1,-1,-1,-1,-1,-1,-1,-1,-1,-1,-1,-1,-1,-1,-1,-1,-1,-1,-1,-1,-1,-1,-1,-1,-1,-1,-1,-1,-1,-1,-1,-1,-1,-1,-1,-1,-1,-1,-1,-1,-1,-1,-1,-1,-1,-1,-1,-1,-1,-1,-1,-1,-1,-1,-1,-1,-1,-1,-1,-1,-1,-1,-1,-1,-1,-1,-1,-1,-1,-1,-1,-1,-1,-1,-1,-1],"loss_changes":[5.4078503E2,1.21069305E2,1.152516E2,2.82081E1,1.8390701E1,2.2082462E1,1.7820038E1,3.3085785E0,4.324417E0,1.8889923E0,3.0152264E0,3.6781192E0,2.664894E0,4.218811E0,1.4674454E0,0E0,2.61055E-1,7.19841E-1,5.225754E-1,6.6552734E-1,4.4543076E-1,5.370674E-1,5.153227E-1,8.6117184E-1,3.5324097E-1,2.2964096E-1,4.5728302E-1,6.801758E-1,2.4759674E-1,4.301834E-1,8.928299E-2,0E0,0E0,0E0,3.6885834E-1,7.499695E-3,5.1116943E-2,2.6149368E-1,2.4942017E-1,4.4057705E-4,2.4796677E-1,5.019131E-1,2.4240887E-1,3.4992743E-1,3.093365E-1,7.2743624E-1,1.8837678E-1,3.254454E-1,2.0561695E-1,1.5453243E-1,5.7175636E-2,1.1790848E-1,3.096962E-1,5.132866E-1,3.5557556E-1,2.9036713E-1,0E0,0E0,0E0,0E0,0E0,9.869003E-2,1.0528946E-1,0E0,0E0,0E0,6.1014593E-2,1.16687775E-1,9.341254E-2,0E0,3.276024E-1,0E0,0E0,1.1325264E-1,2.0419884E-1,4.2985535E-1,0E0,0E0,2.0723453E-1,4.36651E-1,6.477108E-1,3.018036E-1,0E0,1.0506213E-2,3.112072E-1,4.6892524E-2,1.43046975E-2,5.068916E-1,6.0036993E-1,1.4023113E-1,3.399135E-1,4.00352E-1,3.6815512E-1,2.384972E-3,5.5090904E-2,2.4397054E-1,2.3321533E-1,0E0,1.8659973E-1,3.0178213E-1,2.2859955E-1,6.2137604E-1,9.849548E-2,1.3819122E-1,3.9180136E-1,0E0,0E0,0E0,0E0,0E0,0E0,0E0,7.553482E-2,0E0,1.8297713E-3,0E0,0E0,1.0479164E-1,4.841113E-2,9.618378E-2,0E0,3.4959412E-1,1.9532204E-1,3.0827252E-3,0E0,1.3999581E-1,2.2193599E-1,4.4241607E-1,1.340978E-1,2.6764378E-1,1.4899413E-1,0E0,0E0,6.8338335E-2,3.4106004E-1,2.4555631E-2,9.228945E-3,0E0,0E0,8.730593E-2,4.5380068E-1,4.6903434E-1,2.1684551E-1,2.3305774E-1,3.1728745E-3,1.2148777E-1,2.2194552E-1,2.4804729E-1,3.178501E-2,3.146193E-1,5.46824E-2,0E0,0E0,2.0946184E-2,5.17025E-2,1.4859319E-1,7.009971E-2,0E0,1.1202812E-1,2.4512833E-1,2.5684357E-1,8.2172394E-2,0E0,2.2618866E-1,0E0,1.0880746E-2,2.8892803E-1,0E0,6.0409546E-2,3.8899612E-1,2.8850555E-2,0E0,0E0,0E0,0E0,0E0,0E0,0E0,0E0,0E0,0E0,0E0,0E0,0E0,0E0,0E0,0E0,0E0,0E0,0E0,0E0,0E0,0E0,0E0,0E0,0E0,0E0,0E0,0E0,0E0,0E0,0E0,0E0,0E0,0E0,0E0,0E0,0E0,0E0,0E0,0E0,0E0,0E0,0E0,0E0,0E0,0E0,0E0,0E0,0E0,0E0,0E0,0E0,0E0,0E0,0E0,0E0,0E0,0E0,0E0,0E0,0E0,0E0,0E0,0E0,0E0,0E0,0E0,0E0,0E0,0E0,0E0,0E0,0E0,0E0,0E0,0E0,0E0,0E0,0E0,0E0,0E0,0E0,0E0,0E0,0E0,0E0,0E0,0E0,0E0,0E0],"parents":[2147483647,0,0,1,1,2,2,3,3,4,4,5,5,6,6,7,7,8,8,9,9,10,10,11,11,12,12,13,13,14,14,16,16,17,17,18,18,19,19,20,20,21,21,22,22,23,23,24,24,25,25,26,26,27,27,28,28,29,29,30,30,34,34,35,35,36,36,37,37,38,38,39,39,40,40,41,41,42,42,43,43,44,44,45,45,46,46,47,47,48,48,49,49,50,50,51,51,52,52,53,53,54,54,55,55,61,61,62,62,66,66,67,67,68,68,70,70,73,73,74,74,75,75,78,78,79,79,80,80,81,81,83,83,84,84,85,85,86,86,87,87,88,88,89,89,90,90,91,91,92,92,93,93,94,94,95,95,96,96,98,98,99,99,100,100,101,101,102,102,103,103,104,104,112,112,114,114,117,117,118,118,119,119,121,121,122,122,123,123,125,125,126,126,127,127,128,128,129,129,130,130,133,133,134,134,135,135,136,136,139,139,140,140,141,141,142,142,143,143,144,144,145,145,146,146,147,147,148,148,149,149,150,150,153,153,154,154,155,155,156,156,158,158,159,159,160,160,161,161,163,163,165,165,166,166,168,168,169,169,170,170],"right_children":[2,4,6,8,10,12,14,16,18,20,22,24,26,28,30,-1,32,34,36,38,40,42,44,46,48,50,52,54,56,58,60,-1,-1,-1,62,64,66,68,70,72,74,76,78,80,82,84,86,88,90,92,94,96,98,100,102,104,-1,-1,-1,-1,-1,106,108,-1,-1,-1,110,112,114,-1,116,-1,-1,118,120,122,-1,-1,124,126,128,130,-1,132,134,136,138,140,142,144,146,148,150,152,154,156,158,-1,160,162,164,166,168,170,172,-1,-1,-1,-1,-1,-1,-1,174,-1,176,-1,-1,178,180,182,-1,184,186,188,-1,190,192,194,196,198,200,-1,-1,202,204,206,208,-1,-1,210,212,214,216,218,220,222,224,226,228,230,232,-1,-1,234,236,238,240,-1,242,244,246,248,-1,250,-1,252,254,-1,256,258,260,-1,-1,-1,-1,-1,-1,-1,-1,-1,-1,-1,-1,-1,-1,-1,-1,-1,-1,-1,-1,-1,-1,-1,-1,-1,-1,-1,-1,-1,-1,-1,-1,-1,-1,-1,-1,-1,-1,-1,-1,-1,-1,-1,-1,-1,-1,-1,-1,-1,-1,-1,-1,-1,-1,-1,-1,-1,-1,-1,-1,-1,-1,-1,-1,-1,-1,-1,-1,-1,-1,-1,-1,-1,-1,-1,-1,-1,-1,-1,-1,-1,-1,-1,-1,-1,-1,-1,-1,-1,-1],"split_conditions":[1.365182E3,3.1718652E2,6.477054E3,7.671926E1,6.737253E2,3.0555725E3,2.1770938E4,2.9E1,1.6792857E2,4.6181235E2,9.993253E2,2.1598303E3,4.0219397E3,1.14721455E4,5.7092582E4,-1.9535194E-1,9.917773E1,1E0,2.24E2,1.1777593E3,2.24E2,1.9710665E3,1.2487445E3,1.731E3,2.6906274E3,3.3174016E3,5.1301157E3,8.502526E3,3.4465047E4,3.25E0,1.583E3,-1.4106482E-1,-2.7386764E-2,1.2937732E-2,1.05E2,1E0,1.4342178E3,1.1047054E3,6.8602454E2,5.6E1,5.5177136E2,1.634E3,3.5E1,1.2117859E3,3.7197695E3,7.21E2,2.16E3,1.997E3,1E0,1E0,2.7076538E3,3.5919229E3,3.5341865E3,2.5218015E3,6.149965E3,2.9199506E4,6.8646492E-3,1.1033219E-2,1.2208065E-1,4.5741867E-2,1.7168182E-1,1.7207753E2,1.2284136E3,-8.386362E-2,-2.3817249E-2,-7.022575E-2,2.2088333E3,3.75E2,2.4E1,-4.808507E-2,3E0,1.5637482E-3,7.429185E-3,4E0,3E1,8.584469E2,5.138801E-2,-8.723878E-2,8.7940125E2,1.08E3,1.4762843E3,2.418689E3,4.2665046E-2,1E0,1.505E3,1.855E3,2.284E3,1E0,1.998E3,2.895E3,2.46E2,2.029E3,4.3673203E3,2.005E3,2.1E0,3E0,2.2773154E3,-1.9050332E-2,2.6847964E3,8.506946E3,1.5608445E4,3.587163E3,7.40784E2,1.6790613E4,2E3,-1.1656634E-1,-2.751545E-2,-9.652149E-2,-2.0014863E-2,-1.2011433E-2,-5.0567012E-2,-6.0344536E-2,1.7E1,-3.0482242E-2,2.01E3,-1.7575126E-2,-1.3169193E-1,5.37E2,9E0,1.2117859E3,6.315318E-3,9.4E1,2E0,1.994E3,-4.877723E-2,1.5333351E3,9.670314E2,8.6E1,8.7E1,1E0,1.2281633E3,4.684144E-2,1.1472763E-2,5.7E2,2.5486401E3,2.1740427E3,1.8104216E3,1.4139095E-2,2.0714559E-2,2.92E2,2.2393262E3,9E0,7.49E2,3.6255632E3,3.064E3,2.35E2,2.8508394E3,2E3,3.064E3,1.583E3,1.996E3,-7.178955E-4,7.621744E-3,1.992E3,3.5341865E3,2.9E1,2E3,8.2561225E-2,3.5799521E3,2.418689E3,3.2400498E3,1.2E1,1.2213654E-2,4.7092056E3,-6.5890793E-3,1.996E3,1.996E3,1.06318435E-2,1.69E2,2.2539586E4,5.116616E3,1.78215E-1,2.9716928E-2,-5.1980305E-2,-5.0099017E-3,9.193934E-3,6.300509E-4,-4.783768E-2,-3.71752E-2,-7.613342E-2,-3.5583384E-2,-3.7840795E-2,-5.3486682E-2,3.658633E-2,-2.9643198E-2,-4.912264E-2,-2.0385435E-2,9.186387E-3,-5.2725524E-4,-1.863329E-2,-4.1570187E-2,1.658082E-2,-1.0718861E-2,-6.7412585E-2,-1.1006892E-2,-8.598137E-3,3.3967115E-2,-4.8976718E-3,-2.3017358E-2,-4.239355E-3,4.3984734E-2,-6.1552697E-3,-1.6692087E-2,1.5313149E-3,-4.93023E-2,5.4783626E-3,-3.3189391E-3,1.38482135E-2,8.556345E-3,2.6817633E-2,6.347096E-3,4.2775343E-3,9.107193E-2,1.16989445E-2,-6.353753E-2,5.61239E-2,1.46789495E-2,1.9568466E-2,-1.4385292E-2,2.4509283E-2,3.1726684E-2,2.3549955E-2,-1.8210568E-2,8.2063906E-2,3.166123E-2,1.6574452E-2,-1.9727286E-2,2.1333804E-2,2.7914813E-2,5.903503E-2,2.5245529E-2,-3.428052E-2,4.726021E-3,-7.326801E-3,1.4807896E-2,2.8811302E-2,3.4648996E-2,2.715946E-2,-1.0300084E-2,1.059984E-2,4.9400307E-2,1.4393228E-2,4.100521E-2,4.9740102E-2,9.720318E-3,6.9202565E-2,4.8946187E-2,1.23676084E-1,2.9488342E-2,-6.246096E-3,5.951644E-2,2.5892107E-2,3.0150758E-3,2.1062726E-2,1.3329388E-1,7.0959136E-2,1.4382305E-2,8.426655E-2,2.7588626E-2,1.3107304E-1,9.2421174E-2],"split_indices":[45,42,45,46,42,45,42,7,46,45,46,45,42,46,42,0,42,6,7,47,7,47,47,7,46,46,42,45,46,9,7,0,0,0,7,31,47,47,48,7,46,5,4,47,48,7,7,0,37,35,42,46,45,47,46,46,0,0,0,0,0,42,47,0,0,0,47,7,5,0,1,0,0,12,9,45,0,0,45,7,48,47,0,21,7,7,7,33,0,7,5,7,45,0,9,6,47,0,47,46,42,47,48,45,0,0,0,0,0,0,0,0,1,0,0,0,0,7,11,47,0,7,6,0,0,46,42,4,4,37,46,0,0,5,42,46,42,0,0,3,45,1,7,42,7,5,46,0,7,7,0,0,0,0,45,4,0,0,45,47,47,1,0,42,0,0,0,0,2,46,47,0,0,0,0,0,0,0,0,0,0,0,0,0,0,0,0,0,0,0,0,0,0,0,0,0,0,0,0,0,0,0,0,0,0,0,0,0,0,0,0,0,0,0,0,0,0,0,0,0,0,0,0,0,0,0,0,0,0,0,0,0,0,0,0,0,0,0,0,0,0,0,0,0,0,0,0,0,0,0,0,0,0,0,0,0,0,0,0,0,0],"split_type":[0,0,0,0,0,0,0,0,0,0,0,0,0,0,0,0,0,0,0,0,0,0,0,0,0,0,0,0,0,0,0,0,0,0,0,0,0,0,0,0,0,0,0,0,0,0,0,0,0,0,0,0,0,0,0,0,0,0,0,0,0,0,0,0,0,0,0,0,0,0,0,0,0,0,0,0,0,0,0,0,0,0,0,0,0,0,0,0,0,0,0,0,0,0,0,0,0,0,0,0,0,0,0,0,0,0,0,0,0,0,0,0,0,0,0,0,0,0,0,0,0,0,0,0,0,0,0,0,0,0,0,0,0,0,0,0,0,0,0,0,0,0,0,0,0,0,0,0,0,0,0,0,0,0,0,0,0,0,0,0,0,0,0,0,0,0,0,0,0,0,0,0,0,0,0,0,0,0,0,0,0,0,0,0,0,0,0,0,0,0,0,0,0,0,0,0,0,0,0,0,0,0,0,0,0,0,0,0,0,0,0,0,0,0,0,0,0,0,0,0,0,0,0,0,0,0,0,0,0,0,0,0,0,0,0,0,0,0,0,0,0,0,0,0,0,0,0,0,0,0,0,0,0,0,0,0,0,0,0,0,0],"sum_hessian":[6.352E3,2.855E3,3.497E3,7.45E2,2.11E3,2.503E3,9.94E2,1.49E2,5.96E2,7.91E2,1.319E3,1.413E3,1.09E3,8.44E2,1.5E2,4.7E1,1.02E2,2.23E2,3.73E2,3.23E2,4.68E2,6.42E2,6.77E2,7.93E2,6.2E2,4.72E2,6.18E2,5.48E2,2.96E2,1.24E2,2.6E1,1.01E2,1E0,1E0,2.22E2,1.41E2,2.32E2,3.13E2,1E1,4E0,4.64E2,6.32E2,1E1,4.96E2,1.81E2,4.57E2,3.36E2,3.61E2,2.59E2,1.73E2,2.99E2,3.17E2,3.01E2,2.96E2,2.52E2,2.95E2,1E0,1E0,1.23E2,1E0,2.5E1,7.2E1,1.5E2,1.4E2,1E0,2.25E2,7E0,3.08E2,5E0,4E0,6E0,1E0,3E0,2.04E2,2.6E2,6.31E2,1E0,4E0,6E0,4.71E2,2.5E1,1.79E2,2E0,7E0,4.5E2,2.77E2,5.9E1,2.6E1,3.35E2,2.31E2,2.8E1,1.41E2,3.2E1,2E0,2.97E2,1.6E1,3.01E2,1E0,3E2,7E0,2.89E2,1E1,2.42E2,2.92E2,3E0,7.1E1,1E0,1.49E2,1E0,2E0,5E0,1.48E2,1.6E2,3E0,2E0,1E0,5E0,1.93E2,1.1E1,2.58E2,2E0,3.75E2,2.56E2,2E0,4E0,1.72E2,2.99E2,1.5E1,1E1,1.74E2,5E0,6E0,1E0,1.51E2,2.99E2,1.14E2,1.63E2,3.9E1,2E1,2E1,6E0,6E0,3.29E2,1.63E2,6.8E1,1.7E1,1.1E1,1.5E1,1.26E2,3E1,2E0,1E0,1E0,2E0,2.95E2,8E0,8E0,3E0,2.98E2,1.4E1,2.86E2,6E0,1E0,2.88E2,1E0,2E0,8E0,1E0,2.41E2,1.89E2,1.03E2,2E0,1E0,1.59E2,1E0,1E0,1E0,1.41E2,5.2E1,7E0,4E0,2.43E2,1.5E1,1E0,3.74E2,5E0,2.51E2,1E0,1E0,1.66E2,6E0,6E0,2.93E2,1E1,5E0,9E0,1E0,1.54E2,2E1,2E0,3E0,1.36E2,1.5E1,2.97E2,2E0,1.07E2,7E0,1E1,1.53E2,1.1E1,9E0,2E0,4E0,3E0,3E0,2E0,3.27E2,1.59E2,4E0,4.6E1,2.2E1,1.6E1,1E0,4E0,7E0,8E0,7E0,5.3E1,7.3E1,1.1E1,1.9E1,1E0,1E0,1E0,1E0,9.7E1,1.98E2,3E0,5E0,2E0,6E0,5E0,2.93E2,6E0,8E0,2.1E1,2.65E2,5E0,1E0,1E0,2.87E2,1E0,1E0,1E0,7E0,2.4E2,1E0,1.85E2,4E0,6E0,9.7E1],"tree_param":{"num_deleted":"0","num_feature":"49","num_nodes":"261","size_leaf_vector":"1"}},{"base_weights":[3.9913735E-4,-2.58295E-1,2.3935628E-1,-5.5710113E-1,-1.5292984E-1,1.3965063E-1,4.7049296E-1,-9.424421E-1,-4.8380256E-1,-2.4911332E-1,-8.358764E-2,7.987983E-2,2.3399255E-1,4.213847E-1,7.4218833E-1,-1.8716595E-1,-8.6214715E-1,-6.134207E-1,-4.277358E-1,-2.9465115E-1,-2.0285475E-1,-1.1153728E-1,-3.0814882E-2,3.587454E-2,1.2230732E-1,1.9417171E-1,2.6577875E-1,3.7187454E-1,5.006454E-1,6.873575E-1,1.4528199E-1,-9.1063005E-1,-1.0707269E-1,1.1967403E-2,-6.173051E-1,-4.7461605E-1,-3.8403285E-1,-2.8459886E-1,-5.203979E-1,3.3842355E-2,-2.0424348E-1,-1.3930294E-1,-8.17014E-2,-2.316684E-2,-1.0015217E-1,6.6605033E-3,5.4151885E-2,1.05101034E-1,1.6018367E-1,1.9023113E-1,3.6397386E-1,2.5431475E-1,4.708186E-2,3.4301358E-1,4.078387E-1,4.7278333E-1,5.537243E-1,1.0205727E-2,1.03770494E-1,-1.3747291E-1,-3.623583E-2,-6.052411E-1,-9.643388E-1,-7.1342E-2,-1.899132E-2,-3.867498E-1,-2.3485442E-1,4.2263083E-2,-2.868568E-1,-5.7398427E-1,-2.6392952E-2,-2.3427969E-1,-1.841705E-1,-1.3341694E-1,-3.3959055E-1,-8.469439E-2,1.3693568E-1,-4.1514054E-2,2.4198554E-3,-5.846791E-3,-1.9010311E-1,-1.4180121E-1,1.17543535E-2,-2.0944451E-1,5.6505375E-2,1.096307E-1,-5.9326664E-2,2.1547714E-2,2.590391E-2,4.6996027E-2,1.9232498E-1,7.106726E-2,2.0358087E-2,2.6797718E-1,2.183938E-1,6.053734E-1,3.3459327E-1,6.174768E-1,3.953898E-1,4.8183712E-1,2.3628023E-1,7.7482E-1,5.2492553E-1,-6.080046E-1,-3.3856366E-2,-3.8995452E-2,-2.0208926E-1,-3.8100615E-1,-8.759195E-2,-1.0810291E-2,-4.2833254E-2,7.488305E-3,1.446467E-3,-3.2119343E-1,-2.5476798E-1,-6.594001E-1,-3.8128413E-2,-2.2708187E-1,-5.2470863E-2,-1.7142272E-1,-2.4407253E-1,-1.3519698E-1,4.753391E-2,-6.898836E-2,-1.8793601E-1,-8.057975E-2,-2.595282E-1,2.9346118E-2,1.3016999E-2,1.9752815E-1,-4.4352762E-2,1.5478781E-1,-9.898177E-3,2.0716984E-2,-1.3720396E-1,-2.8371406E-1,2.0881629E-2,-2.2239913E-1,3.772367E-2,1.5305182E-1,6.6815014E-3,-5.6834593E-2,-2.666115E-2,2.5300112E-1,5.356376E-2,1.5256652E-1,1.00900404E-1,-1.7348012E-1,2.3367496E-2,-5.1100995E-2,2.922386E-2,1.974125E-1,1.2253747E-1,3.3476073E-1,2.5395742E-1,1.06433064E-1,2.4465619E-1,6.70336E-1,1.129763E-2,3.4314802E-1,2.3018704E-1,1.18840635E-1,7.150803E-1,9.834453E-3,3.966076E-1,4.7069368E-1,8.4235185E-1,3.9229152E-1,-8.75866E-2,1.3683687E-1,2.2511698E-2,8.51461E-3,7.93884E-2,-9.8338686E-2,-8.3725125E-2,-5.980761E-2,-5.1536717E-2,-4.8301022E-2,-1.1034984E-2,-3.9369125E-2,-2.6237564E-2,-1.0494602E-1,-1.625699E-2,-3.5217226E-2,-2.2604484E-2,-2.627496E-2,5.6623487E-4,-2.7857102E-2,-7.689763E-2,-2.3925368E-2,-1.7333329E-2,-5.621935E-3,-4.3711267E-2,-1.320407E-2,2.7751594E-3,-5.241334E-3,-5.4899625E-2,4.369409E-3,-1.4405837E-3,3.53929E-2,9.050936E-3,-7.1831956E-3,6.632797E-4,3.691676E-2,-1.6832838E-2,-1.3876902E-2,1.2284899E-3,7.0625623E-3,-7.704248E-4,-2.7570361E-2,1.9434952E-4,-5.3915247E-2,-6.786158E-3,-1.2898634E-2,1.5330498E-2,-1.20097315E-2,-5.1707577E-2,-5.8680577E-3,4.7192052E-2,3.0868629E-3,-7.115064E-3,-1.0624664E-2,4.625905E-3,1.0612305E-2,4.129528E-2,-2.4588386E-2,8.647031E-3,3.3667017E-2,8.771742E-3,5.1044576E-2,1.492036E-2,-3.0163573E-2,-2.657127E-3,2.2826387E-2,-9.959903E-3,-1.3602015E-2,8.041154E-3,2.7808899E-2,3.478939E-2,7.3266873E-4,2.5068762E-2,6.036705E-2,2.1970246E-2,-1.7621558E-2,3.8396657E-2,6.6293026E-3,5.0114598E-2,3.7044432E-2,1.3854857E-2,1.0821657E-1,2.7276717E-2,6.4056966E-4,5.1661607E-2,-5.2164774E-2,4.8720933E-2,2.39502E-2,2.7889432E-3,1.9483022E-2,1.1579906E-1,2.8251108E-2,5.9945177E-2,3.7414253E-2,7.1078405E-2,1.441969E-1,2.7488155E-2,1.6843826E-2,7.703637E-2],"categories":[],"categories_nodes":[],"categories_segments":[],"categories_sizes":[],"default_left":[0,0,0,0,0,0,0,0,0,0,0,0,0,0,0,0,0,0,0,0,0,0,0,0,0,0,0,0,0,0,0,0,0,0,0,0,0,0,0,0,0,0,0,0,0,0,0,0,0,0,0,0,0,0,0,0,0,0,0,0,0,0,0,0,0,0,0,0,0,0,0,0,0,0,0,0,0,0,0,0,0,0,0,0,0,0,0,0,0,0,0,0,0,0,0,0,0,0,0,0,0,0,0,0,0,0,0,0,0,0,0,0,0,0,0,0,0,0,0,0,0,0,0,0,0,0,0,0,0,0,0,0,0,0,0,0,0,0,0,0,0,0,0,0,0,0,0,0,0,0,0,0,0,0,0,0,0,0,0,0,0,0,0,0,0,0,0,0,0,0,0,0,0,0,0,0,0,0,0,0,0,0,0,0,0,0,0,0,0,0,0,0,0,0,0,0,0,0,0,0,0,0,0,0,0,0,0,0,0,0,0,0,0,0,0,0,0,0,0,0,0,0,0,0,0,0,0,0,0,0,0,0,0,0,0,0,0,0,0,0,0,0,0,0,0,0,0,0,0,0,0,0,0,0,0,0,0,0,0,0,0,0,0,0,0,0,0],"id":7,"left_children":[1,3,5,7,9,11,13,15,17,19,21,23,25,27,29,-1,31,33,35,37,39,41,43,45,47,49,51,53,55,57,-1,59,-1,-1,61,63,65,67,69,-1,71,73,75,77,79,81,83,85,87,89,91,93,-1,95,97,99,101,-1,-1,-1,-1,103,105,-1,-1,107,109,111,113,115,-1,117,119,121,123,125,127,129,131,133,135,137,139,141,143,145,147,-1,-1,149,151,-1,-1,153,155,157,159,161,163,165,167,169,171,173,-1,-1,-1,175,-1,-1,-1,-1,-1,177,179,181,-1,183,-1,185,187,189,-1,-1,191,193,195,-1,197,199,201,203,205,207,209,211,213,215,-1,217,219,-1,221,223,225,227,229,231,233,235,-1,237,239,241,243,245,247,249,-1,251,253,255,257,-1,259,261,263,265,-1,-1,-1,-1,-1,-1,-1,-1,-1,-1,-1,-1,-1,-1,-1,-1,-1,-1,-1,-1,-1,-1,-1,-1,-1,-1,-1,-1,-1,-1,-1,-1,-1,-1,-1,-1,-1,-1,-1,-1,-1,-1,-1,-1,-1,-1,-1,-1,-1,-1,-1,-1,-1,-1,-1,-1,-1,-1,-1,-1,-1,-1,-1,-1,-1,-1,-1,-1,-1,-1,-1,-1,-1,-1,-1,-1,-1,-1,-1,-1,-1,-1,-1,-1,-1,-1,-1,-1,-1,-1,-1,-1,-1,-1,-1,-1,-1,-1,-1],"loss_changes":[3.9278403E2,9.597174E1,7.605403E1,2.1998795E1,1.5032406E1,1.3001507E1,1.2963028E1,2.0133133E0,4.6066895E0,1.9308815E0,1.9332113E0,2.6374655E0,1.0812454E0,3.1297913E0,1.2083817E0,0E0,9.069061E-2,5.877838E-1,7.827225E-1,9.275284E-1,3.269329E-1,6.993971E-1,2.3949409E-1,3.7127197E-1,4.5239735E-1,1.9907665E-1,1.9312668E-1,4.039917E-1,2.144165E-1,2.9710388E-1,0E0,6.852722E-2,0E0,0E0,2.494812E-1,1.7173767E-2,1.0093689E-2,3.4866714E-1,2.4969912E-1,0E0,2.4082565E-1,4.7694206E-1,2.8381968E-1,1.9351164E-1,3.806171E-1,2.0509578E-1,2.7735388E-1,3.7741518E-1,2.1309853E-2,1.09128E-1,1.3621008E-1,1.4023781E-1,0E0,4.535637E-1,3.5087967E-1,3.5294724E-1,2.6184082E-1,0E0,0E0,0E0,0E0,6.729126E-2,9.983473E-1,0E0,0E0,5.2742004E-2,3.7193835E-2,5.17935E-4,4.1729736E-1,2.6943636E-1,0E0,7.439995E-2,1.7731857E-1,3.8912344E-1,1.3255036E-1,2.7475166E-1,4.1101284E-2,1.7161795E-1,3.2623124E-1,8.3097324E-2,4.6018535E-1,3.4121835E-1,1.8605727E-1,1.1379075E-1,2.321049E-1,1.6640377E-1,1.3621135E-1,0E0,0E0,1.1146736E-1,1.1356735E-1,0E0,0E0,1.8557167E-1,3.179822E-1,2.2498226E-1,1.8003464E-1,4.503746E-1,6.1561584E-2,4.4314194E-1,1.5086535E0,7.216487E-1,1.6458511E-1,9.1789246E-2,0E0,0E0,0E0,2.1442413E-2,0E0,0E0,0E0,0E0,0E0,1.9615173E-2,1.0090351E-1,1.9024992E-1,0E0,6.871891E-2,0E0,1.5807247E-1,6.571374E-1,1.8732548E-1,0E0,0E0,9.805481E-2,2.989986E-1,2.0241481E-1,0E0,1.3731855E-3,1.5769228E-3,4.1249692E-2,3.4461156E-1,2.4134645E-1,1.3875106E-2,2.6053607E-2,2.7265716E-1,7.831699E-2,1.1168066E-1,0E0,2.917371E-1,1.912502E-1,0E0,9.803769E-3,4.9089193E-3,3.8241887E-1,5.279217E-1,1.05270386E-1,2.2242352E-2,1.141689E-1,2.5582526E-2,0E0,1.0636139E-1,1.5131381E-1,5.40061E-1,2.1242046E-1,3.2529768E-1,1.0210037E-2,4.356885E-2,0E0,1.1234474E-1,1.4800905E0,9.309843E-3,1.9947577E-1,0E0,6.1527252E-2,2.5245667E-2,2.1586895E-1,2.4796522E-1,0E0,0E0,0E0,0E0,0E0,0E0,0E0,0E0,0E0,0E0,0E0,0E0,0E0,0E0,0E0,0E0,0E0,0E0,0E0,0E0,0E0,0E0,0E0,0E0,0E0,0E0,0E0,0E0,0E0,0E0,0E0,0E0,0E0,0E0,0E0,0E0,0E0,0E0,0E0,0E0,0E0,0E0,0E0,0E0,0E0,0E0,0E0,0E0,0E0,0E0,0E0,0E0,0E0,0E0,0E0,0E0,0E0,0E0,0E0,0E0,0E0,0E0,0E0,0E0,0E0,0E0,0E0,0E0,0E0,0E0,0E0,0E0,0E0,0E0,0E0,0E0,0E0,0E0,0E0,0E0,0E0,0E0,0E0,0E0,0E0,0E0,0E0,0E0,0E0,0E0,0E0,0E0,0E0,0E0,0E0,0E0,0E0,0E0,0E0],"parents":[2147483647,0,0,1,1,2,2,3,3,4,4,5,5,6,6,7,7,8,8,9,9,10,10,11,11,12,12,13,13,14,14,16,16,17,17,18,18,19,19,20,20,21,21,22,22,23,23,24,24,25,25,26,26,27,27,28,28,29,29,31,31,34,34,35,35,36,36,37,37,38,38,40,40,41,41,42,42,43,43,44,44,45,45,46,46,47,47,48,48,49,49,50,50,51,51,53,53,54,54,55,55,56,56,61,61,62,62,65,65,66,66,67,67,68,68,69,69,71,71,72,72,73,73,74,74,75,75,76,76,77,77,78,78,79,79,80,80,81,81,82,82,83,83,84,84,85,85,86,86,89,89,90,90,93,93,94,94,95,95,96,96,97,97,98,98,99,99,100,100,101,101,102,102,103,103,107,107,113,113,114,114,115,115,117,117,119,119,120,120,121,121,124,124,125,125,126,126,128,128,129,129,130,130,131,131,132,132,133,133,134,134,135,135,136,136,137,137,139,139,140,140,142,142,143,143,144,144,145,145,146,146,147,147,148,148,149,149,151,151,152,152,153,153,154,154,155,155,156,156,157,157,159,159,160,160,161,161,162,162,164,164,165,165,166,166,167,167],"right_children":[2,4,6,8,10,12,14,16,18,20,22,24,26,28,30,-1,32,34,36,38,40,42,44,46,48,50,52,54,56,58,-1,60,-1,-1,62,64,66,68,70,-1,72,74,76,78,80,82,84,86,88,90,92,94,-1,96,98,100,102,-1,-1,-1,-1,104,106,-1,-1,108,110,112,114,116,-1,118,120,122,124,126,128,130,132,134,136,138,140,142,144,146,148,-1,-1,150,152,-1,-1,154,156,158,160,162,164,166,168,170,172,174,-1,-1,-1,176,-1,-1,-1,-1,-1,178,180,182,-1,184,-1,186,188,190,-1,-1,192,194,196,-1,198,200,202,204,206,208,210,212,214,216,-1,218,220,-1,222,224,226,228,230,232,234,236,-1,238,240,242,244,246,248,250,-1,252,254,256,258,-1,260,262,264,266,-1,-1,-1,-1,-1,-1,-1,-1,-1,-1,-1,-1,-1,-1,-1,-1,-1,-1,-1,-1,-1,-1,-1,-1,-1,-1,-1,-1,-1,-1,-1,-1,-1,-1,-1,-1,-1,-1,-1,-1,-1,-1,-1,-1,-1,-1,-1,-1,-1,-1,-1,-1,-1,-1,-1,-1,-1,-1,-1,-1,-1,-1,-1,-1,-1,-1,-1,-1,-1,-1,-1,-1,-1,-1,-1,-1,-1,-1,-1,-1,-1,-1,-1,-1,-1,-1,-1,-1,-1,-1,-1,-1,-1,-1,-1,-1,-1,-1,-1],"split_conditions":[1.5714553E3,3.3255176E2,6.477054E3,5.9076176E1,7.745422E2,3.4194087E3,2.1770938E4,2E1,1.4966539E2,5.5177136E2,1.2177002E3,2.2583853E3,4.330724E3,1.1099902E4,5.596E4,-1.8716595E-1,5.1E1,1E0,2.4832541E2,1.1676519E3,9.4E1,9.993253E2,1E0,1.8331761E3,2.895E3,5.237411E3,5.885E3,8.502526E3,1.6790613E4,3.25E0,1.4528199E-1,7E0,-1.0707269E-1,1.1967403E-2,1.68E2,2.086813E3,1.4342178E3,1.96E2,2.01E3,3.3842355E-2,6.22E2,1.3839219E3,2.2372214E3,1.43E3,2.009E3,1.3069933E3,1.5E0,3.6255632E3,3.108E3,2.2188103E3,1.583E3,3.009051E3,4.708186E-2,2.5218015E3,6.149965E3,1.9495633E4,6.875E3,1.0205727E-2,1.03770494E-1,-1.3747291E-1,-3.623583E-2,2.2512503E2,1.0080814E2,-7.1342E-2,-1.899132E-2,1.1553721E3,2.2088333E3,4E0,4.29E2,8.7E1,-2.6392952E-2,8.264223E2,1.55E3,1.417E3,1E0,2.0591345E3,1.997E3,8.6408887E2,1.2757125E3,4E0,2.0292206E3,1.3E1,1.3640814E3,1.996E3,7.49E2,1.999E3,1E0,2.1547714E-2,2.590391E-2,3.5E1,4.5176914E3,7.106726E-2,2.0358087E-2,3.143082E3,3.721E3,8.506946E3,8.284802E3,3.587163E3,7.40784E2,1.9124379E4,2.01E3,1E0,8.96E3,1.05E2,-3.3856366E-2,-3.8995452E-2,-2.0208926E-1,3.05E2,-8.759195E-2,-1.0810291E-2,-4.2833254E-2,7.488305E-3,1.446467E-3,5.260741E2,5.56E2,1E0,-3.8128413E-2,1E0,-5.2470863E-2,8.82E2,8.2E1,8.66E2,4.753391E-2,-6.898836E-2,8.38437E2,1.2487445E3,7.8E1,2.9346118E-2,2E3,2E3,1E0,1.8738018E3,1.2233524E3,1E0,7.9E1,2.011E3,1.2711838E3,1.43E3,3.772367E-2,7.9E1,6E0,-5.6834593E-2,2E3,2E3,1.4804142E3,3.27E2,3.05E2,8.9E1,2E3,1.4E2,2.922386E-2,4.109003E3,2.692E3,5.4678135E3,3.1876428E3,1E0,1.7E1,1.2E1,1.129763E-2,4.5533135E3,6.8389033E3,1.996E3,1.996E3,9.834453E-3,7.2018877E3,1.7270511E3,1.999E3,5.7543555E3,-8.75866E-2,1.3683687E-1,2.2511698E-2,8.51461E-3,7.93884E-2,-9.8338686E-2,-8.3725125E-2,-5.980761E-2,-5.1536717E-2,-4.8301022E-2,-1.1034984E-2,-3.9369125E-2,-2.6237564E-2,-1.0494602E-1,-1.625699E-2,-3.5217226E-2,-2.2604484E-2,-2.627496E-2,5.6623487E-4,-2.7857102E-2,-7.689763E-2,-2.3925368E-2,-1.7333329E-2,-5.621935E-3,-4.3711267E-2,-1.320407E-2,2.7751594E-3,-5.241334E-3,-5.4899625E-2,4.369409E-3,-1.4405837E-3,3.53929E-2,9.050936E-3,-7.1831956E-3,6.632797E-4,3.691676E-2,-1.6832838E-2,-1.3876902E-2,1.2284899E-3,7.0625623E-3,-7.704248E-4,-2.7570361E-2,1.9434952E-4,-5.3915247E-2,-6.786158E-3,-1.2898634E-2,1.5330498E-2,-1.20097315E-2,-5.1707577E-2,-5.8680577E-3,4.7192052E-2,3.0868629E-3,-7.115064E-3,-1.0624664E-2,4.625905E-3,1.0612305E-2,4.129528E-2,-2.4588386E-2,8.647031E-3,3.3667017E-2,8.771742E-3,5.1044576E-2,1.492036E-2,-3.0163573E-2,-2.657127E-3,2.2826387E-2,-9.959903E-3,-1.3602015E-2,8.041154E-3,2.7808899E-2,3.478939E-2,7.3266873E-4,2.5068762E-2,6.036705E-2,2.1970246E-2,-1.7621558E-2,3.8396657E-2,6.6293026E-3,5.0114598E-2,3.7044432E-2,1.3854857E-2,1.0821657E-1,2.7276717E-2,6.4056966E-4,5.1661607E-2,-5.2164774E-2,4.8720933E-2,2.39502E-2,2.7889432E-3,1.9483022E-2,1.1579906E-1,2.8251108E-2,5.9945177E-2,3.7414253E-2,7.1078405E-2,1.441969E-1,2.7488155E-2,1.6843826E-2,7.703637E-2],"split_indices":[45,42,45,42,45,45,42,7,46,46,42,42,42,46,7,0,7,6,42,47,7,46,24,45,7,46,7,45,45,9,0,11,0,0,7,48,47,7,0,0,7,47,47,7,0,46,9,42,7,47,7,48,0,47,46,42,7,0,0,0,0,45,45,0,0,47,47,1,7,4,0,46,7,5,37,47,0,47,42,12,47,1,46,0,7,0,28,0,0,4,45,0,0,47,7,46,45,47,48,46,0,21,7,7,0,0,0,7,0,0,0,0,0,46,7,33,0,37,0,7,5,7,0,0,46,47,2,0,0,0,37,48,45,28,4,0,45,7,0,2,11,0,0,0,46,5,7,4,0,5,0,45,7,45,47,37,1,1,0,46,46,0,0,0,42,48,0,47,0,0,0,0,0,0,0,0,0,0,0,0,0,0,0,0,0,0,0,0,0,0,0,0,0,0,0,0,0,0,0,0,0,0,0,0,0,0,0,0,0,0,0,0,0,0,0,0,0,0,0,0,0,0,0,0,0,0,0,0,0,0,0,0,0,0,0,0,0,0,0,0,0,0,0,0,0,0,0,0,0,0,0,0,0,0,0,0,0,0,0,0,0,0,0,0,0,0,0],"split_type":[0,0,0,0,0,0,0,0,0,0,0,0,0,0,0,0,0,0,0,0,0,0,0,0,0,0,0,0,0,0,0,0,0,0,0,0,0,0,0,0,0,0,0,0,0,0,0,0,0,0,0,0,0,0,0,0,0,0,0,0,0,0,0,0,0,0,0,0,0,0,0,0,0,0,0,0,0,0,0,0,0,0,0,0,0,0,0,0,0,0,0,0,0,0,0,0,0,0,0,0,0,0,0,0,0,0,0,0,0,0,0,0,0,0,0,0,0,0,0,0,0,0,0,0,0,0,0,0,0,0,0,0,0,0,0,0,0,0,0,0,0,0,0,0,0,0,0,0,0,0,0,0,0,0,0,0,0,0,0,0,0,0,0,0,0,0,0,0,0,0,0,0,0,0,0,0,0,0,0,0,0,0,0,0,0,0,0,0,0,0,0,0,0,0,0,0,0,0,0,0,0,0,0,0,0,0,0,0,0,0,0,0,0,0,0,0,0,0,0,0,0,0,0,0,0,0,0,0,0,0,0,0,0,0,0,0,0,0,0,0,0,0,0,0,0,0,0,0,0,0,0,0,0,0,0,0,0,0,0,0,0,0,0,0,0,0,0],"sum_hessian":[6.352E3,3.05E3,3.302E3,